tree
version=v4
num_class=1
num_tree_per_iteration=1
label_index=0
max_feature_idx=136
objective=binary sigmoid:1
feature_names=Column_0 Column_1 Column_2 Column_3 Column_4 Column_5 Column_6 Column_7 Column_8 Column_9 Column_10 Column_11 Column_12 Column_13 Column_14 Column_15 Column_16 Column_17 Column_18 Column_19 Column_20 Column_21 Column_22 Column_23 Column_24 Column_25 Column_26 Column_27 Column_28 Column_29 Column_30 Column_31 Column_32 Column_33 Column_34 Column_35 Column_36 Column_37 Column_38 Column_39 Column_40 Column_41 Column_42 Column_43 Column_44 Column_45 Column_46 Column_47 Column_48 Column_49 Column_50 Column_51 Column_52 Column_53 Column_54 Column_55 Column_56 Column_57 Column_58 Column_59 Column_60 Column_61 Column_62 Column_63 Column_64 Column_65 Column_66 Column_67 Column_68 Column_69 Column_70 Column_71 Column_72 Column_73 Column_74 Column_75 Column_76 Column_77 Column_78 Column_79 Column_80 Column_81 Column_82 Column_83 Column_84 Column_85 Column_86 Column_87 Column_88 Column_89 Column_90 Column_91 Column_92 Column_93 Column_94 Column_95 Column_96 Column_97 Column_98 Column_99 Column_100 Column_101 Column_102 Column_103 Column_104 Column_105 Column_106 Column_107 Column_108 Column_109 Column_110 Column_111 Column_112 Column_113 Column_114 Column_115 Column_116 Column_117 Column_118 Column_119 Column_120 Column_121 Column_122 Column_123 Column_124 Column_125 Column_126 Column_127 Column_128 Column_129 Column_130 Column_131 Column_132 Column_133 Column_134 Column_135 Column_136
feature_infos=[-1.9961583743852247:2.3991707335847887] [-2.6465302356810612:2.1701457914452291] [-2.1183955766754239:2.9680619923397109] [-3.052977056898909:3.0920578601803421] [-2.774407513774408:2.8765778994738298] [-2.7111037091908581:2.613855485868799] [-3.1027567679471733:2.6528252515237529] [-2.5003166580983271:2.6075715640374959] [-2.7301339745685311:3.864924299631594] [-3.4261132231261651:3.1991863292876177] [-2.4983417537369172:2.6252992356649587] [-2.6877788089092358:3.2530995727144281] [-2.9900077915595009:2.6004393927456873] [-2.8527445401604559:3.2443639683438206] [-4.2899083603480159:2.9473132528220267] [-2.4510567024568051:2.6917698320155488] [-3.3220529264675629:3.1744010944670231] [-2.8709803702979926:2.6219654640546124] [-2.7711007436718109:2.8610557180260132] [-3.5026231709376399:2.9754249816633935] [-2.829281084125832:2.8212154424470861] [-2.5164521754104818:2.7843730844780241] [-4.2966051662625278:3.2082948122022885] [-2.830042536912504:3.4195991737497158] [-3.0591747078342202:3.901876040963371] [-3.5295115750165378:2.8206586926213908] [-2.68610349653467:3.3535828421236129] [-2.4636776012078543:2.5291834063991017] [-2.7211413290667044:3.0902005952073401] [-3.4683941213326577:2.4639820743850791] [-2.920108702366516:3.1185398387045691] [-2.9302910626294101:3.1926113528027273] [-3.009973028674108:3.0103831676480022] [-2.7810199556658182:3.4051080174807566] [-3.7471108751887949:2.5157716047677723] [-3.0463792642355849:3.5296825708879993] [-2.8346742789786488:2.7309128313981086] [-2.9643841970181963:2.5725938007805524] [-3.4453958474196367:3.6007678526546494] [-2.8511770843696538:2.7746809904451006] [-3.7082382567577619:2.7384642406311581] [-3.4522737648416406:3.1713017938464643] [-3.2920641190213802:3.1164144823494251] [-2.5683954732133358:4.2431361243483288] [-3.4094495956858006:3.2549575751301543] [-3.1857303252181861:2.843927999792649] [-3.5429454801930222:3.1561284799205005] [-2.4303289824038532:2.7233941647387345] [-3.6349693859627288:3.0028639536691233] [-3.0737544523266074:3.1162515596080436] [-3.7972135110536938:2.5579500781376869] [-3.525043211534896:3.0332763839890422] [-3.7141334494239211:2.5168125618339987] [-2.8295094279572086:2.9260288633705671] [-3.6628097369744785:2.7001342409952365] [-3.1426017898153833:3.9033176408410291] [-2.8947246765968337:2.5783160548465571] [-3.1079420978820118:2.6083153566097121] [-2.9747807828129602:2.352577578966748] [-2.9485098121188096:4.445001193520187] [-2.6979875295903009:2.7177167530680792] [-2.7563568156869729:2.804133079842805] [-2.7281793364387075:3.2842295770143894] [-3.388405970280147:2.8482945821017145] [-3.6585287127819535:2.733706440923179] [-2.9362090602966058:4.182004970950679] [-3.8406448665897899:2.7977996095463555] [-2.6938083661391907:3.8507169656528721] [-2.8108200261345324:2.7361422690920643] [-3.0383272885080146:3.6897118977028698] [-3.3500592889609244:2.9820927549160734] [-2.9974783953301527:3.3200363987486368] [-3.064052480154603:3.0605407927036605] [-2.9480184650724937:2.8977868705699752] [-3.5630386549616948:3.5224367188452606] [-3.0305454729698051:3.7094117030748852] [-2.5994401290835731:3.3581866346748983] [-3.3834943340901003:2.5854273916312334] [-3.8015013457092963:3.0882077584783718] [-2.8938687700882406:3.1412177876633298] [-2.9264435650541789:3.0290270081499884] [-3.4375938359762195:2.6484096112779452] [-3.333692196865111:2.9430208810232554] [-2.5656049792767037:2.9251388767684836] [-2.770828930157331:2.8460203202128325] [-3.7923493208361898:2.6318911893108097] [-3.8030047225035601:2.652424058445694] [-3.6001618635930597:2.8935178423449845] [-4.289906423465184:3.2449371433362204] [-4.0785791456437197:3.0273468068209772] [-2.9115962055733653:2.9674501504040109] [-3.373191312868598:2.4064991197202907] [-2.9215207088871216:4.1898729567296984] [-3.3167296685240615:2.8878716323479301] [-3.2421576644795604:2.8711524083740336] [-3.4309351017773349:3.1560240252301153] [-3.6951272442365104:2.5475469164315165] [-4.3658269452453942:3.6830852776626353] [-3.0844807796103355:2.8233823320024811] [-4.0694310297769993:2.8054958680312931] [-3.4322264685606423:3.6905270384284976] [-3.4028544201939908:2.689056222926935] [-3.4345446172911958:3.320588248275139] [-3.0398483994567544:3.1270687495203062] [-2.7124005201737624:3.4368331165850057] [-3.2023870744813729:3.1328963626807527] [-2.8878882369150234:2.899690660371042] [-2.4802753839683089:2.8153946489458419] [-3.2195364048759658:2.596347195299427] [-3.0584724926710383:2.852566384651992] [-2.8892105857894443:2.7743040549651017] [-2.3924054816704174:3.1750923231356274] [-2.7897177141692948:2.8055095477840268] [-3.2699438908189866:3.7529131986329354] [-3.2023161196449283:3.3423023776303964] [-2.7864610545829316:2.90594763839526] [-2.9294667596682609:3.1133545659016786] [-2.7215480520138731:2.9139768442878933] [-2.7456920986208115:3.4924718021677799] [-2.9537859862625298:2.7540935378312241] [-3.1590556823484088:2.8206578485100908] [-2.7980200059393998:3.7989060882095713] [-3.6629940438169237:3.1512817656208303] [-2.7351513796647504:3.3803678414167764] [-3.0992696973645648:2.5783621732374709] [-2.4707334955205424:3.0931910935062614] [-3.2775775610692652:2.6744651697495536] [-3.606015085766594:4.6750411203160391] [-1.4282069129928134:2.5786289843622709] [-0.74763090162559531:1.3375584099395414] [-0.75676100895170639:1.3214211464002874] [-0.3244428422615242:3.08220700148448] [-0.29172998299578973:3.4278273002005295] [-0.15140223282089288:6.6049224068114523] none [-0.20203050891044189:4.9497474683058265] [-0.17830285335476545:5.6084352055226221]
tree_sizes=1896 1897 1911 2018 1599 1679 1585 1801 1805 2449 1913 1917 1915 1911 2447 1604 1702 1919 1916 2026 1810 1716 1500 1600

Tree=0
num_leaves=17
num_cat=0
split_feature=16 2 0 5 0 62 83 2 33 46 0 50 57 3 28 34
split_gain=126.909 113.001 109.363 87.6849 84.5637 69.8689 47.7488 47.1946 35.751 34.6582 30.3004 44.5917 4.03191 3.59224 5.68434e-14 7.10543e-15
threshold=0.048555250976838167 1.0869011467429983 1.6066764325548899 -1.2430907769162827 0.63028292096525829 0.096023713611070718 -1.1362066816187035 0.042417169369510878 0.60067012569872902 -0.20583927331182192 0.37935686179613565 -0.5539012258404844 0.48032785322792843 0.8039500831183034 -0.86289572177998464 0.35670000477486324
decision_type=2 2 2 2 2 2 2 2 2 2 2 2 2 2 2 2
left_child=1 3 6 12 5 -5 7 -2 -6 -4 14 -12 15 -9 -8 -1
right_child=2 -3 9 4 8 -7 10 13 -10 -11 11 -13 -14 -15 -16 -17
leaf_value=-0.71379690756208458 -0.51288005576227491 -0.71379690754974545 -0.4927883689011105 -0.5767051463537749 -0.49717926940380408 -0.67696215198812226 -0.71379690826044651 -0.71379690775951177 -0.62111590904925451 -0.65854477316793081 -0.57272763168095964 -0.69441019416546745 -0.65854477316793081 -0.64879439642492909 -0.71379690741350543 -0.71379690608138069
leaf_weight=7.692010700702669 7.4657750129699734 21.718618452548981 10.406837880611418 60.178671658039093 34.161576777696609 24.433445811271667 15.157785654067991 4.7509477734565717 7.0133038759231559 4.5247121453285208 10.633073687553404 25.790859401226044 4.5247121453285208 3.8460053205490112 65.834562301635742 4.5247122645378113
leaf_count=7 7 21 7 48 23 25 15 6 6 5 11 26 5 4 64 4
internal_value=-0.637835 -0.607555 -0.671347 -0.591365 -0.577058 -0.605656 -0.685703 -0.604849 -0.518289 -0.543018 -0.696763 -0.658888 -0.698864 -0.684717 -0.713797 -0.713797
internal_weight=312.658 164.247 148.411 142.528 125.787 84.6121 133.479 16.0627 41.1749 14.9316 117.416 36.4239 16.7414 8.59695 80.9923 12.2167
internal_count=284 139 145 118 102 73 133 17 29 12 116 37 16 10 79 11
is_linear=0
shrinkage=1


Tree=1
num_leaves=17
num_cat=0
split_feature=128 2 3 121 46 1 96 13 127 73 11 37 42 97 20 17
split_gain=333.349 68.3612 95.2727 59.8519 51.1998 45.378 58.868 52.0248 41.3613 37.2084 19.5141 3.90166 3.48911 1.85744 0.105131 0.0263301
threshold=2.0777744971928858 -0.35710864157128508 0.14608977342723148 0.79130806239102547 0.63253421706153523 0.33753304259299116 0.84788151326303185 0.22690943995257398 0.80541871653935582 0.84565788956409926 -1.2949518005018732 1.5937665194356054 0.90188973231983072 0.82124077162276643 0.70678834839872673 0.042622125923010103
decision_type=2 2 2 2 2 2 2 2 2 2 2 2 2 2 2 2
left_child=1 2 3 4 -1 10 8 -8 -7 12 -3 -12 -4 -5 15 -2
right_child=14 5 9 13 -6 6 7 -9 -10 -11 11 -13 -14 -15 -16 -17
leaf_value=0.050835579582842828 0.13515522749053396 0.012228946355896261 -0.075513026842472686 0.13781406274284011 -0.075828599149043843 -0.05602373492382362 -0.019170730867468077 0.13847631221623152 0.05371585086942389 0.044195864931226923 -0.075391038001409047 -0.02461808085860339 -0.023950080151295055 0.099739086224000351 0.13900816197025997 0.1320494119575697
leaf_weight=32.784728825092316 11.65212655067444 7.3867672085762015 29.92807275056839 13.633874058723451 10.543981492519377 52.092361569404602 10.559050738811495 10.37591516971588 10.280915379524229 9.0827924609184247 74.064640820026398 3.9874780774116507 3.6847196817398062 4.186782479286193 11.515671014785765 16.469115734100342
leaf_count=33 5 9 29 11 12 49 10 8 10 9 73 5 5 4 5 7
internal_value=-0.000500336 -0.0202008 0.0117178 0.051736 0.020012 -0.0398431 -0.0135853 0.0589633 -0.0379355 -0.0455969 -0.0654461 -0.0727972 -0.0698606 0.128869 0.134984 0.133336
internal_weight=312.229 272.592 103.845 61.1494 43.3287 168.747 83.3082 20.935 62.3733 42.6956 85.4389 78.0521 33.6128 17.8207 39.6369 28.1212
internal_count=284 267 103 60 45 164 77 18 59 43 87 78 34 15 17 12
is_linear=0
shrinkage=0.05


Tree=2
num_leaves=17
num_cat=0
split_feature=128 16 4 122 2 1 4 127 24 44 33 91 108 87 74 23
split_gain=293.051 64.0764 65.6153 76.0848 54.0395 38.2209 31.335 34.8017 29.4997 24.6469 46.5583 22.5545 11.4131 2.0934 0.0930731 0.00564345
threshold=2.0777744971928858 1.0000000180025095e-35 -0.58080591969050588 0.45641796219570557 1.0692908187615087 0.82378695072602459 1.1180138162565278 0.51236523299244641 -0.58610871218290028 -0.59758113508230815 0.9957194392149783 2.0747313976861208 -0.18890344055641545 1.3713655723544236 0.30967942178468527 0.16441683449033195
decision_type=2 2 2 2 2 2 2 2 2 2 2 2 2 2 2 2
left_child=1 2 5 4 -4 13 9 12 -5 10 -3 -11 -8 -1 15 -2
right_child=14 6 3 8 -6 -7 7 -9 -10 11 -12 -13 -14 -15 -16 -17
leaf_value=-0.074727768454890792 0.1233036874925455 -0.044525844850129781 0.074261778921056343 0.065603857345127956 -0.073389228000459938 0.069689381152762644 0.032868947994148738 0.091733734974036404 -0.062359454366458171 -0.071983539657064208 0.11414062731224428 0.053707003845350876 -0.073560098088509648 -0.035079526259904556 0.12750656925628237 0.12183996909201995
leaf_weight=29.176240146160126 12.051732778549196 23.949764847755436 57.557106345891953 5.5397660732269314 6.9446640610694876 5.7324215173721305 3.6241598129272452 8.4262968301773054 24.085848689079285 83.741658627986908 5.7295259833335868 3.7280737161636344 8.2603849768638629 3.7580536007881156 14.301925420761107 14.518025398254393
leaf_count=29 5 24 48 5 7 5 4 9 26 88 5 4 9 4 6 6
internal_value=-0.000526461 -0.0193976 0.00537269 0.0278992 0.0583647 -0.0494642 -0.0433272 0.0140055 -0.0384313 -0.0532673 -0.0138956 -0.0666264 -0.0411048 -0.0702036 0.124254 0.122504
internal_weight=311.126 270.254 132.794 94.1274 64.5018 38.6667 137.46 20.3108 29.6256 117.149 29.6793 87.4697 11.8845 32.9343 40.8717 26.5698
internal_count=284 267 124 86 55 38 143 22 31 121 29 92 13 33 17 11
is_linear=0
shrinkage=0.05


Tree=3
num_leaves=18
num_cat=0
split_feature=128 2 3 47 1 10 43 119 60 56 75 32 74 74 16 74 48
split_gain=260.116 59.4307 81.3638 71.1704 40.8302 50.3856 47.0098 31.301 35.8957 29.3746 19.6487 9.9823 25.3243 0.0633459 0.0516729 0.0113695 0.00458706
threshold=2.0777744971928858 -0.35710864157128508 0.14608977342723148 0.58666374862871618 0.33753304259299116 1.5713496597738652 -0.6004357224232868 -0.76139107234446968 -0.53296446139614628 1.0488052067129094 0.64913677631161348 0.65228265600856239 0.38957899115627437 0.30967942178468527 0.048555250976838167 1.3877753726338207 -0.1457708735813055
decision_type=2 2 2 2 2 2 2 2 2 2 2 2 2 2 2 2 2
left_child=1 2 3 9 11 6 -6 8 -4 -1 -5 15 -13 16 -9 -3 -2
right_child=13 4 7 10 5 -7 -8 14 -10 -11 -12 12 -14 -15 -16 -17 -18
leaf_value=0.093970241638123009 0.11485983747361971 -0.072305037763431099 -0.074695945357041618 -0.073517489450668466 0.054059131841211486 0.12397186681482771 -0.043641488180190272 -0.075954044077372163 0.090803886156677976 -0.026805206221336711 0.05825168344577545 -0.072250359707584227 0.044377315091830009 0.11822808590746554 -0.071487446298512572 -0.075139558202228701 0.11355265019610733
leaf_weight=40.259056925773621 12.288754224777222 57.507708251476288 5.7376705408096313 12.383296489715578 15.469412446022032 6.2527579069137564 60.324751913547516 10.093014836311342 7.6374735832214338 5.7540422677993766 3.6668039560317984 13.586158990859987 7.0801040530204764 14.643434524536131 18.064105212688446 3.7696067094802848 14.786323308944702
leaf_count=37 5 60 6 14 15 4 58 12 8 5 4 15 8 6 17 4 6
internal_value=-0.000546764 -0.0186515 0.0109956 0.0472442 -0.0373801 -0.0124469 -0.023701 -0.043172 0.0198078 0.078867 -0.0434135 -0.0623448 -0.0322946 0.115579 -0.0730885 -0.0724794 0.114146
internal_weight=309.304 267.586 103.595 62.0632 163.991 82.0469 75.7942 41.5323 13.3751 46.0131 16.0501 81.9436 20.6663 41.7185 28.1571 61.2773 27.0751
internal_count=284 267 103 60 164 77 73 43 14 42 18 87 23 17 29 64 11
is_linear=0
shrinkage=0.05


Tree=4
num_leaves=14
num_cat=0
split_feature=128 0 46 122 2 3 15 16 84 96 0 111 117
split_gain=232.675 85.7994 69.213 78.4254 68.4224 45.8527 28.2244 27.9849 21.4337 11.9635 0.0618209 0.0206265 0.000225504
threshold=2.0777744971928858 0.16781111853966266 0.71729170220016802 0.49027925742860662 0.64235226185540861 -1.3299445385165531 -0.05982390362883979 -1.6750647966940841 1.6653101759116409 1.1551504027431334 0.40048404057257542 0.63236350395286556 -0.14543068650381749
decision_type=2 2 2 2 2 2 2 2 2 2 2 2 2
left_child=1 5 3 4 -3 -1 -5 -7 -9 11 -2 -4 -12
right_child=10 2 9 6 -6 7 -8 8 -10 -11 12 -13 -14
leaf_value=0.08328283521308405 0.11071399449969561 0.095293133084550924 -0.071382375099268647 0.027255477698687487 -0.019283662206549396 0.048150331593190696 -0.065507715273322026 -0.060854757249284352 0.057514113639845849 0.022861354103373224 0.10667477642071391 -0.07510085190155269 0.10697572754451785
leaf_weight=6.6025125980377188 17.336059331893921 46.897987604141235 18.857493996620185 13.348314702510832 18.043049871921539 6.6533882617950431 21.260513305664062 120.52084290981293 3.94973200559616 3.8598711490631095 12.451060295104982 4.6487200260162345 12.446793794631956
leaf_count=5 7 41 17 12 18 7 23 132 4 4 5 4 5
internal_value=-0.00056233 -0.0179549 0.0117025 0.0310619 0.0634594 -0.0452844 -0.0297298 -0.0517582 -0.0570986 -0.0587214 0.108421 -0.0721178 0.106825
internal_weight=306.876 264.642 126.916 99.5499 64.941 137.726 34.6088 131.124 124.471 27.3661 42.2339 23.5062 24.8979
internal_count=284 267 119 94 59 148 35 143 136 25 17 21 10
is_linear=0
shrinkage=0.05


Tree=5
num_leaves=15
num_cat=0
split_feature=128 1 0 46 102 4 45 7 13 112 6 122 33 0
split_gain=230.27 64.899 75.5467 45.6239 47.3018 42.6598 34.2683 34.2252 26.3448 22.4316 21.8374 13.0556 0.116902 0.0395198
threshold=2.0777744971928858 0.5256384371697026 0.27657496648163721 0.84802493809674251 1.1947866642126477 1.431471613979076 -0.14968781173368403 -1.484803923480311 -1.9950605277948921 -1.1220203300185783 -2.0305807994203233 -0.71387673818437547 0.45207813982366979 0.65144995616672829
decision_type=2 2 2 2 2 2 2 2 2 2 2 2 2 2
left_child=1 5 7 4 -4 8 -7 -3 -1 -9 -10 -8 13 -2
right_child=12 2 3 -5 -6 6 11 9 10 -11 -12 -13 -14 -15
leaf_value=0.06074236211104999 0.10449989223282519 0.086452259362322245 0.09979736118193247 -0.048351049240819045 -0.043668197149683285 -0.048124519497444194 0.021645167955119008 0.052263027366003072 0.10264238701601142 -0.061034537240502763 -0.052711446959610414 0.12911309250425806 0.10831807663587066 0.10100058478264458
leaf_weight=5.5549129247665396 14.972070455551146 5.3969537019729605 36.096773415803909 8.742525637149809 6.8330281972885123 7.9457964897155788 4.702395200729371 4.9650951027870169 2.2987691760063163 36.374885559082031 141.51598286628723 7.0824571847915623 12.418108463287352 17.498274087905884
leaf_count=5 6 4 27 7 6 9 5 5 2 43 155 7 5 7
internal_value=-0.000602036 -0.0181866 0.0140964 0.0557603 0.0769623 -0.036974 0.0321244 -0.0319673 -0.0461013 -0.0474271 -0.0502282 0.0862312 0.104192 0.102614
internal_weight=312.398 267.51 98.4093 51.6723 42.9298 169.1 19.7306 46.7369 149.37 41.34 143.815 11.7849 44.8885 32.4703
internal_count=293 275 92 40 33 183 21 52 162 48 157 12 18 13
is_linear=0
shrinkage=0.05


Tree=6
num_leaves=14
num_cat=0
split_feature=128 0 1 73 103 7 2 4 83 83 7 33 0
split_gain=208.042 60.1274 62.9743 47.5907 38.7309 37.3096 34.045 34.122 31.3955 27.0517 4.03965 0.0850925 0.0288819
threshold=2.0777744971928858 0.16781111853966266 0.17720213753124098 1.115885287276621 1.1477091674731843 -1.484803923480311 0.17110363212796206 0.49810599820745866 2.3619696975029201 -1.3644449043629245 1.1630481266335535 0.45207813982366979 0.65144995616672829
decision_type=2 2 2 2 2 2 2 2 2 2 2 2 2
left_child=1 5 6 4 -4 -1 7 -3 9 -7 -8 12 -2
right_child=11 2 3 -5 -6 8 10 -9 -10 -11 -12 -13 -14
leaf_value=0.05172700767547031 0.099092219950801433 -0.074158159156633277 0.074510108880511169 -0.072836796391238648 -0.0232121613770306 0.024006103469330083 -0.069217430287733514 0.059245624803246411 0.078427150216170027 -0.059618971648779252 -0.010989421102846458 0.10233988566122734 0.096101086489904286
leaf_weight=10.208535671234129 14.998612642288206 7.0644060969352749 48.885646522045135 8.3669115900993329 12.792692244052885 10.577228665351866 30.586425244808197 14.910167038440703 4.7587618231773368 112.84503954648972 3.300024449825286 12.484267950057982 17.47118616104126
leaf_count=9 6 9 39 7 10 12 34 16 4 130 5 5 7
internal_value=-0.000606048 -0.0175194 0.00748342 0.039062 0.0542416 -0.0402669 -0.0321136 0.0163589 -0.0475934 -0.0524523 -0.0635469 0.0988316 0.0974828
internal_weight=309.25 264.296 125.906 70.0453 61.6783 138.39 55.861 21.9746 128.181 123.422 33.8864 44.9541 32.4698
internal_count=293 275 120 56 49 155 64 25 146 142 39 18 13
is_linear=0
shrinkage=0.05


Tree=7
num_leaves=16
num_cat=0
split_feature=128 1 0 46 6 4 35 34 33 13 75 94 18 33 0
split_gain=188.838 55.967 62.1072 39.0299 41.961 36.8352 30.7939 29.5408 44.6169 22.9991 21.9869 17.1952 16.0138 0.0630218 0.0214531
threshold=2.0777744971928858 0.5256384371697026 0.27657496648163721 0.84802493809674251 -0.085342583294899507 1.431471613979076 -0.089555480299176357 -0.55387947457357578 0.041444379706056349 -1.9950605277948921 -1.569999663563949 1.0210202519149647 -0.72617149316713514 0.45207813982366979 0.65144995616672829
decision_type=2 2 2 2 2 2 2 2 2 2 2 2 2 2 2
left_child=1 5 7 4 -4 9 -7 8 -3 -1 -11 -9 -8 14 -2
right_child=13 2 3 -5 -6 6 12 11 -10 10 -12 -13 -14 -15 -16
leaf_value=0.055737997076190142 0.09446089464875182 0.12409240446622044 -0.00084866288306507443 -0.047061587110354068 0.10373847362143376 -0.052685477441607412 -0.0062347444211739685 -0.069492515292922108 -0.069541844862061789 0.02593333684075147 -0.053015958858516211 0.028923918041255693 0.11529346488215619 0.097255756369759097 0.091876949015062215
leaf_weight=5.6023855209350577 14.948280811309813 6.6495856046676618 14.254592776298521 8.5965853929519636 29.308413296937943 7.2637398242950466 3.9703177213668832 28.066464960575104 5.3833299279212952 9.4678573012351972 128.63188540935516 5.2719123363494864 8.5440281033515895 12.479878664016722 17.363197326660156
leaf_count=5 6 5 11 7 22 8 5 35 6 10 147 6 8 5 7
internal_value=-0.00060974 -0.0168863 0.0130893 0.0503022 0.0695157 -0.0347695 0.0292052 -0.0296912 0.0374636 -0.0435745 -0.0476033 -0.0539296 0.0767373 0.0942379 0.0930724
internal_weight=305.802 261.011 97.5309 52.1596 43.563 163.48 19.7781 45.3713 12.0329 143.702 138.1 33.3384 12.5143 44.7914 32.3115
internal_count=293 275 92 40 33 183 21 52 11 162 157 41 13 18 13
is_linear=0
shrinkage=0.05


Tree=8
num_leaves=16
num_cat=0
split_feature=128 0 71 46 1 90 54 97 3 17 84 29 28 33 0
split_gain=172.12 52.1417 54.6022 39.4135 44.1252 35.7714 40.2886 25.1993 24.4478 20.5923 13.3831 5.84005 0.10612 0.0473696 0.0161584
threshold=2.0777744971928858 0.16781111853966266 -0.70837796216791238 0.71729170220016802 0.59749327530319285 -1.0904501204681836 0.064933767197357689 1.2262972496720417 -1.3299445385165531 0.050005778110669093 1.6653101759116409 0.96557915478604162 0.28947649817178295 0.45207813982366979 0.65144995616672829
decision_type=2 2 2 2 2 2 2 2 2 2 2 2 2 2 2
left_child=1 5 9 4 -4 6 11 -5 -7 -3 -10 -1 -11 14 -2
right_child=13 2 3 7 -6 8 -8 -9 10 12 -12 -13 -14 -15 -16
leaf_value=-0.06848116440194503 0.090453403134696117 0.021118163909245789 0.0061641887500775479 -0.068765749630590442 0.08425504485560191 0.063557457792274286 0.095051545468977386 0.069943116304259909 -0.05781406106710181 -0.068983561983331512 0.024610446544478234 0.015282695733312826 -0.076516916260207818 0.092882591847875728 0.08820088539477608
leaf_weight=7.6005439162254351 14.832761764526365 8.0614920258522016 37.699992120265961 14.577509284019472 34.775900214910507 4.6217200756072989 9.9286477565765363 4.222821593284606 102.9659029841423 18.511128664016727 5.1721240282058707 2.8653230667114258 6.2541720271110526 12.415522575378416 17.186811923980713
leaf_count=11 6 7 44 14 27 4 9 4 123 18 4 4 6 5 7
internal_value=-0.000609806 -0.0163056 0.00701102 0.0269003 0.0436343 -0.0380372 0.0228997 -0.0376098 -0.0490587 -0.0482919 -0.0538718 -0.0455485 -0.070886 0.0902609 0.0892443
internal_weight=301.692 257.257 124.103 91.2762 72.4759 133.154 20.3945 18.8003 112.76 32.8268 108.138 10.4659 24.7653 44.4351 32.0196
internal_count=293 275 120 89 71 155 24 18 131 31 127 15 24 18 13
is_linear=0
shrinkage=0.05


Tree=9
num_leaves=22
num_cat=0
split_feature=16 3 8 0 86 62 0 93 101 22 46 83 66 46 92 79 41 126 62 84 111
split_gain=93.3013 83.9724 42.3115 40.0126 30.5083 47.4908 26.7764 25.9041 44.7919 33.2097 24.7196 16.9945 13.3088 10.8128 3.92075 2.29566 1.7952 0.0810671 0.0252155 0.0203243 0.0124217
threshold=0.1879031111783043 0.36559640602090804 -1.0459509603647923 0.37935686179613565 0.58469525136771894 -0.32341640121347187 0.92890730036433722 0.60586739090353114 0.28397296490191515 -0.58195084605001768 0.13030889042975893 -1.1362066816187035 0.16414266635586058 -1.0607770078737919 -0.19463200169791561 0.26839660730156673 0.80539518072123184 0.11719027707315911 0.94052347489177424 1.6653101759116409 1.0000000180025095e-35
decision_type=2 2 2 2 2 2 2 2 2 2 2 2 2 2 2 2 2 2 2 2 2
left_child=1 2 14 11 5 15 13 9 -9 -4 -8 -2 -7 -3 -1 -5 18 -15 -6 20 -13
right_child=3 6 7 4 16 12 10 8 -10 -11 -12 19 -14 17 -16 -17 -18 -19 -20 -21 -22
leaf_value=-0.068737039822958854 0.016213881016760318 0.0090713863482715911 0.0074535917985037829 -0.026080889891037989 -0.068118002374180781 0.08915252176034634 0.077822301359715448 -0.070107287206546839 0.063824111312434192 0.08132542025194639 -0.069036153443174694 -0.065306545810943889 0.0067855635102773634 -0.066723341269857447 -0.0058976458100094848 -0.070800926072946468 -0.026503331084622002 -0.072451202809055093 -0.073112497263502468 -0.069546067053600905 -0.066754405005461565
leaf_weight=7.6450478434562683 6.9032211899757376 5.3101521134376517 19.354001551866531 4.467000186443328 8.1382514238357526 17.048108816146854 8.4469786286354047 10.608175218105318 15.17005544900894 71.126573979854584 4.3363797068595877 27.237758278846741 6.8847916126251212 20.692921400070194 3.6756944656372053 8.0257575511932355 3.0262053608894339 8.8061557412147504 3.6652587652206412 4.5916419029235831 32.47768497467041
leaf_count=7 8 7 21 4 11 13 7 12 10 48 5 32 8 25 5 7 5 9 4 4 41
internal_value=-0.000609731 0.0227972 0.0439411 -0.0340905 -0.000403421 0.02421 -0.0338824 0.0529264 0.00870909 0.0655241 0.0280049 -0.0583376 0.065458 -0.0566099 -0.0483339 -0.0548105 -0.0608604 -0.0684332 -0.0696689 -0.0663405 -0.066094
internal_weight=297.638 175.172 127.58 122.466 51.2554 36.4257 47.5926 116.259 25.7782 90.4806 12.7834 71.2103 23.9329 34.8092 11.3207 12.4928 14.8297 29.4991 11.8035 64.3071 59.7154
internal_count=293 156 103 137 52 32 53 91 22 69 12 85 21 41 12 11 20 34 15 77 73
is_linear=0
shrinkage=0.05


Tree=10
num_leaves=17
num_cat=0
split_feature=128 0 46 2 53 1 83 10 83 97 37 6 128 33 41 108
split_gain=139.419 51.8146 52.1941 45.5313 41.1229 37.9248 33.1561 21.3506 29.6637 9.94769 7.65759 4.34212 1.19476 0.0522119 0.026053 0.0177374
threshold=1.0760655228541143 0.37935686179613565 0.75466269874988212 1.2209518908871775 -0.75235520168478198 -0.4033356752890207 2.3619696975029201 0.090075263281210668 -0.2336502630637555 -0.67446631134629043 1.5937665194356054 -0.69507573051127514 2.0777744971928858 -0.05968192671930226 1.2953453297180146 -0.69664946368699354
decision_type=2 2 2 2 2 2 2 2 2 2 2 2 2 2 2 2
left_child=1 6 3 4 -3 -2 7 10 -9 -7 -1 -4 -11 -14 -5 -13
right_child=5 2 11 14 -6 9 -8 8 -10 12 -12 15 13 -15 -16 -17
leaf_value=-0.067421726286777492 -0.012122882513938589 -0.044595677422167301 -0.0027012720638997893 -0.065402804786963961 0.068810391744194926 0.035243671131621558 0.11047684819050217 0.013632662661276532 -0.054607316561085077 0.1013882422071537 0.011766413690463561 -0.069859817521834802 0.082998795041246229 0.086964346422363864 -0.070693646060463453 -0.066336842603828369
leaf_weight=55.492684245109558 13.444602251052855 9.5450903773307783 3.0582300424575832 5.3917420506477338 49.184286177158356 9.9540272951126081 3.7064317464828482 31.131854176521301 32.603329181671143 15.757482767105101 3.2306243181228629 5.0806937813758895 19.153285026550286 14.648813247680669 4.0930384993553162 12.038293004035946
leaf_count=70 8 11 5 7 48 5 3 37 44 8 4 5 8 6 4 12
internal_value=0.00401418 -0.0162892 0.0130664 0.0339626 0.0503789 0.0637225 -0.0368557 -0.041315 -0.0212751 0.0808565 -0.0630652 -0.0575788 0.0900179 0.0847173 -0.067686 -0.0673824
internal_weight=287.515 214.556 88.3914 68.2142 58.7294 72.9582 126.165 122.458 63.7352 59.5136 58.7233 20.1772 49.5596 33.8021 9.48478 17.119
internal_count=285 250 92 70 59 35 158 155 81 27 74 22 22 14 11 17
is_linear=0
shrinkage=0.05


Tree=11
num_leaves=17
num_cat=0
split_feature=128 0 46 93 122 83 8 90 21 49 12 27 116 118 128 2
split_gain=127.247 47.7836 47.8503 47.1213 36.2791 30.1581 29.151 25.412 44.0352 16.5403 10.8197 4.85126 4.05928 2.06593 0.76545 0.0147986
threshold=1.0760655228541143 0.37935686179613565 0.75466269874988212 1.2001332831302418 0.87686088016843133 2.3619696975029201 -0.82033659620582144 -1.1045896115220155 -0.72491748978027615 1.1033225629133663 -1.2812792216714763 -0.79883214258803725 -0.13468500072553516 -0.81839793217858736 2.0777744971928858 -1.0000000180025095e-35
decision_type=2 2 2 2 2 2 2 2 2 2 2 2 2 2 2 2
left_child=1 5 3 4 -3 7 -2 8 -1 13 -9 -4 -5 -8 -15 -13
right_child=6 2 11 12 -6 -7 9 10 -10 -11 -12 15 -14 14 -16 -17
leaf_value=0.10717898031153816 -0.028836017850258546 0.072105843573360015 0.0048097725951517026 -0.0080494366045454294 -0.03073510364830942 0.10418940716497929 0.063051614006827114 -0.0003036090616958704 -0.04680145924562279 0.010171448753753058 -0.055728562860631374 -0.067946350700074251 -0.071254057653264563 0.096311279288136792 0.082571308946075436 -0.064980502033910481
leaf_weight=7.4952324032783535 8.0114694833755475 44.640379339456558 2.7837187051773098 3.4907137751579276 10.61473101377487 3.7327988743782035 10.80114686489105 9.7551201581954938 12.201872229576109 9.1805726289749128 90.439520686864853 8.3236500620842033 9.3306206464767438 15.697293639183043 28.613276958465576 8.5020068883895821
leaf_count=7 5 44 4 5 12 3 5 13 17 5 118 9 9 8 12 9
internal_value=0.00384684 -0.0157438 0.0124878 0.0323114 0.0523497 -0.0357683 0.0611013 -0.0401259 0.0117919 0.0723084 -0.0503323 -0.0563321 -0.0540461 0.0826592 0.0874388 -0.0664477
internal_weight=283.614 211.31 87.6858 68.0764 55.2551 123.625 72.3038 119.892 19.6971 64.2923 100.195 19.6094 12.8213 55.1117 44.3106 16.8257
internal_count=285 250 92 70 56 158 35 155 24 30 131 22 14 25 20 18
is_linear=0
shrinkage=0.05


Tree=12
num_leaves=17
num_cat=0
split_feature=128 0 46 2 95 1 83 90 21 56 97 108 128 69 98 39
split_gain=116.411 44.1335 43.939 39.203 37.5441 33.8972 27.5404 23.7083 39.4423 13.1493 8.73436 3.82263 0.758212 0.0335156 0.0241608 0.0057904
threshold=1.0760655228541143 0.37935686179613565 0.75466269874988212 1.2209518908871775 -0.32649169063934974 -0.4033356752890207 2.3619696975029201 -1.1045896115220155 -0.72491748978027615 -1.6506359972557856 -0.67446631134629043 -1.2248282820489995 2.0777744971928858 -0.69316012396954052 -0.46446683083843393 -0.044832389428952679
decision_type=2 2 2 2 2 2 2 2 2 2 2 2 2 2 2 2
left_child=1 6 3 4 -3 -2 7 8 -1 -9 -7 -4 -12 -14 -5 -13
right_child=5 2 11 14 -6 10 -8 9 -10 -11 12 15 13 -15 -16 -17
leaf_value=0.10010110169071139 -0.013093706982213672 -0.0013975461395495795 -0.0036217109416688577 -0.064101369923155183 0.07961693212349108 0.032292668782691283 0.098860021411022847 0.019450107127356148 -0.045545149547637755 -0.053986157093910608 0.093042590592107857 -0.065853440939143679 0.077471738854762162 0.080829225625452125 -0.069435738381553244 -0.0639518100889334
leaf_weight=7.6204236745834377 13.355878949165342 24.590177267789841 3.0277363061904934 5.6396161913871765 34.176103591918945 9.8350651264190656 3.7371245622634879 6.5324697494506827 11.918784648180006 91.160572707653046 15.634482622146605 7.8418416380882308 11.44248914718627 21.211795091629035 3.403846859931944 8.1775719821453059
leaf_count=7 8 26 4 7 33 5 3 8 17 123 8 8 5 9 4 10
internal_value=0.0036945 -0.0152363 0.0119556 0.0308035 0.0457172 0.0587355 -0.0347603 -0.0390198 0.0112579 -0.0490757 0.0752407 -0.0551446 0.083988 0.0796527 -0.0661092 -0.0648827
internal_weight=279.306 207.826 86.8569 67.8097 58.7663 71.4797 120.969 117.232 19.5392 97.693 58.1238 19.0471 48.2888 32.6543 9.04346 16.0194
internal_count=285 250 92 70 59 35 158 155 24 131 27 22 22 14 11 18
is_linear=0
shrinkage=0.05


Tree=13
num_leaves=17
num_cat=0
split_feature=128 0 1 81 16 3 4 3 122 79 31 58 7 67 7 11
split_gain=108.497 49.6782 53.243 32.2468 25.3398 33.9435 32.1185 25.1336 24.0801 28.7482 12.9075 9.24396 6.36609 0.0544666 0.0156118 0.0135389
threshold=2.0777744971928858 0.16781111853966266 0.092899399141872702 -1.0521905478764493 -0.13339045476854819 0.33696323071059808 -0.58080591969050588 0.77220581805813682 -1.0098883031121129 0.11050552501714787 1.3210258260428864 1.8571463788984122 0.74365365318496424 0.21662917581509308 -0.30511750546242317 -0.29159664492842985
decision_type=2 2 2 2 2 2 2 2 2 2 2 2 2 2 2 2
left_child=1 4 8 -4 5 6 -1 -5 9 -3 11 -6 -10 15 -7 -2
right_child=13 2 3 7 10 14 -8 -9 12 -11 -12 -13 -14 -15 -16 -17
leaf_value=-0.065649182797711411 0.08095647340290206 0.10540441536763692 -0.047000575352260099 0.065763514375645857 -0.06179056343345634 -0.066982883020565473 0.053656992407198914 -0.012607946965522428 -0.062399093797646833 -0.072596160220205319 0.042975215971454053 0.010946010124733523 0.005510108792591872 0.076106754295165238 -0.063570255038100723 0.078548855523341191
leaf_weight=7.3724254965782192 11.802406787872316 5.8850629329681379 9.6748002171516401 53.373227596282959 61.814051479101181 4.8802219033241263 24.022455096244812 12.655824303627012 27.322929739952091 3.6910026669502258 3.4182469248771659 4.7002428174018851 3.9499942958354941 18.021267175674438 10.697367608547209 11.556662321090696
leaf_count=10 5 6 9 44 87 7 24 12 32 5 4 6 6 8 15 5
internal_value=0.00355331 -0.00967283 0.0134267 0.0382507 -0.0327028 -0.00429926 0.0256405 0.050742 -0.0325786 0.0367958 -0.051781 -0.0566506 -0.0538217 0.078172 -0.0646394 0.0797653
internal_weight=274.838 233.458 116.553 75.7039 116.905 46.9725 31.3949 66.0291 40.849 9.57607 69.9325 66.5143 31.2729 41.3803 15.5776 23.3591
internal_count=285 267 114 65 153 56 34 56 49 11 97 93 38 18 22 10
is_linear=0
shrinkage=0.05


Tree=14
num_leaves=22
num_cat=0
split_feature=16 0 2 8 96 119 100 80 46 95 50 12 83 34 92 34 108 83 75 51 58
split_gain=58.158 57.1082 49.5949 33.0093 29.6005 28.5117 32.3224 24.3547 23.1342 19.9721 25.0695 17.9305 9.84895 20.4925 1.62851 0.186324 0.0825148 0.0507622 0.0142061 0.0108047 0.000958762
threshold=0.10892341952764627 0.37935686179613565 1.2209518908871775 -0.90146919670891179 0.049975749521036887 0.19095945174499804 -0.42031137269520008 0.065615830125817717 -0.65506654177659884 0.18961445809688207 0.15090955605496481 0.4711308012075901 -1.332575779960355 0.74700333212476711 0.34011527090737925 0.65964520821377948 0.4505987991875276 -0.83348948760533814 -0.57871310246637075 0.87392979165402906 0.28043720889966256
decision_type=2 2 2 2 2 2 2 2 2 2 2 2 2 2 2 2 2 2 2 2 2
left_child=2 12 3 8 9 6 -5 14 -1 15 -11 -7 13 -2 -6 -3 -10 -14 -4 -19 -20
right_child=1 4 18 5 7 11 -8 -9 16 10 -12 -13 17 -15 -16 -17 -18 19 20 -21 -22
leaf_value=0.051476217605391388 -0.068440821642245894 -0.065876594626888552 -0.065491671098014154 -0.032996988884709276 0.093657766000420736 0.081097811037858375 0.041821901023082225 -0.03300220036406832 -0.06295851902141171 0.084994055810262648 -0.066054592888760782 0.01110217005887262 -0.067170858369637834 0.096172934349580602 0.062144979463470064 -0.07906649430027253 -0.070914440119314567 -0.062325597467649013 -0.061889646479634547 -0.064473155217713018 -0.062968639609467511
leaf_weight=6.0654714703559902 4.7977530956268302 7.082954943180086 6.7660852372646323 20.676259517669678 12.471289217472082 45.675151228904724 47.822352290153503 5.9409767985343924 7.2753217518329603 6.6788863539695722 4.6660510301589966 11.441137641668318 7.0652980208396903 3.1201538443565369 6.1074899435043326 4.3047277927398682 5.9036455750465393 41.140560269355774 4.3413471579551679 6.8290380239486685 3.9157711267471313
leaf_count=6 7 7 8 23 9 32 43 7 10 8 6 11 8 4 4 5 6 60 6 9 6
internal_value=0.0034168 -0.0245293 0.0226798 0.0316478 0.0170152 0.0409899 0.0192379 0.0551195 -0.0293316 -0.0240847 0.0228694 0.0670768 -0.0557127 -0.00357264 0.0832984 -0.0708626 -0.0665225 -0.0632141 -0.0637931 -0.0626313 -0.0624013
internal_weight=270.088 110.205 159.883 144.859 47.2524 125.615 68.4986 24.5198 19.2444 22.7326 11.3449 57.1163 62.9528 7.91791 18.5788 11.3877 13.179 55.0349 15.0232 47.9696 8.25712
internal_count=285 134 151 131 46 109 66 20 22 26 14 43 88 11 13 12 16 77 20 69 12
is_linear=0
shrinkage=0.05


Tree=15
num_leaves=14
num_cat=0
split_feature=128 122 2 46 92 9 69 107 58 44 25 55 28
split_gain=117.679 37.737 43.8413 38.3303 37.9206 32.1112 22.9139 20.4526 15.4712 6.44966 5.49351 0.0445656 0.0111451
threshold=2.0777744971928858 0.49027925742860662 0.41898478172834941 -0.35241460651140227 -0.69607072238128376 -1.2505250888460135 0.93798478813819042 1.7397264066315865 1.6669398642884328 0.88968241769092904 1.113250601827509 0.38559656554579674 0.49118071374007227
decision_type=2 2 2 2 2 2 2 2 2 2 2 2 2
left_child=1 2 3 5 -5 -1 10 8 9 -3 -4 12 -2
right_child=11 7 6 4 -6 -7 -8 -9 -10 -11 -12 -13 -14
leaf_value=-0.067529407861684806 0.072594839458041002 -0.065879898945295431 -0.064875876934809978 0.043642381575032529 -0.035166242906623617 0.064423635019969575 0.061473869567835994 0.078462943825356832 0.042993792535312325 -0.020884104874770899 -0.015360989150401905 0.076707103262361909 0.074585103663265831
leaf_weight=5.1635340452194205 14.993299722671511 47.373170524835587 31.092505097389221 23.27055749297142 44.36365270614624 43.056242644786835 4.6652146577835074 3.1796465516090384 4.0355190634727469 9.5734583735465986 6.8326593637466422 18.091404914855957 13.250190734863279
leaf_count=6 7 63 40 21 55 43 5 4 4 14 10 8 6
internal_value=0.00227509 -0.0128145 0.000285953 0.0162328 -0.00805096 0.0502937 -0.0430924 -0.0451653 -0.0516113 -0.0583155 -0.0559552 0.0747696 0.0735286
internal_weight=268.941 222.606 158.444 115.854 67.6342 48.2198 42.5904 64.1618 60.9821 56.9466 37.9252 46.3349 28.2435
internal_count=286 265 180 125 76 49 55 85 81 77 50 21 13
is_linear=0
shrinkage=0.05


Tree=16
num_leaves=15
num_cat=0
split_feature=128 0 2 45 8 46 22 8 45 46 6 128 97 56
split_gain=109.865 29.6069 23.7941 22.4307 24.6124 33.749 24.8643 10.4068 8.8272 8.43704 11.0835 0.472332 0.100216 0.0384747
threshold=1.0760655228541143 1.6609180980906753 0.71959521494059853 -0.75406413617321844 0.22035556194431979 -0.88801470797638504 0.68379420128971302 -0.64985532466079443 0.68154014976484356 -0.84367916424261225 0.37983759815288859 2.0777744971928858 -1.2314464693427452 -0.15852788791630765
decision_type=2 2 2 2 2 2 2 2 2 2 2 2 2 2
left_child=1 3 7 9 5 -5 -6 -2 -3 10 -1 -9 -11 -13
right_child=2 8 -4 4 6 -7 -8 11 -10 12 -12 13 -14 -15
leaf_value=-0.063884152523440846 0.014862748349608407 0.090736474454800153 -0.026680826382892292 0.035007626926738429 0.027752608358146108 -0.047707895737714466 -0.043258552868208351 0.0846473374206929 -0.0001976262503177019 -0.07057750403108308 0.062036795434494918 0.071281512051268217 -0.063612466695043821 0.074400405289511806
leaf_weight=3.7145158052444449 8.1432949304580671 7.8293185830116254 7.5547595024108878 15.351215481758116 49.476916491985321 62.696840614080429 16.417611241340637 11.364338636398314 4.048897922039032 6.3739503026008597 3.3000269830226898 16.732947826385494 27.217708051204681 24.172610521316532
leaf_count=6 5 7 5 18 54 87 22 6 5 8 4 8 40 11
internal_value=0.00218461 -0.0167748 0.0569773 -0.0216996 -0.0124412 -0.0314386 0.0100602 0.0674388 0.05974 -0.0545192 -0.00464401 0.0756298 -0.0649341 0.0731246
internal_weight=264.395 196.427 67.968 184.549 143.943 78.0481 65.8945 60.4132 11.8782 40.6062 7.01454 52.2699 33.5917 40.9056
internal_count=286 251 35 239 181 105 76 30 12 58 10 25 48 19
is_linear=0
shrinkage=0.05


Tree=17
num_leaves=17
num_cat=0
split_feature=128 122 2 44 85 32 123 74 98 106 90 126 53 80 116 82
split_gain=102.095 34.3657 39.0323 29.1317 33.0147 18.4063 24.1484 17.2032 6.79463 5.55544 4.84869 0.0603273 0.038329 0.0258364 0.0138238 0.00749987
threshold=2.0777744971928858 0.49027925742860662 0.41898478172834941 1.0397774010000143 0.91904874678424153 0.80970057513698812 -0.25405213076868111 1.0729347202432675 1.1602385973876264 1.6352047481814986 1.0806584848964824 -0.82547836828186116 0.038798220909327816 0.065615830125817717 -0.4910642956229192 0.094155241450022797
decision_type=2 2 2 2 2 2 2 2 2 2 2 2 2 2 2 2
left_child=1 2 3 4 -1 8 -7 9 11 -4 -5 -3 -8 15 -15 -2
right_child=13 5 7 10 -6 6 12 -9 -10 -11 -12 -13 -14 14 -16 -17
leaf_value=0.036217921391519609 0.0694972515982374 -0.067585227500253267 -0.062909450225533195 -0.064810510578430028 -0.050828550724224035 0.064750168480932013 -0.069000602338356379 0.027180273737695434 0.014104145613886046 0.010962446201145155 0.005918623328923879 -0.062892352137675508 -0.061284933267049348 0.071471688829963978 0.074012699583729566 0.071324425259820842
leaf_weight=86.767013758420944 12.104154944419863 8.4842073917388898 30.599883407354355 11.653202086687086 12.456811338663099 7.8668020069599152 3.555270314216612 7.4689011275768271 2.9892464578151694 2.77595430612564 3.0591822862625113 35.514040976762772 2.9412068724632263 10.483379483222963 10.936074256896971 10.477394819259642
leaf_count=89 6 10 42 16 16 9 5 9 5 4 4 51 5 5 5 5
internal_value=0.00210203 -0.0120314 0.00052094 0.0155545 0.0252899 -0.0436995 0.00583497 -0.041415 -0.0588414 -0.0567653 -0.0501036 -0.0637973 -0.0655074 0.071525 0.072769 0.070345
internal_weight=260.133 216.132 154.781 113.936 99.2238 61.3508 14.3633 40.8447 46.9875 33.3758 14.7124 43.9982 6.49648 44.001 21.4195 22.5815
internal_count=286 265 180 125 105 85 19 55 66 46 20 61 10 21 10 11
is_linear=0
shrinkage=0.05


Tree=18
num_leaves=17
num_cat=0
split_feature=128 122 46 2 0 20 107 114 22 112 25 94 12 70 90 0
split_gain=95.3715 28.5882 30.83 27.819 29.6169 21.7109 18.3455 17.912 10.813 10.5659 6.85329 10.7703 0.927225 0.0638073 0.0553763 0.0181693
threshold=1.0760655228541143 0.49027925742860662 0.71729170220016802 0.43270392008462993 0.16781111853966266 -0.86009652397197944 1.7397264066315865 0.90598171993808441 -0.47551967208372509 1.3830064546910426 0.75273557652475187 0.91454149958207942 0.33514555867202916 -0.44157034019127261 0.10791793734867063 0.061406527599822514
decision_type=2 2 2 2 2 2 2 2 2 2 2 2 2 2 2 2
left_child=1 2 3 4 -1 -2 10 -5 -7 15 13 -12 14 -3 -10 -4
right_child=5 6 9 7 -6 8 -8 -9 12 -11 11 -13 -14 -15 -16 -17
leaf_value=-0.0066355127246565991 -0.02669436611871125 -0.066692907904725193 -0.060959496948185123 -0.062774560584835909 0.05336925403670191 0.016802534830741088 0.070607077232261867 0.027645039264592476 0.069518946403053922 0.037701803873761798 -0.047756069504203538 0.059587958730435854 0.088215767480316273 -0.062215314494480624 0.073487464929412133 -0.063731302611371943
leaf_weight=42.021046668291092 7.3260793685913077 11.041973918676371 10.764129906892782 18.666098773479465 40.27233749628067 9.7834330797195417 3.171199917793273 7.7518151700496665 24.174781680107117 2.9577554166316977 9.3597198724746686 3.1142578721046439 9.7943986654281598 28.473686367273334 13.813021659851072 13.116666376590727
leaf_count=53 5 17 17 29 39 6 4 9 12 5 13 5 5 43 7 17
internal_value=0.00201688 -0.0157989 -0.00344957 0.00839854 0.0227293 0.0543757 -0.0461455 -0.0362427 0.064693 -0.0514411 -0.053267 -0.0209565 0.0744987 -0.0634665 0.070962 -0.0624819
internal_weight=255.602 190.711 135.55 108.711 82.2934 64.8917 55.1608 26.4179 57.5656 26.8386 51.9896 12.474 47.7822 39.5157 37.9878 23.8808
internal_count=286 251 169 130 92 35 82 38 30 39 78 18 24 60 19 34
is_linear=0
shrinkage=0.05


Tree=19
num_leaves=18
num_cat=0
split_feature=128 122 44 25 75 16 17 3 32 123 31 98 115 70 90 26 80
split_gain=89.4572 30.038 28.0474 43.4206 23.9141 23.3957 26.0747 19.093 17.0117 21.0797 14.2313 6.31903 0.0339231 0.0192673 0.0159048 0.0102296 0.00446375
threshold=2.0777744971928858 0.49027925742860662 0.31658538650687978 -0.24309176624754605 0.63707655545292896 -0.20581590046634157 0.53225427444028539 0.17991754153317854 0.80970057513698812 -0.25405213076868111 1.20518162225974 1.1602385973876264 0.5691974795570095 0.22354777478793475 0.21432039279785556 -0.62276725872079219 0.065615830125817717
decision_type=2 2 2 2 2 2 2 2 2 2 2 2 2 2 2 2 2
left_child=1 2 3 4 -1 6 -4 -5 11 -10 -7 12 -3 -11 15 -2 -17
right_child=14 8 5 7 -6 10 -8 -9 9 13 -12 -13 -14 -15 -16 16 -18
leaf_value=0.076461613043906237 0.067128809958182892 -0.06151920882676213 0.056240145428101573 0.011681088711015173 -0.0097143550109938265 -0.062927007610612304 -0.065372470058116056 -0.050082527944492167 0.060581997136572099 -0.066326470708814464 0.027668406648755708 0.013611060866926403 -0.064945708924366505 -0.060676209980678103 0.070588727962445599 0.068245107527114199 0.069741885871406131
leaf_weight=31.684364378452301 11.394800543785097 31.713277965784073 13.433553218841555 30.499152183532715 10.79275009036064 32.189165949821472 6.559930443763732 21.217340886592865 7.808311402797699 3.2312513887882215 5.0094394385814658 2.9375738203525534 9.3537503182888013 2.8303582072257996 10.299237966537474 9.7860282659530657 10.144815683364866
leaf_count=27 6 47 14 37 11 50 7 28 9 5 6 5 14 5 5 5 5
internal_value=0.00194092 -0.0113751 0.000337811 0.0171077 0.0545657 -0.0272817 0.0163386 -0.0136582 -0.0420131 0.00627186 -0.0507268 -0.0572322 -0.0622997 -0.0636882 0.0688842 0.0683238 0.069007
internal_weight=250.885 209.26 151.386 94.1936 42.4771 57.1921 19.9935 51.7165 57.8745 13.8699 37.1986 44.0046 41.067 6.06161 41.6249 31.3256 19.9308
internal_count=286 265 180 103 38 77 21 65 85 19 56 66 61 10 21 16 10
is_linear=0
shrinkage=0.05


Tree=20
num_leaves=16
num_cat=0
split_feature=128 1 4 122 16 0 11 37 29 99 93 92 128 30 46
split_gain=83.561 25.6749 22.6763 24.6323 31.7057 23.2103 20.9483 20.8253 10.7793 6.26171 3.55646 2.44267 1.35707 0.0528191 0.0116182
threshold=1.0760655228541143 -0.4033356752890207 -0.53159008020657239 0.45641796219570557 -0.13339045476854819 0.89422675473734092 -0.8051488841478277 0.86403842923146579 1.1142253053308484 -1.0177942472358794 1.0859904378285439 -0.95823444944388658 2.0777744971928858 1.4418978415329091 0.60047032428710823
decision_type=2 2 2 2 2 2 2 2 2 2 2 2 2 2 2
left_child=2 -2 8 4 7 -6 -5 -4 10 -8 13 -3 -13 -1 -14
right_child=1 11 3 6 5 -7 9 -9 -10 -11 -12 12 14 -15 -16
leaf_value=-0.061511744496000123 -0.015646131673605759 0.044485108497894388 0.014949169634821688 0.043746953564564789 -0.040274238775477429 0.029185359075515078 0.0072924940640812265 0.091147078311121121 0.01497664218578358 -0.062511302269893737 -0.021830445807983209 0.087850336700152881 0.06620022859458162 -0.06661505066396986 0.068289523602971955
leaf_weight=28.555747747421265 11.415497422218321 8.9854564666748029 25.707754164934158 6.3749487102031699 36.425715386867523 17.955525100231171 3.5956697762012473 13.770018249750136 6.1279423534870139 30.166813611984253 6.3907195031642905 11.463577151298521 12.924241185188295 6.1648297011852256 13.715039253234862
leaf_count=48 8 5 28 9 50 21 5 13 9 44 9 6 7 8 7
internal_value=-0.000328621 0.0516269 -0.0171001 -0.00659893 0.00741993 -0.0173402 -0.0393812 0.0415273 -0.0468873 -0.0550773 -0.0561086 0.0679357 0.0734659 -0.0624179 0.0672759
internal_weight=239.739 58.5038 181.236 133.996 93.859 54.3812 40.1374 39.4778 47.2392 33.7625 41.1113 47.0883 38.1029 34.7206 26.6393
internal_count=277 33 244 170 112 71 58 41 74 49 65 25 20 56 14
is_linear=0
shrinkage=0.05


Tree=21
num_leaves=15
num_cat=0
split_feature=128 4 122 20 30 128 9 104 88 89 73 5 17 26
split_gain=78.7619 29.1565 26.0408 23.1788 29.7555 24.3917 18.5354 23.005 10.559 7.23804 0.0702453 0.0550169 0.020329 0.00425811
threshold=2.0777744971928858 -0.53159008020657239 0.45641796219570557 0.59982444458032413 -0.24076409021605349 -0.6769251822387351 1.0000000180025095e-35 -0.15615424583268464 1.4405834836117919 1.4021982998009339 1.5740429962657985 1.5786046942192096 -0.20469683480250214 -0.42845517093542229
decision_type=2 2 2 2 2 2 2 2 2 2 2 2 2 2
left_child=1 8 3 4 -3 -5 11 -8 9 10 -1 -4 -2 -14
right_child=12 2 6 5 -6 -7 7 -9 -10 -11 -12 -13 13 -15
leaf_value=-0.060981651857819098 0.068225671032678334 -0.043547851197236823 -0.060805851914063069 -0.06276137628847582 0.022151554092430061 0.060334621422706305 -0.062479668910507415 0.052936256387495044 0.025155523797108587 0.0013811245680733423 -0.067961020403997097 -0.067624147841407925 0.065046620124145124 0.066341116197850242
leaf_weight=34.463610887527466 11.70870006084442 29.49854639172554 22.302073508501056 4.6267528235912314 41.450721055269241 30.908385992050171 7.415513992309573 10.334432810544966 4.6294704079627982 5.1544434130191794 4.0263492465019217 3.4111013412475577 12.437699556350706 12.98466992378235
leaf_count=58 6 38 33 10 47 25 11 13 6 7 5 4 7 7
internal_value=-0.000328798 -0.0128476 -0.00196708 0.011345 -0.00516426 0.0443073 -0.0345815 0.00471817 -0.0466444 -0.0542604 -0.0617117 -0.0617104 0.0665018 0.0657078
internal_weight=235.352 198.221 149.948 106.484 70.9493 35.5351 43.4631 17.7499 48.2739 43.6444 38.49 25.7132 37.1311 25.4224
internal_count=277 257 181 120 85 35 61 24 76 70 63 37 20 14
is_linear=0
shrinkage=0.05


Tree=22
num_leaves=13
num_cat=0
split_feature=128 83 11 20 117 0 38 82 43 103 17 127
split_gain=73.519 22.9262 28.729 26.6388 34.5018 25.2049 17.4569 14.1939 13.8217 3.88664 0.0166515 0.00314134
threshold=2.0777744971928858 -1.4861408861861156 -1.0057770669741009 0.29793490354446867 0.16946692157451837 0.55599436380437506 1.1225121618587213 0.91402072985404204 0.46134628705172248 -0.60500186320985705 -0.20469683480250214 0.45609136486680829
decision_type=2 2 2 2 2 2 2 2 2 2 2 2
left_child=1 8 5 7 -5 6 -3 -4 -1 -7 -2 -12
right_child=10 2 3 4 -6 9 -8 -9 -10 -11 11 -13
leaf_value=-0.028802722191431953 0.067026513811029018 -0.061544189744305679 -0.054133534740250455 -0.038457529835697529 0.03726210848885915 0.033772765462197221 0.061603853520315693 -0.0077885233170935418 0.082963028329360811 0.085139437908057669 0.064278539587542746 0.065452050199904549
leaf_weight=3.8952071070671073 11.331824302673338 9.3151922821998614 69.285741090774536 29.778454095125198 30.404228180646896 5.4690847694873836 4.1641950309276572 21.693707495927811 9.5437394976615888 11.27353662252426 15.536311984062197 9.0098172426223737
leaf_count=7 6 16 101 42 35 7 5 27 8 9 9 5
internal_value=-0.000332382 -0.012445 -0.0171137 -0.0260113 -0.000204048 0.0273894 -0.0235 -0.0430827 0.0505683 0.0683602 0.0654412 0.0647093
internal_weight=230.701 194.823 181.384 151.162 60.1827 30.222 13.4794 90.9794 13.4389 16.7426 35.878 24.5461
internal_count=277 257 242 205 77 37 21 128 15 16 20 14
is_linear=0
shrinkage=0.05


Tree=23
num_leaves=14
num_cat=0
split_feature=128 4 3 52 94 0 106 75 57 1 30 17 26
split_gain=68.674 26.2103 24.5385 24.0845 23.1827 21.2016 13.7707 15.1365 13.1193 5.39804 0.0488639 0.0136834 0.00292265
threshold=2.0777744971928858 -0.53159008020657239 0.36559640602090804 0.3912392400208447 0.81667681825254146 0.63028292096525829 1.3053460456460644 -0.71413158201727545 -1.1768305233157144 1.1641844384099718 1.4418978415329091 -0.20469683480250214 -0.42845517093542229
decision_type=2 2 2 2 2 2 2 2 2 2 2 2 2
left_child=1 8 3 5 -5 -3 7 -4 -1 10 -10 -2 -13
right_child=11 2 6 4 -6 -7 -8 -9 9 -11 -12 12 -14
leaf_value=0.024087711428723502 0.065925218364371374 0.005721379491885825 0.026997832540712526 -0.050313842431643122 0.038242372484876136 0.061473443206248639 0.040409693317095659 -0.062532264230519483 -0.060223230962425989 0.0050528787245871336 -0.065368181668887068 0.063219670885257012 0.064330976411155788
leaf_weight=5.9710581302642813 10.95463180541992 44.228920042514801 5.6806287169456473 24.303907573223114 10.61961308121681 27.752440124750137 5.1476571857929221 27.943657338619232 31.049648612737656 3.3810811936855307 5.420608937740325 11.567796111106871 12.109811305999758
leaf_count=9 6 53 8 34 13 27 6 40 54 6 7 7 7
internal_value=-0.00032907 -0.0120468 -0.0016723 0.010686 -0.0233855 0.0272166 -0.0357475 -0.0474067 -0.0450289 -0.0553849 -0.0609879 0.0644641 0.063788
internal_weight=226.131 191.499 145.677 106.905 34.9235 71.9814 38.7719 33.6243 45.8224 39.8513 36.4703 34.6322 23.6776
internal_count=277 257 181 127 47 80 54 48 76 67 61 20 14
is_linear=0
shrinkage=0.05


end of trees

feature_importances:
Column_128=27
Column_0=26
Column_46=17
Column_2=15
Column_1=12
Column_83=11
Column_122=11
Column_3=10
Column_4=9
Column_16=9
Column_33=8
Column_17=6
Column_90=6
Column_7=5
Column_8=5
Column_74=5
Column_75=5
Column_97=5
Column_6=4
Column_11=4
Column_20=4
Column_34=4
Column_44=4
Column_92=4
Column_108=4
Column_12=3
Column_13=3
Column_22=3
Column_25=3
Column_26=3
Column_28=3
Column_30=3
Column_32=3
Column_37=3
Column_45=3
Column_56=3
Column_58=3
Column_62=3
Column_73=3
Column_80=3
Column_84=3
Column_93=3
Column_94=3
Column_96=3
Column_98=3
Column_127=3
Column_5=2
Column_9=2
Column_10=2
Column_21=2
Column_29=2
Column_31=2
Column_41=2
Column_43=2
Column_50=2
Column_53=2
Column_57=2
Column_69=2
Column_70=2
Column_79=2
Column_82=2
Column_95=2
Column_103=2
Column_106=2
Column_107=2
Column_111=2
Column_112=2
Column_116=2
Column_117=2
Column_119=2
Column_123=2
Column_126=2
Column_15=1
Column_18=1
Column_23=1
Column_24=1
Column_27=1
Column_35=1
Column_38=1
Column_39=1
Column_42=1
Column_47=1
Column_48=1
Column_49=1
Column_51=1
Column_52=1
Column_54=1
Column_55=1
Column_60=1
Column_66=1
Column_67=1
Column_71=1
Column_81=1
Column_85=1
Column_86=1
Column_87=1
Column_88=1
Column_89=1
Column_91=1
Column_99=1
Column_100=1
Column_101=1
Column_102=1
Column_104=1
Column_114=1
Column_115=1
Column_118=1
Column_121=1

parameters:
[boosting: gbdt]
[objective: binary]
[metric: auc]
[tree_learner: serial]
[device_type: cpu]
[data_sample_strategy: bagging]
[data: ]
[valid: ]
[num_iterations: 100]
[learning_rate: 0.05]
[num_leaves: 31]
[num_threads: 0]
[seed: 0]
[deterministic: 0]
[force_col_wise: 0]
[force_row_wise: 0]
[histogram_pool_size: -1]
[max_depth: 5]
[min_data_in_leaf: 5]
[min_sum_hessian_in_leaf: 0.001]
[bagging_fraction: 0.8]
[pos_bagging_fraction: 1]
[neg_bagging_fraction: 1]
[bagging_freq: 5]
[bagging_seed: 3]
[bagging_by_query: 0]
[feature_fraction: 0.8]
[feature_fraction_bynode: 1]
[feature_fraction_seed: 2]
[extra_trees: 0]
[extra_seed: 6]
[early_stopping_round: 0]
[early_stopping_min_delta: 0]
[first_metric_only: 0]
[max_delta_step: 0]
[lambda_l1: 0]
[lambda_l2: 0]
[linear_lambda: 0]
[min_gain_to_split: 0]
[drop_rate: 0.1]
[max_drop: 50]
[skip_drop: 0.5]
[xgboost_dart_mode: 0]
[uniform_drop: 0]
[drop_seed: 4]
[top_rate: 0.2]
[other_rate: 0.1]
[min_data_per_group: 100]
[max_cat_threshold: 32]
[cat_l2: 10]
[cat_smooth: 10]
[max_cat_to_onehot: 4]
[top_k: 20]
[monotone_constraints: ]
[monotone_constraints_method: basic]
[monotone_penalty: 0]
[feature_contri: ]
[forcedsplits_filename: ]
[refit_decay_rate: 0.9]
[cegb_tradeoff: 1]
[cegb_penalty_split: 0]
[cegb_penalty_feature_lazy: ]
[cegb_penalty_feature_coupled: ]
[path_smooth: 0]
[interaction_constraints: ]
[verbosity: -1]
[saved_feature_importance_type: 0]
[use_quantized_grad: 0]
[num_grad_quant_bins: 4]
[quant_train_renew_leaf: 0]
[stochastic_rounding: 1]
[linear_tree: 0]
[max_bin: 255]
[max_bin_by_feature: ]
[min_data_in_bin: 3]
[bin_construct_sample_cnt: 200000]
[data_random_seed: 1]
[is_enable_sparse: 1]
[enable_bundle: 1]
[use_missing: 1]
[zero_as_missing: 0]
[feature_pre_filter: 1]
[pre_partition: 0]
[two_round: 0]
[header: 0]
[label_column: ]
[weight_column: ]
[group_column: ]
[ignore_column: ]
[categorical_feature: ]
[forcedbins_filename: ]
[precise_float_parser: 0]
[parser_config_file: ]
[objective_seed: 5]
[num_class: 1]
[is_unbalance: 0]
[scale_pos_weight: 1]
[sigmoid: 1]
[boost_from_average: 1]
[reg_sqrt: 0]
[alpha: 0.9]
[fair_c: 1]
[poisson_max_delta_step: 0.7]
[tweedie_variance_power: 1.5]
[lambdarank_truncation_level: 30]
[lambdarank_norm: 1]
[label_gain: ]
[lambdarank_position_bias_regularization: 0]
[eval_at: ]
[multi_error_top_k: 1]
[auc_mu_weights: ]
[num_machines: 1]
[local_listen_port: 12400]
[time_out: 120]
[machine_list_filename: ]
[machines: ]
[gpu_platform_id: -1]
[gpu_device_id: -1]
[gpu_use_dp: 0]
[num_gpu: 1]

end of parameters

pandas_categorical:null
