tree
version=v4
num_class=1
num_tree_per_iteration=1
label_index=0
max_feature_idx=136
objective=binary sigmoid:1
feature_names=Column_0 Column_1 Column_2 Column_3 Column_4 Column_5 Column_6 Column_7 Column_8 Column_9 Column_10 Column_11 Column_12 Column_13 Column_14 Column_15 Column_16 Column_17 Column_18 Column_19 Column_20 Column_21 Column_22 Column_23 Column_24 Column_25 Column_26 Column_27 Column_28 Column_29 Column_30 Column_31 Column_32 Column_33 Column_34 Column_35 Column_36 Column_37 Column_38 Column_39 Column_40 Column_41 Column_42 Column_43 Column_44 Column_45 Column_46 Column_47 Column_48 Column_49 Column_50 Column_51 Column_52 Column_53 Column_54 Column_55 Column_56 Column_57 Column_58 Column_59 Column_60 Column_61 Column_62 Column_63 Column_64 Column_65 Column_66 Column_67 Column_68 Column_69 Column_70 Column_71 Column_72 Column_73 Column_74 Column_75 Column_76 Column_77 Column_78 Column_79 Column_80 Column_81 Column_82 Column_83 Column_84 Column_85 Column_86 Column_87 Column_88 Column_89 Column_90 Column_91 Column_92 Column_93 Column_94 Column_95 Column_96 Column_97 Column_98 Column_99 Column_100 Column_101 Column_102 Column_103 Column_104 Column_105 Column_106 Column_107 Column_108 Column_109 Column_110 Column_111 Column_112 Column_113 Column_114 Column_115 Column_116 Column_117 Column_118 Column_119 Column_120 Column_121 Column_122 Column_123 Column_124 Column_125 Column_126 Column_127 Column_128 Column_129 Column_130 Column_131 Column_132 Column_133 Column_134 Column_135 Column_136
feature_infos=[-2.1289083837206135:2.3008643057552165] [-2.8047269157518584:2.1449854036572811] [-2.1446683379420959:2.9499676306294158] [-3.0444581662778334:3.2320060681960867] [-3.2043296949102444:2.7186868699575415] [-2.827239577398696:2.678309024554637] [-3.073424587787918:2.5906922278203361] [-2.5261562381735811:2.6413662380354292] [-2.9112715610652877:4.1236828543325768] [-3.635962444843889:3.0321554147099317] [-2.9106576856569419:2.7053888448575183] [-3.3354828615907754:3.0580839293048383] [-2.7620693241695444:2.6575922135868253] [-2.5072933371828174:3.1008554525959564] [-3.690254443470145:2.6096878353712127] [-2.1762439677657954:2.7167331502330372] [-2.9531359170836695:2.9343770020144415] [-2.6354940225789125:3.3003767264629311] [-2.6004112023375705:3.8724125436818366] [-3.0786618284384781:2.8608313089686903] [-3.452428446386409:3.120943244977568] [-2.9362358911935043:3.2751853727965035] [-4.4431476039883044:3.4737034892759597] [-2.8466894079763767:3.4385216240192258] [-3.2250557673079965:4.1333724807315368] [-3.8344324029677952:2.6200090330249179] [-3.4624256901426516:2.687674480725307] [-2.0119365393631465:3.3991596815952652] [-2.2047037543977352:2.6899927932146546] [-3.0935629317585946:2.6605815808820283] [-2.6629040903888668:3.1290976463692148] [-2.8254728534641749:3.445328522857849] [-3.2834429680809936:2.3532868227821524] [-3.6276937747263522:2.4588592741312372] [-3.1243849245873556:2.816345240571188] [-2.984977735944768:2.8888501826786164] [-2.5320732526787895:2.7120903012738666] [-2.5937090047752052:2.5676566354517587] [-3.805839447696604:2.8506242936593686] [-3.8053122841691049:2.8640780005815136] [-3.1097608618589678:2.872351571383077] [-3.6768031222581921:3.6137907163938126] [-2.8561375340610402:3.1356191250756726] [-2.5985976267419382:4.1812540136285961] [-3.299243960944048:3.105034721681692] [-3.0997641055960603:3.1488214611837342] [-3.638480684529811:3.2045070095399319] [-2.8672182245925368:2.6715661064526861] [-2.4704210230261805:3.3201147328032135] [-2.5354873791768533:2.9812581202368702] [-2.467456710192439:4.754662662814785] [-3.3405990759606952:4.0216940291654648] [-3.0971865017878666:2.9435838269868917] [-3.3306150336322813:3.3556401805334692] [-3.9674036249972477:2.9393087755498315] [-3.5578961930197024:2.9465079833212631] [-3.0331938549987405:3.6065849520556403] [-3.3497038372359489:3.3078858388498706] [-2.6706129626627937:3.0122488725510603] [-3.2451116877061112:4.2958218989310328] [-2.6208688485626643:2.6814755773471721] [-2.9028099071233742:2.8601081090322031] [-2.7017474286406404:2.5995420155948921] [-3.0606847971270996:2.9057399032671016] [-4.2992466263381184:2.7223323338862961] [-3.357147119801811:2.7040212936425236] [-2.8961485858054581:3.782091933845066] [-2.8114026078189225:3.6486281580881648] [-3.4135620819392911:2.6561851886645091] [-3.5853500103706208:3.5916068907473013] [-2.9059755690051667:3.2480241591219947] [-3.5400303012118943:3.1666295788930312] [-3.8073356420383941:3.6621690963495923] [-3.1824807815421128:2.7059718100945775] [-4.4607117855603526:2.9905532549126033] [-3.1623069380781539:2.7730145185404886] [-4.3493844991758985:3.1017357518555415] [-2.8355144871553368:3.0235265053896963] [-4.7808328627809971:2.7674236561892243] [-3.2925008807506329:3.4057659496783188] [-2.7459756929156449:2.9974208139965066] [-2.9926782581606868:2.8100183555845626] [-2.770187642648716:2.8649415116234169] [-2.8519874596572703:2.9227307950274946] [-3.0941153808761133:2.4888446402673416] [-3.2348046415434966:2.965631810453917] [-2.7574564838844107:2.9463377801547344] [-2.7077871141572776:3.8135411215696018] [-3.1575272348161438:3.5073392426688779] [-3.2467785372202269:2.7799720292248393] [-2.8134490058738342:3.4909561779480844] [-2.6982963160154672:2.4713866004286551] [-4.5353905594974524:3.3063242688692731] [-2.7028590936580743:3.3442803379476791] [-3.3683839219050022:3.4116120081547208] [-3.2696146552205643:2.6888367009544933] [-2.4675597459645155:3.7953037106675298] [-3.4223347144127567:2.8374333720638396] [-2.8356887219014388:2.9402783445204812] [-3.9889074016111543:3.1501247046982055] [-3.4331143857683459:2.7545888273370562] [-2.7346834413702923:2.9295699629276082] [-3.7215831617556407:3.4097237312805557] [-3.3176250883770222:3.5281417780083055] [-2.7011014758636156:3.7991244900161116] [-2.8452508317453993:2.3868449147276216] [-2.7704127451653218:3.1049948552432727] [-3.433983680290849:3.989969921109469] [-3.1465757927911322:2.4719361156296022] [-4.0149143954202984:3.9254416494290041] [-2.7332261076953932:2.8677439891622063] [-3.4062609847415199:3.00166429547189] [-2.8864748234257274:3.0091663302607095] [-3.3735462739014053:3.0462498383544627] [-2.8713351073816762:4.4875275334450988] [-3.1989513964256759:3.9841427521554746] [-3.6620929520806955:2.6745341635755104] [-3.2344044300982473:2.6623990612021506] [-3.1864722598818793:2.8482643178362457] [-2.8051110228051286:2.9683696416392094] [-2.4509119141973197:3.2763243660687653] [-2.6633293800492499:2.9366653135227718] [-3.2703898613246611:3.3251435596480752] [-3.0093041228703052:3.130242568700254] [-3.4443895892835887:3.3458426228712494] [-3.9637879763784483:3.3236828300606627] [-4.0542046718129052:3.2525604629383311] [-3.4690443025368971:3.333558522773052] [-1.382498991797749:2.3310749423743067] [-0.7346760877930465:1.3611440696320782] [-0.77011271452534269:1.2985112193821473] [-0.31385898535260498:3.1861442452461413] [-0.28697202159177437:3.4846602621858316] [-0.15833394419077826:6.315765107165487] none [-0.20613810382126152:4.8511167099270214] [-0.19136279238623985:5.2256762536242425]
tree_sizes=2292 2123 2021 2020 2022 2032 2237 2241 2029 2114 1699 1916 2018 1813 2747 1928 1929 1917 1826 1816 1821 1924 1821 2030 2145 2233 2355 2136 2231 2027 1943 2028 2132 2122 2150 1601 1714 2888 2037 2022 2030 2245

Tree=0
num_leaves=21
num_cat=0
split_feature=0 1 3 3 62 6 4 29 70 16 75 86 130 12 14 93 68 41 27 0
split_gain=180.193 135.815 126.439 91.3143 76.6586 64.7619 56.902 74.8673 41.6577 40.0695 35.8453 27.6395 49.2295 26.4292 26.0414 23.4004 19.628 4.48142 1.65228 2.84217e-14
threshold=0.13769513032700212 -0.4035089340679886 -1.2284079481904551 0.62580973622940983 1.3647187524928186 0.55455966854179939 1.0062701025764682 0.66173610474875555 1.1844145570810189 0.48751198757256192 0.47861582580598544 -0.9743720890671782 1.0000000180025095e-35 0.16483259462977554 0.29899154029211006 -0.55334374280110632 1.7319338576971006 0.91192826465078636 -0.15288810123817098 -1.4140067016163902
decision_type=2 2 2 2 2 2 2 2 2 2 2 2 2 2 2 2 2 2 2 2
left_child=2 8 15 4 9 18 11 19 17 -3 -9 12 -4 -6 -7 -1 -13 -2 -5 -8
right_child=1 3 6 5 13 14 7 10 -10 -11 -12 16 -14 -15 -16 -17 -18 -19 -20 -21
leaf_value=-0.45135094944136683 -0.54592987306688145 -0.3471329103765185 -0.54592987337469512 -0.51076591374848823 -0.54592987348744948 -0.33494612478033081 -0.54592986884381889 -0.33494612613809371 -0.40747178187139688 -0.41699535787339115 -0.49089063140671851 -0.54448477787322314 -0.33494613011118024 -0.41497443982217241 -0.47057853239801284 -0.33494612411693769 -0.44043799438993214 -0.49318393348390688 -0.54592987203488119 -0.54592987340807042
leaf_weight=6.8725671768188503 26.779312908649448 65.644867122173309 6.6355819106101972 4.2657312154769906 8.7684475779533368 7.5835225582122785 4.5027164816856411 11.375283956527712 7.5835223197937003 29.860119879245758 5.4506566524505606 103.79946160316467 4.7397017478942871 6.8725672960281363 6.6355820894241333 11.612268984317778 4.7397013902664176 4.7397013604640952 15.404029607772827 8.2944774031639081
leaf_count=6 26 39 9 5 6 5 4 7 9 23 5 99 4 4 5 6 5 6 12 9
internal_value=-0.464149 -0.429984 -0.501591 -0.407687 -0.38578 -0.479536 -0.51684 -0.454785 -0.512684 -0.368976 -0.385463 -0.53217 -0.45802 -0.488389 -0.398241 -0.378225 -0.539941 -0.537998 -0.538304 -0.54593
internal_weight=352.16 184.137 168.022 145.035 111.146 33.8889 149.538 29.6231 39.1025 95.505 16.8259 119.914 11.3753 15.641 14.2191 18.4848 108.539 31.519 19.6698 12.7972
internal_count=294 140 154 99 72 27 142 25 41 62 12 117 13 10 10 12 104 32 17 13
is_linear=0
shrinkage=1


Tree=1
num_leaves=19
num_cat=0
split_feature=128 9 61 82 30 66 120 104 30 86 61 11 53 121 16 62 14 2
split_gain=473.411 53.6186 63.1475 69.9435 40.9374 51.2468 35.368 50.1252 45.2083 43.1764 31.8125 6.25737 5.50782 1.99013 0.126806 0.0153987 0.00668533 0.00182909
threshold=1.8668782006027997 -0.16281331843529367 0.70827167975764638 -0.37988737372581866 0.22862215528046703 -0.35341967641391553 -0.26567975613574785 -0.75030657744304563 -0.94089751470399396 0.059853979595822136 -1.1475385774990741 0.56953055018836751 -0.34159527602620382 -1.4345290718783101 0.37455348121492132 1.0219510652665951 0.69228791358580832 -0.23767739519773565
decision_type=2 2 2 2 2 2 2 2 2 2 2 2 2 2 2 2 2 2
left_child=1 2 4 11 10 -6 13 9 -9 -8 -1 -4 -5 -3 16 -15 17 -2
right_child=14 6 3 12 5 -7 7 8 -10 -11 -12 -13 -14 15 -16 -17 -18 -19
leaf_value=0.033440240657151156 0.12075023552710856 -0.043283711828761923 -0.079103992294148648 0.060910092897388281 -0.048265076478040431 0.079444223880924258 -0.030947621634390771 0.062440175878087922 -0.0584989086777776 0.10948419784277469 -0.065268921432948102 0.0034892443279241816 0.12300884615152113 -0.079457541624415914 0.12639702791194871 -0.081796914410054072 0.12173339986150933 0.12008339554915737
leaf_weight=9.8291119933128339 19.409391403198239 4.0031157135963431 6.5112485289573687 4.5286431312561062 14.257014244794847 17.494157254695892 11.054500818252565 8.5973551869392377 76.351924180984497 10.841098904609678 48.13910835981369 3.5399399995803833 16.880425453186035 45.932316720485687 11.954460382461546 8.3065068721771222 12.100083589553831 21.870554447174076
leaf_count=8 8 4 8 5 15 17 10 8 70 8 48 5 10 43 5 8 5 9
internal_value=0.000297731 -0.0274195 -0.00216239 0.0587906 -0.0235357 0.0220998 -0.0459592 -0.0288724 -0.0462592 0.0385839 -0.0485318 -0.0500154 0.109873 -0.0773049 0.121742 -0.0798158 0.1207 0.120397
internal_weight=351.601 286.266 121.18 31.4603 89.7194 31.7512 165.087 106.845 84.9493 21.8956 57.9682 10.0512 21.4091 58.2419 65.3345 54.2388 53.38 41.2799
internal_count=294 267 116 28 88 32 151 96 78 18 56 13 15 55 27 51 22 17
is_linear=0
shrinkage=0.05


Tree=2
num_leaves=18
num_cat=0
split_feature=128 9 61 82 6 53 96 125 103 15 100 86 105 53 16 22 2
split_gain=421.517 49.3411 56.8012 61.8936 40.6502 51.1657 34.634 44.4725 28.0875 38.9297 22.6112 12.8769 6.30091 4.77214 0.0868685 0.00538014 0.00158588
threshold=1.8668782006027997 -0.16281331843529367 0.70827167975764638 -0.37988737372581866 -0.058589191298253289 0.19028497734376451 -1.4447242788762014 -0.2196332429773106 -0.52516277157323221 -0.57285070240983915 0.93692550217938653 -0.95797569138811556 -0.19205221297812639 -0.34159527602620382 0.37455348121492132 -0.51347479695717513 -0.23767739519773565
decision_type=2 2 2 2 2 2 2 2 2 2 2 2 2 2 2 2 2
left_child=1 2 4 12 11 -6 7 -3 9 -8 -10 -1 -4 -5 15 -2 -17
right_child=14 6 3 13 5 -7 8 -9 10 -11 -12 -13 -14 -15 -16 16 -18
leaf_value=0.010352924346652548 0.11358068703381957 0.10468086754969382 0.005803129980507641 0.057155636089724848 0.05690628634689944 -0.04843804423985467 0.071806922068491527 -0.058809146766492397 -0.074308219483006116 -0.047452161942375469 -0.01715423801307471 -0.069085438649012954 -0.077642147363239586 0.11456883193710431 0.11732680318968972 0.11268223013352352 0.1120665749033937
leaf_weight=5.9307377338409415 12.319609403610228 8.4371927976608294 3.4943850040435791 4.5833259224891689 25.708181917667389 20.894870281219482 9.8872088193893415 8.2043577432632429 92.910316288471222 22.223838150501251 21.265769004821777 36.482465445995331 6.415799021720888 17.208430528640747 12.226965188980101 22.214987754821774 19.768082141876224
leaf_count=7 5 7 5 5 23 22 7 8 86 23 20 36 8 10 5 9 8
internal_value=0.00024907 -0.0263186 -0.00209166 0.05538 -0.0225594 0.00967427 -0.0442689 0.0240796 -0.0520442 -0.0107315 -0.0636631 -0.0579774 -0.0482189 0.102493 0.113519 0.112662 0.112392
internal_weight=350.177 283.647 120.718 31.7019 89.0163 46.6031 162.929 16.6416 146.287 32.111 114.176 42.4132 9.91018 21.7918 66.5296 54.3027 41.9831
internal_count=294 267 116 28 88 45 151 15 136 30 106 43 13 15 27 22 17
is_linear=0
shrinkage=0.05


Tree=3
num_leaves=18
num_cat=0
split_feature=128 9 61 82 26 27 6 30 20 110 6 19 117 53 16 44 2
split_gain=377.952 45.4698 51.2763 55.1887 43.3389 46.0328 37.5001 52.1114 28.3339 29.8682 29.2934 12.9637 5.90522 4.23637 0.0611424 0.00392477 0.00109953
threshold=1.8668782006027997 -0.16281331843529367 0.70827167975764638 -0.37988737372581866 1.1003694888558628 -0.28554824611053242 -0.12192292986881553 0.22862215528046703 -1.2336774306677796 0.14688508680187951 1.7066112151780264 1.3412341863438815 -0.86539721594070385 -0.34159527602620382 0.37455348121492132 0.13465297678896052 -0.23767739519773565
decision_type=2 2 2 2 2 2 2 2 2 2 2 2 2 2 2 2 2
left_child=1 2 6 12 8 -6 11 -8 9 -3 -10 -1 -4 -5 15 16 -2
right_child=14 4 3 13 5 -7 7 -9 10 -11 -12 -13 -14 -15 -16 -17 -18
leaf_value=-0.070749424171678163 0.10599687901846043 0.046976623320524026 0.0055073529077372639 0.053762861389177463 0.11386580797673884 -0.045692869463453689 -0.030137646797409497 0.077899881389669134 -0.067400654562395787 -0.075897366852389625 0.037295920836629512 0.0077290392704381016 -0.075579212651712524 0.10758804815444201 0.10987401485923361 0.1067665387624892 0.10548660819981687
leaf_weight=32.83782160282135 22.427979707717892 13.329343795776369 3.4994234442710876 4.6277242898941067 8.6133227348327654 9.5124379396438581 32.108437657356262 17.108912527561188 114.19911646842957 7.8632997870445243 7.0962105989456168 6.266363561153411 6.2652971744537371 17.403069615364075 12.398566007614134 12.447876691818236 19.945840120315555
leaf_count=33 9 12 5 5 7 9 31 17 109 8 6 7 8 10 5 5 8
internal_value=0.000209358 -0.0252903 -0.00202141 0.0524259 -0.0426922 0.0301291 -0.0216223 0.00741831 -0.0519558 0.00138557 -0.0612755 -0.0581734 -0.0465199 0.0962817 0.106703 0.105986 0.105757
internal_weight=347.951 280.731 120.117 31.7955 160.614 18.1258 88.3215 49.2174 142.488 21.1926 121.295 39.1042 9.76472 22.0308 67.2203 54.8217 42.3738
internal_count=294 267 116 28 151 16 88 48 135 20 115 40 13 15 27 22 17
is_linear=0
shrinkage=0.05


Tree=4
num_leaves=18
num_cat=0
split_feature=128 0 2 120 118 9 8 67 65 114 76 66 16 45 76 113 2
split_gain=340.892 79.3581 59.7942 60.6866 49.2673 44.5727 33.6152 38.8789 25.3317 23.7095 11.4297 4.90839 0.044003 0.0167972 0.00329674 0.0030788 0.000792299
threshold=1.8668782006027997 0.097434472852194226 1.1984767775179355 -0.26567975613574785 -0.23604159019494961 -0.49834687386752036 0.471368136583104 -0.25285873158446742 -0.64237448648050777 0.088130148953459955 1.7342717391964364 1.2019661955253438 0.37455348121492132 0.71350021533798857 -0.50784238953465066 1.24614761037116 -0.23767739519773565
decision_type=2 2 2 2 2 2 2 2 2 2 2 2 2 2 2 2 2
left_child=1 6 3 5 -5 -3 10 9 -9 -8 11 -1 15 14 -4 16 -2
right_child=12 2 13 4 -6 -7 7 8 -10 -11 -12 -13 -14 -15 -16 -17 -18
leaf_value=-0.074998796753533381 0.10035699663278744 0.03446902004931688 -0.075273352462461043 -0.01447015668442325 0.074440111493467784 -0.067054524531886706 0.10649956657899998 0.056103468442015886 -0.068851820432219282 -0.038440032371237332 0.0077068480000201112 -0.042324887114089681 0.10364450151078058 -0.077307014368978341 -0.073659566646593358 0.10104622724358014 0.099924478304911302
leaf_weight=81.142061054706573 22.499713420867916 17.483057141304016 4.4594491720199594 23.097268134355545 47.87982165813446 28.330104053020477 8.6794542670249921 4.9588112831115749 22.277280449867249 4.1805987358093253 4.9318630695343009 13.391057431697844 12.483995914459227 5.6967010498046866 10.900086045265198 12.496550083160399 19.999940156936649
leaf_count=81 9 13 6 20 42 27 6 5 26 5 6 14 5 6 10 5 8
internal_value=0.000176215 -0.0243409 0.00256773 0.0165504 0.0455071 -0.0283115 -0.0509188 -0.0122697 -0.0461015 0.059382 -0.066499 -0.0703704 0.100965 -0.0749882 -0.0741281 0.100356 0.100153
internal_weight=344.888 277.408 137.846 116.79 70.9771 45.8132 139.561 40.0961 27.2361 12.8601 99.465 94.5331 67.4802 21.0562 15.3595 54.9962 42.4997
internal_count=294 267 124 102 62 40 143 42 31 11 101 95 27 22 16 22 17
is_linear=0
shrinkage=0.05


Tree=5
num_leaves=18
num_cat=0
split_feature=128 0 118 68 3 41 63 8 123 21 18 125 54 20 43 63 111
split_gain=346.367 73.7903 63.7132 48.4227 42.375 37.9378 47.9616 61.1619 21.1618 10.5537 10.4033 3.03598 0.0812605 0.0379273 0.0130703 0.00079052 4.41942e-05
threshold=1.8668782006027997 0.62661292812501734 -0.21197685634154731 1.1475550215978043 0.91343730752933594 -0.14930697481233138 -0.212182608687669 0.17343028739641442 -0.58328295220191773 1.7076093733834101 -1.014625325577925 1.6235648069466946 -0.75943965273850544 0.35947918705739651 -0.60017854569138629 0.72113745251142125 -0.57058014011318681
decision_type=2 2 2 2 2 2 2 2 2 2 2 2 2 2 2 2 2
left_child=1 5 8 4 -4 9 10 -8 -3 11 -7 -1 -2 -10 -14 16 -16
right_child=12 2 3 -5 -6 6 7 -9 13 -11 -12 -13 14 -15 15 -17 -18
leaf_value=-0.074579182354064216 0.099777349299632695 0.029547865516784174 0.097301916493859705 -0.074542971298345681 -0.0046777142148540004 0.011758421383507141 -0.044647938150945005 0.049836645067554614 -0.073213354532637179 -0.00056700151662812009 -0.074400259963311399 -0.032687715277055503 0.096990605835046206 -0.077689118548550776 0.095430366659899124 0.095009307527134435 0.095563472305432134
leaf_weight=75.753027260303497 17.467733383178711 6.4035131931304958 31.418652832508087 7.2678441405296317 15.073538422584532 3.8723931908607474 34.429872691631317 34.082665503025055 12.120234012603762 5.4954652190208426 36.787584185600281 4.5869042873382559 17.479069232940674 7.7660386562347403 12.471299171447752 12.465483427047728 12.473058938980104
leaf_count=77 7 6 27 7 14 5 37 30 12 6 39 4 7 7 5 5 5
internal_value=-0.000531972 -0.026138 0.0142827 0.0454765 0.0642384 -0.0427305 -0.0231755 0.00235494 -0.0495055 -0.0676021 -0.0661946 -0.0721874 0.0968071 -0.0749612 0.0958618 0.0953344 0.0954969
internal_weight=347.414 275.058 80.0498 53.76 46.4922 195.008 109.173 68.5125 26.2898 85.8354 40.66 80.3399 72.3566 19.8863 54.8889 37.4098 24.9444
internal_count=300 271 73 48 41 198 111 67 25 87 44 81 29 19 22 15 10
is_linear=0
shrinkage=0.05


Tree=6
num_leaves=20
num_cat=0
split_feature=128 0 118 25 1 124 44 106 110 8 12 47 114 71 0 58 102 74 124
split_gain=315.098 67.9277 58.3787 43.0086 42.2049 39.7258 39.9331 39.1582 36.182 29.4623 35.112 1.82317 1.61975 0.0657262 0.0714939 0.0216825 0.0089037 0.00282699 0.000343375
threshold=1.8668782006027997 0.62661292812501734 -0.44019767854863862 0.12258928317275149 -0.18969698480440891 0.55789024810975929 -0.4634678370857353 0.79379029672637225 -0.38855358314518612 0.17343028739641442 0.22139104377297472 1.6475454261327502 -0.50032753357674919 -0.51644107295410169 1.5008795984654395 -0.10844119323273459 0.43779437619656886 0.2706081905907512 -0.34006920951594338
decision_type=2 2 2 2 2 2 2 2 2 2 2 2 2 2 2 2 2 2 2
left_child=1 5 12 4 -4 9 16 -5 -8 11 -11 -1 -3 14 -2 -14 -7 18 -15
right_child=13 2 3 7 -6 6 8 -9 -10 10 -12 -13 15 17 -16 -17 -18 -19 -20
leaf_value=-0.07248729221973875 0.097212450615029034 -0.037457962008531624 -0.024952329981868041 -0.04574938266287671 0.10414763700653036 -0.071116081615782381 -0.033259858982022182 0.092452198183952727 0.081998418944734308 -0.056146052732319242 0.022724055464447362 -0.037765753727552198 -0.076717872210517402 0.090932185162477808 0.0920813106937034 -0.072602977245764602 -0.074034872061686324 0.091949856688162274 0.091267838215436742
leaf_weight=87.417306959629059 12.479809045791628 3.8554697632789638 8.3175143003463727 20.213333249092106 26.502236783504486 8.7630717158317548 11.433782041072847 6.8666898608207694 16.83423638343811 36.676309049129486 22.936237692832947 3.9515727162361136 4.9703068137168893 19.801080465316769 14.886282205581663 8.994869709014889 3.7227677106857291 12.401816129684446 12.385473728179933
leaf_count=89 5 5 9 20 19 11 14 7 15 38 21 5 5 8 6 8 5 5 5
internal_value=-0.000534254 -0.0251927 0.0135964 0.0365542 0.0733091 -0.0413206 0.00248528 -0.0107056 0.035379 -0.053145 -0.0258004 -0.0709856 -0.0661471 0.0924924 0.0944213 -0.0740675 -0.0719863 0.0913085 0.0910613
internal_weight=343.41 271.456 79.7204 61.8998 34.8198 191.735 40.7539 27.08 28.268 150.981 59.6125 91.3689 17.8206 71.9545 27.3661 13.9652 12.4858 44.5884 32.1866
internal_count=300 271 73 55 28 198 45 27 29 153 59 94 18 29 11 13 16 18 13
is_linear=0
shrinkage=0.05


Tree=7
num_leaves=20
num_cat=0
split_feature=128 0 118 103 96 124 48 7 11 8 12 91 47 7 71 45 78 105 42
split_gain=287.736 62.6068 53.4432 37.811 42.1239 36.9533 37.2096 34.0191 30.622 28.2485 32.3663 6.29931 1.78365 1.58312 0.0500225 0.0582558 0.0210333 0.000503273 0.000101779
threshold=1.8668782006027997 0.62661292812501734 -0.44019767854863862 -0.067998168075773788 1.1988236349055938 0.55789024810975929 0.28695288269495117 0.10252644248030648 0.66538154664685301 0.17343028739641442 0.22139104377297472 0.51095376802539694 1.6475454261327502 -0.15208562729207001 -0.2326724642096141 0.13903529925438143 -0.26401674891256721 -0.13104810633344396 -0.2114738118375579
decision_type=2 2 2 2 2 2 2 2 2 2 2 2 2 2 2 2 2 2 2
left_child=1 5 13 4 -4 9 8 -5 -7 12 -11 -8 -1 16 15 -2 -3 -16 -19
right_child=14 2 3 7 -6 6 11 -9 -10 10 -12 -13 -14 -15 17 -17 -18 18 -20
leaf_value=-0.070924319138477701 0.088510352425143449 -0.074373538503894818 0.09735840284129392 -0.072043264280610461 -0.049876758075639675 0.079402424674067162 -0.072091569731124835 0.038677254202224259 -0.04211766672053923 -0.054417370038639307 0.021484569662764109 0.0050219969127754827 -0.036349605004522667 -0.034277679800615232 0.087772300055351027 0.092885067322930476 -0.070394278875222913 0.087504164521086059 0.087300263499625608
leaf_weight=84.939363777637482 19.658326864242554 5.4773256182670602 27.257898330688477 11.876261413097383 5.9113787412643424 16.677831828594211 12.88653600215912 16.682924211025238 7.5224191546440116 35.967470943927765 23.043639004230499 3.3333698511123648 3.901538372039794 3.4853862524032584 14.708882331848143 12.416420936584471 8.434441089630127 12.245046377182007 12.235459804534912
leaf_count=89 8 5 22 11 6 16 16 16 9 38 21 4 5 5 6 5 8 5 5
internal_value=-0.000534844 -0.0243274 0.0129922 0.0348071 0.0711184 -0.0400117 0.00235435 -0.00736558 0.0416291 -0.0515939 -0.0247779 -0.0562439 -0.0694059 -0.0644114 0.0887396 0.0902038 -0.071961 0.0875411 0.0874023
internal_weight=338.662 267.398 79.1256 61.7285 33.1693 188.272 40.4202 28.5592 24.2003 147.852 59.0111 16.2199 88.8409 17.3972 71.2641 32.0747 13.9118 39.1894 24.4805
internal_count=300 271 73 55 28 198 45 27 25 153 59 20 94 18 29 13 13 16 10
is_linear=0
shrinkage=0.05


Tree=8
num_leaves=18
num_cat=0
split_feature=128 0 118 41 63 8 68 64 124 19 78 46 114 119 26 39 105
split_gain=263.584 57.7403 49.0014 34.8402 41.7372 34.9532 34.034 29.3309 17.265 23.7959 7.49921 1.90053 1.60461 0.0420707 0.0153208 0.00343975 0.00022097
threshold=1.8668782006027997 0.62661292812501734 -0.44019767854863862 0.019421941052931425 -0.212182608687669 0.17343028739641442 1.1475550215978043 -0.83285129249421364 0.90084324267888738 0.39008918254641139 0.91261267327407103 1.6054480388895309 -0.50032753357674919 -0.39390828284330165 -0.17124703781890979 -0.55551672181057998 -0.13104810633344396
decision_type=2 2 2 2 2 2 2 2 2 2 2 2 2 2 2 2 2
left_child=1 3 12 8 10 -6 7 -4 11 -10 -5 -1 -3 -2 -14 -15 -17
right_child=13 2 6 4 5 -7 -8 -9 9 -11 -12 -13 14 15 -16 16 -18
leaf_value=-0.070403886761429141 0.087264293362171161 -0.033754753074036824 -0.031547335931945815 -0.07070573251394828 -0.032588411362659074 0.046747157673847461 -0.071439918758613094 0.063648924280678434 -0.0700448233719181 0.057494018457845422 -0.0025795868670684249 -0.035394393418962208 -0.06950431580343662 0.085354989768590822 -0.0729476123446057 0.084533293873820137 0.084281220476959767
leaf_weight=77.278296172618866 21.985554218292236 3.7105288505554226 9.8801728487014753 28.117853224277496 25.792829871177673 30.067260503768921 6.9003450870513907 44.693554759025574 7.7323296666145307 6.9395849108695984 4.7171923518180838 4.0812490582466117 7.663571536540986 12.128894090652464 5.5847352743148777 14.497833013534544 21.717265844345093
leaf_count=80 9 5 9 34 30 27 7 39 11 6 5 5 7 5 6 6 9
internal_value=-0.000535391 -0.0235153 0.0124278 -0.0387763 -0.0161818 0.0101148 0.0331854 0.0464143 -0.0596447 -0.00972096 -0.0609185 -0.0686477 -0.0628164 0.0854509 -0.0709558 0.0846262 0.0843821
internal_weight=333.489 263.16 78.4329 184.727 88.6951 55.8601 61.4741 54.5737 96.0315 14.6719 32.835 81.3595 16.9588 70.3295 13.2483 48.344 36.2151
internal_count=300 271 73 198 96 57 55 48 102 17 39 85 18 29 13 20 15
is_linear=0
shrinkage=0.05


Tree=9
num_leaves=19
num_cat=0
split_feature=0 12 8 98 5 20 3 40 59 57 116 58 17 93 28 111 41 113
split_gain=109.098 55.2313 55.7864 49.4582 39.0578 36.8797 35.1759 34.9532 38.413 28.5219 26.2474 25.5225 24.8605 21.0599 9.90266 7.21922 4.30806 1.95693
threshold=0.62661292812501734 0.1315746087221927 -0.19246272371501091 -0.81591385298907426 -1.4051800887421859 0.92040394739249576 0.40869048110158546 0.39802101103867404 0.21921555596554423 -0.75470491812923257 1.4310548618393346 0.36567962721847286 -1.4615100827036647 -1.2515177606970391 0.64951669961149816 2.2677063756438156 1.2883540451142508 1.5521549307312867
decision_type=2 2 2 2 2 2 2 2 2 2 2 2 2 2 2 2 2 2
left_child=1 10 9 17 14 6 -4 12 -9 11 13 -3 -6 -1 -5 -15 -11 -2
right_child=3 2 5 4 7 -7 -8 8 -10 16 -12 -13 -14 15 -16 -17 -18 -19
leaf_value=0.014306403445557531 -0.070432868893538544 -0.067730752142382486 0.063773588720056548 0.018935737010931489 -0.068761144471647731 -0.071574377615844884 -0.045913089529896089 -0.036148210157414311 0.086158251772625705 -0.068835960049905984 0.054700073845812117 0.074008617265752946 0.08406909254920325 -0.068258117771763813 -0.071276604874139907 0.002685522897737097 -0.0082804793876278659 -0.027689967912361554
leaf_weight=9.3398875594139081 8.5786073803901655 5.0101391077041617 46.684109389781952 5.1204612255096418 2.7727903127670279 7.4962099194526663 8.6661845445632917 16.697771668434147 10.429644405841826 31.331081688404083 5.6050915122032157 8.6756840944290143 65.949673891067505 77.457080036401749 7.4942581653594971 3.7600178122520438 3.2408804297447196 3.8931254744529715
leaf_count=8 8 7 34 5 3 7 10 17 8 34 5 6 39 88 7 5 5 4
internal_value=-0.000534201 -0.0225544 0.0014579 0.0372051 0.0480476 0.0325044 0.0466 0.0589325 0.0108748 -0.0389742 -0.050298 0.0221203 0.0779028 -0.0567969 -0.0346584 -0.0649737 -0.0631593 -0.0570904
internal_weight=328.203 207.266 111.104 120.936 108.465 62.8465 55.3503 95.8499 27.1274 48.2578 96.1621 13.6858 68.7225 90.557 12.6147 81.2171 34.572 12.4717
internal_count=300 209 103 91 79 51 44 67 25 52 106 13 42 101 12 93 39 12
is_linear=0
shrinkage=0.05


Tree=10
num_leaves=15
num_cat=0
split_feature=128 0 96 1 22 7 68 95 125 8 9 128 108 119
split_gain=193.205 54.8589 38.951 33.7021 28.9296 26.507 36.9687 25.225 22.7892 18.0915 16.1969 1.22587 1.08202 0.0638414
threshold=0.93848471705978576 0.60321170835755278 -0.99306883436088478 -1.0698447891467504 -1.7423611948900801 0.045219616148943528 0.56967985765999407 0.13572902009977081 1.6235648069466946 -0.94032160310888169 -0.16281331843529367 1.8668782006027997 0.067519139806398731 0.48796516162475007
decision_type=2 2 2 2 2 2 2 2 2 2 2 2 2 2
left_child=1 4 -3 -2 -1 7 -7 -4 10 -5 -6 12 -11 -13
right_child=3 2 5 9 8 6 -8 -9 -10 11 -12 13 -14 -15
leaf_value=0.060008131201582639 -0.03016834319507293 0.098015838416242909 0.014782817540663344 0.028038795702309452 -0.029580176616204254 0.069439286630683827 -0.0758287920519152 -0.070478868568558575 0.063878828534540424 0.10780057232293788 -0.063584097806467912 0.083197831035135172 0.084260420531325361 0.079300808738371503
leaf_weight=6.7693686783313742 8.7559452056884748 11.112756490707396 15.845606148242949 17.329696416854858 60.685912787914276 18.919993072748188 5.6987311840057364 19.169399976730347 4.5981645584106436 9.9021602869033831 82.801694333553314 19.146915912628174 9.6278100013732892 23.29616641998291
leaf_count=7 5 9 15 9 71 21 8 19 5 5 100 8 5 10
internal_value=0.000111285 -0.0244056 0.0120726 0.0629221 -0.0410708 -0.00394294 0.0358127 -0.0318948 -0.0456914 0.0732004 -0.0492027 0.0858291 0.0961958 0.0810588
internal_weight=313.66 225.602 70.7465 88.0587 154.855 59.6337 24.6187 35.015 148.086 79.3027 143.488 61.9731 19.53 42.4431
internal_count=297 255 72 42 183 63 29 34 176 37 171 28 10 18
is_linear=0
shrinkage=0.05


Tree=11
num_leaves=17
num_cat=0
split_feature=128 0 90 90 98 125 22 131 65 99 73 19 63 128 68 119
split_gain=176.861 50.5775 38.157 34.9785 34.1683 28.3135 28.4177 27.218 36.3393 19.3695 16.1007 15.3275 13.6788 0.956966 0.155587 0.0519988
threshold=0.93848471705978576 0.60321170835755278 0.47156592004687786 -0.53126326417826808 -0.39573261728531134 1.7946451209816858 -1.7423611948900801 1.0000000180025095e-35 -0.20368186442670447 0.40243379699663379 0.72874758589534416 0.090747992867810864 -0.212182608687669 1.8668782006027997 0.20525658871354882 0.48796516162475007
decision_type=2 2 2 2 2 2 2 2 2 2 2 2 2 2 2 2
left_child=1 5 3 9 -5 6 -1 13 -9 -3 14 -10 -8 -2 -4 -15
right_child=7 2 10 4 -6 -7 12 8 11 -11 -12 -13 -14 15 -16 -17
leaf_value=0.056482509387961233 0.094338349715055933 -0.070576644789951834 -0.079573399989547489 -0.045596510012551258 0.085929039662223677 0.099528039787768266 -0.065725044240283401 -0.068674024681107504 0.081206761856740653 0.053551993008595006 0.026178368327988512 0.00015390226979007874 -0.034358450155810925 0.080647760622000686 -0.068100791729954799 0.07700442104713448
leaf_weight=6.8306424021720877 13.618799209594725 9.5922761559486371 3.9825961589813259 5.9711225628852835 28.537209838628769 3.561690390110015 61.275748908519745 7.8592973947525016 17.342953205108646 4.6742475628852835 5.87778216600418 8.7885539531707746 80.315606474876404 21.180623054504395 11.455756962299345 18.216096162796021
leaf_count=7 7 10 5 7 25 4 78 5 8 5 7 5 94 9 13 8
internal_value=9.42629e-05 -0.02358 0.0115572 0.0359455 0.0631706 -0.0397843 -0.0431274 0.0605203 0.0255948 -0.0299075 -0.0442474 0.053947 -0.0479328 0.0829128 -0.0710604 0.0789632
internal_weight=309.081 222.075 70.091 48.7749 34.5083 151.984 148.422 87.0063 33.9908 14.2665 21.3161 26.1315 141.591 53.0155 15.4384 39.3967
internal_count=297 255 72 47 32 183 179 42 18 15 25 13 172 24 18 17
is_linear=0
shrinkage=0.05


Tree=12
num_leaves=18
num_cat=0
split_feature=128 0 90 90 98 62 125 9 63 1 99 73 84 128 4 120 4
split_gain=162.767 46.5979 34.9633 31.7449 30.8647 30.0642 25.607 24.2608 32.2345 18.2716 17.9311 15.0921 7.26342 0.797557 0.634494 0.127154 0.0372266
threshold=0.93848471705978576 0.60321170835755278 0.47156592004687786 -0.53126326417826808 -0.39573261728531134 1.3647187524928186 1.7946451209816858 -0.16281331843529367 -0.2007438084433627 -0.45205063861179012 0.40243379699663379 0.72874758589534416 1.6338957673301195 1.8668782006027997 -0.047145533877765544 0.31299113823812214 -0.43602647079529006
decision_type=2 2 2 2 2 2 2 2 2 2 2 2 2 2 2 2 2
left_child=1 6 3 10 -5 9 7 8 -1 -2 -3 15 -9 14 -11 -4 -15
right_child=5 2 11 4 -6 -7 -8 12 -10 13 -12 -13 -14 16 -16 -17 -18
leaf_value=-0.063172597089095728 0.019168858858556778 -0.069189205257445388 -0.066310984205139048 -0.044206198001941116 0.081858562856895661 -0.033734346462584247 0.092394445595411337 -0.064671750061119235 0.0093685958324084672 0.097430563714241025 0.050766716291398221 0.024796384691985827 -0.011937724196288762 0.078525791855219212 0.079257947666568185 -0.076006595943454103 0.075376041260714816
leaf_weight=25.09673136472702 15.287307500839232 9.3027383685111982 9.8161166906356829 5.8539820909500113 28.460029542446136 7.9899961948394767 3.6426108479499808 73.94672816991806 39.287419646978378 9.9387520551681536 4.6838794350624076 5.8946493864059439 7.1622467041015616 13.861148118972773 9.2956510782241804 5.1587195992469779 29.022168874740604
leaf_count=32 8 10 12 7 25 5 4 95 44 5 5 7 8 6 5 6 13
internal_value=7.99045e-05 -0.0228137 0.011106 0.0344727 0.0603519 0.0586056 -0.0385459 -0.0418241 -0.0189077 0.0681373 -0.029018 -0.0429741 -0.0600151 0.0801885 0.0886481 -0.0696511 0.0763941
internal_weight=303.701 218.306 69.1701 48.3006 34.314 85.395 149.136 145.493 64.3842 77.405 13.9866 20.8695 81.109 62.1177 19.2344 14.9748 42.8833
internal_count=297 255 72 47 32 42 183 179 76 37 15 25 103 29 10 18 19
is_linear=0
shrinkage=0.05


Tree=13
num_leaves=16
num_cat=0
split_feature=128 0 96 62 125 9 63 45 56 5 1 84 128 4 4
split_gain=149.651 43.0167 30.2005 27.6679 23.2536 23.3166 30.5011 21.0008 27.1683 18.134 17.3971 7.05874 0.624272 0.487217 0.0295524
threshold=0.93848471705978576 0.60321170835755278 -0.99306883436088478 1.3647187524928186 1.7946451209816858 -0.16281331843529367 -0.45996255637628536 0.13903529925438143 -0.58019871431146763 -0.62748430844774561 -0.45205063861179012 1.6338957673301195 1.8668782006027997 -0.047145533877765544 -0.43602647079529006
decision_type=2 2 2 2 2 2 2 2 2 2 2 2 2 2 2
left_child=1 4 -3 10 5 6 -1 8 -4 -9 -2 -7 13 -12 -14
right_child=3 2 7 -5 -6 11 -8 9 -10 -11 12 -13 14 -15 -16
leaf_value=-0.067508019798966798 0.018204998922950352 0.087240323388380558 0.082796559599253805 -0.03239422196713191 0.086237691142441397 -0.063574836398329268 0.0060783250128590635 0.032894613504114233 -0.010381543223803379 -0.070643380418911161 0.093071349576011264 -0.011397116953800676 0.076374296968289151 0.077033848866156621 0.073534202281182834
leaf_weight=20.997897505760193 15.291732788085936 10.836159884929655 11.550277173519133 7.9066710472106925 3.7057881951332083 71.522985219955444 42.754498660564423 5.783255040645602 24.242662012577057 15.735192596912382 9.8852438926696795 7.1277825832366934 13.546982049942011 9.0910006761550886 28.280426979064945
leaf_count=27 8 9 10 5 4 95 49 7 27 19 5 8 6 5 13
internal_value=6.40403e-05 -0.0221124 0.0106922 0.0566275 -0.037413 -0.0406308 -0.0181585 -0.00378114 0.0196868 -0.0428167 0.0658772 -0.0588462 0.0778665 0.0853882 0.074454
internal_weight=298.259 214.256 68.1475 84.0021 146.109 142.403 63.7524 57.3114 35.7929 21.5184 76.0954 78.6508 60.8037 18.9762 41.8274
internal_count=297 255 72 42 183 179 76 63 37 26 37 103 29 10 19
is_linear=0
shrinkage=0.05


Tree=14
num_leaves=25
num_cat=0
split_feature=0 3 2 76 2 16 90 35 26 115 31 69 17 48 80 44 50 79 83 76 64 64 106 9
split_gain=65.7107 50.936 44.6365 41.5308 32.2413 39.2032 40.9963 28.7544 29.9679 27.9241 20.8002 18.5461 16.8659 16.023 11.1444 7.51087 6.31402 9.69539 2.2379 1.89217 0.738075 0.10169 0.0507492 0.030205
threshold=0.62661292812501734 -0.72571535111792107 0.19173722806113747 0.43340141492200351 0.021896684559223421 0.48751198757256192 0.49159700891387087 0.488339953383568 -0.17124703781890979 -0.82691548327893794 -0.35434866592904163 1.0507204623300206 -0.73359088348330725 0.50829572185748384 1.7419941356172746 1.4145934666245252 -0.78179007584356519 -0.3433930850029312 0.60220037780489444 1.1386742894851469 1.0000000180025095e-35 0.52672300295443375 -0.054319130090362662 -0.02641133753287378
decision_type=2 2 2 2 2 2 2 2 2 2 2 2 2 2 2 2 2 2 2 2 2 2 2 2
left_child=1 2 9 14 11 6 10 8 -5 -1 -6 16 -11 -9 15 -3 17 -2 21 23 -18 -7 -8 -4
right_child=4 3 19 7 5 18 22 13 -10 12 -12 -13 -14 -15 -16 -17 20 -19 -20 -21 -22 -23 -24 -25
leaf_value=-0.048735231847584312 -0.0095698692046813031 -0.065750008963215853 -0.070161959885449862 -0.067356527691430731 -0.018928387387378256 -0.066390392271935605 -0.066036157803802925 0.10142811001493982 0.035343326491618782 -0.0208081628823263 0.078206953879681268 -0.023385101003374108 0.07670601300191919 -0.0088317047306499755 0.0057768670930686558 -0.0020339135527355965 0.097157478861372562 0.072656511685532096 -0.026221956740654907 -0.021150111854695577 0.079478878226658722 -0.075838669869520189 -0.074185381796523661 -0.064485343863421349
leaf_weight=6.5879848003387442 5.3482546210289028 72.148278594017029 3.3811895847320548 17.044737875461578 7.055647373199462 8.4879515767097491 4.9316344261169434 9.1934375762939435 12.178515851497652 5.1568815708160356 25.179277002811432 5.9406525492668143 31.640718579292301 5.1355670392513266 6.6541202366352072 4.9420343637466422 8.2145975828170794 10.873445212841032 3.8846117258071891 2.9517847895622245 20.9894779920578 4.2857755422592154 3.1185370087623578 7.6345534324645987
leaf_count=7 5 94 5 22 7 8 6 7 14 6 16 6 19 6 7 6 9 6 5 4 14 5 4 9
internal_value=5.21001e-05 -0.018084 0.0210395 -0.035711 0.030971 0.00506149 0.0317394 0.00389124 -0.0245573 0.0460674 0.0569458 0.0596937 0.0630402 0.0619106 -0.0563066 -0.0616654 0.0705585 0.0455467 -0.0594542 -0.0567014 0.0844516 -0.0695604 -0.0691931 -0.0662277
internal_weight=292.96 184.65 57.3531 127.297 108.31 56.9434 40.2851 43.5523 29.2233 43.3856 32.2349 51.3664 36.7976 14.329 83.7444 77.0903 45.4258 16.2217 16.6583 13.9675 29.2041 12.7737 8.05017 11.0157
internal_count=297 206 50 156 91 51 33 49 36 32 23 40 25 13 107 100 34 11 18 18 23 13 10 14
is_linear=0
shrinkage=0.05


Tree=15
num_leaves=17
num_cat=0
split_feature=128 0 2 10 111 86 117 9 4 116 45 7 17 102 40 48
split_gain=144.344 48.5306 49.7601 39.1677 28.3701 27.4145 26.2615 20.6303 17.8056 35.8965 6.76257 0.0953981 0.0600916 0.0228292 0.00981358 0.00857792
threshold=1.8668782006027997 0.097434472852194226 1.1984767775179355 -0.45216000185419808 -0.64088905561574883 -1.0739584356777219 0.50159065338842679 -0.27771215194386534 0.79662121452106971 0.97441986977089046 2.1084272425304191 0.14550979158541286 0.76564686727171372 -0.79627782276659309 0.29703181186564437 -0.10792991231713366
decision_type=2 2 2 2 2 2 2 2 2 2 2 2 2 2 2 2
left_child=1 5 3 7 -5 6 -1 -3 10 -10 -7 15 13 -2 -15 -4
right_child=12 2 11 4 -6 8 -8 -9 9 -11 -12 -13 -14 14 -16 -17
leaf_value=0.0874693183816109 0.073471219646646324 0.024210625052240541 -0.063678241163181271 -0.016802802071012157 0.057394142932240537 -0.064914030799395991 -0.063756067432057903 -0.068794801472760056 -0.050761637735653745 0.092001282389295724 0.0096832943204325263 -0.072047433573292449 0.07563384172309344 0.069840737831244004 0.071624075224055825 -0.066206474141519603
leaf_weight=7.3938983678817731 10.850695610046385 9.546312630176546 8.5709251165390015 17.19826528429985 51.350021481513977 76.167140036821365 4.6930096447467804 15.88251084089279 15.821388781070711 6.1010678410530081 3.1643419861793509 6.3558318614959708 11.10124087333679 14.232928276062013 16.843906402587891 5.5129169225692758
leaf_count=8 5 10 10 19 45 101 8 19 18 6 4 9 5 7 8 7
internal_value=-0.00193257 -0.0192308 0.00374076 0.0191185 0.0387787 -0.0424203 0.0287527 -0.0338793 -0.0509164 -0.0110304 -0.0619385 -0.0669626 0.0723628 0.0714967 0.0708073 -0.0646679
internal_weight=280.786 227.758 114.417 93.9771 68.5483 113.341 12.0869 25.4288 101.254 21.9225 79.3315 20.4397 53.0288 41.9275 31.0768 14.0838
internal_count=289 264 119 93 64 145 16 29 129 24 105 26 25 20 15 17
is_linear=0
shrinkage=0.05


Tree=16
num_leaves=17
num_cat=0
split_feature=128 0 2 10 22 86 117 4 116 39 68 114 56 60 128 8
split_gain=134.048 45.2888 46.2036 35.6205 25.9734 25.592 23.7022 17.1147 32.4568 15.895 6.54878 0.118631 0.0677589 0.0150776 0.0107167 0.00141588
threshold=1.8668782006027997 0.097434472852194226 1.1984767775179355 -0.45216000185419808 0.077524773157874441 -1.0739584356777219 0.50159065338842679 0.79662121452106971 0.97441986977089046 -0.32833634558241914 1.7319338576971006 0.72748068083888395 0.75013301027176726 0.44192539003910075 1.0000000180025095e-35 0.055654191162125076
decision_type=2 2 2 2 2 2 2 2 2 2 2 2 2 2 2 2
left_child=1 5 3 9 -5 6 -1 10 -9 -3 -7 14 13 -2 -4 -15
right_child=12 2 11 4 -6 7 -8 8 -10 -11 -12 -13 -14 15 -16 -17
leaf_value=0.082072787800934313 0.070770818975343833 0.023261453101480339 -0.065607017448210139 0.063756479894328338 0.0014919948892635883 -0.063994734511431284 -0.06291058946524862 -0.049306559774024844 0.086204446945960467 -0.061238841414000704 0.0094612585353755514 -0.073689980993964593 0.073915633965991032 0.069207784359372845 -0.062934762154012239 0.06836301324191367
leaf_weight=7.4835708141326887 18.610032796859741 8.3814919292926806 6.1025651991367349 38.923054158687592 29.400075763463974 73.479606449604034 4.5225948691368103 15.48257949948311 6.1834773421287528 16.562883257865906 3.1648996770381919 3.9089171290397635 13.070937395095823 10.020370721817018 9.739995539188385 9.8219840526580793
leaf_count=8 9 9 11 36 28 101 8 18 6 20 4 5 6 5 10 5
internal_value=-0.00189246 -0.0186638 0.0035811 0.0182929 0.0369635 -0.0414537 0.0274591 -0.0498697 -0.0106318 -0.0328461 -0.0609615 -0.0658889 0.0708056 0.0697485 -0.0639641 0.0687896
internal_weight=274.859 223.336 113.019 93.2675 68.3231 110.317 12.0062 98.3106 21.6661 24.9444 76.6445 19.7515 51.5233 38.4524 15.8426 19.8424
internal_count=289 264 119 93 64 145 16 129 24 29 105 26 25 19 21 10
is_linear=0
shrinkage=0.05


Tree=17
num_leaves=17
num_cat=0
split_feature=128 16 2 4 18 103 79 59 4 78 49 49 54 60 29 64
split_gain=124.637 34.5723 35.399 39.6119 26.404 24.5541 22.8589 9.68432 18.9034 4.31558 0.050655 0.037693 0.0198199 0.00673225 0.00606623 0.00142459
threshold=1.8668782006027997 0.254644111166072 1.1984767775179355 -0.17903264176038239 -0.18399735193640562 0.63044179710303694 1.4031767712468299 0.3164370179675608 1.0773643325080571 1.2473543234747104 1.1936866363857488 -0.92485065370994501 -0.32147584095795978 1.3544668267618418 -0.061330261312816971 -0.34927236843962023
decision_type=2 2 2 2 2 2 2 2 2 2 2 2 2 2 2 2
left_child=1 2 3 5 -5 -1 7 9 -9 -3 13 -2 -13 -4 15 -14
right_child=11 6 10 4 -6 -7 -8 8 -10 -11 -12 12 14 -15 -16 -17
leaf_value=-0.042756445488620197 0.072042527763201483 -0.065805557559137293 -0.061804771222604894 -0.0080480103916605369 0.061439213773904849 0.037286841754978838 0.061353743081704853 -0.047437153392601968 0.047222971904879597 -0.01221185064127104 -0.069376786046390915 0.07056376045778677 0.067055120607359686 -0.064433288725052357 0.069011099242624968 0.067916851980260762
leaf_weight=38.822173267602921 10.539552450180052 48.46408799290657 13.99979448318482 21.17295891046524 38.583846032619476 12.72041219472885 5.0057947039604178 23.437008887529377 6.8055356144905081 4.0718140602111808 2.9350603818893424 10.285231113433836 9.481571435928343 2.9491695761680594 9.9756629467010516 9.7052809000015277
leaf_count=50 5 63 20 26 36 11 5 32 8 5 4 5 5 4 5 5
internal_value=-0.00185205 -0.0181148 -0.00186256 0.00911565 0.0368186 -0.0230022 -0.0424018 -0.0486762 -0.0261356 -0.0616518 -0.0633123 0.0693863 0.0686766 -0.0622621 0.068011 0.067491
internal_weight=268.955 218.968 131.183 111.299 59.7568 51.5426 87.7842 82.7784 30.2425 52.5359 19.884 49.9873 39.4477 16.949 29.1625 19.1869
internal_count=289 264 151 123 62 61 113 108 40 68 28 25 20 24 15 10
is_linear=0
shrinkage=0.05


Tree=18
num_leaves=16
num_cat=0
split_feature=128 0 2 10 111 9 7 116 4 127 114 56 60 128 8
split_gain=115.945 41.7805 40.9526 30.8835 24.5291 18.9353 15.9775 15.5246 33.6962 6.5555 0.085762 0.0453619 0.0098845 0.00721717 0.000936767
threshold=1.8668782006027997 0.097434472852194226 1.1984767775179355 -0.45216000185419808 -0.64088905561574883 -0.27771215194386534 -1.6675528888923477 0.97441986977089046 0.72976178841373274 1.1242004385533451 0.72748068083888395 0.75013301027176726 0.44192539003910075 1.0000000180025095e-35 0.055654191162125076
decision_type=2 2 2 2 2 2 2 2 2 2 2 2 2 2 2
left_child=1 6 3 5 -5 -3 -1 9 -9 -8 13 12 -2 -4 -14
right_child=11 2 10 4 -6 -7 7 8 -10 -11 -12 -13 14 -15 -16
leaf_value=0.036800249257562 0.068046858287940729 0.024700108038163429 -0.063692392403061709 -0.016852737895593224 0.052571359379790843 -0.066118831002842646 -0.060738827340855887 -0.063575287006297179 0.0739624628289587 -0.022348300841383936 -0.070792250446053459 0.070703249908781074 0.066741891570090625 -0.061417313733672131 0.066031831678420819
leaf_weight=6.3499200046062461 17.487313747406006 9.3865670561790484 5.6787988543510464 17.016794264316559 50.427882611751556 14.770680785179136 67.383493512868881 10.134963363409044 7.9436558485031119 13.317521572113035 3.7217036485671988 12.362456679344175 9.3907512426376361 9.0271497368812543 9.1912219524383527
leaf_count=6 9 10 11 19 45 19 101 15 8 15 5 6 5 10 5
internal_value=-0.00180554 -0.0175387 0.00399824 0.0176799 0.0350551 -0.0308301 -0.0400795 -0.0450216 -0.00314188 -0.0544035 -0.0640118 0.0680895 0.0671936 -0.0622959 0.0663907
internal_weight=263.591 215.159 110.03 91.6019 67.4447 24.1572 105.13 98.7796 18.0786 80.701 18.4277 48.4317 36.0693 14.7059 18.582
internal_count=289 264 119 93 64 29 145 139 23 116 26 25 19 21 10
is_linear=0
shrinkage=0.05


Tree=19
num_leaves=16
num_cat=0
split_feature=128 0 98 17 40 86 117 106 77 89 123 78 17 102 40
split_gain=108.05 38.9762 29.8219 41.719 23.8196 23.1782 19.8883 15.7843 15.054 14.9348 10.7918 2.62719 0.0276367 0.0101882 0.00424804
threshold=1.8668782006027997 0.097434472852194226 -0.39573261728531134 -0.071974708630685558 -0.50848350450386792 -1.0739584356777219 0.50159065338842679 1.0119528940636331 1.7919420907289672 0.72408988876298197 -1.4807426602565792 0.64387597511619543 0.76564686727171372 -0.79627782276659309 0.29703181186564437
decision_type=2 2 2 2 2 2 2 2 2 2 2 2 2 2 2
left_child=1 5 7 4 -4 6 -1 11 10 -5 -7 -3 13 -2 -15
right_child=12 2 3 9 -6 8 -8 -9 -10 -11 -12 -13 -14 14 -16
leaf_value=0.075966195848884935 0.067669954947446362 -0.065958734036624375 0.040161552017007211 0.064384400352852755 -0.046658079748511647 0.014069030158107954 -0.061025980818361497 0.041343733498013353 0.032859738785482866 -0.01488618809560939 -0.057568561523824238 -0.015590137737901209 0.069242167625570478 0.065097778841388454 0.066349791139480363
leaf_weight=7.4777963161468488 9.6266695261001569 19.341894835233695 11.38288766145706 37.214595943689346 25.82119756937027 5.6288458108901969 4.1031526923179626 4.7284609377384177 5.452260047197341 7.0706784129142752 79.614916294813156 2.9889454245567313 9.9337365627288801 12.465766072273256 14.840965986251829
leaf_count=8 5 22 10 34 31 7 8 7 5 10 117 5 5 7 8
internal_value=-0.00176779 -0.0170331 0.00383513 0.0189371 -0.0200949 -0.0391809 0.0274296 -0.0416446 -0.0476864 0.0517279 -0.0528382 -0.059217 0.066901 0.0662713 0.0657782
internal_weight=257.693 210.826 108.549 81.4894 37.2041 102.277 11.5809 27.0593 90.696 44.2853 85.2438 22.3308 46.8671 36.9334 27.3067
internal_count=289 264 119 85 41 145 16 34 129 44 124 27 25 20 15
is_linear=0
shrinkage=0.05


Tree=20
num_leaves=16
num_cat=0
split_feature=128 0 120 98 2 9 97 59 125 29 104 111 54 77 19
split_gain=108.25 44.3088 40.078 35.3842 21.4925 20.5462 25.0058 18.2476 15.879 13.0754 6.84586 0.197965 0.0160296 0.00550851 0.0026396
threshold=1.8668782006027997 0.13769513032700212 -0.26567975613574785 -0.89773069027488961 1.012639611044907 -0.13122533251406834 -0.40206238271035738 -1.5792539561978238 1.7946451209816858 1.4200311223519402 -1.0000000180025095e-35 0.71615158570797177 -0.75943965273850544 0.54141304082703023 0.45024066207116364
decision_type=2 2 2 2 2 2 2 2 2 2 2 2 2 2 2
left_child=1 7 5 10 -5 6 -3 -1 9 -9 -4 -7 -2 14 -14
right_child=12 2 3 4 -6 11 -8 8 -10 -11 -12 -13 13 -15 -16
leaf_value=0.039070309005054121 0.067242865508283414 -0.06673437372946836 0.012361960263352893 0.056883627060332287 -0.048375175293578009 -0.064718341791429185 0.050718913330455709 -0.057076313877603563 0.068125757416367186 0.013382496763363944 -0.064964434595814163 -0.075466224014125616 0.065176256614593364 0.064097516362788945 0.066236604269863303
leaf_weight=6.4598013758659354 13.264118671417235 7.5838044881820705 4.0030161142349252 48.020286232233047 5.3944519758224478 16.436492174863819 11.259534776210783 83.207848906517029 2.8618798851966849 7.1503691077232352 10.044211208820339 5.7947797179222098 16.064889788627628 8.5775260925292951 9.2479497194290143
leaf_count=8 7 8 5 46 9 20 11 130 3 9 10 7 9 5 5
internal_value=-0.00263671 -0.0181285 0.00397559 0.0276834 0.0462533 -0.0349628 0.00344795 -0.0421966 -0.0478281 -0.0515007 -0.0429289 -0.0675199 0.0657693 0.0651926 0.0655637
internal_weight=255.371 208.216 108.537 67.462 53.4147 41.0746 18.8433 99.6799 93.2201 90.3582 14.0472 22.2313 47.1545 33.8904 25.3128
internal_count=292 266 116 70 55 46 19 150 142 139 15 27 26 19 14
is_linear=0
shrinkage=0.05


Tree=21
num_leaves=17
num_cat=0
split_feature=128 10 59 20 39 50 112 17 69 35 5 104 56 54 44 30
split_gain=101.075 24.0943 22.9422 26.1846 21.8744 21.8203 8.87191 16.9673 8.19051 6.07037 13.4546 0.0633782 0.0157324 0.0102993 0.00412438 0.00051082
threshold=1.8668782006027997 -0.53876617245413161 -1.5792539561978238 -0.96536681989534656 0.2389480560283915 -0.24479931535962787 1.1827242656392742 0.12187302492544794 0.37529178305152183 1.0429201372644874 0.4806132461132297 0.43292129557393133 0.3496996496832448 -0.57563677970263871 0.039420679716613054 -0.20238917536379025
decision_type=2 2 2 2 2 2 2 2 2 2 2 2 2 2 2 2
left_child=1 6 8 4 -4 -5 9 -8 -3 11 -11 -1 14 -14 15 -2
right_child=12 2 3 5 -6 -7 7 -9 -10 10 -12 -13 13 -15 -16 -17
leaf_value=-0.06149668223145114 0.063203167199485863 0.098255803195655689 0.064808766222932024 -0.052319427132396561 -0.040513973517820726 -0.006399665956680619 -0.063609485180759637 0.078915481338767357 0.013677843428965259 -0.061074581212967043 0.061023339867503329 -0.065652061082151145 0.067014460533713391 0.064742150519702238 0.064819738013575878 0.063755959855528774
leaf_weight=21.161646008491516 8.2623884677886981 6.410323500633238 17.141364902257923 40.46684855222702 6.9200046956539145 71.721425741910934 4.5570800602436048 3.8543899059295654 5.1718665957450867 6.6302987039089185 3.4201691746711731 16.201322436332703 9.460499048233034 10.544964790344237 8.8070926666259748 8.4562889337539691
leaf_count=31 5 6 14 57 12 92 6 5 5 11 4 23 5 6 5 5
internal_value=-0.00258075 -0.0176376 -0.00706918 -0.0128121 0.0345181 -0.0229631 -0.045624 0.00169976 0.0604887 -0.0540196 -0.0195247 -0.0632985 0.0647669 0.0658167 0.0639441 0.0634828
internal_weight=249.188 203.657 147.832 136.25 24.0614 112.188 55.8249 8.41147 11.5822 47.4134 10.0505 37.363 45.5312 20.0055 25.5258 16.7187
internal_count=292 266 186 175 26 149 80 11 11 69 15 54 26 11 15 10
is_linear=0
shrinkage=0.05


Tree=22
num_leaves=16
num_cat=0
split_feature=128 0 1 107 18 111 59 125 29 41 33 56 54 44 30
split_gain=94.3013 41.1148 27.8609 33.3858 24.818 17.6393 15.9101 14.4147 12.1522 7.26578 0.168517 0.0129419 0.00844829 0.00340278 0.000422185
threshold=1.8668782006027997 0.13769513032700212 -0.89449780295578407 -0.16023518965518743 -1.148450324099054 -0.61589638454415152 -1.5792539561978238 1.7946451209816858 1.4200311223519402 0.50719248056383937 0.5345150885678599 0.3496996496832448 -0.57563677970263871 0.039420679716613054 -0.20238917536379025
decision_type=2 2 2 2 2 2 2 2 2 2 2 2 2 2 2
left_child=1 6 9 4 -4 -5 -1 8 -8 10 -3 13 -13 14 -2
right_child=11 2 3 5 -6 -7 7 -9 -10 -11 -12 12 -14 -15 -16
leaf_value=0.034322428004825656 0.062394541004811926 -0.061896873115953002 0.074058647093783486 -0.0071472242440366405 -0.036956806731297996 0.062200389190109368 -0.055772075537982226 0.063725691828994277 0.012680709817492886 0.0048901365632938315 -0.07354842318794215 0.065912463185042014 0.063818261911029697 0.063890239301919158 0.062906523862585065
leaf_weight=6.5497145652770987 7.9586890935897854 11.014295548200609 6.0182910859584799 12.324845135211943 30.791350871324539 35.820422649383545 78.640869289636612 2.8732103109359732 7.0661000907421103 4.876032054424285 4.3205429613590232 9.1457170248031634 10.172189593315123 8.496336102485655 8.1497199535369891
leaf_count=8 5 15 6 12 34 35 130 3 9 8 6 5 6 5 5
internal_value=-0.00250741 -0.0170569 0.00448851 0.0170409 -0.018806 0.0444479 -0.0408753 -0.0464355 -0.0501285 -0.0482748 -0.0651797 0.0638411 0.0648097 0.0630806 0.0626536
internal_weight=244.218 200.296 105.166 84.9549 36.8096 48.1453 95.1299 88.5802 85.707 20.2109 15.3348 43.9227 19.3179 24.6047 16.1084
internal_count=292 266 116 87 40 47 150 142 139 29 21 26 11 15 10
is_linear=0
shrinkage=0.05


Tree=23
num_leaves=18
num_cat=0
split_feature=128 0 120 98 112 2 81 47 17 38 87 6 56 104 54 44 30
split_gain=88.1321 38.3775 35.1788 30.2582 20.0139 18.5732 14.9763 19.2478 10.4975 7.95722 6.84492 6.5874 0.0106769 0.00749173 0.0069515 0.00281492 0.000349812
threshold=1.8668782006027997 0.13769513032700212 -0.26567975613574785 -0.89773069027488961 -1.2439273040048635 1.012639611044907 1.0869570308677481 0.3906954825838394 2.0797666920779574 -1.2265841122142109 -0.4770030259954659 -0.31562519709905151 0.3496996496832448 0.63138684993865068 -0.57563677970263871 0.039420679716613054 -0.20238917536379025
decision_type=2 2 2 2 2 2 2 2 2 2 2 2 2 2 2 2 2
left_child=1 6 4 11 -3 -5 8 13 9 -1 -6 -4 15 -8 -14 16 -2
right_child=12 2 3 5 10 -7 7 -9 -10 -11 -12 -13 14 -15 -16 -17 -18
leaf_value=-0.0052767529464758977 0.061644851028533766 0.052026377164305894 0.014110743785883848 0.053789792575680055 -0.01904602796927397 -0.04665472786865274 -0.05820841190042543 0.057948688056545662 0.04528013026065264 -0.057729625413929647 -0.066302785290084251 -0.063344668517159877 0.064898209966714318 -0.061735788784511074 0.062964227211699905 0.063031119823643997 0.062119823671952012
leaf_weight=8.0996982455253583 7.6602637767791748 5.8067311644554129 3.8798143267631522 46.835928827524185 12.216290116310118 5.1037995815277091 3.3654504418373099 8.0756530165672284 2.872832477092742 67.369871288537979 20.557178676128387 9.3854978680610639 8.8321652412414569 2.7233904898166656 9.8039848804473859 8.1893147230148298 7.8479292392730731
leaf_count=12 5 5 5 46 14 9 6 9 4 115 27 10 5 4 6 5 5
internal_value=-0.00244614 -0.0165575 0.00431504 0.0267066 -0.0335293 0.0439197 -0.0399749 0.00733844 -0.0485292 -0.0521002 -0.0486879 -0.0406907 0.0629854 -0.0597861 0.0638808 0.0622812 0.0618852
internal_weight=238.626 196.292 103.785 65.205 38.5802 51.9397 92.5069 14.1645 78.3424 75.4696 32.7735 13.2653 42.3337 6.08884 18.6362 23.6975 15.5082
internal_count=292 266 116 70 46 55 150 19 131 127 41 15 26 10 11 15 10
is_linear=0
shrinkage=0.05


Tree=24
num_leaves=19
num_cat=0
split_feature=128 10 16 2 48 51 85 2 120 125 121 123 102 109 56 26 44 30
split_gain=82.4739 21.7741 24.1297 24.0957 22.1744 16.4895 18.2587 7.89807 20.1409 3.47 1.5224 0.100446 0.0533172 0.0178071 0.00883168 0.00382328 0.00233435 0.000290521
threshold=1.8668782006027997 -0.53876617245413161 0.254644111166072 1.2633352400896525 0.36480960832254045 -0.11171894471901032 -0.43638508463451769 -0.48631708307934035 0.5732160167652105 1.1626688359120803 0.45605096233271775 0.31623340900653313 -0.51525253845161056 -0.87165132639911536 0.3496996496832448 0.33334572537235735 0.039420679716613054 -0.20238917536379025
decision_type=2 2 2 2 2 2 2 2 2 2 2 2 2 2 2 2 2 2
left_child=1 7 3 4 -3 11 -7 8 10 12 -1 -4 -9 -5 16 -16 17 -2
right_child=14 2 5 13 -6 6 -8 9 -10 -11 -12 -13 -14 -15 15 -17 -18 -19
leaf_value=-0.061605244370939588 0.060948709605325203 0.046442475488133073 -0.060349557258483157 -0.063412956541922888 -0.0097558273473422729 -0.062797556900948792 0.015589108239781772 -0.065263941040365883 0.078851143072222823 -0.014235235510132855 -0.018466126394640358 -0.067599447915646746 -0.060649223314088778 -0.058863018803270883 0.063666803464484695 0.062196703779576402 0.062235617566123363 0.061390021254189603
leaf_weight=7.7057262659072858 7.3677769899368295 40.296607315540314 17.253822237253193 3.0843175053596497 31.099167317152023 10.712621003389357 24.235971450805664 8.4583640396594948 4.2517744302749625 4.3366062343120566 2.784062385559082 6.6070938408374777 24.073557078838352 7.101987808942793 10.086475133895876 7.8761258125305167 7.8869522809982291 7.55166780948639
leaf_count=12 5 41 27 4 40 18 34 12 5 6 6 9 39 13 6 5 5 5
internal_value=-0.00239498 -0.0161094 -0.00590035 0.0116992 0.0219631 -0.0303149 -0.00843837 -0.0438803 -0.0129475 -0.0562486 -0.0501558 -0.0623571 -0.0618491 -0.0602407 0.062193 0.0630222 0.0615399 0.0611721
internal_weight=232.771 192.002 140.392 81.5821 71.3958 58.8095 34.9486 51.6101 14.7416 36.8685 10.4898 23.8609 32.5319 10.1863 40.769 17.9626 22.8064 14.9194
internal_count=292 266 186 98 81 88 52 80 23 57 18 36 51 17 26 11 15 10
is_linear=0
shrinkage=0.05


Tree=25
num_leaves=20
num_cat=0
split_feature=128 1 97 14 0 86 4 94 59 8 14 41 94 89 29 17 56 79 116
split_gain=75.2588 33.5174 31.9315 22.6352 22.4595 14.6132 14.2173 26.2138 12.2575 18.7433 9.35316 8.83985 6.92203 1.39016 0.0237192 0.0127144 0.0025494 0.000957471 0.000574976
threshold=1.8668782006027997 0.029577462945327582 -0.42817930708704299 0.87159315691691752 0.32859909639429502 1.253241783059591 1.0539632269037054 -0.288278275139421 -1.4458539036932441 -1.0000000180025095e-35 2.1117865886661749 1.1772662324287373 0.82489039131414554 0.91380264107175235 0.53705998392517362 0.74480165451721791 0.85447302738323205 -0.83370261405442936 0.4266974961036803
decision_type=2 2 2 2 2 2 2 2 2 2 2 2 2 2 2 2 2 2 2
left_child=1 6 5 4 -4 11 8 13 9 -1 -10 -3 -9 -8 -5 16 17 -2 -19
right_child=15 2 3 14 -6 -7 7 12 10 -11 -12 -13 -14 -15 -16 -17 -18 18 -20
leaf_value=-0.060273611213415415 0.061247976243196257 -0.061594098885398123 -0.00011921271305832381 -0.059828684725951001 0.054390320869388886 0.057486247783125471 -0.068060297775766457 0.088968213433344476 -0.058979891026963875 0.086630417190933034 0.024414063422927883 0.034162614050842012 0.0010933441732068109 -0.025110820758723937 -0.065570874759660502 0.063202498703652563 0.061804068974187998 0.060356358832779303 0.060923726931760375
leaf_weight=4.5715520679950714 7.4933720827102652 23.302751481533058 34.465735197067261 4.1146118342876425 41.834192276000977 3.474748194217681 7.0423814952373522 6.591826915740965 56.252439856529236 4.1354821324348432 3.5759829580783835 2.688199281692504 3.395304948091507 2.572160542011261 3.1947293877601624 8.1709125041961652 7.7209261655807486 11.37003636360169 7.3532668352127066
leaf_count=6 5 37 50 8 39 3 9 6 91 5 5 4 6 5 4 5 5 8 5
internal_value=0.000646169 -0.0120747 0.00594197 0.0217155 0.0297676 -0.0388155 -0.0351891 0.00236101 -0.0459287 0.00949974 -0.0539954 -0.0516901 0.0590936 -0.0565701 -0.0623385 0.0614318 0.0610055 0.0607703 0.0605792
internal_weight=243.321 201.212 113.075 83.6093 76.2999 29.4657 88.1371 19.6017 68.5355 8.70703 59.8284 25.991 9.98713 9.61454 7.30934 42.1085 33.9376 26.2167 18.7233
internal_count=306 278 145 101 89 44 133 26 107 11 96 41 12 14 12 28 23 18 13
is_linear=0
shrinkage=0.05


Tree=26
num_leaves=21
num_cat=0
split_feature=128 1 3 8 12 51 44 27 22 50 15 12 8 72 74 17 60 56 77 118
split_gain=70.6015 31.287 21.2992 25.4298 22.3752 19.1771 14.949 21.7646 14.5077 18.6769 12.734 9.97584 0.07363 0.0697907 0.0621896 0.0105931 0.00913939 0.00212087 0.000871945 0.000473382
threshold=1.8668782006027997 0.029577462945327582 0.29874800482293135 -0.036258876710414986 -0.031904255559624041 0.052591802313697186 -0.23355270698411298 -1.0830971701284124 0.27936992096840435 0.11906978677863493 -1.7960374223598294 0.75407243037360827 -0.31756302499570693 -0.33627771899318998 0.89587259917180018 0.74480165451721791 1.3544668267618418 0.85447302738323205 0.54141304082703023 -0.29013181430476587
decision_type=2 2 2 2 2 2 2 2 2 2 2 2 2 2 2 2 2 2 2 2
left_child=1 6 3 5 -5 -3 12 11 9 -4 -9 -8 16 -14 -10 17 -1 18 19 -2
right_child=15 2 8 4 -6 -7 7 10 14 -11 -12 -13 13 -15 -16 -17 -18 -19 -20 -21
leaf_value=-0.058335374673143869 0.06059838478607299 -0.053961592569492484 -0.061187178467017378 0.0054816321864980602 0.074094367452822343 0.025651442810900378 -0.01628970358248653 0.049325430224139037 -0.059949266168490445 0.046121737322969196 -0.041787332311927571 0.090685827807763172 -0.069374856926127035 -0.061739231402921813 -0.067576673727525141 0.062398008025578128 -0.061773555285048111 0.06109681510009303 0.059710794474044919 0.060070994565711723
leaf_weight=13.843266218900682 8.6566512584686297 15.802420705556871 6.6289519965648678 21.920255780220032 25.947363942861557 14.509043008089064 3.4592711031436902 4.2471537590026847 12.901069581508638 10.442212820053099 39.499554455280304 5.8899403214454651 3.9423424601554897 12.422108858823774 3.3706296086311331 7.8700685501098624 2.246527671813964 7.4272266626358023 8.1702474355697614 8.3677893877029437
leaf_count=23 6 24 11 31 22 18 6 5 22 13 63 5 5 22 4 5 4 5 6 6
internal_value=0.000618242 -0.0117372 0.00571176 0.0199819 0.0426742 -0.0158536 -0.0344834 -0.0181427 -0.0277475 0.00445231 -0.0329416 0.0511042 -0.0612172 -0.0635787 -0.0615293 0.0607515 -0.0588154 0.0603543 0.0601354 0.0603392
internal_weight=237.564 197.072 111.522 78.1791 47.8676 30.3115 85.5502 53.0959 33.3429 17.0712 43.7467 9.34921 32.4542 16.3645 16.2717 40.492 16.0898 32.6219 25.1947 17.0244
internal_count=306 278 145 95 53 42 133 79 50 24 68 11 54 27 26 28 27 23 18 12
is_linear=0
shrinkage=0.05


Tree=27
num_leaves=19
num_cat=0
split_feature=128 0 41 12 8 2 5 123 98 21 77 125 14 17 56 94 77 118
split_gain=66.2624 24.6377 26.4233 25.2335 24.232 19.3326 23.1994 20.6564 10.847 1.67307 0.0553211 0.0293176 0.0254592 0.00884367 0.001768 0.00118096 0.000727919 0.000394628
threshold=1.8668782006027997 0.40102835121608787 -0.14930697481233138 0.1315746087221927 0.17343028739641442 1.1984767775179355 -1.5090201981215399 -0.84700693396721538 1.6295272911140872 1.7076093733834101 0.61558205577288994 0.98621309509028865 0.80883926115548499 0.74480165451721791 0.85447302738323205 -0.45770149646570607 0.54141304082703023 -0.29013181430476587
decision_type=2 2 2 2 2 2 2 2 2 2 2 2 2 2 2 2 2 2
left_child=1 2 9 8 -5 6 10 -8 -4 11 -3 -1 15 14 16 -7 17 -2
right_child=13 5 3 4 -6 12 7 -9 -10 -11 -12 -13 -14 -15 -16 -17 -18 -19
leaf_value=-0.059117353441004522 0.059975263380150134 -0.068947785602682096 -0.045014044341302753 -0.028097462362557432 0.056718457976698881 -0.058878212515742392 -0.029327401583572912 0.042862829830592128 0.057375008924389709 -0.019662428043830258 -0.060338364282407519 -0.062683439646888772 -0.064371859277457519 0.061651706111701836 0.06043930822584799 -0.057504168442317066 0.059147945015611172 0.059483964877222573
leaf_weight=33.359535276889801 8.3178395032882744 3.4865906238555899 33.043646603822708 14.070589661598204 20.974262237548828 3.712179958820343 12.32862016558647 50.49405699968338 2.8063685595989218 2.7847975492477408 4.0139985978603363 6.9671916961669913 2.3615457117557526 7.5745556354522696 7.1399003267288199 2.7019966542720777 7.8438568115234366 8.0362429618835467
leaf_count=59 6 4 61 26 19 6 16 52 3 5 6 11 5 5 5 5 6 6
internal_value=0.000593975 -0.0114007 -0.026277 -0.00750594 0.0226647 0.0100406 0.0187727 0.0286959 -0.0369989 -0.0571451 -0.0643404 -0.0597335 -0.0599335 0.0601185 0.0597479 -0.0582994 0.0595439 0.0597338
internal_weight=232.018 193.105 114.006 70.8949 35.0449 79.099 70.3233 62.8227 35.85 43.1115 7.50059 40.3267 8.77572 38.9124 31.3378 6.41418 24.1979 16.3541
internal_count=306 278 184 109 45 94 78 68 64 75 10 70 16 28 23 11 18 12
is_linear=0
shrinkage=0.05


Tree=28
num_leaves=20
num_cat=0
split_feature=0 41 12 5 72 98 123 66 79 119 86 48 125 68 89 103 95 27 1
split_gain=33.3202 31.6066 27.4486 20.8051 18.9264 15.7662 15.1094 14.6086 14.2316 18.7286 14.0746 13.2651 11.314 11.0445 9.19929 8.53672 8.24579 3.87129 3.30346
threshold=0.62661292812501734 0.019421941052931425 0.1908481470571716 -1.5090201981215399 0.67528232427712542 -0.81591385298907426 -0.82312728303211036 -0.032749467987379995 -0.49625416222913427 -0.071678152761428957 -0.9743720890671782 -0.18870010647519334 1.0448988860812898 -0.047063872675299538 -1.656985436913869 1.5358544697912235 -0.31416650911652294 1.2519619635447909 1.3695623605795053
decision_type=2 2 2 2 2 2 2 2 2 2 2 2 2 2 2 2 2 2 2
left_child=1 10 8 -2 7 16 13 -4 9 -3 11 -1 -10 -7 -8 18 -5 -13 -12
right_child=3 2 4 5 -6 6 14 -9 12 -11 15 17 -14 -15 -16 -17 -18 -19 -20
leaf_value=0.073858093741148947 -0.064567332938023442 -0.060598790522609636 0.0073914548038021555 0.044051800900458911 -0.060565922772561759 0.046149428357024978 -0.025694443034349725 0.071682230023286705 -0.058906381824262569 0.063766655405196868 -0.059360005592522275 -0.060360368072939707 0.047123798069402451 -0.062534105528957704 0.056785573555070946 0.010907462713852005 -0.061386626634973775 0.024318604310377991 -0.0076272530405972865
leaf_weight=4.8778701424598694 5.8441647589206687 4.7655777633190146 14.309903323650358 2.6571380794048309 4.5828060805797568 4.0620076656341553 3.6105589270591727 23.098325937986374 21.295667290687565 8.2990134656429273 46.616881519556046 4.562096953392027 2.852983981370925 5.5061459839344007 53.084245949983597 5.2820062637329093 6.1368796825408918 1.9168265163898466 3.3046267926692954
leaf_count=4 8 9 22 4 7 4 4 20 41 10 78 10 4 10 50 5 8 3 5
internal_value=0.00056855 -0.0137132 0.00763031 0.0263009 0.0353397 0.0333762 0.0417244 0.0470889 -0.0236366 0.0184018 -0.0391112 0.0115803 -0.0463797 -0.0163942 0.0515329 -0.0495398 -0.0295281 -0.0353076 -0.0559355
internal_weight=226.666 145.765 79.2043 80.9011 41.991 75.057 66.263 37.4082 37.2132 13.0646 66.5603 11.3568 24.1487 9.56815 56.6948 55.2035 8.79402 6.47892 49.9215
internal_count=306 218 113 88 49 80 68 42 64 19 105 17 45 14 54 88 12 13 83
is_linear=0
shrinkage=0.05


Tree=29
num_leaves=18
num_cat=0
split_feature=128 1 97 14 55 3 86 27 61 3 35 41 29 17 56 79 58
split_gain=58.9729 26.8336 25.6531 18.7009 18.6986 18.429 13.0566 11.7165 18.3806 11.4105 9.26023 7.27314 0.0119109 0.00690088 0.00141783 0.000589752 0.000210503
threshold=1.8668782006027997 0.029577462945327582 -0.42817930708704299 0.87159315691691752 -1.345800504082858 0.29874800482293135 1.253241783059591 -1.0830971701284124 -0.62038713442968019 0.085804458812002452 1.7172656851737542 1.1772662324287373 0.53705998392517362 0.74480165451721791 0.85447302738323205 -0.4003150400911521 0.18359330425693263
decision_type=2 2 2 2 2 2 2 2 2 2 2 2 2 2 2 2 2
left_child=1 4 6 5 9 -4 11 8 -6 -1 -9 -3 -5 14 15 -2 -17
right_child=13 2 3 12 7 -7 -8 10 -10 -11 -12 -13 -14 -15 -16 16 -18
leaf_value=0.093368693618744919 0.058836849657928604 -0.059745493273107922 0.042662626462728628 -0.058592323194432527 0.08624200325514543 -0.014552047158844689 0.056214908288947318 -0.054671741466715142 -0.040663415915568636 -0.032617296229840498 0.031772352113128316 0.030267593806214389 -0.062873452709699726 0.060456287818403356 0.059354450516148419 0.058128703566656927 0.058525609433593619
leaf_weight=4.4529839158058158 8.9205530881881749 20.74005779623986 52.851903259754181 3.7302365303039542 4.3572985529899588 19.182564109563828 3.3040195703506461 56.128607094287872 8.2659569382667524 3.0134406685829163 3.2790598571300498 2.5164289176464072 2.8783242404460907 7.0501780509948722 6.6258535385131827 7.2164821624755859 6.2198135852813721
leaf_count=5 7 37 60 8 4 29 3 98 15 6 5 4 4 5 5 6 5
internal_value=0.000541078 -0.0108739 0.00569276 0.0200415 -0.0327976 0.0274265 -0.0367924 -0.0406049 0.00314183 0.0425209 -0.0499004 -0.0500058 -0.0604569 0.0590533 0.0587121 0.0585217 0.0583124
internal_weight=220.734 184.701 105.204 78.643 79.4973 72.0345 26.5605 72.0309 12.6233 7.46642 59.4077 23.2565 6.60856 36.0329 28.9827 22.3568 13.4363
internal_count=306 278 145 101 133 89 44 122 19 11 103 41 12 28 23 18 11
is_linear=0
shrinkage=0.05


Tree=30
num_leaves=17
num_cat=0
split_feature=128 16 2 120 56 98 29 2 67 97 112 49 105 38 119 87
split_gain=50.2693 21.3921 21.8622 18.4163 19.4432 16.6767 12.7637 12.4857 15.4169 3.09555 0.0185592 0.00611692 0.00176457 0.00141585 0.00124518 0.000431107
threshold=1.8668782006027997 0.23487378409772663 1.1984767775179355 -0.22709919601325942 -1.2415882390213955 -0.81591385298907426 2.2793990572073524 -0.23767739519773565 0.60786011006290919 1.2803308512849336 1.0804526237434788 -0.92485065370994501 -0.27225700137641295 -0.25683089406745085 -0.066512930160842476 -1.0000000180025095e-35
decision_type=2 2 2 2 2 2 2 2 2 2 2 2 2 2 2 2
left_child=1 2 3 4 -1 -5 7 8 -3 -9 14 -2 -13 -14 -4 -15
right_child=11 6 10 5 -6 -7 -8 9 -10 -11 -12 12 13 15 -16 -17
leaf_value=0.065130217845288399 0.059993984861080069 0.016644322547762484 -0.057364850667761071 -0.022639539851061128 -0.030796899097892079 0.042116654436967708 0.066092424677447276 -0.059405530803328478 -0.060468988579759679 -6.9031734343431966e-05 -0.061061912172619665 0.057632818638167188 0.059164745608958548 0.058519303211699486 -0.056116147984993071 0.057947744513053984
leaf_weight=6.3491852283477774 6.878504514694213 18.267318814992908 4.8830122649669638 12.360333651304243 31.436393618583679 50.822820752859116 3.2580486536025992 32.554980605840683 10.046020984649656 2.3571866154670706 3.8387303054332724 6.8898999691009548 6.5295790433883694 7.4609912633895901 3.3772274851799002 5.9144639968872026
leaf_count=6 5 29 11 18 47 60 3 61 16 4 7 6 5 6 8 5
internal_value=0.00260391 -0.0079097 0.00532429 0.012935 -0.0146781 0.0294486 -0.0304166 -0.0353897 -0.0107167 -0.0553993 -0.0581893 0.0586639 0.0583225 0.0585612 -0.0568543 0.0582666
internal_weight=213.225 179.551 113.068 100.969 37.7856 63.1832 66.4836 63.2255 28.3133 34.9122 12.099 33.6734 26.7949 19.905 8.26024 13.3755
internal_count=297 270 157 131 53 78 113 110 45 65 26 27 22 16 19 11
is_linear=0
shrinkage=0.05


Tree=31
num_leaves=18
num_cat=0
split_feature=128 0 38 103 2 8 63 20 60 41 7 33 2 6 49 88 38
split_gain=47.3274 22.8045 19.7121 19.6151 18.5295 17.5231 20.4457 18.4831 14.2055 12.0431 9.5371 2.19147 0.03701 0.00659539 0.00513356 0.00163879 0.00091408
threshold=1.8668782006027997 0.24722713406884153 0.91193289308874925 -0.067998168075773788 -0.85311970362301637 0.17343028739641442 -0.212182608687669 0.57893982411166001 -0.79047411932958689 1.9932929945600371 0.61820502055737225 1.6140289002023429 -0.12465764303207212 -0.20092476411882268 -0.92485065370994501 0.25571565444184363 -0.25683089406745085
decision_type=2 2 2 2 2 2 2 2 2 2 2 2 2 2 2 2 2
left_child=1 5 3 8 -5 9 13 -8 -3 11 12 -1 -4 -7 -2 16 -16
right_child=14 2 10 4 -6 6 7 -9 -10 -11 -12 -13 -14 -15 15 -17 -18
leaf_value=-0.057507165302086716 0.059413972059893995 -0.0013618414003271065 -0.067665098356601491 0.051375573806426246 -0.027662031542751198 -0.058889041282214463 0.037414626215562338 -0.059962061265016735 0.065377515345938636 0.05756982461477568 0.038325171828399278 -0.0044743523357028301 -0.061257957305038836 -0.056559270915107429 0.05863867852134267 0.057352633475622999 0.057858746436352984
leaf_weight=38.951646476984024 6.6052874326705924 11.348494470119475 3.034827232360839 10.284516692161558 26.581284880638123 5.2664809226989746 24.882719039916996 6.0598609745502463 26.807656437158585 2.5290029644966117 2.8983865380287162 2.0505330562591544 8.7587454319000226 7.1782778203487378 6.2654347419738761 10.042709469795225 9.3823893070220965
leaf_count=82 5 14 3 12 39 11 31 9 28 3 4 4 12 18 5 9 8
internal_value=0.00251762 -0.0076581 0.0100255 0.0203973 -0.00561277 -0.0259105 -0.00342313 0.0183442 0.0455277 -0.0483235 -0.042936 -0.054855 -0.0629067 -0.0575452 0.0581708 0.0578511 0.058171
internal_weight=208.928 176.632 89.7139 75.022 36.8658 86.9185 43.3873 30.9426 38.1562 43.5312 14.692 41.0022 11.7936 12.4448 32.2958 25.6905 15.6478
internal_count=297 270 112 93 51 158 69 40 42 89 19 86 15 29 27 22 13
is_linear=0
shrinkage=0.05


Tree=32
num_leaves=19
num_cat=0
split_feature=128 0 120 2 38 63 41 72 9 97 37 46 69 96 75 49 88 78
split_gain=44.5958 21.1813 26.8822 22.8554 17.3129 16.6101 18.6143 17.7708 14.979 18.0308 5.84448 1.58295 0.0658893 0.0113659 0.00901424 0.00431421 0.00137741 0.000837237
threshold=1.8668782006027997 0.24722713406884153 -0.22709919601325942 0.90879748840935048 1.0047927291015748 -0.212182608687669 -0.14930697481233138 0.84087630939100488 -0.29658450262637076 -0.20903412473029559 0.94914816532695501 1.3251583283489723 1.0507204623300206 1.2410190683571065 1.5160900895022611 -0.92485065370994501 0.25571565444184363 -0.06543222049292588
decision_type=2 2 2 2 2 2 2 2 2 2 2 2 2 2 2 2 2 2
left_child=1 5 8 4 -4 13 11 -8 9 -3 -5 -7 -10 14 -1 -2 17 -17
right_child=15 2 3 10 -6 6 7 -9 12 -11 -12 -13 -14 -15 -16 16 -18 -19
leaf_value=-0.056441357073124532 0.058872671478454021 -0.061006220752320206 0.055547744420140335 -0.059689500700431913 -0.03438032029384451 -0.057377440082091939 0.026242186656715207 -0.059258414476489399 -0.060285062963768447 0.055802452308040595 0.023127578855483538 -0.012873430965832884 -0.068802723218853279 -0.060803986286313574 -0.058958941306077144 0.057403660602554987 0.056942994517852411 0.058165734574719713
leaf_weight=21.412384480237968 6.3394463062286404 5.4897239506244651 41.830757170915604 7.7297848463058454 6.1372693479061118 15.823659569025041 31.276569366455078 7.5429129004478446 13.349704146385195 8.2966875433921832 2.9408113062381744 2.286827325820922 2.7357449531555167 1.9659985899925221 4.2634427547454825 8.9807264804840106 9.6199002265930158 6.0199655294418326
leaf_count=52 5 7 45 14 8 33 43 14 22 9 4 4 3 3 9 8 9 5
internal_value=0.00244039 -0.00744585 0.00965178 0.0293191 0.0440419 -0.0253398 -0.00989946 0.00962879 -0.0289552 0.00928945 -0.0368652 -0.0517579 -0.0617337 -0.05714 -0.0568594 0.0577095 0.05741 0.0577095
internal_weight=204.042 173.082 88.5105 58.6386 47.968 84.5718 56.93 38.8195 29.8719 13.7864 10.6706 18.1105 16.0854 27.6418 25.6758 30.96 24.6206 15.0007
internal_count=297 270 112 71 53 158 94 57 41 16 18 37 25 64 61 27 22 13
is_linear=0
shrinkage=0.05


Tree=33
num_leaves=19
num_cat=0
split_feature=128 0 120 2 8 27 38 3 9 97 102 90 121 76 109 49 88 78
split_gain=42.0525 19.6136 24.8007 20.9267 16.6192 18.5097 15.7998 14.3984 14.2961 17.6821 9.79511 6.30299 3.1569 2.37719 1.47239 0.00363073 0.0011592 0.000704186
threshold=1.8668782006027997 0.24722713406884153 -0.22709919601325942 0.90879748840935048 0.17343028739641442 -1.0579267401248762 1.0047927291015748 -0.40571490476497701 -0.49834687386752036 -0.20903412473029559 1.7575026149231123 -0.96238554737568782 0.57782391243949927 1.65302018376757 1.1623869784619025 -0.92485065370994501 0.25571565444184363 -0.06543222049292588
decision_type=2 2 2 2 2 2 2 2 2 2 2 2 2 2 2 2 2 2
left_child=1 4 8 6 10 12 -4 -7 9 -3 13 -5 -6 -1 -10 -2 17 -17
right_child=15 2 3 11 5 7 -8 -9 14 -11 -12 -13 -14 -15 -16 16 -18 -19
leaf_value=-0.056905704060667188 0.058366942589940067 -0.060854829581248417 0.053358858348817866 0.028384149868884906 0.024776167958872247 0.017735465739995303 -0.033118308191470963 -0.049560856330380751 -0.061209451724085207 0.070159506839499272 0.04245388814594156 -0.05971546556269465 0.083652866211881574 0.0016883120225363877 -0.020472384976003771 0.056990717163327181 0.056558857290118059 0.057704641591467709
leaf_weight=36.128022089600563 6.081191539764407 4.312301903963089 41.380979210138321 2.7723767459392548 3.8841792941093427 14.004807889461516 6.0547218918800345 18.378975078463554 15.618870615959169 6.3937458992004412 2.822150617837905 7.5837458372116071 5.5014742612838745 1.8181114196777333 2.5852545201778403 8.6030606031417864 9.2113067507743818 5.7709642648696891
leaf_count=81 5 6 45 4 6 19 8 39 25 6 4 14 5 4 4 8 9 5
internal_value=0.00236656 -0.00725895 0.00934873 0.0282625 -0.0247045 -0.00253886 0.0423209 -0.0204576 -0.0284603 0.0173881 -0.0474145 -0.0361308 0.0592872 -0.0540983 -0.0554242 0.0572776 0.0569967 0.0572773
internal_weight=198.906 169.24 86.702 57.7918 82.5377 41.7694 47.4357 32.3838 28.9102 10.706 40.7683 10.3561 9.38565 37.9461 18.2041 29.6665 23.5853 14.374
internal_count=297 270 112 71 158 69 53 58 41 12 89 18 11 85 29 27 22 13
is_linear=0
shrinkage=0.05


Tree=34
num_leaves=19
num_cat=0
split_feature=128 16 2 4 97 46 23 81 22 107 99 112 105 30 61 84 33 45
split_gain=39.6715 18.2913 18.5063 16.5467 19.1471 14.8573 11.2423 17.2791 15.8927 4.94995 1.24507 0.0127901 0.00993364 0.00259872 0.00128427 0.000923968 0.000568477 0.000256979
threshold=1.8668782006027997 0.23487378409772663 1.1984767775179355 -0.076973182499563683 0.45760120855994829 0.41384679515166517 0.22293782142201837 -0.15367922352991051 0.47048028077791521 -1.1064463913889957 0.772982167690768 1.0804526237434788 0.33633008168831274 -0.79973861162431525 0.1697220828514876 0.25454307395396469 1.0000000180025095e-35 -0.20351424264552836
decision_type=2 2 2 2 2 2 2 2 2 2 2 2 2 2 2 2 2 2
left_child=1 2 3 4 -1 -5 9 12 -9 -3 -11 14 -8 -2 -4 16 -15 -17
right_child=13 6 11 5 -6 -7 7 8 -10 10 -12 -13 -14 15 -16 17 -18 -19
leaf_value=-0.034559791301258198 0.057819658278313438 0.004912772034751392 -0.056393783351740105 0.052699496517222749 0.028064382609090301 -0.011426125192456223 -0.056635044619032786 0.061391422948255128 -0.03593470150470373 -0.059138880606789415 -0.020037053085922976 -0.059500294942415634 -0.05987731581791822 0.056566335044722485 -0.055051324068801824 0.056515500649270967 0.057234221907342397 0.056005244792482957
leaf_weight=28.029534503817558 5.774652004241946 3.7563657760620108 3.9777713716030103 32.097707867622375 21.62014302611351 12.570033490657805 6.3802464604377764 10.92267879843712 6.8093988299369803 26.453151732683185 2.2055662125349036 3.4348072409629822 3.7513839900493622 6.1482843756675738 3.2266658395528793 5.0947127938270569 6.6126465797424316 4.7851070165634138
leaf_count=46 5 6 10 38 27 20 11 14 14 55 6 7 7 6 9 5 6 5
internal_value=0.0023003 -0.0070845 0.00552267 0.0125742 -0.00728985 0.0346538 -0.0290359 -0.00574594 0.0240166 -0.0490558 -0.0561296 -0.0569896 -0.0578355 0.0568729 -0.0557925 0.0566314 0.0569124 0.0562684
internal_weight=193.651 165.235 104.957 94.3174 49.6497 44.6677 60.2788 27.8637 17.7321 32.4151 28.6587 10.6392 10.1316 28.4154 7.20444 22.6408 12.7609 9.87982
internal_count=297 270 157 131 73 58 113 46 28 67 61 26 18 27 19 22 12 10
is_linear=0
shrinkage=0.05


Tree=35
num_leaves=14
num_cat=0
split_feature=128 41 14 102 66 36 57 110 97 21 106 49 49
split_gain=32.8224 21.928 22.6332 18.2744 16.6107 14.0685 13.6595 12.9369 10.0411 6.82358 6.01167 0.00333159 0.000564712
threshold=1.8668782006027997 -0.20028771802000619 0.38539232751277563 -1.2462805301306663 1.2425448991693575 1.5965547744120119 0.067931993929601905 -0.81465773831845689 1.4625739926908361 1.7076093733834101 1.7740548853774476 -0.92485065370994501 -0.092213255205382622
decision_type=2 2 2 2 2 2 2 2 2 2 2 2 2
left_child=1 5 3 -3 10 8 -6 -5 9 -1 -4 -2 -13
right_child=11 2 4 7 6 -7 -8 -9 -10 -11 -12 12 -14
leaf_value=-0.0542721260657879 0.057573459071178959 -0.061663067790587438 -0.059305790147499066 -0.030427728377416093 0.07912858908100745 0.050645218278831561 -0.05878201932213678 0.040238417626279568 0.031821961778471665 0.024272974184707731 0.014991451717386434 0.055847868870790254 0.05643444498176664
leaf_weight=41.638386696577072 5.6684827208519009 5.8212175369262686 20.810185551643375 7.4211764037609091 5.4010611772537214 4.4631524085998526 2.6895780861377716 50.885311484336853 4.1988888680934897 2.9618070423603049 3.1324611455202094 7.4923740029335066 9.0706692337989772
leaf_count=81 5 9 43 16 5 6 7 69 6 5 5 8 9
internal_value=-0.00015564 -0.00858904 0.00566608 0.0228104 -0.0286553 -0.0343256 0.0332828 0.0312441 -0.042097 -0.0490561 -0.0495853 0.0565272 0.0561691
internal_weight=171.655 149.423 96.161 64.1277 32.0333 53.2622 8.09064 58.3065 48.7991 44.6002 23.9426 22.2315 16.563
internal_count=274 252 154 94 60 98 12 85 92 86 48 22 17
is_linear=0
shrinkage=0.05


Tree=36
num_leaves=15
num_cat=0
split_feature=128 41 14 0 102 0 17 124 124 91 86 34 49 49
split_gain=30.9389 20.4406 20.8513 19.2149 16.8334 16.264 12.7404 12.2038 7.0341 10.8689 2.05815 0.0367511 0.00281192 0.000477238
threshold=1.8668782006027997 -0.20028771802000619 0.38539232751277563 1.1527525408955863 -1.2462805301306663 0.13769513032700212 0.22137666577684881 0.68359753682812741 0.90084324267888738 0.12913921069306764 -1.5836178440118138 -0.62286773235815474 -0.92485065370994501 -0.092213255205382622
decision_type=2 2 2 2 2 2 2 2 2 2 2 2 2 2
left_child=1 3 4 8 -3 -6 11 -8 10 -10 -1 -4 -2 -14
right_child=12 2 6 -5 5 -7 7 -9 9 -11 -12 -13 13 -15
leaf_value=-0.0058691488902282637 0.057150610562002539 -0.061027899120900765 -0.0626853858117246 0.049545033858015675 0.0021998122709301006 0.055158271215844636 -0.035023302742806121 0.056602390030402155 -0.057954933462004005 0.045524427959129657 -0.058284597550808497 -0.057342059343728595 0.055530300279426126 0.056081582531662746
leaf_weight=1.9840411841869343 5.4309107065200832 5.5934814512729636 4.4268436431884792 6.1191996335983267 27.826724871993065 30.266232758760452 8.2308961898088437 6.5072543174028388 5.2730872035026533 4.8915571272373199 33.413234487175941 11.784604981541635 7.1666921377182016 8.6812004446983302
leaf_count=5 5 9 8 9 49 36 17 7 11 8 65 28 8 9
internal_value=-0.000164494 -0.008357 0.00545341 -0.033646 0.0218145 0.029791 -0.0282136 0.00543168 -0.044819 -0.0081573 -0.0553467 -0.0588012 0.0561688 0.0558323
internal_weight=167.596 146.317 94.636 51.6811 63.6864 58.093 30.9496 14.7382 45.5619 10.1646 35.3973 16.2114 21.2788 15.8479
internal_count=274 252 154 98 94 85 60 24 89 19 70 36 22 17
is_linear=0
shrinkage=0.05


Tree=37
num_leaves=26
num_cat=0
split_feature=0 120 63 18 8 98 78 3 64 108 2 45 114 91 5 59 121 69 2 53 129 117 17 114 88
split_gain=18.4456 18.5953 14.5395 16.5775 16.079 14.4263 20.8773 14.1945 11.8611 15.6597 9.60859 7.29184 6.49855 4.79584 4.63717 1.9419 1.46701 0.0397397 0.036765 0.0362999 0.0158916 0.0100457 0.00734293 0.00254739 0.00228124
threshold=0.097434472852194226 -0.26567975613574785 -0.26576825114266894 -0.31959564820796399 -0.45045055251825289 -0.39573261728531134 -0.080602691397565679 0.32203544883432889 0.14362118216785838 -0.17580859456670775 0.90879748840935048 -0.85562117433764195 0.85914690383529246 1.8696689661321721 -1.2406158171206501 1.3219515905572758 0.96885380405607868 0.82367471360131039 -1.0000000180025095e-35 0.45342977328856188 1.0000000180025095e-35 -0.81813811110921075 -1.0000000180025095e-35 0.2972103632564041 0.54611541091546278
decision_type=2 2 2 2 2 2 2 2 2 2 2 2 2 2 2 2 2 2 2 2 2 2 2 2 2
left_child=2 8 15 13 24 6 19 -6 16 17 14 -11 -8 20 -7 21 18 -10 -2 -3 -4 22 -1 -23 -5
right_child=1 5 3 4 7 10 12 -9 9 11 -12 -13 -14 -15 -16 -17 -18 -19 -20 -21 -22 23 -24 -25 -26
leaf_value=-0.06016580007759869 -0.063346515509444423 -0.057950940986615344 -0.055641581712141154 -0.056659150164856655 0.04789738284251057 0.0044009454545919299 0.082326569270051386 -0.056424164578381668 -0.057928861165901749 -0.056539218092408507 -0.02533577207857864 0.053284402021842973 -0.0026853328250339126 0.031085234423160614 0.061283614376713293 -0.0028189877732983596 -0.016567304533503562 -0.066525280200165612 -0.05723449422221627 -0.064609231974870646 -0.059097381884964044 -0.056208535835447909 -0.055872665761459286 -0.054962598994006406 -0.054751825266742118
leaf_weight=2.4907629787921906 3.6691047549247733 5.836438715457918 6.705668151378628 3.3289395570754996 22.946471676230434 4.0107184052467337 5.3714688122272474 3.8008116781711569 2.947340890765191 1.7381655573844899 4.1064655780792227 11.586162000894547 3.8659220337867737 1.7323799729347236 33.5879165828228 1.8493478447198857 2.4575540423393241 2.4719746112823486 7.4686471521854392 3.1527869701385498 6.601826474070549 10.17182193696499 1.6596698611974776 6.8753980994224539 2.9631057679653168
leaf_count=5 5 10 15 9 28 5 6 9 7 4 7 13 5 3 38 5 5 3 12 5 17 25 5 20 8
internal_value=-0.000170603 0.0145789 -0.0193048 -0.00365325 0.0161555 0.0310671 -0.00604023 0.0330732 -0.0159777 0.00981145 0.0472844 0.0389579 0.0467484 -0.0471688 0.0552158 -0.0519562 -0.0515328 -0.06185 -0.059248 -0.0602862 -0.057356 -0.0562431 -0.0584491 -0.055706 -0.0557609
internal_weight=163.397 92.2707 71.1262 48.0792 33.0393 59.9317 18.2266 26.7473 32.3389 18.7436 41.7051 13.3243 9.23739 15.0399 37.5986 23.047 13.5953 5.41932 11.1378 8.98923 13.3075 21.1977 4.15043 17.0472 6.29205
internal_count=274 125 149 89 54 76 26 37 49 27 50 17 11 35 43 60 22 10 17 15 32 55 10 45 17
is_linear=0
shrinkage=0.05


Tree=38
num_leaves=18
num_cat=0
split_feature=20 2 41 5 98 97 14 108 10 66 40 41 8 99 83 63 98
split_gain=16.0911 16.2384 16.4432 12.8339 14.8871 12.6215 13.4889 12.5037 6.71302 1.91268 1.81894 0.0158405 0.0116635 0.00728485 0.00616309 0.00317803 0.000592759
threshold=0.89726890686680316 1.1984767775179355 0.34393359786662719 -0.3449697342667381 -0.64515134929929585 -1.4489882961687595 0.40953370601945654 1.900487416801965 0.92084211384783965 1.3751038581255468 0.29703181186564437 0.98437984481469287 0.21800935737803959 -0.078354417427203588 0.36626648835310283 1.19340157459768 0.75816533726761726
decision_type=2 2 2 2 2 2 2 2 2 2 2 2 2 2 2 2 2
left_child=1 2 3 8 -5 10 -7 9 -1 12 -4 15 14 -14 -2 16 -3
right_child=7 11 5 4 -6 6 -8 -9 -10 -11 -12 -13 13 -15 -16 -17 -18
leaf_value=-0.047303807397115982 -0.055104102092841382 -0.055174102579968645 -0.062390456855327639 -0.057571052696033978 0.023084628159895846 0.054043183002082842 -0.0038627134873176726 0.07088310973383663 0.014069388631440192 -0.0039749743635205071 -0.0021918722515958861 -0.059903546902820327 -0.060189149910624198 -0.057413734086504811 -0.057922314047302664 -0.056989930204426921 -0.053991450373426036
leaf_weight=19.815144270658497 5.4266962707042783 2.5264065116643888 3.5532923638820639 6.7372744977474204 37.930987164378166 37.718056321144104 13.713643103837965 2.2904433608055106 5.748010277748107 1.8422666192054737 1.9399023056030271 2.8942780196666718 4.2966980934143066 5.2570935189723951 3.0193024873733521 2.258108913898468 1.8247660994529722
leaf_count=41 13 7 7 14 57 49 25 2 8 4 4 7 6 11 7 5 7
internal_value=-0.000179694 0.00622566 0.0109375 -0.00524993 0.0109194 0.0309089 0.0386033 -0.0397303 -0.0335037 -0.0524988 -0.0411315 -0.0568188 -0.0574652 -0.0586619 -0.0561116 -0.055468 -0.0546781
internal_weight=158.792 136.66 127.156 70.2314 44.6683 56.9249 51.4317 22.1325 25.5632 19.8421 5.49319 9.50356 17.9998 9.55379 8.446 6.60928 4.35117
internal_count=274 231 205 120 71 85 74 43 49 41 11 26 37 17 20 19 14
is_linear=0
shrinkage=0.05


Tree=39
num_leaves=18
num_cat=0
split_feature=128 17 60 3 14 127 25 25 91 55 14 16 16 85 49 81 49
split_gain=26.9488 14.2232 15.2368 14.3356 14.5322 10.8342 10.7792 10.5161 10.9766 10.0112 8.99095 7.98242 3.67359 3.09965 0.0021425 0.000490778 0.000108984
threshold=1.8668782006027997 -0.1561460139701927 0.22067072621708722 0.52780205047935025 0.76000637206760835 -1.450915584217128 -0.95107443728865693 0.89326114705625193 -0.021919599175503103 1.5527326777063017 0.76000637206760835 0.069980331113861663 -0.81077731486050375 1.3498509516577759 -0.92485065370994501 0.1788530710242365 -0.019625370947037309
decision_type=2 2 2 2 2 2 2 2 2 2 2 2 2 2 2 2 2
left_child=1 5 3 4 -3 11 12 13 -9 -8 -5 -1 -4 -7 -2 16 -16
right_child=14 2 6 10 -6 7 9 8 -10 -11 -12 -13 -14 -15 15 -17 -18
leaf_value=0.068816912513799441 0.056306495143219074 0.051868645672787331 0.068057993573316961 -0.046438662507718172 -0.02413696984290889 -0.057736902738974805 -0.04913298288412285 0.05978209353102009 -0.05686395329465499 0.058734383719893826 0.033669097863436602 -0.032827021848993422 -0.0072266160785843568 -0.017423753294160592 0.054704131334254426 0.05547615029366533 0.055055228538287093
leaf_weight=4.4738270640373221 4.9275518655777004 31.172789454460144 3.5391528010368347 10.571831807494162 7.878443017601966 28.777217507362366 22.211883768439296 4.880252793431282 3.4373523294925672 2.3816835582256308 5.2381443083286277 3.3991687446832657 2.9887892305851009 5.7152316123247138 4.7130157351493835 5.3195663690567008 4.1623231172561628
leaf_count=4 5 41 4 25 17 67 45 7 8 3 7 8 6 10 6 6 5
internal_value=-0.000186126 -0.00796496 0.00441914 0.0202721 0.0365348 -0.0289743 -0.0235265 -0.038888 0.0115767 -0.0386869 -0.0198974 0.0249321 0.0335893 -0.0510572 0.0554082 0.0550964 0.0548688
internal_weight=155.788 136.666 85.9827 54.8612 39.0512 50.6831 31.1215 42.8101 8.31761 24.5936 15.81 7.873 6.52794 34.4924 19.1225 14.1949 8.87534
internal_count=274 252 148 90 58 104 58 92 15 48 32 12 10 77 22 17 11
is_linear=0
shrinkage=0.05


Tree=40
num_leaves=18
num_cat=0
split_feature=128 98 44 10 63 43 16 131 16 115 58 128 87 8 29 0 17
split_gain=37.5357 16.1893 14.7387 15.8234 14.1255 18.3654 15.1455 8.24315 11.9796 4.38416 0.905983 0.338332 0.013799 0.0026397 0.00242419 0.0017683 0.000665644
threshold=0.93848471705978576 -1.0022795169088654 -0.51657373227626036 1.5432050527148684 -0.212182608687669 -1.3437968767129898 0.33936861912264521 1.0000000180025095e-35 -0.47464971404396777 1.330940414886508 -1.0000000180025095e-35 1.8668782006027997 1.2927969847832685 1.7008666561390295 0.47989117098388517 0.94970352846544859 0.3755252637895839
decision_type=2 2 2 2 2 2 2 2 2 2 2 2 2 2 2 2 2
left_child=1 12 3 9 5 -4 -6 11 10 -3 -9 -2 13 14 -1 16 -13
right_child=7 2 4 -5 6 -7 -8 8 -10 -11 -12 15 -14 -15 -16 -17 -18
leaf_value=-0.055424923022372785 0.066774229723364179 -0.056409600361390824 0.051859644328461234 0.062025999662874282 0.044399895694830466 -0.042318945899791259 -0.0098116462233487217 0.059871966510238073 -0.03906589018311258 0.017050569402547185 0.029598647236482187 0.055224512439351905 -0.059979029820444799 -0.057959911904073326 -0.056962910742284351 0.054662273704920189 0.056048560709918399
leaf_weight=8.384953901171686 10.24004113674164 22.271657139062889 6.6861669719219234 3.6389474272727957 31.231114476919174 22.926295265555382 21.930776804685593 6.3470908403396615 6.3533372282981864 2.2348658442497245 4.0472856760025033 4.2643499374389666 2.8516044765710822 1.7750285565853108 3.6895097494125357 6.9953188300132743 5.7618020176887512
leaf_count=22 7 51 9 4 43 52 43 6 9 4 5 5 6 3 9 9 6
internal_value=0.00281341 -0.0109177 -0.00400752 -0.0352639 0.00662049 -0.0210545 0.0220361 0.0426319 0.0150234 -0.0497104 0.0480844 0.0595927 -0.0568117 -0.0561595 -0.0558949 0.0552724 0.0556981
internal_weight=171.63 127.621 110.92 28.1455 82.7744 29.6125 53.1619 44.0092 16.7477 24.5065 10.3944 27.2615 16.7011 13.8495 12.0745 17.0215 10.0262
internal_count=293 246 206 59 147 61 86 47 20 55 11 27 40 34 31 20 11
is_linear=0
shrinkage=0.05


Tree=41
num_leaves=20
num_cat=0
split_feature=128 98 0 120 62 63 116 9 131 94 48 128 87 7 12 72 36 0 17
split_gain=35.1101 15.408 12.5551 15.0532 13.3718 13.3192 14.8619 13.1626 7.90472 10.0398 4.85317 0.282816 0.0117207 0.0114579 0.00609273 0.00217649 0.00192307 0.00149804 0.000563058
threshold=0.93848471705978576 -1.0022795169088654 0.24722713406884153 -0.26567975613574785 1.4558562889541087 -0.212182608687669 0.68076469982618015 -0.1174502789439805 1.0000000180025095e-35 0.46545358503939299 -0.10792991231713366 1.8668782006027997 1.2927969847832685 0.64345163978642828 1.155051548567178 -0.81794529658177217 -0.051401007798110201 0.94970352846544859 0.3755252637895839
decision_type=2 2 2 2 2 2 2 2 2 2 2 2 2 2 2 2 2 2 2
left_child=1 12 5 7 -5 14 -7 -4 11 10 13 -2 15 -10 -3 -1 -17 18 -13
right_child=8 2 3 4 -6 6 -8 -9 9 -11 -12 17 -14 -15 -16 16 -18 -19 -20
leaf_value=-0.054532698924066508 0.065708529394592818 -0.055206465884725026 0.030252498010613128 0.040541477215906729 -0.063964917686455042 -0.027791610812421253 0.038800014192439967 -0.058788431034444512 0.058214043793462414 -0.05647845375238645 -0.011506698217371106 0.05494404004884277 -0.059418525965405769 0.054571693160055793 -0.057854676956903155 -0.056668001694565089 -0.055282223577890546 0.054414437970579155 0.055719064719737948
leaf_weight=2.6159580349922171 9.8945729732513445 15.83891235291958 6.6848186254501369 33.775947868824005 3.3658772706985465 22.718986421823502 13.274137586355208 10.947905033826826 4.9369431734085083 3.8006501197814933 3.7233273983001718 4.0765575766563433 2.737468108534812 3.8374271392822266 2.5170963108539572 6.6025832891464216 4.0325050055980682 6.6836932301521292 5.5123854875564575
leaf_count=8 7 47 9 48 4 51 20 21 5 5 5 5 6 5 6 16 10 9 6
internal_value=0.00273397 -0.0105996 -0.00388317 0.0130106 0.0310709 -0.0209092 -0.00323285 -0.0250317 0.0420174 0.0146835 0.0363244 0.0590424 -0.0564401 0.0566211 -0.0555696 -0.0558247 -0.0561426 0.0549891 0.0553896
internal_weight=167.578 125.112 109.124 54.7745 37.1418 54.3491 35.9931 17.6327 42.4656 16.2983 12.4977 26.1672 15.9885 8.77437 18.356 13.251 10.6351 16.2726 9.58894
internal_count=293 246 206 82 52 124 71 30 47 20 15 27 40 10 53 34 26 20 11
is_linear=0
shrinkage=0.05


end of trees

feature_importances:
Column_128=44
Column_0=33
Column_2=26
Column_8=18
Column_17=16
Column_41=15
Column_9=14
Column_16=14
Column_98=14
Column_4=12
Column_49=12
Column_56=12
Column_63=12
Column_3=11
Column_14=11
Column_120=11
Column_125=11
Column_1=10
Column_86=10
Column_12=9
Column_44=9
Column_97=9
Column_29=8
Column_30=8
Column_5=7
Column_7=7
Column_10=7
Column_59=7
Column_68=7
Column_78=7
Column_102=7
Column_114=7
Column_118=7
Column_6=6
Column_20=6
Column_22=6
Column_27=6
Column_38=6
Column_45=6
Column_48=6
Column_54=6
Column_60=6
Column_61=6
Column_90=6
Column_111=6
Column_116=6
Column_124=6
Column_40=5
Column_53=5
Column_62=5
Column_64=5
Column_66=5
Column_76=5
Column_77=5
Column_79=5
Column_96=5
Column_103=5
Column_105=5
Column_117=5
Column_119=5
Column_123=5
Column_18=4
Column_19=4
Column_26=4
Column_58=4
Column_69=4
Column_72=4
Column_87=4
Column_88=4
Column_91=4
Column_94=4
Column_99=4
Column_104=4
Column_106=4
Column_112=4
Column_121=4
Column_21=3
Column_25=3
Column_33=3
Column_35=3
Column_39=3
Column_46=3
Column_47=3
Column_50=3
Column_81=3
Column_82=3
Column_84=3
Column_89=3
Column_108=3
Column_110=3
Column_131=3
Column_11=2
Column_15=2
Column_36=2
Column_43=2
Column_51=2
Column_55=2
Column_57=2
Column_65=2
Column_67=2
Column_71=2
Column_73=2
Column_74=2
Column_75=2
Column_83=2
Column_85=2
Column_93=2
Column_95=2
Column_107=2
Column_109=2
Column_113=2
Column_115=2
Column_127=2
Column_23=1
Column_28=1
Column_31=1
Column_34=1
Column_37=1
Column_42=1
Column_70=1
Column_80=1
Column_100=1
Column_129=1
Column_130=1

parameters:
[boosting: gbdt]
[objective: binary]
[metric: auc]
[tree_learner: serial]
[device_type: cpu]
[data_sample_strategy: bagging]
[data: ]
[valid: ]
[num_iterations: 100]
[learning_rate: 0.05]
[num_leaves: 31]
[num_threads: 0]
[seed: 0]
[deterministic: 0]
[force_col_wise: 0]
[force_row_wise: 0]
[histogram_pool_size: -1]
[max_depth: 5]
[min_data_in_leaf: 5]
[min_sum_hessian_in_leaf: 0.001]
[bagging_fraction: 0.8]
[pos_bagging_fraction: 1]
[neg_bagging_fraction: 1]
[bagging_freq: 5]
[bagging_seed: 3]
[bagging_by_query: 0]
[feature_fraction: 0.8]
[feature_fraction_bynode: 1]
[feature_fraction_seed: 2]
[extra_trees: 0]
[extra_seed: 6]
[early_stopping_round: 0]
[early_stopping_min_delta: 0]
[first_metric_only: 0]
[max_delta_step: 0]
[lambda_l1: 0]
[lambda_l2: 0]
[linear_lambda: 0]
[min_gain_to_split: 0]
[drop_rate: 0.1]
[max_drop: 50]
[skip_drop: 0.5]
[xgboost_dart_mode: 0]
[uniform_drop: 0]
[drop_seed: 4]
[top_rate: 0.2]
[other_rate: 0.1]
[min_data_per_group: 100]
[max_cat_threshold: 32]
[cat_l2: 10]
[cat_smooth: 10]
[max_cat_to_onehot: 4]
[top_k: 20]
[monotone_constraints: ]
[monotone_constraints_method: basic]
[monotone_penalty: 0]
[feature_contri: ]
[forcedsplits_filename: ]
[refit_decay_rate: 0.9]
[cegb_tradeoff: 1]
[cegb_penalty_split: 0]
[cegb_penalty_feature_lazy: ]
[cegb_penalty_feature_coupled: ]
[path_smooth: 0]
[interaction_constraints: ]
[verbosity: -1]
[saved_feature_importance_type: 0]
[use_quantized_grad: 0]
[num_grad_quant_bins: 4]
[quant_train_renew_leaf: 0]
[stochastic_rounding: 1]
[linear_tree: 0]
[max_bin: 255]
[max_bin_by_feature: ]
[min_data_in_bin: 3]
[bin_construct_sample_cnt: 200000]
[data_random_seed: 1]
[is_enable_sparse: 1]
[enable_bundle: 1]
[use_missing: 1]
[zero_as_missing: 0]
[feature_pre_filter: 1]
[pre_partition: 0]
[two_round: 0]
[header: 0]
[label_column: ]
[weight_column: ]
[group_column: ]
[ignore_column: ]
[categorical_feature: ]
[forcedbins_filename: ]
[precise_float_parser: 0]
[parser_config_file: ]
[objective_seed: 5]
[num_class: 1]
[is_unbalance: 0]
[scale_pos_weight: 1]
[sigmoid: 1]
[boost_from_average: 1]
[reg_sqrt: 0]
[alpha: 0.9]
[fair_c: 1]
[poisson_max_delta_step: 0.7]
[tweedie_variance_power: 1.5]
[lambdarank_truncation_level: 30]
[lambdarank_norm: 1]
[label_gain: ]
[lambdarank_position_bias_regularization: 0]
[eval_at: ]
[multi_error_top_k: 1]
[auc_mu_weights: ]
[num_machines: 1]
[local_listen_port: 12400]
[time_out: 120]
[machine_list_filename: ]
[machines: ]
[gpu_platform_id: -1]
[gpu_device_id: -1]
[gpu_use_dp: 0]
[num_gpu: 1]

end of parameters

pandas_categorical:null
