tree
version=v4
num_class=1
num_tree_per_iteration=1
label_index=0
max_feature_idx=136
objective=binary sigmoid:1
feature_names=Column_0 Column_1 Column_2 Column_3 Column_4 Column_5 Column_6 Column_7 Column_8 Column_9 Column_10 Column_11 Column_12 Column_13 Column_14 Column_15 Column_16 Column_17 Column_18 Column_19 Column_20 Column_21 Column_22 Column_23 Column_24 Column_25 Column_26 Column_27 Column_28 Column_29 Column_30 Column_31 Column_32 Column_33 Column_34 Column_35 Column_36 Column_37 Column_38 Column_39 Column_40 Column_41 Column_42 Column_43 Column_44 Column_45 Column_46 Column_47 Column_48 Column_49 Column_50 Column_51 Column_52 Column_53 Column_54 Column_55 Column_56 Column_57 Column_58 Column_59 Column_60 Column_61 Column_62 Column_63 Column_64 Column_65 Column_66 Column_67 Column_68 Column_69 Column_70 Column_71 Column_72 Column_73 Column_74 Column_75 Column_76 Column_77 Column_78 Column_79 Column_80 Column_81 Column_82 Column_83 Column_84 Column_85 Column_86 Column_87 Column_88 Column_89 Column_90 Column_91 Column_92 Column_93 Column_94 Column_95 Column_96 Column_97 Column_98 Column_99 Column_100 Column_101 Column_102 Column_103 Column_104 Column_105 Column_106 Column_107 Column_108 Column_109 Column_110 Column_111 Column_112 Column_113 Column_114 Column_115 Column_116 Column_117 Column_118 Column_119 Column_120 Column_121 Column_122 Column_123 Column_124 Column_125 Column_126 Column_127 Column_128 Column_129 Column_130 Column_131 Column_132 Column_133 Column_134 Column_135 Column_136
feature_infos=[-2.0507886775066186:2.3291573256915075] [-2.7428782304649943:2.1558801532225851] [-2.1564044109865654:2.957836250277408] [-3.1403974054133386:3.3177974358878015] [-3.1327503394992831:2.7387383934774188] [-2.8500618952283245:2.6930269346231497] [-2.99214330178952:2.7175236437325245] [-2.5463118475348416:2.5980744027671836] [-2.9224470484774345:4.1710470191025006] [-3.5393789399130009:3.0772241662461361] [-2.7634666521090026:2.6931270147625304] [-3.3490346366530792:3.0654462186691722] [-2.7724598110097975:2.698240581064689] [-2.8856034048268819:3.0912130850437864] [-3.810935565102767:2.7092934818568586] [-2.290526737893182:2.7923491792335757] [-3.0255302362309124:3.0142719343960489] [-3.4943015869965004:2.5368643921165761] [-2.8629355170820281:3.0955099720168042] [-2.9243223268845737:2.8044411766342932] [-3.5413266924657774:3.0893977317069234] [-2.7131761105376104:3.1067134918325241] [-4.4239981828380897:3.4757104434768631] [-2.8563963330613209:3.4153546004186115] [-3.232899491982312:4.2044588809846895] [-3.7917127853233015:2.7908456137819524] [-3.5167510497941588:2.7497591165991202] [-1.9730923449709485:3.151203651024832] [-2.4465477296507281:2.80020138686241] [-3.1254553089262749:3.0117961344530664] [-2.405537473951727:3.3066642550546836] [-3.5634717533771156:2.931094108648129] [-3.5432389905597321:2.5541432774429542] [-2.9967074948577257:2.6058116779353906] [-2.9805367649373573:2.9153695136477995] [-3.4904385734039747:2.9595079142028453] [-2.5656186997134678:2.5980537022028329] [-2.4695869080729316:2.6296680973864235] [-3.7409649941146217:2.8167039580233819] [-3.8391410475428205:2.9449897067586543] [-3.1840447175043542:2.7413750571243822] [-3.5535762941121463:3.6108355700911612] [-2.7526668795301141:3.3246457717505735] [-2.6576968677623034:4.2190319222497497] [-3.496715388850018:3.4507761689869572] [-3.039405500840985:3.1503548150051079] [-3.6555685613740296:3.0542920479472637] [-2.9022480657333602:2.8021542282681877] [-3.3545790612787787:2.5466729191710238] [-2.6529929826480387:3.0565938514146267] [-2.9543461271986438:4.9631063719218753] [-2.6477189547236235:3.8951448367217063] [-3.1088420136066244:2.7648551024395007] [-2.9629599085692124:3.764259235767498] [-4.0095809038057393:2.8142418852390811] [-3.4917532734410148:3.0182964231042297] [-2.959789022818244:3.4114390818037177] [-3.1005722095145352:3.4000582907017027] [-2.6682013314278179:3.0150005171575289] [-3.3208957826322809:3.9316124400969086] [-2.9528256721953605:2.7381102182325834] [-2.956058609871691:3.0068311517594175] [-2.9310621886698085:2.7215772836235241] [-2.9799857882401901:3.1410029140392441] [-4.5527096477143818:2.6982996937989765] [-2.9264743966403435:2.8097265573882604] [-2.8393184963746863:3.83395849805681] [-3.1956681671875184:2.8464546068043526] [-2.7868486506132317:3.3018494318702181] [-3.599554682729841:3.8679912757703185] [-2.8072105827093594:3.1115671303574519] [-3.124343783006164:3.2710059687984732] [-3.6797699680217617:3.5484019807158771] [-3.3942017894138399:3.1367043805648458] [-3.0238575723771368:4.5126380991975585] [-3.4625310659860919:3.3102724824584104] [-3.3142063238474972:2.8153826285510233] [-2.9619069304064602:2.8864632953171405] [-4.4794063832679667:2.8059801251515744] [-3.3281049074652254:3.2427919636504732] [-3.0575768278257116:2.8296548674333066] [-2.9972683072397404:3.165564737127132] [-2.8224727813441444:2.9162441619071733] [-3.0686538229022799:3.2738422010799275] [-3.2150129193420072:2.544774606971099] [-3.7211725930764068:2.8824620601207336] [-2.9383986529273169:3.0342280262873929] [-3.5109607070195148:3.1360965672735679] [-2.9748993268607054:3.0550464317210082] [-2.5139916792803141:3.2656539698066767] [-2.8689070136868122:3.6410117321876458] [-2.8707624870857238:2.5896048639555502] [-4.681165606684913:3.2020211245485948] [-3.0644088959794722:3.0970169345001066] [-3.4407550818201749:3.3786881482717561] [-3.7370002932407753:3.4544481199044141] [-3.5174853810706113:3.0220459007564644] [-2.589210633625366:3.5431976365137965] [-2.8409695961821675:2.8656493669965708] [-3.9227313965073827:3.1069394270613566] [-3.1112574521106633:2.8817615868623654] [-2.7282527979793798:2.914612233802385] [-3.3974063028828443:3.6255148582827275] [-3.1177219218749026:3.4738947132166005] [-3.0121074737989746:3.2982423076347573] [-2.5577351836252058:2.6627070901185794] [-3.7294026672896456:2.8664298583426611] [-3.3664528396744604:3.8342818713891864] [-3.0881105123970665:2.7174649200212349] [-3.4787658281671079:3.3913469287986198] [-2.7626466944282839:3.8208819833132002] [-3.2200542648402042:3.3602215436027096] [-3.3946161537018575:3.0867299966872284] [-2.7782117334103016:3.1426918610247783] [-2.998507096282554:3.0071292380214905] [-3.7674850500407548:3.459440377600389] [-3.5876472662026213:2.5712299114896355] [-2.9623311761154301:2.8921954982859917] [-2.9014960473437177:3.0038047626185569] [-2.6327507805666346:2.9657017745342618] [-2.7077020660795164:2.9388654948579025] [-3.0668568499781568:3.0865527606939129] [-3.0979298444114431:3.4144623887336523] [-2.881664380021038:3.0469127088493071] [-3.4092756055063589:3.3830898574570902] [-3.926101741092531:3.4521887351457941] [-3.6222299213042159:3.3331732778839758] [-3.2569444784366839:3.0343772837282685] [-1.3928801265460842:2.4044690452667044] [-0.74219098460377197:1.3473620951268477] [-0.76896316415423072:1.3004524099667136] [-0.31480009386767943:3.1766191290284014] [-0.2878197989826114:3.4743961448615228] [-0.15877683720748934:6.2981478758970768] none [-0.20672455764868014:4.8373546489791153] [-0.17602816676020261:5.6809090181701754]
tree_sizes=2101 2019 1915 2018 2112 2126 2016

Tree=0
num_leaves=19
num_cat=0
split_feature=16 2 0 79 1 107 19 4 44 8 103 38 73 51 108 0 80 80
split_gain=163.177 143.335 112.957 81.7129 77.5328 82.4167 57.4441 57.2903 49.7764 39.1403 32.0564 42.9962 20.7625 4.17276 2.6732 2.84217e-14 1.42109e-14 7.10543e-15
threshold=0.40311378394006131 1.1554186636602404 0.041624204757542145 -0.099197110926826024 -0.81874511705647313 -0.16547391005950846 0.46216568849526524 1.0641849334860538 -0.37352039410567689 0.73101897060766829 -0.86542175330329585 0.13057048625115497 0.30930781084429521 1.3219977597880155 -0.013477037115015423 1.1645117681547748 1.245152458600437 0.26599729261128208
decision_type=2 2 2 2 2 2 2 2 2 2 2 2 2 2 2 2 2 2
left_child=1 2 3 6 14 -6 -1 10 -9 -5 11 -2 -10 15 -4 -12 17 -3
right_child=7 16 4 9 5 -7 -8 8 12 -11 13 -13 -14 -15 -16 -17 -18 -19
leaf_value=-0.42663044835810721 -0.40607789035420688 -0.58224267859685075 -0.58224267876213975 -0.57519414265179047 -0.47230100794320651 -0.38390697882390334 -0.56627774369205885 -0.58224267991178325 -0.36937689147686315 -0.44033215515729973 -0.58224267873577074 -0.5822426789315609 -0.50711357667020474 -0.54353980825935289 -0.52902623042462016 -0.5822426795850425 -0.58224267618693826 -0.58224268045635141
leaf_weight=34.05901962518692 6.8118039369583112 9.630481302738195 6.3420242667198181 35.468357980251312 42.749941617250443 68.822708755731583 9.3955915570259076 6.5769140124321011 8.6909222602844221 6.342024326324462 60.366675436496735 7.0466936230659485 3.9931263923645011 7.751362979412078 3.7582365870475751 8.2211425304412824 5.8722447752952567 11.979379057884215
leaf_count=24 5 10 5 37 31 45 11 7 7 7 55 7 5 7 5 9 4 12
internal_value=-0.498492 -0.474957 -0.460709 -0.504837 -0.429785 -0.417776 -0.456824 -0.548897 -0.470618 -0.554738 -0.565613 -0.495653 -0.412738 -0.578313 -0.562441 -0.582243 -0.582243 -0.582243
internal_weight=343.879 234.42 206.938 85.265 121.673 111.573 43.4546 109.459 19.261 41.8104 90.1977 13.8585 12.684 76.3392 10.1003 68.5878 27.4821 21.6099
internal_count=293 191 165 79 86 76 35 102 19 44 83 12 12 71 10 64 26 22
is_linear=0
shrinkage=1


Tree=1
num_leaves=18
num_cat=0
split_feature=128 16 2 128 4 4 30 24 103 42 2 89 126 66 1 11 106
split_gain=455.216 67.6814 69.2321 73.0772 48.963 35.19 37.6058 14.629 13.2552 8.54066 5.88716 0.0665084 0.0545213 0.0227185 0.000108573 1.42109e-14 2.13163e-14
threshold=1.929800398790106 0.33798163948109022 1.1554186636602404 0.98046310583690877 -0.19868555011112352 1.0641849334860538 0.84759213615757079 -0.66994483078534761 -1.0610675818182311 0.81369497071271202 -0.83151673979828977 0.11979918948701347 0.063750041275859579 0.49387760545957599 0.6780927112620535 0.099468690452977251 0.38735351683936614
decision_type=2 2 2 2 2 2 2 2 2 2 2 2 2 2 2 2 2
left_child=1 2 3 4 -1 8 9 -5 -3 -7 -10 12 -2 14 -13 -4 -17
right_child=11 5 15 7 -6 6 -8 -9 10 -11 -12 13 -14 -15 -16 16 -18
leaf_value=-0.041553881673842177 0.12500562957550165 -0.00041781352248733514 -0.07793220237179263 0.043796437137817321 0.02217497810260792 -0.078686102478482151 0.097738344621030593 0.12481087172135348 -0.039739491364422799 0.013527648090801175 -0.078153601388948057 0.12318822768568967 0.12958234753428957 0.1259591585785583 0.1234004465066513 -0.077932201846332302 -0.077932206335266568
leaf_weight=54.002000093460083 11.999118566513063 6.828933358192443 15.176975905895235 9.5163608789443987 68.206994771957397 7.6408725976943987 7.1818359494209281 13.444573521614073 11.568843722343443 3.7400142550468445 72.344086050987244 12.057031393051149 14.217638254165648 11.968523025512694 12.05050468444824 5.5189003944396955 6.2087625861167908
leaf_count=56 5 7 15 5 67 9 7 7 12 4 67 5 6 5 5 6 5
internal_value=0.00326913 -0.0238066 -0.00426228 0.00939112 -0.00598568 -0.0545745 0.00815095 0.0912337 -0.067406 -0.0483826 -0.0728576 0.125571 0.127488 0.124178 0.123294 -0.0779322 -0.0779322
internal_weight=343.672 281.379 172.075 145.17 122.209 109.305 18.5627 22.9609 90.7419 11.3809 83.9129 62.2928 26.2168 36.0761 24.1075 26.9046 11.7277
internal_count=293 267 161 135 123 106 20 12 86 13 79 26 11 15 10 26 11
is_linear=0
shrinkage=0.05


Tree=2
num_leaves=17
num_cat=0
split_feature=128 16 2 128 125 4 30 105 103 59 2 107 66 17 106 17
split_gain=403.402 62.6573 63.9238 64.807 52.3216 32.7644 33.64 14.4647 12.4863 8.5311 5.64259 0.0828948 0.0165571 0.00246211 3.55271e-14 1.42109e-14
threshold=1.929800398790106 0.33798163948109022 1.1554186636602404 0.98046310583690877 1.6949307079394358 1.0641849334860538 0.84759213615757079 0.17384644638751473 -1.0610675818182311 0.33487451245185851 -0.83151673979828977 -0.27432631646604838 0.49387760545957599 -0.46668033986943658 0.19900610111096925 -0.15325764758004526
decision_type=2 2 2 2 2 2 2 2 2 2 2 2 2 2 2 2
left_child=1 2 3 4 -1 8 9 -5 -3 -7 -10 -2 13 -13 -4 -16
right_child=11 5 14 7 -6 6 -8 -9 10 -11 -12 12 -14 -15 15 -17
leaf_value=-0.013899453716118525 0.11996337471505325 -0.00039696258247703633 -0.07583804136629764 0.038465773668735687 0.12511900076722934 -0.077199911327653081 0.091202075694377924 0.11837685631746851 -0.038187750400230078 0.015559259068557249 -0.076037827495656934 0.11563818370899942 0.11707586440853808 0.11475513029785021 -0.075838043331878505 -0.075838046550656124
leaf_weight=114.79556652903557 14.584007978439329 6.8282580375671378 14.151288092136385 9.6731153726577777 7.1922933459281913 7.5252989530563372 7.3081918954849234 13.659346818923948 11.440305411815642 3.6962385773658752 70.681267142295837 12.270897865295405 14.680215597152708 22.127933025360111 6.0648377537727356 6.0648375749587995
leaf_count=116 6 7 15 5 7 9 7 7 12 4 67 5 6 9 6 5
internal_value=0.00308043 -0.0228275 -0.00407786 0.00889987 -0.00570305 -0.0527631 0.00772168 0.0852475 -0.0653631 -0.0466462 -0.070765 0.116654 0.11567 0.11507 -0.075838 -0.075838
internal_weight=342.744 279.081 171.601 145.32 121.988 107.48 18.5297 23.3325 88.9498 11.2215 82.1216 63.6631 49.079 34.3988 26.281 12.1297
internal_count=293 267 161 135 123 106 20 12 86 13 79 26 20 14 26 11
is_linear=0
shrinkage=0.05


Tree=3
num_leaves=18
num_cat=0
split_feature=128 16 10 1 110 27 104 4 30 122 103 28 2 89 126 66 21
split_gain=360.328 58.1299 64.6047 86.5278 58.8789 44.4538 42.7744 30.5474 30.2271 26.2368 11.8023 8.50284 5.44372 0.0323087 0.0265645 0.0109639 9.00787e-05
threshold=1.929800398790106 0.33798163948109022 -0.23271484318358612 0.31432287452916408 1.1806534978677783 -0.21274435252700755 -1.0797875418558338 1.0641849334860538 0.84759213615757079 1.7621375923441223 -1.0610675818182311 0.23374262458625181 -0.83151673979828977 0.11979918948701347 0.063750041275859579 0.49387760545957599 0.34704059987454045
decision_type=2 2 2 2 2 2 2 2 2 2 2 2 2 2 2 2 2
left_child=1 2 6 5 -5 -4 -1 10 11 -8 -3 -9 -12 14 -2 16 -15
right_child=13 7 3 4 -6 -7 9 8 -10 -11 12 -13 -14 15 -16 -17 -18
leaf_value=0.05592020931112085 0.10891748562612982 -0.00037715065222653941 0.032074182283653406 0.097891240575833344 -0.077884780328739758 -0.055260086611829864 -0.066620645623012842 -0.075792196901875664 0.085571828098072678 0.063262269204940033 -0.036705806549727896 0.017439381815257123 -0.074132027441047021 0.10765756879068827 0.11205253445250291 0.10957256960854007 0.10784788202007858
leaf_weight=9.6949079632759076 12.415410518646242 6.8276160955429068 25.544125199317932 37.359945237636566 5.4603980183601371 33.917760372161865 54.805931687355042 7.4056972861289996 7.3970899581909171 4.1850916743278495 11.310433924198149 3.6513190865516663 68.918073356151581 12.436676263809206 14.825755596160887 12.403840303421019 12.433809995651243
leaf_count=9 5 7 21 29 5 36 56 8 7 5 12 5 67 5 6 5 5
internal_value=0.00291421 -0.0219141 -0.00390347 0.0212836 0.0754765 -0.0177423 -0.0414103 -0.0510984 0.00733523 -0.0574062 -0.0634851 -0.0450047 -0.0688558 0.109315 0.110624 0.108358 0.107753
internal_weight=340.994 276.478 170.968 102.282 42.8203 59.4619 68.6859 105.51 18.4541 58.991 87.0561 11.057 80.2285 64.5155 27.2412 37.2743 24.8705
internal_count=293 267 161 91 34 57 70 106 20 61 86 13 79 26 11 15 10
is_linear=0
shrinkage=0.05


Tree=4
num_leaves=19
num_cat=0
split_feature=128 0 2 36 82 34 59 55 8 3 80 75 53 12 16 107 0 8
split_gain=323.993 103.619 88.868 50.6228 43.0893 40.2429 27.9584 26.0478 25.1679 40.4252 20.2813 19.4418 18.604 9.52341 0.0682498 0.0423126 0.010039 0.000237538
threshold=1.929800398790106 0.1353402223373911 -0.27465249242273176 0.84138690355061041 -0.41481238769874867 1.058395334368156 -0.57166441919139377 0.78991653599155853 0.11033260789918485 -0.7248610469473783 0.78117572142713876 -1.3388552833049006 -1.0000000180025095e-35 1.6263731433891941 0.43988617650461315 -0.27432631646604838 0.041624204757542145 0.14030093756254439
decision_type=2 2 2 2 2 2 2 2 2 2 2 2 2 2 2 2 2 2
left_child=1 8 6 5 -5 -4 7 -3 13 12 -8 -11 -10 14 -1 -2 -17 -18
right_child=15 2 3 4 -6 -7 10 -9 9 11 -12 -13 -14 -15 -16 16 17 -19
leaf_value=-0.076168556902499782 0.10550591050630141 -0.076692866232528162 -0.05165459796496269 -0.050106411084466042 0.10701535105581704 0.052822920908204778 0.11519398772479963 0.08978711743923351 -0.013921653454877947 0.036194053934738513 0.0061508698016527561 -0.055860917132157253 0.11816841414999067 0.0027614652263246351 -0.073069132738699957 0.10344082993428268 0.10212580443784547 0.10184790019352988
leaf_weight=37.341660916805267 14.958475828170775 5.2072345018386823 60.553301632404327 6.5334225296974209 13.138219952583311 10.871663421392439 25.21972414851189 4.2813584208488464 4.7503793835639954 6.4799000620841971 5.1319275498390189 49.938210189342499 6.0741663575172407 4.2026800513267508 33.873237371444702 17.479384660720825 12.494417428970335 19.993393659591675
leaf_count=39 6 7 53 6 11 10 22 4 6 6 6 55 5 5 32 7 5 8
internal_value=0.00275974 -0.0210687 0.0110498 -0.0161911 0.0548315 -0.035752 0.0733374 -0.00157525 -0.0505478 -0.0283067 0.0967567 -0.0452879 0.0602004 -0.0703781 -0.0746943 0.103173 0.102475 0.101955
internal_weight=338.523 273.597 130.937 91.0966 19.6716 71.425 39.8402 9.48859 142.66 67.2427 30.3517 56.4181 10.8245 75.4176 71.2149 64.9257 49.9672 32.4878
internal_count=293 267 119 80 17 63 39 11 148 72 28 61 11 76 71 26 20 13
is_linear=0
shrinkage=0.05


Tree=5
num_leaves=19
num_cat=0
split_feature=128 0 7 38 59 41 86 9 72 59 4 125 127 83 107 62 66 64
split_gain=302.604 96.7638 56.6475 46.1436 40.0365 34.7124 28.2689 34.3628 35.6848 26.2555 33.4108 12.3346 11.7435 1.69861 0.100963 0.0891036 0.00609961 0.000331111
threshold=1.929800398790106 0.1353402223373911 -0.5914794496897674 0.89399376627708005 -0.22315103331584771 0.064223173654062202 -0.42346926744688501 -0.080682659766574086 0.511994462051507 0.24375915849679361 -0.1211497851667153 1.5220364002836482 0.72892725342555098 1.5109165107629086 -0.27432631646604838 0.40071645965344621 0.5239677963035817 0.49717679171056267
decision_type=2 2 2 2 2 2 2 2 2 2 2 2 2 2 2 2 2 2
left_child=1 6 9 4 -4 -5 7 8 -1 15 -11 13 -9 -8 -2 -3 17 -16
right_child=14 2 3 5 -6 -7 11 12 -10 10 -12 -13 -14 -15 16 -17 -18 -19
leaf_value=0.069854857941881676 0.10171183241305799 -0.072309286343029772 0.00565349262109981 -0.0778451403294282 0.081566378855145394 0.063840875999432278 -0.073668870892692626 -0.073804858539195939 -0.075129057102677005 -0.078824491307138089 0.070965131236430265 0.0058185269472840776 0.015789021386601106 -0.043091682135641469 0.096998789784743689 -0.078401253430195286 0.098172617958384445 0.096670567020885084
leaf_weight=14.687207400798799 17.481734275817871 12.353868842124941 30.84970223903656 14.730679214000704 39.745697915554047 6.1183363795280448 85.388842403888702 21.453538894653324 5.9688768982887259 6.3853235840797433 8.9277710318565333 5.3906089663505545 4.4091454148292533 4.7970726490020743 19.980651378631592 11.674677491188048 12.494761943817137 12.485071182250975
leaf_count=15 7 10 32 13 37 6 88 26 8 5 8 6 4 6 8 10 5 5
internal_value=-0.000806531 -0.0235276 0.00750723 0.029091 0.048393 -0.0362661 -0.0520923 -0.0201257 0.0279596 -0.0426614 0.00850518 -0.067651 -0.0585306 -0.0720424 0.0984875 -0.0752692 0.0972339 0.0968726
internal_weight=335.324 272.881 130.786 91.4444 70.5954 20.849 142.095 46.5188 20.6561 39.3416 15.3131 95.5765 25.8627 90.1859 62.4422 24.0285 44.9605 32.4657
internal_count=299 274 121 88 69 19 153 53 23 33 13 100 30 94 25 20 18 13
is_linear=0
shrinkage=0.05


Tree=6
num_leaves=18
num_cat=0
split_feature=128 0 2 73 72 86 9 72 33 125 92 112 83 107 56 66 1
split_gain=274.84 89.6202 56.9368 45.5142 45.5954 26.7504 31.6387 32.1976 25.7806 11.7156 11.5232 10.2744 2.06311 0.0748935 0.0184404 0.00453648 0.000260062
threshold=1.929800398790106 0.1353402223373911 0.88223492650655155 -1.0232547228794202 -0.98307296881613315 -0.42346926744688501 -0.080682659766574086 0.511994462051507 -0.17590162138781615 1.5220364002836482 1.0198020393589931 1.6383136378128773 1.669706189997388 -0.27432631646604838 1.5234300836640393 0.5239677963035817 0.6780927112620535
decision_type=2 2 2 2 2 2 2 2 2 2 2 2 2 2 2 2 2
left_child=1 5 3 8 -5 6 7 -1 -3 12 -8 14 -7 -2 -4 16 -15
right_child=13 2 11 4 -6 9 10 -9 -10 -11 -12 -13 -14 15 -16 -17 -18
leaf_value=0.065420284179858318 0.096718405082894171 0.037352684326882046 -0.071227387313306453 -0.053422328882024084 0.055594400015236613 -0.072005988843386035 -0.072285979384435789 -0.073321706989859112 -0.078116688978653828 0.0055178895385936469 0.017010204038171991 0.013598646179347036 -0.034635250653113826 0.092432761486096651 -0.074659076059381477 0.093668707293492484 0.092724416442544755
leaf_weight=14.893026411533357 17.465117931365967 7.194694638252261 17.129179120063789 11.089710831642149 70.981286942958832 83.921852052211761 20.936533570289615 5.81412649154663 14.731757342815397 5.3998519778251639 4.3662867546081534 4.1615012884140006 3.8631771802902213 19.865823268890381 5.0743392109870902 12.441899538040159 12.422846555709837
leaf_count=15 7 7 16 11 65 89 25 8 13 6 5 4 5 8 5 5 5
internal_value=-0.000801523 -0.0226619 0.00712895 0.0237666 0.0408637 -0.0505624 -0.0193685 0.0264645 -0.0402279 -0.0659644 -0.0568769 -0.0584988 -0.0703614 0.0939417 -0.0720117 0.0928575 0.092545
internal_weight=331.753 269.557 130.362 103.997 82.071 139.195 46.01 20.7072 21.9265 93.1849 25.3028 26.365 87.785 62.1957 22.2035 44.7306 32.2887
internal_count=299 274 121 96 76 153 53 23 20 100 30 25 94 25 21 18 13
is_linear=0
shrinkage=0.05


end of trees

feature_importances:
Column_2=8
Column_128=8
Column_0=6
Column_4=6
Column_16=5
Column_66=5
Column_107=5
Column_1=4
Column_59=4
Column_103=4
Column_8=3
Column_30=3
Column_72=3
Column_80=3
Column_125=3
Column_9=2
Column_17=2
Column_38=2
Column_73=2
Column_83=2
Column_86=2
Column_89=2
Column_106=2
Column_126=2
Column_3=1
Column_7=1
Column_10=1
Column_11=1
Column_12=1
Column_19=1
Column_21=1
Column_24=1
Column_27=1
Column_28=1
Column_33=1
Column_34=1
Column_36=1
Column_41=1
Column_42=1
Column_44=1
Column_51=1
Column_53=1
Column_55=1
Column_56=1
Column_62=1
Column_64=1
Column_75=1
Column_79=1
Column_82=1
Column_92=1
Column_104=1
Column_105=1
Column_108=1
Column_110=1
Column_112=1
Column_122=1
Column_127=1

parameters:
[boosting: gbdt]
[objective: binary]
[metric: auc]
[tree_learner: serial]
[device_type: cpu]
[data_sample_strategy: bagging]
[data: ]
[valid: ]
[num_iterations: 100]
[learning_rate: 0.05]
[num_leaves: 31]
[num_threads: 0]
[seed: 0]
[deterministic: 0]
[force_col_wise: 0]
[force_row_wise: 0]
[histogram_pool_size: -1]
[max_depth: 5]
[min_data_in_leaf: 5]
[min_sum_hessian_in_leaf: 0.001]
[bagging_fraction: 0.8]
[pos_bagging_fraction: 1]
[neg_bagging_fraction: 1]
[bagging_freq: 5]
[bagging_seed: 3]
[bagging_by_query: 0]
[feature_fraction: 0.8]
[feature_fraction_bynode: 1]
[feature_fraction_seed: 2]
[extra_trees: 0]
[extra_seed: 6]
[early_stopping_round: 0]
[early_stopping_min_delta: 0]
[first_metric_only: 0]
[max_delta_step: 0]
[lambda_l1: 0]
[lambda_l2: 0]
[linear_lambda: 0]
[min_gain_to_split: 0]
[drop_rate: 0.1]
[max_drop: 50]
[skip_drop: 0.5]
[xgboost_dart_mode: 0]
[uniform_drop: 0]
[drop_seed: 4]
[top_rate: 0.2]
[other_rate: 0.1]
[min_data_per_group: 100]
[max_cat_threshold: 32]
[cat_l2: 10]
[cat_smooth: 10]
[max_cat_to_onehot: 4]
[top_k: 20]
[monotone_constraints: ]
[monotone_constraints_method: basic]
[monotone_penalty: 0]
[feature_contri: ]
[forcedsplits_filename: ]
[refit_decay_rate: 0.9]
[cegb_tradeoff: 1]
[cegb_penalty_split: 0]
[cegb_penalty_feature_lazy: ]
[cegb_penalty_feature_coupled: ]
[path_smooth: 0]
[interaction_constraints: ]
[verbosity: -1]
[saved_feature_importance_type: 0]
[use_quantized_grad: 0]
[num_grad_quant_bins: 4]
[quant_train_renew_leaf: 0]
[stochastic_rounding: 1]
[linear_tree: 0]
[max_bin: 255]
[max_bin_by_feature: ]
[min_data_in_bin: 3]
[bin_construct_sample_cnt: 200000]
[data_random_seed: 1]
[is_enable_sparse: 1]
[enable_bundle: 1]
[use_missing: 1]
[zero_as_missing: 0]
[feature_pre_filter: 1]
[pre_partition: 0]
[two_round: 0]
[header: 0]
[label_column: ]
[weight_column: ]
[group_column: ]
[ignore_column: ]
[categorical_feature: ]
[forcedbins_filename: ]
[precise_float_parser: 0]
[parser_config_file: ]
[objective_seed: 5]
[num_class: 1]
[is_unbalance: 0]
[scale_pos_weight: 1]
[sigmoid: 1]
[boost_from_average: 1]
[reg_sqrt: 0]
[alpha: 0.9]
[fair_c: 1]
[poisson_max_delta_step: 0.7]
[tweedie_variance_power: 1.5]
[lambdarank_truncation_level: 30]
[lambdarank_norm: 1]
[label_gain: ]
[lambdarank_position_bias_regularization: 0]
[eval_at: ]
[multi_error_top_k: 1]
[auc_mu_weights: ]
[num_machines: 1]
[local_listen_port: 12400]
[time_out: 120]
[machine_list_filename: ]
[machines: ]
[gpu_platform_id: -1]
[gpu_device_id: -1]
[gpu_use_dp: 0]
[num_gpu: 1]

end of parameters

pandas_categorical:null
