tree
version=v4
num_class=1
num_tree_per_iteration=1
label_index=0
max_feature_idx=72
objective=binary sigmoid:1
feature_names=Column_0 Column_1 Column_2 Column_3 Column_4 Column_5 Column_6 Column_7 Column_8 Column_9 Column_10 Column_11 Column_12 Column_13 Column_14 Column_15 Column_16 Column_17 Column_18 Column_19 Column_20 Column_21 Column_22 Column_23 Column_24 Column_25 Column_26 Column_27 Column_28 Column_29 Column_30 Column_31 Column_32 Column_33 Column_34 Column_35 Column_36 Column_37 Column_38 Column_39 Column_40 Column_41 Column_42 Column_43 Column_44 Column_45 Column_46 Column_47 Column_48 Column_49 Column_50 Column_51 Column_52 Column_53 Column_54 Column_55 Column_56 Column_57 Column_58 Column_59 Column_60 Column_61 Column_62 Column_63 Column_64 Column_65 Column_66 Column_67 Column_68 Column_69 Column_70 Column_71 Column_72
feature_infos=[-3.1671121974369707:1.3167378896805459] [-2.1889807646199451:3.1148350531903493] [-3.6433171163709002:2.7043000004566267] [-3.2424858953778717:2.4416377318916309] [-3.0399313192083284:2.5624306932809535] [-3.1560817933476022:3.7563373551299342] [-3.310603651395982:2.9876247710175727] [-4.1503550915420044:3.6352895403663994] [-2.9919394103737806:3.0024346031303755] [-3.9198010514462167:3.8763379608905386] [-5.0750411583481201:2.7568618295351333] [-4.5406898023080959:3.2609126687730434] [-4.4613277366702331:2.9912629180168668] [-3.5940898202625755:4.2569253802296343] [-3.0632864209994661:3.1722853962057043] [-3.3501894354060879:3.2883188190000365] [-3.183340247745174:3.6200886066430233] [-2.9568610054278186:3.5211651154662453] [-4.1037218963862374:3.2984640559503764] [-3.69394954820332:3.6783007954965981] [-3.4054344863409987:5.3336569670493521] [-3.4885014211536096:3.5878392038365599] [-3.3354011699413753:4.7727822308543004] [-2.7589565049542606:2.5424839448511491] [-3.1453811806101406:3.9873052189814877] [-2.8351392246532487:3.5196287428956068] [-4.0344361359671037:3.0380631595974497] [-4.2107587333627485:3.5903968556288444] [-3.3538609824982752:3.0849280514925752] [-3.7759558144857279:4.8301940044637597] [-4.2399747109952717:3.6584736884443996] [-3.3132894836895379:3.3672695763891185] [-3.9010002499042722:3.6609596158810449] [-2.4707692414054025:3.780997378191052] [-3.2064881570513317:3.6647068104484855] [-3.5562866128212889:3.7843330557545274] [-4.9888218679741065:3.3631044583468745] [-3.4474251300452408:5.0378950040079822] [-3.0361053422546274:3.0485601336894721] [-3.4495242098873833:3.784337499215757] [-3.6772441768310005:4.768619411363364] [-3.9338570870917371:4.0150059183565929] [-3.3439748345228226:4.7707327941740649] [-3.9941825846578416:3.8578904766880711] [-4.3441967620916815:3.847896746932999] [-3.73167587014296:4.2558780506669107] [-4.3565030763539454:3.0070779930064067] [-4.3273973272686144:3.3953042560883246] [-3.3237845796740442:3.6343373613460135] [-2.9554183538361372:4.924341294706446] [-4.7581910115266384:3.4613465110365058] [-3.4869800311800287:2.9440439734711545] [-4.3966826376210095:5.0811903218220609] [-4.3743338157207914:5.1037243576811742] [-3.0927438233436537:5.5161135902850766] [-4.1456005015604962:3.9673742003762693] [-3.5701294672510655:3.5031308864538468] [-4.444067450912482:3.0159535780887454] [-3.7500271736138306:4.9750979674882352] [-3.0541377879292111:3.9097797485099641] [-3.5788663884571692:4.2988589883237509] [-3.1905539541416092:4.4784130185488191] [-3.4084249226989241:3.073473094929708] [-3.5396369112049162:3.3400449077069343] [-0.81488822331741373:2.160474364710522] [-0.77405175417633332:1.2919032798576833] [-0.68899069021738446:1.4513984211956379] [-0.28784916685157069:3.4740416688982672] [-0.36705658817429659:2.7243755655603348] [-0.16462159944159771:6.0745370193949544] [-0.1156243225157199:8.6486993241758476] [-0.20994555243259141:4.7631397208144177] [-0.16462159944159782:6.0745370193949588]
tree_sizes=2390 2355 1916

Tree=0
num_leaves=22
num_cat=0
split_feature=30 1 57 44 50 25 61 64 63 36 14 41 18 44 62 64 56 12 17 30 8
split_gain=83.2922 67.373 79.5973 88.5535 55.2492 58.6033 58.4875 49.4858 40.613 40.3278 39.7443 15.9944 13.4035 57.0027 12.5005 3.55271e-14 2.84217e-14 1.42109e-14 1.42109e-14 1.24345e-14 3.55271e-15
threshold=0.25580977758675044 -0.53785941187993125 -0.060471053169317016 -0.45508113453454441 -0.43276793835423472 1.0166444497861062 -1.0010336993946904 1.0000000180025095e-35 -0.20423743243541406 0.083179502075921882 0.1281715529391533 -0.42816921525413537 -0.56984197707834017 -0.9550123976713415 -1.5847831129928986 1.5654018471049351 1.1314189373820762 -0.75156429896853527 -0.40845103921401232 0.66473614714208951 0.60484259390013706
decision_type=2 2 2 2 2 2 2 2 2 2 2 2 2 2 2 2 2 2 2 2 2
left_child=1 2 8 11 15 6 -6 -5 10 -7 -1 -4 13 -2 -15 18 -14 -10 -3 -18 -16
right_child=12 4 3 7 5 9 -8 -9 17 -11 -12 -13 16 14 20 -17 19 -19 -20 -21 -22
leaf_value=-1.1150684181334749 -1.1241206657232321 -1.3730575013700734 -1.2386316115536853 -1.2734827682692309 -1.1863548769454986 -1.0992269840461559 -1.3321794534501967 -1.1078350793428977 -1.3730574991899194 -1.3232701357845638 -1.3730575032998968 -1.3730575003141325 -1.3730575030573033 -1.2535678212630978 -1.3730575032998968 -1.3730574984480299 -1.3730574998550278 -1.3730575029817416 -1.3730575032998968 -1.3730575032998968 -1.3730575019136491
leaf_weight=3.682326257228854 3.0128123760223415 5.1887325048446717 3.3475693464279175 6.0256247520446804 8.0341664552688581 6.0256248116493207 47.702862977981567 17.909495949745178 4.0170832872390756 3.0128123760223389 2.5106769800186157 6.5277602672576887 40.170831739902496 2.5106769800186219 10.042707920074461 5.3561110496520987 3.8497048020362836 10.210086405277249 20.587551236152649 5.5234893560409546 7.0298956036567679
leaf_count=6 4 9 5 12 9 7 69 17 5 5 4 6 60 4 11 4 5 14 27 8 12
internal_value=-1.31435 -1.29313 -1.24859 -1.20151 -1.31832 -1.29201 -1.31116 -1.14954 -1.32653 -1.17391 -1.21966 -1.32749 -1.3585 -1.32659 -1.35774 -1.37306 -1.37306 -1.37306 -1.37306 -1.37306 -1.37306
internal_weight=222.279 150.138 54.2306 33.8105 95.9079 64.7755 55.737 23.9351 20.4202 9.03844 6.193 9.87533 72.1401 22.5961 19.5833 31.1324 49.544 14.2272 25.7763 9.37319 17.0726
internal_count=303 199 69 40 130 90 78 29 29 12 10 11 104 31 27 40 73 19 36 13 23
is_linear=0
shrinkage=1


Tree=1
num_leaves=21
num_cat=0
split_feature=30 50 48 64 30 36 2 49 1 39 51 36 58 41 59 39 50 35 0 64
split_gain=76.6775 61.0252 75.8347 77.4433 85.5994 57.2023 53.0892 35.2056 30.292 43.9115 18.5175 44.5899 17.1327 2.24393 0.000751238 0.00118886 8.85899e-05 6.46817e-05 1.42109e-14 1.42109e-14
threshold=0.25580977758675044 -0.46641973912295298 0.19344930378054873 -0.51735196451462007 -0.70937729880795108 0.62839835751913686 0.26908608801977646 0.94749464426779817 -0.5477665776207078 0.26700697005475899 -0.86435630890205428 -0.098561813950319779 1.2639061878231359 -0.41850820340181205 1.1888255815469129 0.94105371801558346 -0.81946068897515756 1.3750895168405488 0.83014406834777976 1.5654018471049351
decision_type=2 2 2 2 2 2 2 2 2 2 2 2 2 2 2 2 2 2 2 2
left_child=1 8 3 7 -5 12 -7 -3 9 13 11 -2 -4 -1 16 -16 -12 19 -18 -10
right_child=10 2 5 4 -6 6 -8 -9 17 -11 14 -13 -14 -15 15 -17 18 -19 -20 -21
leaf_value=-0.063629387353388453 0.10395181315147638 -0.030918584177175246 -0.058384110106411147 -0.063402606405274134 0.14095944813026018 -0.017447243109673553 0.19268386485196892 0.16527461611622085 -0.062666559374151165 0.14562650243016609 -0.062950226538714765 -0.062666559354612988 0.054906146537220715 -0.0071785775169222925 -0.062666559156323881 -0.064094430023228871 -0.062666559295491323 -0.062927089864546454 -0.062666560922899558 -0.062666562626383301
leaf_weight=5.1803202331066132 6.2321616113185909 18.472734242677692 30.607750475406647 5.9973850846290579 35.186161160469055 6.4508276879787427 5.6285025179386139 2.6095795631408683 22.255434423685081 4.9589575827121735 2.9373556077480307 11.288988471031187 3.7455786764621726 2.6665373742580396 3.3866965472698203 2.5595047473907471 34.834593027830124 2.6090725958347312 8.8699193894863111 5.1606802940368643
leaf_count=6 7 37 40 6 31 10 7 5 32 6 6 19 5 5 6 4 50 5 12 4
internal_value=-0.00468384 0.0153203 0.0352382 0.0713026 0.111199 -0.0131239 0.0804658 -0.00663369 -0.0352283 0.0291581 -0.0479195 -0.00340146 -0.046032 -0.0444461 -0.0627519 -0.0632812 -0.0626844 -0.0626892 -0.0626666 -0.0626666
internal_weight=221.639 151.53 108.699 62.2659 41.1835 46.4327 12.0793 21.0823 42.831 12.8058 70.1092 17.5212 34.3533 7.84686 52.5881 5.9462 46.6419 30.0252 43.7045 27.4161
internal_count=303 199 141 79 37 62 17 42 58 17 104 26 45 11 78 10 68 41 62 36
is_linear=0
shrinkage=0.05


Tree=2
num_leaves=17
num_cat=0
split_feature=1 0 26 57 19 32 17 6 44 11 38 60 4 31 31 48
split_gain=62.0074 73.8357 56.485 63.2912 46.2243 40.6746 35.3858 63.3377 23.1988 22.1672 32.0781 13.652 11.2053 2.60001 0.00842257 0.00524378
threshold=-0.52878325536937576 1.0230485692795832 0.23852053973223095 -0.16783728347502097 -0.016705458979353004 2.2639742975403396 1.2785092452615923 0.75795786873173887 0.37682887389871184 0.27573264253761903 0.10557100178751688 -1.6187246785956388 -0.64456923835739321 0.61852900956696977 0.27229249992927501 0.54665166913881358
decision_type=2 2 2 2 2 2 2 2 2 2 2 2 2 2 2 2
left_child=1 2 3 13 -5 6 9 8 -8 11 -11 -2 -4 -1 -14 -9
right_child=5 -3 12 4 -6 -7 7 15 -10 10 -12 -13 14 -15 -16 -17
leaf_value=-0.062633530833986137 0.0064236046492508019 0.17192722574216149 0.017159699297827319 0.022305498564967878 0.14157358305242934 0.1325112772427606 0.20690214111186869 -0.062213010266622321 0.032253712255889189 -0.055159357923626307 0.031593781678687607 -0.060334256587715629 -0.062286239574846941 -0.0062244058365481872 -0.064468577538087907 -0.064995115720677885
leaf_weight=9.2979518175125104 8.574700862169264 8.3309182524681074 5.5956483781337765 15.593285143375391 16.959436625242237 4.0237290263175955 4.9470912814140302 4.7257620990276328 3.0884662270545959 19.878142476081848 22.966931045055389 71.658312439918518 12.956833988428118 2.6179116070270529 6.7112587690353385 2.6398014724254608
leaf_count=13 10 8 8 20 17 4 6 7 4 29 33 105 20 5 10 4
internal_value=-0.00457747 0.0312413 0.0144336 0.0483525 0.0844422 -0.024199 -0.0287525 0.0426982 0.139776 -0.0376933 -0.00865568 -0.0531997 -0.0452695 -0.0502405 -0.0630309 -0.0632101
internal_weight=220.566 78.0632 69.7323 44.4686 32.5527 142.503 138.479 15.4011 8.03556 123.078 42.8451 80.233 25.2637 11.9159 19.6681 7.36556
internal_count=303 101 93 55 37 202 198 21 10 177 62 115 38 18 30 11
is_linear=0
shrinkage=0.05


end of trees

feature_importances:
Column_30=4
Column_64=4
Column_1=3
Column_36=3
Column_44=3
Column_50=3
Column_0=2
Column_17=2
Column_31=2
Column_39=2
Column_41=2
Column_48=2
Column_57=2
Column_2=1
Column_4=1
Column_6=1
Column_8=1
Column_11=1
Column_12=1
Column_14=1
Column_18=1
Column_19=1
Column_25=1
Column_26=1
Column_32=1
Column_35=1
Column_38=1
Column_49=1
Column_51=1
Column_56=1
Column_58=1
Column_59=1
Column_60=1
Column_61=1
Column_62=1
Column_63=1

parameters:
[boosting: gbdt]
[objective: binary]
[metric: auc]
[tree_learner: serial]
[device_type: cpu]
[data_sample_strategy: bagging]
[data: ]
[valid: ]
[num_iterations: 100]
[learning_rate: 0.05]
[num_leaves: 31]
[num_threads: 0]
[seed: 0]
[deterministic: 0]
[force_col_wise: 0]
[force_row_wise: 0]
[histogram_pool_size: -1]
[max_depth: 5]
[min_data_in_leaf: 5]
[min_sum_hessian_in_leaf: 0.001]
[bagging_fraction: 0.8]
[pos_bagging_fraction: 1]
[neg_bagging_fraction: 1]
[bagging_freq: 5]
[bagging_seed: 3]
[bagging_by_query: 0]
[feature_fraction: 0.8]
[feature_fraction_bynode: 1]
[feature_fraction_seed: 2]
[extra_trees: 0]
[extra_seed: 6]
[early_stopping_round: 0]
[early_stopping_min_delta: 0]
[first_metric_only: 0]
[max_delta_step: 0]
[lambda_l1: 0]
[lambda_l2: 0]
[linear_lambda: 0]
[min_gain_to_split: 0]
[drop_rate: 0.1]
[max_drop: 50]
[skip_drop: 0.5]
[xgboost_dart_mode: 0]
[uniform_drop: 0]
[drop_seed: 4]
[top_rate: 0.2]
[other_rate: 0.1]
[min_data_per_group: 100]
[max_cat_threshold: 32]
[cat_l2: 10]
[cat_smooth: 10]
[max_cat_to_onehot: 4]
[top_k: 20]
[monotone_constraints: ]
[monotone_constraints_method: basic]
[monotone_penalty: 0]
[feature_contri: ]
[forcedsplits_filename: ]
[refit_decay_rate: 0.9]
[cegb_tradeoff: 1]
[cegb_penalty_split: 0]
[cegb_penalty_feature_lazy: ]
[cegb_penalty_feature_coupled: ]
[path_smooth: 0]
[interaction_constraints: ]
[verbosity: -1]
[saved_feature_importance_type: 0]
[use_quantized_grad: 0]
[num_grad_quant_bins: 4]
[quant_train_renew_leaf: 0]
[stochastic_rounding: 1]
[linear_tree: 0]
[max_bin: 255]
[max_bin_by_feature: ]
[min_data_in_bin: 3]
[bin_construct_sample_cnt: 200000]
[data_random_seed: 1]
[is_enable_sparse: 1]
[enable_bundle: 1]
[use_missing: 1]
[zero_as_missing: 0]
[feature_pre_filter: 1]
[pre_partition: 0]
[two_round: 0]
[header: 0]
[label_column: ]
[weight_column: ]
[group_column: ]
[ignore_column: ]
[categorical_feature: ]
[forcedbins_filename: ]
[precise_float_parser: 0]
[parser_config_file: ]
[objective_seed: 5]
[num_class: 1]
[is_unbalance: 0]
[scale_pos_weight: 1]
[sigmoid: 1]
[boost_from_average: 1]
[reg_sqrt: 0]
[alpha: 0.9]
[fair_c: 1]
[poisson_max_delta_step: 0.7]
[tweedie_variance_power: 1.5]
[lambdarank_truncation_level: 30]
[lambdarank_norm: 1]
[label_gain: ]
[lambdarank_position_bias_regularization: 0]
[eval_at: ]
[multi_error_top_k: 1]
[auc_mu_weights: ]
[num_machines: 1]
[local_listen_port: 12400]
[time_out: 120]
[machine_list_filename: ]
[machines: ]
[gpu_platform_id: -1]
[gpu_device_id: -1]
[gpu_use_dp: 0]
[num_gpu: 1]

end of parameters

pandas_categorical:null
