tree
version=v4
num_class=1
num_tree_per_iteration=1
label_index=0
max_feature_idx=136
objective=binary sigmoid:1
feature_names=Column_0 Column_1 Column_2 Column_3 Column_4 Column_5 Column_6 Column_7 Column_8 Column_9 Column_10 Column_11 Column_12 Column_13 Column_14 Column_15 Column_16 Column_17 Column_18 Column_19 Column_20 Column_21 Column_22 Column_23 Column_24 Column_25 Column_26 Column_27 Column_28 Column_29 Column_30 Column_31 Column_32 Column_33 Column_34 Column_35 Column_36 Column_37 Column_38 Column_39 Column_40 Column_41 Column_42 Column_43 Column_44 Column_45 Column_46 Column_47 Column_48 Column_49 Column_50 Column_51 Column_52 Column_53 Column_54 Column_55 Column_56 Column_57 Column_58 Column_59 Column_60 Column_61 Column_62 Column_63 Column_64 Column_65 Column_66 Column_67 Column_68 Column_69 Column_70 Column_71 Column_72 Column_73 Column_74 Column_75 Column_76 Column_77 Column_78 Column_79 Column_80 Column_81 Column_82 Column_83 Column_84 Column_85 Column_86 Column_87 Column_88 Column_89 Column_90 Column_91 Column_92 Column_93 Column_94 Column_95 Column_96 Column_97 Column_98 Column_99 Column_100 Column_101 Column_102 Column_103 Column_104 Column_105 Column_106 Column_107 Column_108 Column_109 Column_110 Column_111 Column_112 Column_113 Column_114 Column_115 Column_116 Column_117 Column_118 Column_119 Column_120 Column_121 Column_122 Column_123 Column_124 Column_125 Column_126 Column_127 Column_128 Column_129 Column_130 Column_131 Column_132 Column_133 Column_134 Column_135 Column_136
feature_infos=[-2.1748013611701031:2.2972436852261051] [-2.8482525370067266:2.1391284363927259] [-2.1754834960520175:2.9705531273863994] [-3.0437388443191939:3.1908785646730831] [-3.1249118932635942:2.5839890111412398] [-2.9394185508109283:2.7642891008804389] [-3.1104338776902898:2.5724076416228563] [-2.4865289996144493:2.6407665045632172] [-4.0126134331736605:2.8645103662422309] [-3.6551994305206761:2.98427409830007] [-3.0105695230332024:2.6073982026128357] [-3.3009774783158967:2.8704392903251645] [-2.7182507843516679:2.6909949162360545] [-2.5304752436298052:3.1236133690827144] [-3.5909837443343688:2.6575159259302064] [-2.1967563987250172:2.4563113757765027] [-3.3763869863724039:3.2715225280583726] [-2.9546790061673089:2.566013711254135] [-2.5128085875418744:4.0698877650762988] [-2.9293646195149785:3.0977409229293049] [-2.5101222549305606:2.8051224780363655] [-2.8795187019598707:3.4525636865062972] [-4.3172081155258937:3.2688749457683808] [-2.6571225197930461:3.3864407772936378] [-3.190450730290876:4.2476526803931662] [-2.6030057310590502:3.9130312520085853] [-3.3233903678753505:2.7645293145102223] [-2.4082317625413845:3.4388416438733094] [-2.2433701383883884:2.4609934346910953] [-2.9757284755512567:2.6917343613363971] [-2.4983389291538414:3.1608353270935838] [-3.0041533470959547:3.1170469287145943] [-3.3378021821026875:2.8731218217509591] [-2.9775497894859488:2.4024838799207719] [-3.4199359613544758:2.7577444568120288] [-3.3420388310923346:2.9263913949730824] [-2.8806698200484386:2.7113058247976634] [-2.622391868008231:2.5625831178223466] [-3.7492529230301601:2.7435732205088086] [-2.6868579392262455:3.4078676502541758] [-3.3123101322472679:3.4533356415755896] [-3.6396020586545808:3.56011194659445] [-2.9040193959055705:3.3666377871043713] [-2.4300062917181928:3.5347371462115129] [-3.2627527862974017:3.0112254345624687] [-3.615678695663326:3.0799395601781914] [-3.4710216451262563:3.1523192923344303] [-3.529866347795914:2.8763815746798467] [-3.2135212820211558:2.7101259741916452] [-3.5024400043043995:3.206158714118323] [-2.6082149272080688:3.7592187518899109] [-3.1026239509830935:3.602941999563817] [-3.0441118929091986:3.1688745741755571] [-2.8516652236488382:3.7230397000551942] [-3.830282226666168:2.8926454220960545] [-3.0943918610961303:4.0309516639969791] [-2.9894256900002656:3.6097185561128144] [-3.1479880071211301:3.008938242110538] [-2.8405620075806755:2.8344020927814753] [-3.2793038205675797:4.4365539307957587] [-2.9554534325333637:3.0352499635201187] [-2.8738945533248903:3.0760213245042549] [-2.7773790118297446:2.6527208359271448] [-3.0170800631571009:2.9456425728911744] [-2.8168538289816065:4.8100864236755569] [-2.7112010456574884:3.1194110275207576] [-2.6801275186756266:3.1693491050475062] [-3.0528587647951153:3.1740682624137495] [-2.7629012727974112:2.9323893681629674] [-3.9363350269090791:3.6108853729488746] [-2.9798171821418125:2.9906097786479457] [-3.5183987387982389:3.1202350945760386] [-3.4885214875402766:3.3548472754744965] [-2.8106476526054545:2.9591038664029372] [-4.52565762333652:2.9688364360488135] [-3.2683675434206552:2.655340273408394] [-4.1858000285615775:3.1644237641299053] [-3.0852351279072154:3.2444706275611845] [-4.1953999935452906:3.0772805223319493] [-2.7556689015982805:3.2959550006740095] [-2.6677032165953132:2.8195572975590464] [-2.1578849995306983:2.8946988981262876] [-3.1630849033300796:3.1012708778129934] [-3.287567474265114:3.3801686610850235] [-2.8868256516197919:2.4163340074195494] [-2.8028317874478939:2.9242801309899762] [-2.7528557167161924:2.6598709665151121] [-3.2808216247760815:2.7092480537367285] [-3.4815852723659249:2.7224717981988404] [-2.5398804061532343:3.0237974163242995] [-4.0731829281342007:3.1972822667308698] [-3.8053809182256249:4.058076054460658] [-4.8691832624415161:3.1450867030546452] [-3.425166020635372:2.9387406830615541] [-2.9757682205580189:2.9770474902402024] [-3.0992552806610538:2.681300164150632] [-3.3290702244964145:3.5614855822361293] [-3.2063676230187084:2.6153953324536161] [-2.4577193931205117:2.6215723177569283] [-3.4071707483191864:3.5195738167529487] [-2.8287971438822916:2.7801667876073748] [-2.6736589066277339:2.8969755206795496] [-3.817749075502991:3.4181208086441623] [-3.4050367284287431:3.4210470699228601] [-2.9310299335589955:3.0410714151498537] [-3.7277994405970531:3.1068692574521863] [-3.3014522768048686:2.6241432034755046] [-3.2728166255888222:3.3015582315918719] [-2.7395496516163318:3.0198378353728601] [-4.1031532734908946:4.310947414008119] [-3.0226348591825225:3.3002840119401777] [-3.0643274855785099:2.7773997689908416] [-3.0533440486470864:3.2577202423983467] [-3.5368816760059274:2.4191498335792119] [-2.8106397601153756:3.3486462477337038] [-4.2983163586499451:2.7788747301723458] [-3.9354021876491756:3.438044335049558] [-3.6291105233907484:2.9766290485396465] [-2.8822774890210661:2.8292234825187359] [-3.0044631264287744:3.1069542488101289] [-2.6803955989050565:3.2104353056219459] [-2.5283429379156876:3.1264389706952938] [-2.9049476802357108:3.3155882480879066] [-3.2422995883312571:3.2938141681337374] [-3.0806330451995914:3.0308185324061454] [-3.8165191809851557:3.3003831208128043] [-3.0853980853125189:2.8655816415350355] [-4.0209817152109926:2.8826219160325053] [-1.3784460480475758:2.2974100800792931] [-0.73727095747105709:1.3563534408437004] [-0.76353043384285157:1.3097054887085411] [-0.3120018152885688:3.2051095570552972] [-0.2907715683423463:3.439125791083613] [-0.15745916432444315:6.3508529610858737] none [-0.20498001542269728:4.8785243670601952] [-0.19775273765841228:5.056820005836542]
tree_sizes=1888 2535 1900 2420 2107 2028 2029 2029 2025 2430 2022 2232 2032 2128 2023 2241 2438 1926 2222 2234 2138 1925 2025 2129 1824 2333 2356 2452

Tree=0
num_leaves=17
num_cat=0
split_feature=0 2 3 65 67 94 70 23 14 103 4 4 18 74 68 1
split_gain=151.274 165.374 132.992 86.0953 82.8255 76.6581 65.1366 46.5436 39.6845 57.2741 37.6818 29.2827 36.3821 22.1902 16.4346 1.42109e-14
threshold=-0.1319410154150602 1.1872391349994362 -1.0448636161028448 -0.52815394585220587 -0.42937237160193692 -1.0834775041572877 -1.3400013333965737 1.0784019318568661 0.4056400890891198 0.19958613420740998 0.091229373718136955 1.4522106978584752 -0.17768263756050223 -0.94673662186953877 -1.7657250809489784 -1.4863551716259624
decision_type=2 2 2 2 2 2 2 2 2 2 2 2 2 2 2 2
left_child=2 3 10 8 7 -6 -4 -5 13 -10 -1 14 -13 -2 -8 -3
right_child=1 15 6 4 5 -7 11 -9 9 -11 -12 12 -14 -15 -16 -17
leaf_value=-0.43279101894452754 -0.50833447843473922 -0.50833448060270514 -0.36036567577421069 -0.49787461612878647 -0.48134128282396016 -0.35557531798952519 -0.42116894724857329 -0.3514365194495539 -0.31482700378937795 -0.49137253750054755 -0.29913720553800038 -0.50833447862267966 -0.32642380463852078 -0.30891277961347091 -0.50833448032289152 -0.50833447887462235
leaf_weight=8.6043184995651263 1.434053063392638 5.9752211570739773 9.799362897872923 28.681061506271362 14.818548381328581 66.444460153579712 5.7362122535705558 6.6922476291656485 9.5603541731834429 8.8433272242546064 13.623504519462584 5.4972034692764282 5.4972035288810712 51.147894263267517 94.408493995666504 22.944849252700806
leaf_count=7 2 5 8 26 12 47 5 6 7 8 8 6 4 30 93 23
internal_value=-0.423405 -0.39704 -0.463282 -0.379885 -0.406308 -0.378509 -0.483942 -0.47017 -0.336469 -0.399661 -0.350874 -0.494838 -0.417379 -0.314352 -0.503342 -0.508334
internal_weight=359.708 216.542 143.166 187.622 116.636 81.263 120.938 35.3733 70.9856 18.4037 22.2278 111.139 10.9944 52.5819 100.145 28.9201
internal_count=297 166 131 138 91 59 116 32 47 15 15 108 10 32 98 28
is_linear=0
shrinkage=1


Tree=1
num_leaves=23
num_cat=0
split_feature=128 1 4 2 30 86 99 105 65 7 85 13 2 106 99 54 94 65 30 109 98 14
split_gain=558.453 69.3088 34.1009 46.6528 46.2687 36.0557 24.2121 63.1024 23.5543 33.5328 41.2383 19.0717 22.5632 11.8166 19.7066 7.90589 3.27289 0.0555846 0.0247983 0.00787167 0.00492974 0.00260001
threshold=0.91896403203171728 -1.0719743497900138 0.16228336212259145 0.12195408147521263 -0.76089061132371083 1.1647730309088178 0.21768687693865371 -0.19939968871933719 -0.52815394585220587 -0.093218838025499309 -0.22983340277462297 0.68116257124144897 1.1872391349994362 1.3249258756516606 0.55798052805207621 1.7242214875576114 0.8285243569125792 -0.49252139459530142 -0.40947224796239418 0.19475651412825085 -0.57647978980308345 0.19492045704803473
decision_type=2 2 2 2 2 2 2 2 2 2 2 2 2 2 2 2 2 2 2 2 2 2
left_child=2 -2 8 4 19 -6 17 -8 9 20 -11 16 -13 15 -15 -10 -5 21 -19 -4 -1 -3
right_child=1 6 3 11 5 -7 7 -9 13 10 -12 12 -14 14 -16 -17 -18 18 -20 -21 -22 -23
leaf_value=-0.082125896063379944 -0.032367447674241018 0.11809718053640123 -0.080145241520917274 -0.080959596035491854 0.0095117835403836521 0.12092667837727344 -0.039319383638990645 0.12018693971447958 -0.07929202984465572 0.1028871198606288 -0.037702012559129063 0.087226484034056598 -0.080074826145146993 -0.08109297355526579 0.04958916789930079 -0.01711454022336557 -0.03417299778246715 0.11902780402788811 0.12181819316930825 -0.082731514277358378 -0.080145235309583798 0.11900999815472009
leaf_weight=4.5154974460601798 9.9949074983596784 23.436421871185303 6.3356890678405744 30.898268640041351 43.246032536029816 8.7268690466880781 9.4673790931701678 17.969421744346619 84.052901327610016 8.4882419407367706 13.530357360839844 4.3535082936286909 3.7523307800292969 6.3759894967079145 5.2686142325401306 5.4434847831726065 4.2523353099822989 10.717437744140623 30.971290349960327 5.4928014874458313 10.324765682220457 11.693012714385985
leaf_count=5 5 10 6 29 43 9 5 8 84 8 16 5 5 6 5 6 5 5 13 5 9 5
internal_value=0.00211504 0.0934078 -0.0404471 -0.0192709 0.00790665 0.0282197 0.105466 0.0651475 -0.0568753 -0.022657 0.0164956 -0.0593565 0.00977986 -0.0693455 -0.0219657 -0.0755102 -0.0752996 0.119866 0.121101 -0.0813462 -0.0807479 0.118401
internal_weight=359.308 114.25 245.058 107.058 63.8014 51.9729 104.255 27.4368 138 36.8589 22.0186 43.2564 8.10584 101.141 11.6446 89.4964 35.1506 76.8182 41.6887 11.8285 14.8403 35.1294
internal_count=297 51 246 107 63 52 46 13 139 38 24 44 10 101 11 90 34 33 18 11 14 15
is_linear=0
shrinkage=0.05


Tree=2
num_leaves=17
num_cat=0
split_feature=128 69 4 2 111 50 27 48 6 23 13 4 79 55 34 127
split_gain=501.148 62.0912 31.6895 42.9261 43.3699 47.3661 33.2888 29.4258 22.6107 24.165 17.716 21.1587 15.5483 4.56184 3.31484 0.074894
threshold=0.91896403203171728 1.0035100933132484 0.16228336212259145 0.12195408147521263 -0.67260863813202121 1.0599824449241895 0.43183727408626377 -0.99909279184120547 1.8887750041754052 -2.3326482463126257 0.68116257124144897 0.9837486519504115 -0.66302138632817897 1.046677826042161 1.1028266071847523 -0.97785482320998984
decision_type=2 2 2 2 2 2 2 2 2 2 2 2 2 2 2 2
left_child=2 7 8 4 6 -6 -4 -2 9 -1 14 -12 -11 15 -5 -9
right_child=1 -3 3 10 5 -7 -8 13 -10 12 11 -13 -14 -15 -16 -17
leaf_value=0.042830230503035589 0.028541349389179096 -0.031928789252167022 0.11781766083751749 -0.07855356527753965 -0.038188951924823494 0.10064793241214079 -0.046842284520599645 0.11613244140191754 0.034641117989043534 -0.031743988752253711 0.083602253367731458 -0.078740628003581795 -0.073808776601105436 0.078150701544327739 -0.030048732309163845 0.11208351696368962
leaf_weight=5.5195837616920462 13.048325538635252 9.929786801338194 12.450729370117189 30.50280350446701 40.018759340047836 7.2573189139366141 4.0737556219100943 13.718997001647947 6.7047458887100211 28.561867356300354 4.3839322924613935 3.7018715143203735 95.150712907314301 10.772457361221312 3.9822039604187003 68.186698436737061
leaf_count=5 6 5 11 29 40 7 5 6 5 30 5 5 99 5 5 29
internal_value=0.00198237 0.0876137 -0.0388904 -0.0184495 0.00749604 -0.0168762 0.0772243 0.0988411 -0.0548855 -0.0595302 -0.0573338 0.00927786 -0.0640972 0.108739 -0.0729524 0.112762
internal_weight=357.965 115.656 242.308 106.371 63.8006 47.2761 16.5245 105.726 135.937 129.232 42.5708 8.0858 123.713 92.6782 34.485 81.9057
internal_count=297 51 246 107 63 47 16 46 139 134 44 10 129 40 34 35
is_linear=0
shrinkage=0.05


Tree=3
num_leaves=22
num_cat=0
split_feature=128 128 1 10 74 2 23 117 89 36 76 115 7 67 102 48 93 14 6 10 3
split_gain=451.574 56.8594 78.2405 31.896 77.0742 25.4156 33.9056 38.7757 25.1275 22.0229 15.8262 14.8927 14.8663 13.4755 0.0823042 0.0637411 0.0558673 0.0145189 0.0134317 0.0036647 0.00161254
threshold=0.91896403203171728 1.8379280640634346 -0.42088704564266155 1.0356321989121113 1.0000000180025095e-35 -0.50564520584371941 0.17965156075888647 0.44030430896462519 1.9418564878480666 1.213669152836379 -0.10957569480375957 0.95418594190267403 -2.3986280868199348 -0.42937237160193692 0.35297797316947405 -0.31747169150378451 0.080560332138416638 -0.23750779630483462 0.6924588521386682 0.34923912959826875 -0.12741473614486926
decision_type=2 2 2 2 2 2 2 2 2 2 2 2 2 2 2 2 2 2 2 2 2
left_child=3 2 -2 5 10 6 9 -8 12 -1 -5 18 -7 -4 -12 16 -3 19 -6 -17 -19
right_child=1 15 13 4 11 8 7 -9 -10 -11 14 -13 -14 -15 -16 17 -18 20 -20 -21 -22
leaf_value=-0.063283794785914879 -0.079259866032352952 0.11000119904714289 0.033035477968816812 -0.0096386851562506749 -0.076141138990586138 0.1104006890993444 -0.015075369814081542 0.11626890020798682 0.066929931132269319 0.050831807447219261 0.11743517551484575 0.022746873301001436 -0.063641031365791495 0.10766219195575107 0.10931553290660452 0.10499840149742656 0.10561312818404822 0.1065008197908761 -0.079005368179750748 0.10378654621253991 0.10569634565638591
leaf_weight=35.754029452800751 11.167179942131041 17.352770090103153 9.7610445022583008 3.3290507197380093 11.045175254344946 1.238905906677245 19.948736071586612 7.8228027820587149 3.8954957127571097 4.7948992252349845 5.3759920299053174 4.7319339513778678 127.4621145427227 15.907418370246887 7.440360963344574 12.470531940460207 12.463247299194334 12.453423261642458 6.503039836883544 12.48329710960388 12.462997674942015
leaf_count=36 6 7 5 4 10 1 22 8 3 5 5 5 136 8 6 5 5 5 5 5 5
internal_value=0.00186785 0.082591 0.0312192 -0.0374316 0.00430597 -0.0454139 -0.0206395 0.0219222 -0.0581789 -0.0497897 0.0874918 -0.055975 -0.0619657 0.0792836 0.112721 0.106338 0.108167 0.105245 -0.0772026 0.104392 0.106098
internal_weight=355.864 116.522 36.8356 239.343 38.4256 200.917 68.3205 27.7715 132.597 40.5489 16.1454 22.2801 128.701 25.6685 12.8164 79.6863 29.816 49.8702 17.5482 24.9538 24.9164
internal_count=297 51 19 246 35 211 71 30 140 41 15 20 137 13 11 32 12 20 15 10 10
is_linear=0
shrinkage=0.05


Tree=4
num_leaves=19
num_cat=0
split_feature=128 0 128 15 0 69 17 68 49 52 71 18 61 114 67 14 60 38
split_gain=408.914 90.7395 50.5936 59.5259 28.9754 33.5578 40.5572 29.7659 26.8472 26.6595 21.4164 13.7236 0.151793 0.0493069 0.030688 0.0157985 0.00299839 0.0028558
threshold=0.91896403203171728 1.5314184642898747 1.8379280640634346 -0.25838185693548249 0.24132302153443605 0.2075279101072863 -0.18120683249149103 -2.1012274918063167 0.37451207560374189 1.489509834823209 -1.6353039479892446 -0.52368625303047256 0.18333102227051198 0.42791277547189305 0.65536021450081805 -0.23750779630483462 0.64212693027984458 0.15272576098652199
decision_type=2 2 2 2 2 2 2 2 2 2 2 2 2 2 2 2 2 2
left_child=1 4 3 -2 7 9 -7 -1 -5 -6 -9 -3 -13 15 -15 17 -17 -4
right_child=2 11 13 8 5 6 -8 10 -10 -11 -12 12 -14 14 -16 16 -18 -19
leaf_value=0.11428637713381028 0.10225115933933573 0.0031292282574886055 0.098505964639019492 -0.079032394078757451 -0.062209132927499855 0.088264640061011784 -0.021962501360729778 0.017413043663545642 0.035110291982096996 0.085895206729141235 -0.066212615099688718 0.11565864501219503 0.10400158870420793 0.10425182516725678 0.10074645761997184 0.10114278654968741 0.10009420015276888 0.099529346161846263
leaf_weight=2.4587251543998709 15.981476902961729 4.1835598945617685 14.996476888656618 11.125223875045778 39.707762658596039 12.304400384426115 25.934100240468979 8.1402084827423078 9.5942946672439557 3.2902596890926352 128.73546069860458 4.9046759009361232 6.4851722717285156 12.477195024490358 12.497611761093138 14.997410297393801 12.499238252639769 12.498472213745115
leaf_count=2 8 5 6 6 41 11 24 8 5 5 140 5 5 5 5 6 5 5
internal_value=0.00176677 -0.0360688 0.078349 0.0297466 -0.0443044 -0.0205708 0.0135064 -0.0581419 -0.026178 -0.050876 -0.0612393 0.080575 0.109021 0.100655 0.102498 0.0998187 0.100666 0.0989712
internal_weight=352.812 236.144 116.667 36.701 220.571 81.2365 38.2385 139.334 20.7195 42.998 136.876 15.5734 11.3898 79.9664 24.9748 54.9916 27.4966 27.4949
internal_count=297 246 51 19 231 81 35 150 11 46 148 15 10 32 10 22 11 11
is_linear=0
shrinkage=0.05


Tree=5
num_leaves=18
num_cat=0
split_feature=128 0 64 97 11 3 122 63 78 0 42 48 14 104 41 12 108
split_gain=323.555 104.879 57.3393 71.7091 38.042 53.7598 35.0903 29.488 16.9273 14.9451 7.3761 0.138239 0.0178801 0.0170284 0.00985922 0.00433126 0.00221706
threshold=1.8379280640634346 0.72197005853863583 0.92277829411669532 -0.84692734882466891 -0.34357279933939705 -0.89443367354196013 0.86285049691620586 1.0000000180025095e-35 1.6907509296413619 0.24132302153443605 -0.1005398947344011 -0.97048454159124964 -0.4359116355792087 0.31696579868176994 0.43684610033711918 0.49049543324180284 0.12614950946139611
decision_type=2 2 2 2 2 2 2 2 2 2 2 2 2 2 2 2 2
left_child=1 4 3 13 5 10 -5 -7 9 -6 -1 -2 -13 -3 16 -4 -14
right_child=11 2 15 6 8 7 -8 -9 -10 -11 -12 12 14 -15 -16 -17 -18
leaf_value=0.1081412681922722 0.10118189893033291 -0.079086037221586691 -0.073311724345807988 0.085781995504182598 -0.071341791757581513 -0.073993984495572415 -0.021602917895278507 -0.0014980456804404177 0.037959482523280519 -0.028271161066890954 0.028628683265558192 0.094156426348758149 0.09496481434386117 -0.074999924041877081 0.097157645619744742 -0.075207015954321485 0.095907636794288584
leaf_weight=8.1397890448570234 12.435035943984984 5.0983402729034406 6.2878996729850751 44.763752788305283 99.837550163269043 25.570656180381775 9.1650475859642011 31.07047438621521 4.3250246644020072 25.230776786804199 4.5455095767974845 19.921729564666748 12.46397376060486 5.1005761623382568 12.485226154327391 5.7902313470840454 12.477232694625853
leaf_count=6 5 5 6 40 107 28 9 32 4 24 4 8 5 5 5 4 5
internal_value=0.000252609 -0.0241528 0.0257164 0.044539 -0.0432768 -0.0133894 0.0675322 -0.0342264 -0.0592899 -0.0626529 0.0796496 0.0964028 0.0953665 -0.0770425 0.0960106 -0.0742203 0.0954365
internal_weight=344.709 274.926 76.2058 64.1277 198.72 69.3264 53.9288 56.6411 129.393 125.068 12.6853 69.7832 57.3482 10.1989 37.4264 12.0781 24.9412
internal_count=302 274 69 59 205 70 49 60 135 131 10 28 23 10 15 10 10
is_linear=0
shrinkage=0.05


Tree=6
num_leaves=18
num_cat=0
split_feature=128 0 64 97 9 63 41 1 47 61 109 71 56 36 16 12 93
split_gain=294.351 96.1893 52.2597 64.7011 36.4841 57.8446 45.6297 31.8352 25.0942 7.92381 6.299 0.110237 0.0134261 0.01188 0.0046651 0.00346297 0.00312244
threshold=1.8379280640634346 0.72197005853863583 0.92277829411669532 -0.84692734882466891 -0.028500557731197185 -0.020281074398671564 -0.31755444493221463 -0.28812301379397065 1.6341457273629032 1.2264646262370442 -1.4957904121309198 1.0697381835028701 -0.055921268688225972 0.082439250334832403 -0.36042013831346204 0.49049543324180284 0.36381013472191825
decision_type=2 2 2 2 2 2 2 2 2 2 2 2 2 2 2 2 2
left_child=1 4 3 12 5 9 -7 -5 10 -1 -6 13 -3 14 -2 -4 -15
right_child=11 2 15 7 8 6 -8 -9 -10 -11 -12 -13 -14 16 -16 -17 -18
leaf_value=-0.069877283124061149 0.091372688716940917 -0.076876063815018006 -0.07166414951813542 0.0022786321071528977 -0.023184293353768665 -0.046537233187120414 0.050838092360988865 0.087481492436303765 0.021477862620048929 0.00057011674538123998 -0.073906640182701683 0.096417999559227432 -0.073203320981978445 0.091037094053227754 0.092685502704224917 -0.073381812997301996 0.090011207867602805
leaf_weight=38.553889334201813 14.864844083786013 4.9845627546310425 6.1152130365371686 15.228952646255491 6.5922316908836356 18.8126260638237 33.37211874127388 39.139779031276703 8.1063846945762617 4.4525588750839225 85.603461980819702 12.409572362899778 4.9688252210617048 14.853332757949831 12.421773910522459 5.6413089036941528 14.815183877944945
leaf_count=45 6 5 6 17 8 18 33 32 8 5 88 5 5 6 5 4 6
internal_value=0.000221632 -0.0232581 0.0244427 0.0421594 -0.0418214 -0.019649 0.0157342 0.0636157 -0.062864 -0.0625837 -0.0702799 0.0921478 -0.0750426 0.0912173 0.0919703 -0.0724884 0.0905248
internal_weight=340.937 271.572 76.0786 64.3221 195.493 95.1912 52.1847 54.3687 100.302 43.0064 92.1957 69.3647 9.95339 56.9551 27.2866 11.7565 29.6685
internal_count=302 274 69 59 205 101 51 49 104 50 96 28 10 23 11 10 12
is_linear=0
shrinkage=0.05


Tree=7
num_leaves=18
num_cat=0
split_feature=128 0 71 64 9 63 125 94 47 78 61 109 48 4 14 41 7
split_gain=268.771 88.3182 49.0398 43.7171 34.3638 53.5398 43.4936 32.2823 23.5959 8.87152 7.52187 6.06937 0.0854262 0.0695075 0.00990706 0.00640151 0.00276436
threshold=1.8379280640634346 0.72197005853863583 -0.72429869481796805 0.92277829411669532 -0.028500557731197185 -0.020281074398671564 -0.86716233797159048 -0.99994116422945845 1.6341457273629032 0.74601112337075315 1.2264646262370442 -1.4957904121309198 -0.97048454159124964 0.4975574824135886 -0.66295005312168909 0.43684610033711918 0.21855028493908496
decision_type=2 2 2 2 2 2 2 2 2 2 2 2 2 2 2 2 2
left_child=1 4 9 7 5 10 -7 -4 11 13 -1 -6 -2 -3 -14 16 -16
right_child=12 2 3 -5 8 6 -8 -9 -10 -11 -12 -13 14 -15 15 -17 -18
leaf_value=-0.068184601190541538 0.092214535794589686 -0.072340450627961558 -0.0044644722048351815 -0.070823077448512572 -0.022197077927774915 -0.073885789773532787 0.038384280308149964 0.083959927799494877 0.020300945652213756 0.01052980572189588 0.00054151874840910276 -0.072211068547494192 0.086501336964628681 -0.080064774123241839 0.088021631591929744 0.088970992327478335 0.087037860459059063
leaf_weight=37.560660481452942 12.335357189178465 7.2363564372062701 14.133134961128233 7.2574477791786185 6.5424455404281607 10.904683887958525 41.29273396730423 38.276497691869736 8.1464574933052045 3.9882670640945426 4.453308939933776 83.291408538818359 14.63459801673889 4.8740373849868774 17.175896167755131 12.303451538085936 12.222059726715086
leaf_count=45 5 6 12 6 8 12 39 35 8 5 5 88 6 5 7 5 5
internal_value=0.000192526 -0.0224248 0.0232939 0.0441885 -0.040448 -0.0188869 0.0149297 0.0601148 -0.0611797 -0.0541489 -0.0608999 -0.0685686 0.0884458 -0.0754492 0.0876206 0.0880134 0.0876126
internal_weight=336.629 267.957 75.7657 59.6671 192.192 94.2114 52.1974 52.4096 97.9803 16.0987 42.014 89.8339 68.6714 12.1104 56.336 41.7014 29.398
internal_count=302 274 69 53 205 101 51 47 104 16 50 96 28 11 23 17 12
is_linear=0
shrinkage=0.05


Tree=8
num_leaves=18
num_cat=0
split_feature=128 0 71 109 82 71 17 63 125 121 82 71 30 116 126 51 14
split_gain=246.17 81.3124 53.7439 40.2094 38.2924 29.4408 41.1418 42.8082 18.174 16.6994 6.92609 0.0703214 0.0585579 0.0350217 0.0064871 0.00290506 0.00151379
threshold=1.8379280640634346 0.64190086857181838 -0.6036331272554033 0.4578871336019632 1.1868222197612142 0.10882663802083854 0.61650046682463566 -0.020281074398671564 1.212515388885099 0.39005187572875161 -1.2506873074176388 1.0697381835028701 0.48094934067224743 1.1018370793091077 -0.17924553427605736 -0.33898246691018408 -0.23750779630483462
decision_type=2 2 2 2 2 2 2 2 2 2 2 2 2 2 2 2 2
left_child=1 5 9 4 -4 6 7 -1 10 12 -7 14 -3 -8 16 -16 -2
right_child=11 2 3 -5 -6 8 13 -9 -10 -11 -12 -13 -14 -15 15 -17 -18
leaf_value=-0.047437776164581828 0.083427945287802202 -0.071175296650933112 0.077241485846962776 -0.053284344524821926 -0.052323597299693859 -0.018885793236723916 -0.070346965653327029 0.035183588109425602 0.023213303768092771 0.030207065426746661 -0.071076258036119305 0.088634278060357841 -0.077601603805551436 -0.074617107443933031 0.08552200635138521 0.084535138106863916 0.084221036665918542
leaf_weight=26.55161464214325 12.006697416305544 11.043516457080846 45.026601225137711 9.0784457921981794 6.5296328067779532 6.9324713349342337 21.709408104419712 38.28140589594841 6.0194321274757376 5.132592260837554 76.566800117492676 12.209666728973387 5.220691740512847 6.1653128266334525 12.141380071640016 19.329097509384155 12.060218572616575
leaf_count=29 5 10 39 9 6 8 26 39 6 6 86 5 5 5 5 8 5
internal_value=0.000166229 -0.0216333 0.0197047 0.0437461 0.060832 -0.0402421 -0.0204934 0.00134696 -0.0606943 -0.048424 -0.0667432 0.0851986 -0.0732381 -0.0712914 0.0844433 0.0849159 0.0838254
internal_weight=332.005 264.258 82.0315 60.6347 51.5562 182.226 92.7077 64.833 89.5187 21.3968 83.4993 67.7471 16.2642 27.8747 55.5374 31.4705 24.0669
internal_count=302 274 75 54 45 199 99 68 100 21 94 28 15 31 23 13 10
is_linear=0
shrinkage=0.05


Tree=9
num_leaves=22
num_cat=0
split_feature=0 3 71 59 122 14 16 12 3 82 84 22 22 78 14 99 5 120 12 12 55
split_gain=91.0007 71.3031 41.0651 43.228 40.8585 39.67 39.4501 37.4942 38.5283 27.7066 20.845 20.3021 19.1698 18.8783 12.3655 11.3219 11.0249 7.48291 0.0494202 0.0444551 0.00896465
threshold=0.64190086857181838 -0.89443367354196013 -0.5112781813856887 0.29713957988057765 0.83374877702493599 0.60746862900697329 0.077571308930474245 0.31088965297578203 0.30032925512379588 1.1703399659281388 -1.6592502009711467 -0.34168056362097715 0.31415785753863745 -0.66039443324701907 1.037672137001403 -0.58563149392312575 -0.5120223092336339 -0.12762858347346548 0.55499334246724652 0.94286438257905814 0.78680781554150869
decision_type=2 2 2 2 2 2 2 2 2 2 2 2 2 2 2 2 2 2 2 2 2
left_child=1 5 3 18 9 13 7 11 -9 14 -8 -3 -5 -1 -4 -6 -15 -7 20 -12 -2
right_child=2 6 4 12 15 17 10 8 -10 -11 19 -13 -14 16 -16 -17 -18 -19 -20 -21 -22
leaf_value=-0.01694292223203215 -0.068507966797816774 0.018651243852066162 0.089131651464373393 0.089703226186211293 0.028307967740054216 -0.072675174255520641 0.026395425592319541 0.064964838603196531 -0.030599375427570935 -0.014328503991322898 -0.069394917107162127 -0.060332571482922953 -0.031321020395885531 -0.070713112109013626 0.022402320538895387 -0.073362098574246401 0.081291994184912786 0.01009955803068043 -0.076066753416396474 -0.074039882257054032 -0.071395689015023425
leaf_weight=6.7737417221069327 5.5103599429130572 10.409389913082121 54.340816408395767 9.5711312890052778 4.5450151562690735 8.133937716484068 6.1419262290000907 23.187777638435364 19.347036838531494 8.767005503177641 62.551840126514435 37.251037836074829 4.9716035127639762 1.2427010536193837 7.959399700164794 6.8881933689117414 29.755627453327183 4.109904170036315 4.6904249191284171 5.6133069396018973 5.2464603185653687
leaf_count=5 6 10 37 6 5 6 5 17 24 7 75 43 5 1 6 7 18 4 5 6 4
internal_value=0.000143492 -0.0189567 0.0365675 -0.0135385 0.0547816 0.0333219 -0.0348517 -0.0126273 0.0214973 0.068895 -0.0618282 -0.0430819 0.0483297 0.0586744 0.0806064 -0.0329454 0.0751982 -0.0448901 -0.0717839 -0.0697774 -0.0699164
internal_weight=327.009 214.518 112.49 29.99 82.5004 50.0159 164.502 90.1952 42.5348 71.0672 74.3071 47.6604 14.5427 37.7721 62.3002 11.4332 30.9983 12.2438 15.4472 68.1651 10.7568
internal_count=302 214 88 26 62 34 180 94 41 50 86 53 11 24 43 12 19 10 15 81 10
is_linear=0
shrinkage=0.05


Tree=10
num_leaves=18
num_cat=0
split_feature=128 0 103 8 11 122 1 46 96 23 41 76 33 58 105 37 50
split_gain=238.192 56.1914 36.643 36.4907 34.4842 36.0246 29.6635 29.1079 28.7672 25.3739 23.2986 14.7866 0.19412 0.0923138 0.0281834 0.0178366 0.0025655
threshold=1.8379280640634346 0.72197005853863583 0.54536442887246694 -0.5571890351061447 -0.58858362195617875 0.70613020447980446 -0.68549121431551352 0.88963131456660038 0.77163011689229155 -0.21815874721563341 1.5549120358225375 1.8327568770564231 0.35669001152644991 -0.95964142436927158 -0.58866030837373651 -0.13858898060972782 -0.54243976103143476
decision_type=2 2 2 2 2 2 2 2 2 2 2 2 2 2 2 2 2
left_child=1 3 7 4 5 -1 -6 8 -3 -4 11 -5 -11 -2 -15 -16 -17
right_child=13 2 9 10 6 -7 -8 -9 -10 12 -12 -13 -14 14 15 16 -18
leaf_value=0.096835509966281985 0.084861183025044376 0.080824916529239482 0.045417777396200565 -0.057321097534728853 0.071582628563909428 -0.068933276036990135 -0.054556478463140205 -0.053687684668455853 -0.0095001110032094851 -0.070241292729279856 0.04570669367281914 0.017927628928593096 -0.081859666642474502 0.082251079421433726 0.08063188198097701 0.078298394285677531 0.079271967454040082
leaf_weight=13.531659722328188 12.038339614868162 30.773375630378723 6.1989480853080776 125.2818511724472 5.7419355809688595 4.3249588012695304 24.754220306873322 7.1941450238227835 12.353645145893095 8.352196276187895 6.2087122201919547 6.8873518705368033 6.3122531175613394 11.909096240997313 21.190605401992794 16.155539512634277 11.643479347229009
leaf_count=11 5 28 5 138 6 5 32 7 14 7 6 7 6 5 9 7 5
internal_value=0.00108272 -0.021478 0.0163211 -0.0358876 0.00150418 0.0566855 -0.0308065 0.0394199 0.0549515 -0.0393917 -0.0489532 -0.0533999 -0.0752424 0.0808604 0.0800695 0.0795391 0.0787062
internal_weight=330.852 257.915 71.1846 186.731 48.3528 17.8566 30.4962 50.3212 43.127 20.8634 138.378 132.169 14.6644 72.9371 60.8987 48.9896 27.799
internal_count=303 272 67 205 54 16 38 49 42 18 151 145 13 31 26 21 12
is_linear=0
shrinkage=0.05


Tree=11
num_leaves=20
num_cat=0
split_feature=128 0 8 63 103 2 33 46 57 123 43 23 96 119 33 122 91 37 84
split_gain=219.557 51.8027 34.1033 55.947 33.3435 27.3972 27.0593 26.9504 32.5708 23.5311 32.9198 23.4982 16.7962 5.64023 0.155543 0.0603349 0.0237244 0.0111584 0.000774629
threshold=1.8379280640634346 0.72197005853863583 -0.47754510776361314 0.30129767333835439 0.54536442887246694 0.29636976919261454 1.7095144968418992 0.14181721698958141 0.067409864146429729 0.28181262058439588 0.93175610791588637 -0.21815874721563341 0.83985009954238021 -1.4268243271532646 0.35669001152644991 -1.0556795801364462 -0.57971975035134882 -0.13858898060972782 1.0000000180025095e-35
decision_type=2 2 2 2 2 2 2 2 2 2 2 2 2 2 2 2 2 2 2
left_child=1 2 3 6 7 -5 -1 12 -9 13 -11 -6 -3 -4 -13 -2 -17 -18 -19
right_child=15 4 9 5 11 -7 -8 8 -10 10 -12 14 -14 -15 -16 16 17 18 -20
leaf_value=-0.067082085409624084 0.081122182661250472 0.090071933058475995 -0.025074005819200513 0.084468856651764179 0.0430509821675518 -0.036143149577467726 0.087181653373751652 -0.063299526244794083 0.059843535889340438 -0.04017218456003268 0.067456351836213263 -0.06887520633634682 -0.001356775330313788 -0.068867034029149718 -0.079405431992214726 0.079450343327601022 0.078089921540721086 0.07614561229554076 0.076705820036377798
leaf_weight=24.75602757930756 16.464633703231812 22.144044280052189 8.1532943844795209 18.498633325099949 6.212381303310397 6.3158217370510092 3.21145075559616 11.285630166530611 10.243516325950621 38.677356719970703 8.7033611536025983 8.098398029804228 6.4970749318599692 74.844935357570648 6.185186803340911 13.981990098953245 16.120446920394897 13.52785110473633 11.346347093582152
leaf_count=32 7 20 10 16 5 9 3 11 10 44 7 7 8 84 6 6 7 6 5
internal_value=0.00103554 -0.020758 -0.0347883 -0.000879499 0.0156073 0.0537705 -0.0493683 0.0375596 -0.00470835 -0.0485158 -0.0204019 -0.0381279 0.0693319 -0.064565 -0.0734351 0.078467 0.0776718 0.0770652 0.0764012
internal_weight=325.268 253.827 183.161 52.7819 70.6662 24.8145 27.9675 50.1703 21.5291 130.379 47.3807 20.496 28.6411 82.9982 14.2836 71.4413 54.9766 40.9946 24.8742
internal_count=303 272 205 60 67 25 35 49 21 145 51 18 28 94 13 31 24 18 11
is_linear=0
shrinkage=0.05


Tree=12
num_leaves=18
num_cat=0
split_feature=128 0 8 63 104 97 10 59 41 5 70 122 21 91 12 37 84
split_gain=202.876 47.8303 32.0517 49.8613 44.9247 31.3845 33.2846 30.044 27.8348 15.3359 7.10328 0.0479414 0.0351211 0.0187719 0.0109371 0.00883552 0.00061503
threshold=1.8379280640634346 0.72197005853863583 -0.18024190666464243 -0.25516139502556934 0.40674817962475113 -0.84692734882466891 0.44018624970227277 -0.24286856598658135 1.5549120358225375 -0.723684809862157 0.67739499264801517 -1.0556795801364462 0.42343224534988483 -0.57971975035134882 0.55499334246724652 -0.13858898060972782 1.0000000180025095e-35
decision_type=2 2 2 2 2 2 2 2 2 2 2 2 2 2 2 2 2
left_child=1 2 3 14 -5 12 7 -7 10 -8 -4 -2 -3 -13 -1 -15 -17
right_child=11 5 8 4 -6 6 9 -9 -10 -11 -12 13 -14 15 -16 16 -18
leaf_value=-0.065806077250801773 0.078713138708790487 -0.066706587514459889 -0.065605975651380752 0.050780546872087273 -0.051709580184811234 -0.062839508402570271 0.011090914561844993 0.038134922521968574 0.058344597871686492 0.087835964764447355 -0.034223755748292083 0.077203626882264481 -0.072802984769809995 0.075980109198865386 -0.068619598512526289 0.074228653912444126 0.074734070098246216
leaf_weight=21.270253419876102 16.12858772277832 5.0312498211860639 74.231530547142029 35.166031807661057 15.363130569458006 13.986324846744537 9.3358362913131732 15.564969897270203 5.426987648010253 21.502125889062881 23.816784560680389 13.677138090133665 4.453698992729187 15.749064445495604 4.1238407492637625 13.191853284835817 11.070401906967161
leaf_count=28 7 5 87 32 19 15 9 16 5 17 28 6 5 7 6 6 5
internal_value=0.000989641 -0.0201098 -0.0337787 -0.00910602 0.019619 0.0149843 0.0282646 -0.00965524 -0.0518819 0.0646023 -0.057983 0.0763226 -0.0695692 0.0756045 -0.066263 0.0750579 0.0744593
internal_weight=319.09 249.273 179.399 75.9233 50.5292 69.8742 60.3893 29.5513 103.475 30.838 98.0483 69.817 9.48495 53.6885 25.3941 40.0113 24.2623
internal_count=303 272 205 85 51 67 57 31 120 26 115 31 10 24 34 18 11
is_linear=0
shrinkage=0.05


Tree=13
num_leaves=19
num_cat=0
split_feature=128 0 8 63 104 10 45 114 0 41 54 76 110 58 44 12 7 5
split_gain=187.76 44.1477 30.0996 46.4458 40.6417 29.1474 35.7077 30.1862 26.6075 25.7999 10.8318 8.96156 8.90296 0.0489784 0.015407 0.00896359 0.00663467 0.00401782
threshold=1.8379280640634346 0.72197005853863583 -0.18024190666464243 -0.25516139502556934 0.40674817962475113 0.16857716975341627 -0.046468215972775589 0.070826897722230178 1.5314184642898747 1.5549120358225375 0.62476836912713429 1.8327568770564231 1.8778504262138069 -0.95964142436927158 0.64242244514299773 0.55499334246724652 0.31764840229362273 0.71299886551705349
decision_type=2 2 2 2 2 2 2 2 2 2 2 2 2 2 2 2 2 2
left_child=1 2 3 15 -5 6 -3 8 -7 11 -9 -4 -8 -2 16 -1 17 -15
right_child=13 5 9 4 -6 7 12 10 -10 -11 -12 -13 -14 14 -16 -17 -18 -19
leaf_value=-0.064801748299526327 0.077388416307603569 0.092122207042394516 -0.059985819458179372 0.047876892128104268 -0.050255116257414002 -0.062190342093411191 -0.07480418591140163 0.091148175463829723 0.06296354296569398 0.055290160657168068 0.015838253572859288 0.013929796702082787 0.0063128122725063301 0.074552526433945082 0.075131348122606953 -0.067390951881716885 0.07260923799781277 0.073196753965241931
leaf_weight=20.538464486598972 11.361515045166014 4.9449904561042812 91.100915491580963 35.426791578531265 15.026013553142546 10.492560505867006 16.036551892757419 19.915805459022526 7.1342541575431815 5.4400752186775199 6.2802005410194388 4.293912172317504 4.2868230938911429 11.038832902908327 15.572985410690306 3.9924063086509696 19.296233415603638 10.821649074554442
leaf_count=28 5 6 110 32 19 11 18 16 6 5 6 5 4 5 7 6 9 5
internal_value=0.000947927 -0.0194714 -0.032779 -0.00878844 0.0186509 0.0143929 -0.0283752 0.0390531 -0.0115357 -0.0506191 0.0730935 -0.0566587 -0.0576941 0.0743919 0.0737918 -0.0652231 0.0732849 0.0738814
internal_weight=313.001 244.91 175.819 74.9837 50.4528 69.0912 25.2684 43.8228 17.6268 100.835 26.196 95.3948 20.3234 68.0912 56.7297 24.5309 41.1567 21.8605
internal_count=303 272 205 85 51 67 28 39 17 120 22 115 22 31 26 34 19 10
is_linear=0
shrinkage=0.05


Tree=14
num_leaves=18
num_cat=0
split_feature=2 0 3 62 5 62 23 117 12 87 24 101 125 0 7 15 47
split_gain=61.3809 60.24 53.4879 49.571 28.5044 35.9286 26.4702 36.8355 26.2148 19.7697 19.354 2.67305 0.861594 0.0852026 0.0544317 0.0448769 0.0112452
threshold=0.81928778340472996 0.12589533898591351 -1.1701964331094123 1.3390405933910428 -1.3981332649839453 0.54524763466448634 1.0000000180025095e-35 0.67743917292268263 1.1489561090867639 -0.91679170225983742 -1.1384407063826558 0.072934937531297248 1.1730429799346662 0.72197005853863583 0.46673302999483762 0.41677548284741922 -0.93214463594508834
decision_type=2 2 2 2 2 2 2 2 2 2 2 2 2 2 2 2 2
left_child=1 2 11 4 5 -3 9 -8 -6 -4 -2 -1 13 16 -15 -5 -12
right_child=10 3 6 15 8 -7 7 -9 -10 -11 12 -13 -14 14 -16 -17 -18
leaf_value=0.034633336683503248 0.015640400734559648 -0.059278481601658696 0.022072358787737303 -0.072080666509840671 0.062663003006212151 0.087223840725658558 -0.026728618883307489 0.072596078142141737 -0.01521731051046106 -0.065981906600304008 -0.067467902180374045 0.075956845340077794 -0.040972469982606147 -0.067257064314099557 -0.075139410506835994 -0.065625685477019358 -0.064719666615510249
leaf_weight=5.595435798168185 9.3022109270095807 13.169604122638704 7.4266456961631766 5.168173134326933 91.361900627613068 6.1342753171920767 39.055914670228958 12.266195952892302 12.254454135894774 44.990112662315369 4.3971578478813163 13.018132686614988 3.6347519457340232 4.9453307986259443 3.9312585592269897 5.6212738156318665 24.248226046562198
leaf_count=4 8 15 9 4 67 4 42 11 12 59 5 7 5 5 6 6 34
internal_value=0.000908941 0.0108413 -0.0145108 0.0340401 0.0430597 -0.0127238 -0.0285143 -0.00298961 0.0534523 -0.053506 -0.0494945 0.0635346 -0.0642162 -0.0664679 -0.070748 -0.0687176 -0.0651415
internal_weight=306.521 256.062 122.352 133.71 122.92 19.3039 103.739 51.3221 103.616 52.4168 50.4589 18.6136 41.1567 37.522 8.87659 10.7894 28.6454
internal_count=303 240 132 108 98 19 121 53 79 68 63 11 55 50 11 10 39
is_linear=0
shrinkage=0.05


Tree=15
num_leaves=20
num_cat=0
split_feature=128 0 71 117 32 10 16 4 3 26 32 76 100 103 108 26 45 117 2
split_gain=172.5 60.128 51.9629 29.9021 28.2746 35.3481 19.5822 26.7402 34.3773 17.0431 16.3219 12.9901 8.7769 0.080991 0.0787721 0.0379206 0.0107596 0.00541987 0.000747412
threshold=1.8379280640634346 0.43790200579112543 -0.2262134543764393 -0.23174868501421178 -0.11121165450319991 0.55414688711938653 0.077571308930474245 -0.12728344940475009 -0.31808750793804591 0.37089888251717573 0.85163677825619344 1.3279032793530312 1.2280870033445839 1.0315732682397252 0.86170824222471054 -0.0755070047338052 -0.37625219269225785 -0.12822475680871848 0.010602303640883531
decision_type=2 2 2 2 2 2 2 2 2 2 2 2 2 2 2 2 2 2 2
left_child=1 6 3 9 5 -4 7 11 -9 -3 -6 -1 14 -5 -8 -2 18 -18 -17
right_child=15 2 4 13 10 -7 12 8 -10 -11 -12 -13 -14 -15 -16 16 17 -19 -20
leaf_value=-0.065508755882742839 0.073535404291645817 0.088342341526739837 -0.050797301048164517 -0.067190088272802526 0.097709548245205002 0.085753313883324592 -0.064844715055003208 0.085490304151159491 -0.023856378550984211 -0.040839360743874939 0.021825501776229418 0.042521705494140513 -0.0024677691478724229 -0.074231276762069073 -0.069333688664595453 0.069631539419339195 0.070637024139044796 0.072012201804841761 0.070237205293271363
leaf_weight=28.494422525167469 17.324572563171387 6.0031356215476972 13.332677304744722 17.317499697208408 21.512142837047577 7.3531770706176749 49.182730466127396 10.24838727712631 24.069310456514359 4.4427669048309326 10.566864073276518 3.0838007926940909 6.0190454125404349 5.3443481922149649 12.196210235357283 10.121398210525514 12.399422168731691 16.972188472747803 10.254292964935301
leaf_count=37 8 5 15 20 18 6 66 8 32 5 11 4 8 6 16 5 6 8 5
internal_value=0.00135632 -0.0201162 0.0125124 -0.0365893 0.0433217 -0.00225781 -0.0411367 -0.0217551 0.00879812 0.0333998 0.0727133 -0.0549589 -0.0600864 -0.0688506 -0.0657367 0.0715208 0.0708192 0.0714317 0.0699363
internal_weight=286.238 219.167 85.8726 33.1078 52.7649 20.6859 133.294 65.8959 34.3177 10.4459 32.079 31.5782 67.398 22.6618 61.3789 67.0719 49.7473 29.3716 20.3757
internal_count=289 257 86 36 50 21 171 81 40 10 29 41 90 26 82 32 24 14 10
is_linear=0
shrinkage=0.05


Tree=16
num_leaves=22
num_cat=0
split_feature=128 0 71 117 118 7 29 76 12 104 13 2 94 100 50 0 2 114 82 76 29
split_gain=160.4 55.8125 47.6702 27.9263 25.7689 22.9613 18.7153 30.5045 28.6794 21.2212 20.7954 14.1683 11.2652 9.49297 2.7504 0.0672014 0.0252072 0.0131669 0.00708814 0.0042203 0.0006482
threshold=1.8379280640634346 0.43790200579112543 -0.2262134543764393 -0.23174868501421178 0.39217657537105599 -0.17544611612296401 0.499089821302374 1.3279032793530312 -0.019984718006834348 0.30280765124936765 -0.20219206792418978 0.78278264143956411 -1.0834775041572877 1.2280870033445839 1.7004256048976558 1.147959735555464 -0.91828650817112334 0.29253523256495778 0.4962348468643128 -0.57297601774883533 -0.042488766311566666
decision_type=2 2 2 2 2 2 2 2 2 2 2 2 2 2 2 2 2 2 2 2 2
left_child=1 6 3 11 12 -6 7 14 13 -9 -10 -3 -4 -8 -1 -5 -2 19 -19 -18 -21
right_child=16 2 4 15 5 -7 8 9 10 -11 -12 -13 -14 -15 -16 -17 17 18 -20 20 -22
leaf_value=-0.06495142878239385 0.072267831231346127 0.091928434041026019 0.0097315902948772962 -0.066063845269824464 -0.070089202406548409 0.046221105393333933 -0.063814765099640305 0.079653915634825212 -0.039896576955848709 -0.068432411104714638 0.076826850823557183 -0.025505596706806001 0.080207815930257831 0.023755311768051457 -0.017201620895854836 -0.072557984309253629 0.069742974672302019 0.06965476741116268 0.071509009420317599 0.068328785795367566 0.068876978124046126
leaf_weight=77.167825996875763 10.604946374893187 5.0555121898651105 7.1026514768600455 16.710933864116672 8.0708191394805926 8.9474272131919843 18.239275664091114 6.8347002863883954 5.7590212225914028 3.7447514533996582 11.309045970439909 5.2208927869796753 28.113510608673096 3.7272062897682181 3.1383843421936026 5.2304405570030204 12.165342926979063 10.113794565200807 10.509577035903929 11.776259064674376 9.9473702907562274
leaf_count=103 5 5 7 20 7 10 26 6 9 6 12 5 26 4 5 6 6 5 5 6 5
internal_value=0.00131075 -0.0195655 0.012078 -0.035754 0.0415804 -0.00893848 -0.0401348 -0.0525715 -0.0111778 0.0272366 0.0374426 0.0322665 0.0659937 -0.0489561 -0.0630854 -0.0676119 0.0700375 0.0696036 0.0705997 0.0689974 0.0685798
internal_weight=279.49 214.372 84.4522 32.2178 52.2344 17.0182 129.92 90.8857 39.0345 10.5795 17.0681 10.2764 35.2162 21.9665 80.3062 21.9414 65.1173 54.5123 20.6234 33.889 21.7236
internal_count=289 257 86 36 50 17 171 120 51 12 21 10 33 30 108 26 32 27 10 17 11
is_linear=0
shrinkage=0.05


Tree=17
num_leaves=17
num_cat=0
split_feature=128 2 16 4 8 119 2 47 57 5 26 112 89 45 67 2
split_gain=149.38 28.3725 34.3409 25.8387 38.3244 27.8118 19.318 23.7723 7.78123 0.0401737 0.0251002 0.0122911 0.00916459 0.00711693 0.00389805 0.000497048
threshold=1.8379280640634346 1.038542244746169 0.077571308930474245 -0.30852092786229218 -0.80442271366132545 0.69377812442530662 -0.25571053950925243 -0.180861274569004 1.0079756640298501 0.64981680479801829 -0.0755070047338052 0.50840145379149027 0.82474666221533266 -0.37625219269225785 0.89553041239319553 0.010602303640883531
decision_type=2 2 2 2 2 2 2 2 2 2 2 2 2 2 2 2
left_child=1 2 3 4 -1 -5 7 -4 -8 11 -2 12 -3 15 -15 -12
right_child=10 9 6 5 -6 -7 8 -9 -10 -11 13 -13 -14 14 -16 -17
leaf_value=0.076860276817415418 0.070368884402514958 -0.06338354861988918 -0.053527559709445484 0.054852377912879648 -0.045794428151621887 -0.034499952184574925 -0.06284243447725503 0.022202077981204993 -0.0053672843291108566 -0.067862930392198526 0.067095467431399186 -0.065876919665441611 -0.061173142786686244 0.069113278959304122 0.067910716824127845 0.0676053265544376
leaf_weight=8.061313867568968 16.367044925689697 14.279627740383157 17.467621058225632 38.388084709644318 30.330606043338776 11.264199167490004 41.478674918413162 25.477905988693237 6.8632000982761374 5.411980688571929 9.4926899671554583 3.4454345107078543 6.9822066724300376 16.001888394355777 11.640736222267149 9.6287088394165021
leaf_count=6 8 20 23 38 37 14 56 32 8 8 5 6 9 8 6 5
internal_value=0.00126384 -0.0190573 -0.0115156 0.0107637 -0.0200401 0.0345818 -0.0330034 -0.00860012 -0.0546826 -0.0639612 0.0686837 -0.0631066 -0.0626577 0.0680938 0.0686069 0.0673522
internal_weight=272.582 209.451 179.332 88.0442 38.3919 49.6523 91.2874 42.9455 48.3419 30.1192 63.1311 24.7073 21.2618 46.764 27.6426 19.1214
internal_count=289 257 214 95 43 52 119 55 64 43 32 35 29 24 14 10
is_linear=0
shrinkage=0.05


Tree=18
num_leaves=20
num_cat=0
split_feature=128 0 71 117 32 10 29 19 4 116 32 2 45 28 0 26 45 67 2
split_gain=139.082 51.4799 41.6586 25.5246 23.0615 29.2777 17.2744 25.7546 18.3241 14.739 13.9198 12.8061 12.2036 11.8891 0.0462263 0.020485 0.00579953 0.00316665 0.000405674
threshold=1.8379280640634346 0.43790200579112543 -0.2262134543764393 -0.23174868501421178 -0.11121165450319991 0.55414688711938653 0.499089821302374 0.61335755015972149 0.16228336212259145 1.2170868930498859 0.85163677825619344 0.78278264143956411 1.81656585722126 1.3839207329336498 1.147959735555464 -0.0755070047338052 -0.37625219269225785 0.89553041239319553 0.010602303640883531
decision_type=2 2 2 2 2 2 2 2 2 2 2 2 2 2 2 2 2 2 2
left_child=1 6 3 11 5 -4 12 9 -9 -8 -6 -3 13 -1 -5 -2 18 -18 -17
right_child=15 2 4 14 10 -7 7 8 -10 -11 -12 -13 -14 -15 -16 16 17 -19 -20
leaf_value=-0.063721190729134944 0.06899067757367229 0.088530045890038031 -0.04809650518762261 -0.064282780113330593 0.089733053908404928 0.079185904956298389 -0.062650943907313003 -0.016013192008102972 0.099119245600371136 0.032745989902703825 0.019254373730982582 -0.024308167790901745 0.017325624809497286 -0.0062184892051409145 -0.069824617256220231 0.065986149267280289 0.067837127773758998 0.066735483967658882 0.06645454902790536
leaf_weight=69.782091081142426 15.871859312057493 4.9775357246398944 12.644819319248201 15.682880848646166 21.106580555438999 7.0295609831809989 18.721352458000187 6.6641223132610303 7.1787793636322021 5.1662317216396323 10.486504197120665 5.08135125041008 6.0511150360107413 10.318179070949553 4.9507581591606131 9.1776485443115252 15.500482678413393 11.263023138046263 9.3136619329452497
leaf_count=101 8 5 15 20 18 6 29 9 7 6 11 5 7 12 6 5 8 6 5
internal_value=0.00121938 -0.018447 0.0122945 -0.0337763 0.039876 -0.00261912 -0.0387855 -0.0105722 0.0436932 -0.0420192 0.0663395 0.0315287 -0.0511416 -0.0563139 -0.0656125 0.0674451 0.066903 0.0673735 0.0662221
internal_weight=266.969 205.842 81.96 30.6925 51.2675 19.6744 123.882 37.7305 13.8429 23.8876 31.5931 10.0589 86.1514 80.1003 20.6336 61.1267 45.2548 26.7635 18.4913
internal_count=289 257 86 36 50 21 171 51 16 35 29 10 120 113 26 32 24 14 10
is_linear=0
shrinkage=0.05


Tree=19
num_leaves=20
num_cat=0
split_feature=128 0 103 103 98 122 113 16 74 125 23 113 45 50 70 26 45 67 44
split_gain=129.796 47.8508 33.0576 34.6959 24.7532 22.4259 20.315 16.708 25.2507 31.0565 5.41879 10.6329 2.16159 1.03635 0.0422122 0.0167812 0.00474322 0.0025823 0.000332253
threshold=1.8379280640634346 0.43790200579112543 0.54536442887246694 2.1628592445605848 -0.68042819728612558 -0.17200099380078118 1.1727576097757748 0.077571308930474245 -0.051100862830776611 0.18612578526478743 0.87530253986670792 0.81012140485032968 1.2476981838656422 0.81085184308182046 -1.0314493638764006 -0.0755070047338052 -0.37625219269225785 0.89553041239319553 0.020822992326758088
decision_type=2 2 2 2 2 2 2 2 2 2 2 2 2 2 2 2 2 2 2
left_child=1 7 4 13 5 -3 -6 8 9 -1 14 -12 -10 -4 -9 -2 18 -18 -17
right_child=15 2 3 -5 6 -7 -8 10 12 -11 11 -13 -14 -15 -16 16 17 -19 -20
leaf_value=-0.028443328941164577 0.067729886959711202 0.069796919857166032 -0.06482537686156728 0.07965745347721101 0.071241772114703797 -0.066855833754372512 -0.027379465106631085 -0.066122473230311535 -0.063511243443256496 0.067648192022694106 -0.062734965840550605 0.055714675932624816 -0.016250637889643867 -0.035201763720828422 -0.062011786507981115 0.064965402304151362 0.066667428189472522 0.065655723358731044 0.0653966949176151
leaf_weight=22.596217960119247 15.371631622314451 4.4401833713054666 18.722660213708885 5.5442609190940848 32.739546298980713 9.2710696160793269 6.2126338183879843 7.2647039890289298 22.006412565708164 13.392057597637175 5.0876900255680066 3.018824428319931 2.7182971835136405 3.5050915777683249 44.503513783216476 8.863714814186098 14.996596097946169 10.885412931442259 8.9990779161453229
leaf_count=32 8 5 20 4 32 13 7 9 33 12 8 5 4 5 68 5 8 6 5
internal_value=0.001181 -0.0179716 0.0118973 -0.0322428 0.0351745 -0.0226029 0.0555123 -0.0378951 -0.0194125 0.00731452 -0.0566363 -0.0186249 -0.0583153 -0.060154 -0.0625886 0.0663088 0.0658094 0.0662419 0.0651827
internal_weight=260.14 201.023 80.4354 27.772 52.6634 13.7113 38.9522 120.588 60.713 35.9883 59.8747 8.10651 24.7247 22.2278 51.7682 59.1164 43.7448 25.882 17.8628
internal_count=289 257 86 29 57 18 39 171 81 44 90 13 37 25 77 32 24 14 10
is_linear=0
shrinkage=0.05


Tree=20
num_leaves=19
num_cat=0
split_feature=128 0 97 38 0 8 63 61 1 108 85 97 24 122 54 103 47 72
split_gain=105.273 44.0616 35.1782 37.253 30.2592 25.6149 29.5388 28.2914 17.3272 8.79322 7.21387 0.0767229 0.0434722 0.0144496 0.00791099 0.0051245 0.00184204 0.00064893
threshold=1.8379280640634346 0.12589533898591351 -0.84692734882466891 0.35055838895547892 1.1689237503830789 -0.18024190666464243 -0.25516139502556934 -0.65633491088744866 0.26669405045443645 1.004795176728239 -1.5424988889351108 -1.9672389977696525 -0.87356906315687921 -1.1211320245630645 0.2159691856189479 -1.3070920142731597 0.06669628844872634 -1.0000000180025095e-35
decision_type=2 2 2 2 2 2 2 2 2 2 2 2 2 2 2 2 2 2
left_child=1 5 9 8 -5 6 14 -8 -4 11 -7 -3 -12 -2 -1 -15 17 -17
right_child=13 2 3 4 -6 10 7 -9 -10 -11 12 -13 -14 15 -16 16 -18 -19
leaf_value=-0.060375746741968994 0.067094824191054642 -0.07022238559252901 0.023941473933972671 -0.036416026762826154 0.067901796714887788 0.0038667893548790938 0.092596218193775892 -0.010129324095829664 0.084866806179774892 0.029862228034601163 -0.066279647890503543 -0.062648457490171991 -0.061962328554881069 0.065770436343011537 -0.06251987758060655 0.064592808333258797 0.065097017220403869 0.064006513936693252
leaf_weight=11.337610810995104 9.4383661746978742 4.594842910766606 24.256796032190323 30.550666809082031 8.9992282390594465 4.4195236265659323 9.1869396567344648 24.784570395946503 22.490201443433762 2.8768748939037314 6.6033326387405387 12.279282331466675 49.834413051605225 12.742667675018309 6.9324508607387534 8.7432727813720703 10.681130290031431 10.255539059638981
leaf_count=21 5 5 25 31 10 6 9 28 20 4 9 16 73 7 11 5 6 6
internal_value=0.0012657 -0.013894 0.00925917 0.0230361 -0.0126794 -0.0356037 -0.00992137 0.0176508 0.0532529 -0.0509356 -0.0576502 -0.0647108 -0.0624675 0.0653254 -0.0611893 0.0649318 0.0645717 0.0642763
internal_weight=271.008 219.147 106.048 86.2969 39.5499 113.099 52.2416 33.9715 46.747 19.751 60.8573 16.8741 56.4377 51.861 18.2701 42.4226 29.6799 18.9988
internal_count=297 268 111 86 41 157 69 37 45 25 88 21 82 29 32 24 17 11
is_linear=0
shrinkage=0.05


Tree=21
num_leaves=17
num_cat=0
split_feature=128 97 1 122 33 74 7 15 23 31 8 7 122 103 76 9
split_gain=98.409 29.7774 35.3709 26.1558 22.2949 21.8738 16.9728 11.6366 9.188 14.2431 4.73329 0.0478966 0.0118971 0.00421607 0.00159748 0.000296408
threshold=1.8379280640634346 -0.84692734882466891 -0.038007544086407913 -0.63086499017077136 1.5687000093199239 0.11993792384015252 0.44974820730808518 0.3191333783061851 0.87530253986670792 0.33390684301519741 1.7866589294565609 -0.96783754374011488 -1.1211320245630645 -1.3070920142731597 -0.54422933599119905 0.58638428628665429
decision_type=2 2 2 2 2 2 2 2 2 2 2 2 2 2 2 2
left_child=1 8 4 7 6 -5 -3 -4 10 -10 11 -1 -2 -14 -15 -16
right_child=12 2 3 5 -6 -7 -8 -9 9 -11 -12 -13 13 14 15 -17
leaf_value=-0.066462879700155034 0.065989907574591972 -0.05801382554953164 0.077221811091212136 0.024621923614663671 0.050876780375484348 -0.032049335537862357 -0.0043315283532852165 -0.0015008822667291507 0.081561499083155464 -0.063756837489757259 0.0034836638720684558 -0.062113386909171342 0.064767358293288765 0.064100171310250309 0.063130152246960197 0.063552447206554494
leaf_weight=8.1357402801513654 9.1245360374450666 42.638773888349533 20.079309374094013 39.496532410383224 7.6270363926887503 29.92974466085434 22.490875273942947 6.1265792250633231 3.1933061182498923 3.5726718008518219 2.8807579278945914 28.508990615606308 12.304133653640745 12.003719806671141 8.2353457212448173 8.3870929479598981
leaf_count=9 5 59 18 47 8 33 29 7 5 6 4 43 7 7 5 5
internal_value=0.00122455 -0.0134955 -0.00373185 0.0162562 -0.0300044 0.000190881 -0.039476 0.0588175 -0.0490114 0.00482836 -0.0582277 -0.063079 0.0643573 0.0639933 0.0636606 0.0633432
internal_weight=264.735 214.68 168.389 95.6322 72.7567 69.4263 65.1296 26.2059 46.2915 6.76598 39.5255 36.6447 50.0548 40.9303 28.6262 16.6224
internal_count=297 268 201 105 96 80 88 25 67 11 56 52 29 24 17 10
is_linear=0
shrinkage=0.05


Tree=22
num_leaves=18
num_cat=0
split_feature=128 0 2 36 112 8 11 99 19 81 3 122 85 24 122 103 32
split_gain=91.9982 40.569 32.8902 30.468 37.7833 23.8057 20.4182 20.9144 17.3451 14.5014 12.7618 9.56373 6.78953 0.0369847 0.00984929 0.00395509 0.000771642
threshold=1.8379280640634346 0.12589533898591351 -0.46132884409304126 -1.024297897911403 -1.0230147126986895 -0.18024190666464243 -0.41833365818477458 0.61422421767812896 1.0497131191081905 -0.66506789576911218 0.9194081846848815 0.95340827332973954 -1.5424988889351108 -0.87356906315687921 -1.0556795801364462 -1.3070920142731597 0.092968534749036422
decision_type=2 2 2 2 2 2 2 2 2 2 2 2 2 2 2 2 2
left_child=1 5 10 9 -5 6 7 -1 -8 -4 11 -3 -7 -14 -2 -16 -17
right_child=14 2 3 4 -6 12 8 -9 -10 -11 -12 -13 13 -15 15 16 -18
leaf_value=0.053825800537648599 0.0648161338405049 0.076609382774600776 -0.02922131199310081 0.088360873617069124 -0.043201610696015996 0.0031375368759060489 -0.06216570495055114 -0.047282204553327739 0.03425721915960929 0.079667096647292102 -0.033975792357130025 0.0081183628147626068 -0.064951525971297677 -0.060872044414266802 0.063841919136284703 0.062425957433836603 0.062977288598978901
leaf_weight=17.077226877212528 10.521530389785765 22.988437503576282 4.1524302959442148 6.1640068888664237 47.597211241722107 4.4200708270072928 20.257745534181598 7.3013942539691916 6.0589549839496604 11.597460985183712 3.9776198267936698 6.5487731695175162 6.302934765815734 46.874263674020767 11.869385719299315 11.156827569007875 14.719470739364622
leaf_count=18 6 23 5 5 56 6 34 10 7 10 5 7 9 73 7 7 9
internal_value=0.00118139 -0.0130444 0.00941637 -0.0102001 -0.0281173 -0.0344128 -0.00942503 0.023544 -0.039966 0.0509589 0.0501018 0.0614241 -0.0564063 -0.0613556 0.0634633 0.0630862 0.0627396
internal_weight=259.586 211.319 103.026 69.5111 53.7612 108.293 50.6953 24.3786 26.3167 15.7499 33.5148 29.5372 57.5973 53.1772 48.2672 37.7457 25.8763
internal_count=297 268 111 76 61 157 69 28 41 15 35 30 88 82 29 23 16
is_linear=0
shrinkage=0.05


Tree=23
num_leaves=19
num_cat=0
split_feature=128 0 2 36 112 47 11 63 3 81 33 39 38 76 122 103 76 70
split_gain=86.1562 37.7595 30.0882 28.0312 34.686 18.3855 17.9656 19.9496 21.4737 13.4492 12.5855 6.47706 5.60025 0.0170852 0.00816106 0.00288205 0.00109848 0.00022655
threshold=1.8379280640634346 0.12589533898591351 -0.46132884409304126 -1.024297897911403 -1.0230147126986895 -0.43362865420945201 -0.41833365818477458 1.0000000180025095e-35 0.30032925512379588 -0.66506789576911218 1.929761966440964 0.46745652344723787 1.5371219694694134 1.3279032793530312 -1.1211320245630645 -1.3070920142731597 -0.54422933599119905 0.35116277850492278
decision_type=2 2 2 2 2 2 2 2 2 2 2 2 2 2 2 2 2 2
left_child=1 6 5 9 -5 -3 7 13 -9 -4 12 -7 -8 -1 -2 -16 -17 -18
right_child=14 2 3 4 -6 11 10 8 -10 -11 -12 -13 -14 -15 15 16 17 -19
leaf_value=-0.059665654977329396 0.064036576601115891 -0.019430233601338304 -0.0279902769295408 0.085269659585587201 -0.041765641705713952 0.083907962652357893 -0.060776776294000467 0.035046562331099457 -0.062939965592668665 0.07750764412570163 0.036209544487499266 0.026659120193778165 0.014249673808050181 -0.064132951682890044 0.062986455851932757 0.062415299918614178 0.061570125645951573 0.061953522905172635
leaf_weight=10.784163206815718 8.5026218891143781 7.7037834823131552 4.1191703379154214 6.0704305171966544 46.792764246463776 18.66806381940842 54.130715787410736 24.028542011976246 7.2869514822959891 11.331285119056698 3.8394047021865836 6.7188586294651023 2.6070366501808158 2.6702350080013266 11.439944386482237 11.147570848464964 7.6294126510620135 7.7844120264053345
leaf_count=17 5 9 5 5 56 18 92 26 10 10 3 8 4 5 7 7 5 5
internal_value=0.00114505 -0.012686 0.0090932 -0.00986248 -0.0271778 0.048226 -0.0336501 -0.00963185 0.0122456 0.0493814 -0.0514009 0.0687566 -0.0573294 -0.0605523 0.0626363 0.062323 0.0620372 0.0617638
internal_weight=253.255 206.751 101.404 68.3137 52.8632 33.0907 105.347 44.7699 31.3155 15.4505 60.5772 25.3869 56.7378 13.4544 46.504 38.0013 26.5614 15.4138
internal_count=297 268 111 76 61 35 157 58 36 15 99 26 96 22 29 24 17 10
is_linear=0
shrinkage=0.05


Tree=24
num_leaves=16
num_cat=0
split_feature=128 97 1 80 3 30 33 7 23 63 8 7 26 81 126
split_gain=80.7412 26.0184 30.2752 21.3083 22.2796 20.4524 18.7794 14.9146 8.58535 12.8345 4.17127 0.040055 0.00572517 0.00186907 0.00101887
threshold=1.8379280640634346 -0.84692734882466891 -0.038007544086407913 0.46955659878455913 0.55436061904204925 -0.99457971803308498 1.5687000093199239 0.44974820730808518 0.87530253986670792 -1.0000000180025095e-35 1.7866589294565609 -0.96783754374011488 -0.0755070047338052 -0.42885009198690699 0.22234526224694487
decision_type=2 2 2 2 2 2 2 2 2 2 2 2 2 2 2
left_child=1 8 6 4 -4 -5 7 -3 10 -10 11 -1 -2 -14 -15
right_child=12 2 3 5 -6 -7 -8 -9 9 -11 -12 -13 13 14 -16
leaf_value=-0.064595699030615419 0.062842878051942649 -0.056026561608642014 0.046285570032704164 0.046160485031042836 -0.021200167631233627 -0.053821588319995256 0.046646697965703629 -0.0041196536484559964 -0.062117252596410016 0.079495242194925569 0.0025817234025591312 -0.060461356349246986 0.062138197847242463 0.061015109023213693 0.061669787471788751
leaf_weight=7.5770612359046927 11.300414204597471 39.014736503362656 51.241334557533264 7.2643015384674099 16.063943356275558 17.287081152200699 7.4244598448276511 21.445932656526566 3.3128727674484253 3.0944853723049155 2.7577697336673728 25.829176843166351 9.4216623306274396 13.312104344367983 10.735808730125425
leaf_count=9 7 59 55 8 18 24 8 29 6 5 4 43 6 9 7
internal_value=0.00111025 -0.0123353 -0.00307874 0.0156339 0.0301786 -0.0242387 -0.0283992 -0.0376147 -0.0470688 0.00627565 -0.0565201 -0.0613991 0.0618698 0.0615413 0.0613074
internal_weight=247.083 202.313 159.742 91.8567 67.3053 24.5514 67.8851 60.4607 42.5714 6.40736 36.164 33.4062 44.77 33.4696 24.0479
internal_count=297 268 201 105 73 32 96 88 67 11 56 52 29 22 16
is_linear=0
shrinkage=0.05


Tree=25
num_leaves=21
num_cat=0
split_feature=128 0 50 0 69 23 131 16 8 97 86 84 72 85 58 128 42 127 122 68
split_gain=90.7608 30.2052 18.4984 19.7174 18.4929 17.7798 17.5496 27.0189 15.3407 17.1125 24.3356 18.0006 12.4193 6.06395 1.71277 1.41809 0.0267137 0.00577647 0.00277581 0.00114582
threshold=0.91896403203171728 0.24132302153443605 0.38430005156770003 1.5314184642898747 1.1269871682087005 0.6596251460693181 1.0000000180025095e-35 -0.096091395989407039 -0.18024190666464243 0.75502019710814194 -0.36471916371428226 1.4712465174075284 -0.73320133035504742 -1.5424988889351108 -0.068867508271184416 1.8379280640634346 -1.5633468704028033 0.18328908436416227 0.76381759647620107 0.073451531326252789
decision_type=2 2 2 2 2 2 2 2 2 2 2 2 2 2 2 2 2 2 2 2
left_child=1 8 3 4 -3 12 15 14 9 11 -11 -1 -4 -10 -8 -2 -15 19 -19 -17
right_child=6 2 5 -5 -6 -7 7 -9 13 10 -12 -13 -14 16 -16 17 -18 18 -20 -21
leaf_value=-0.046436049318437082 0.081936718541060688 -0.042730724970289548 -0.013658547916292056 0.05990185820015307 0.051470656782071404 -0.041211188093217763 0.068235108014544812 -0.061142867042938143 0.0011802784129658604 0.09224461048449055 -0.060466092534767958 0.064187574264645539 0.072120095625592212 -0.063272157007973437 0.034782945201138421 0.060331670687931049 -0.059381359757005418 0.062587323148020513 0.061307726941114062 0.061058815738317257
leaf_weight=29.702059000730515 10.498920202255247 33.903335243463516 5.3642746210098329 7.5359805822372428 6.1558812856674185 6.1205873787403098 7.8814651966094971 8.0504316091537458 4.4572949409484854 7.3551942110061646 4.0427200496196729 4.1969346404075614 19.775741875171661 4.9128102660179129 7.4370782375335711 11.350719332695009 43.242578566074371 7.9961676597595241 9.0181195735931379 10.364881992340086
leaf_count=51 6 46 7 8 7 9 5 7 6 7 8 4 21 8 5 8 78 5 6 7
internal_value=0.00163045 -0.0177011 0.00532968 -0.0142966 -0.0282548 0.0352112 0.0487 0.0130194 -0.0362499 -0.0149199 0.0380797 -0.0327401 0.053817 -0.0546139 0.0519942 0.0656376 -0.0597783 0.0612192 0.0619091 0.0606787
internal_weight=249.363 176.765 78.8558 47.5952 40.0592 31.2606 72.5978 23.369 97.9096 45.2969 11.3979 33.899 25.14 52.6127 15.3185 49.2288 48.1554 38.7299 17.0143 21.7156
internal_count=309 260 98 61 53 37 49 17 162 70 15 55 28 92 10 32 86 26 11 15
is_linear=0
shrinkage=0.05


Tree=26
num_leaves=21
num_cat=0
split_feature=128 2 8 17 24 78 131 16 29 114 50 58 128 13 89 85 127 91 122 68
split_gain=84.6883 17.3985 20.2158 20.8134 19.8084 19.7189 16.5751 25.1863 12.5729 8.49627 6.39077 1.68094 1.17497 0.0559388 0.0119763 0.0110688 0.0048092 0.00336374 0.00230958 0.000955565
threshold=0.91896403203171728 1.1872391349994362 0.32818702575833208 0.61650046682463566 -1.2428045231335625 -0.80505727149749551 1.0000000180025095e-35 -0.096091395989407039 1.0117994586204988 0.90222287765837406 -1.0000000180025095e-35 -0.068867508271184416 1.8379280640634346 1.63615851090646 0.34875073787540439 0.14569197289527566 0.18328908436416227 -0.61532446342070701 0.76381759647620107 0.073451531326252789
decision_type=2 2 2 2 2 2 2 2 2 2 2 2 2 2 2 2 2 2 2 2
left_child=1 2 3 5 10 -1 12 11 -5 -6 -4 -8 -2 14 15 -3 19 -16 -18 -14
right_child=6 13 4 8 9 -7 7 -9 -10 -11 -12 -13 16 -15 17 -17 18 -19 -20 -21
leaf_value=-0.049232124148816836 0.079659714264203346 -0.060026311185046699 -0.012798405610590209 -0.060917428337655968 -0.05936311483686172 0.024914250734774625 0.06706064438842832 -0.060493270145725621 0.021542021420879211 -0.0032056834935449922 0.077487514294097545 0.033530291672171683 0.059726838178358492 -0.067716612836258128 -0.059980267673786142 -0.063949926674087929 0.061825489384211188 -0.057910260702217824 0.060635530984075675 0.060404228851182587
leaf_weight=10.400142222642897 10.264991164207457 6.0642559230327659 3.5803473889827728 17.404731392860416 36.977190971374512 65.068802148103714 7.6250250339508066 7.7379486560821524 6.2945124804973593 8.2352811396121961 4.3307833075523368 7.3319032192230233 10.90369760990143 2.5992358922958365 2.9000599682331112 2.5547375082969666 7.697529315948489 6.0707991719245866 8.6709791421890241 9.9635072946548444
leaf_count=17 6 11 5 32 61 86 5 7 6 12 5 5 8 5 5 4 5 11 6 7
internal_value=0.00158804 -0.0172551 -0.0114731 0.00186012 -0.0363628 0.0146964 0.0478883 0.0127379 -0.0390162 -0.0491343 0.0366267 0.050624 0.0646824 -0.06087 -0.0598583 -0.0611893 0.0605535 -0.0585794 0.0611951 0.0600503
internal_weight=242.676 172.481 152.292 99.1682 53.1236 75.4689 70.1956 22.6949 23.6992 45.2125 7.91113 14.9569 47.5007 20.1891 17.5899 8.61899 37.2357 8.97086 16.3685 20.8672
internal_count=309 260 224 141 83 103 49 17 38 73 10 10 32 36 31 15 26 16 11 15
is_linear=0
shrinkage=0.05


Tree=27
num_leaves=22
num_cat=0
split_feature=128 0 98 17 44 131 29 8 44 19 122 123 85 66 60 128 0 42 127 125 127
split_gain=78.9528 27.5547 20.4924 17.5463 16.9154 15.6784 21.7892 14.5372 21.5624 16.5499 15.7846 14.0927 5.91385 3.48582 3.28128 0.976681 0.0907273 0.0198729 0.00401196 0.00193527 0.000786941
threshold=0.91896403203171728 0.24132302153443605 0.98030183547461791 0.071246855476550922 -0.29590784835260614 1.0000000180025095e-35 -0.076936451145436194 -0.18024190666464243 0.83440086520615198 0.1032249064902175 2.0032246340351532 -0.15737210624480188 -1.5424988889351108 0.60167761711179357 0.25184957659612622 1.8379280640634346 1.0814020653990248 -1.5633468704028033 0.18328908436416227 -0.29713649254503843 -0.52341839260675727
decision_type=2 2 2 2 2 2 2 2 2 2 2 2 2 2 2 2 2 2 2 2 2
left_child=1 7 3 11 -5 15 -7 8 10 -10 -1 -3 -9 16 -8 -2 -4 -14 20 -20 -17
right_child=5 2 13 4 -6 6 14 12 9 -11 -12 -13 17 -15 -16 18 -18 -19 19 -21 -22
leaf_value=-0.050743365126093037 0.07759745184141964 -0.0048555346155121559 -0.061154593809468673 -0.063213211717125614 0.017401953263442335 -0.061824341012378936 0.018080908387426289 0.0020480948853236519 -0.024469776152764234 0.082890878372622087 0.07626382698237652 0.063030747987880317 -0.062027335876741418 -0.0060974569264437119 0.065232005884600042 0.059751437836742298 -0.070749929721249952 -0.058556933202850582 0.061119551258327964 0.060008668288715539 0.059122320873383816
leaf_weight=26.227113693952564 10.017186284065245 11.292551904916762 5.8340601921081525 10.235259681940081 17.864792048931122 6.8163872361183193 6.2888153791427603 4.3635388612747184 6.4059155583381644 8.1648029088973981 2.6980005502700797 23.667349964380264 4.5926724076271048 3.3124047815799704 8.9280354976654035 10.907147407531737 4.264123260974884 40.524303525686264 7.4054105281829825 8.3311700820922834 9.1328399181365985
leaf_count=50 6 17 8 15 22 6 5 6 9 9 2 26 8 5 6 8 5 78 5 6 7
internal_value=0.00153581 -0.0167121 0.00552049 0.0174567 -0.0119616 0.0471231 0.0124667 -0.0349978 -0.0139107 0.0356905 -0.0388967 0.0411025 -0.0535345 -0.0506065 0.0457454 0.0637977 -0.0652064 -0.0589102 0.0599339 0.0605314 0.0594647
internal_weight=237.274 169.447 76.4705 63.06 28.1001 67.827 22.0332 92.9763 43.4958 14.5707 28.9251 34.9599 49.4805 13.4106 15.2169 45.7938 10.0982 45.117 35.7766 15.7366 20.04
internal_count=309 260 98 80 37 49 17 162 70 18 52 43 92 18 11 32 13 86 26 11 15
is_linear=0
shrinkage=0.05


end of trees

feature_importances:
Column_0=30
Column_128=30
Column_2=18
Column_122=15
Column_8=12
Column_3=10
Column_7=10
Column_23=10
Column_63=10
Column_71=10
Column_103=10
Column_4=9
Column_12=9
Column_14=9
Column_76=9
Column_1=8
Column_97=8
Column_16=7
Column_45=7
Column_10=6
Column_26=6
Column_33=6
Column_41=6
Column_47=6
Column_50=6
Column_67=6
Column_85=6
Column_117=6
Column_5=5
Column_29=5
Column_32=5
Column_125=5
Column_127=5
Column_11=4
Column_13=4
Column_17=4
Column_24=4
Column_30=4
Column_36=4
Column_44=4
Column_48=4
Column_58=4
Column_61=4
Column_68=4
Column_70=4
Column_74=4
Column_78=4
Column_82=4
Column_84=4
Column_94=4
Column_99=4
Column_104=4
Column_109=4
Column_114=4
Column_9=3
Column_15=3
Column_19=3
Column_37=3
Column_38=3
Column_42=3
Column_54=3
Column_64=3
Column_65=3
Column_69=3
Column_81=3
Column_89=3
Column_91=3
Column_98=3
Column_108=3
Column_112=3
Column_131=3
Column_6=2
Column_18=2
Column_22=2
Column_46=2
Column_55=2
Column_57=2
Column_59=2
Column_60=2
Column_62=2
Column_72=2
Column_86=2
Column_93=2
Column_96=2
Column_100=2
Column_105=2
Column_113=2
Column_116=2
Column_119=2
Column_123=2
Column_126=2
Column_21=1
Column_27=1
Column_28=1
Column_31=1
Column_34=1
Column_39=1
Column_43=1
Column_49=1
Column_51=1
Column_52=1
Column_56=1
Column_66=1
Column_79=1
Column_80=1
Column_87=1
Column_101=1
Column_102=1
Column_106=1
Column_110=1
Column_111=1
Column_115=1
Column_118=1
Column_120=1
Column_121=1

parameters:
[boosting: gbdt]
[objective: binary]
[metric: auc]
[tree_learner: serial]
[device_type: cpu]
[data_sample_strategy: bagging]
[data: ]
[valid: ]
[num_iterations: 100]
[learning_rate: 0.05]
[num_leaves: 31]
[num_threads: 0]
[seed: 0]
[deterministic: 0]
[force_col_wise: 0]
[force_row_wise: 0]
[histogram_pool_size: -1]
[max_depth: 5]
[min_data_in_leaf: 5]
[min_sum_hessian_in_leaf: 0.001]
[bagging_fraction: 0.8]
[pos_bagging_fraction: 1]
[neg_bagging_fraction: 1]
[bagging_freq: 5]
[bagging_seed: 3]
[bagging_by_query: 0]
[feature_fraction: 0.8]
[feature_fraction_bynode: 1]
[feature_fraction_seed: 2]
[extra_trees: 0]
[extra_seed: 6]
[early_stopping_round: 0]
[early_stopping_min_delta: 0]
[first_metric_only: 0]
[max_delta_step: 0]
[lambda_l1: 0]
[lambda_l2: 0]
[linear_lambda: 0]
[min_gain_to_split: 0]
[drop_rate: 0.1]
[max_drop: 50]
[skip_drop: 0.5]
[xgboost_dart_mode: 0]
[uniform_drop: 0]
[drop_seed: 4]
[top_rate: 0.2]
[other_rate: 0.1]
[min_data_per_group: 100]
[max_cat_threshold: 32]
[cat_l2: 10]
[cat_smooth: 10]
[max_cat_to_onehot: 4]
[top_k: 20]
[monotone_constraints: ]
[monotone_constraints_method: basic]
[monotone_penalty: 0]
[feature_contri: ]
[forcedsplits_filename: ]
[refit_decay_rate: 0.9]
[cegb_tradeoff: 1]
[cegb_penalty_split: 0]
[cegb_penalty_feature_lazy: ]
[cegb_penalty_feature_coupled: ]
[path_smooth: 0]
[interaction_constraints: ]
[verbosity: -1]
[saved_feature_importance_type: 0]
[use_quantized_grad: 0]
[num_grad_quant_bins: 4]
[quant_train_renew_leaf: 0]
[stochastic_rounding: 1]
[linear_tree: 0]
[max_bin: 255]
[max_bin_by_feature: ]
[min_data_in_bin: 3]
[bin_construct_sample_cnt: 200000]
[data_random_seed: 1]
[is_enable_sparse: 1]
[enable_bundle: 1]
[use_missing: 1]
[zero_as_missing: 0]
[feature_pre_filter: 1]
[pre_partition: 0]
[two_round: 0]
[header: 0]
[label_column: ]
[weight_column: ]
[group_column: ]
[ignore_column: ]
[categorical_feature: ]
[forcedbins_filename: ]
[precise_float_parser: 0]
[parser_config_file: ]
[objective_seed: 5]
[num_class: 1]
[is_unbalance: 0]
[scale_pos_weight: 1]
[sigmoid: 1]
[boost_from_average: 1]
[reg_sqrt: 0]
[alpha: 0.9]
[fair_c: 1]
[poisson_max_delta_step: 0.7]
[tweedie_variance_power: 1.5]
[lambdarank_truncation_level: 30]
[lambdarank_norm: 1]
[label_gain: ]
[lambdarank_position_bias_regularization: 0]
[eval_at: ]
[multi_error_top_k: 1]
[auc_mu_weights: ]
[num_machines: 1]
[local_listen_port: 12400]
[time_out: 120]
[machine_list_filename: ]
[machines: ]
[gpu_platform_id: -1]
[gpu_device_id: -1]
[gpu_use_dp: 0]
[num_gpu: 1]

end of parameters

pandas_categorical:null
