tree
version=v4
num_class=1
num_tree_per_iteration=1
label_index=0
max_feature_idx=136
objective=binary sigmoid:1
feature_names=Column_0 Column_1 Column_2 Column_3 Column_4 Column_5 Column_6 Column_7 Column_8 Column_9 Column_10 Column_11 Column_12 Column_13 Column_14 Column_15 Column_16 Column_17 Column_18 Column_19 Column_20 Column_21 Column_22 Column_23 Column_24 Column_25 Column_26 Column_27 Column_28 Column_29 Column_30 Column_31 Column_32 Column_33 Column_34 Column_35 Column_36 Column_37 Column_38 Column_39 Column_40 Column_41 Column_42 Column_43 Column_44 Column_45 Column_46 Column_47 Column_48 Column_49 Column_50 Column_51 Column_52 Column_53 Column_54 Column_55 Column_56 Column_57 Column_58 Column_59 Column_60 Column_61 Column_62 Column_63 Column_64 Column_65 Column_66 Column_67 Column_68 Column_69 Column_70 Column_71 Column_72 Column_73 Column_74 Column_75 Column_76 Column_77 Column_78 Column_79 Column_80 Column_81 Column_82 Column_83 Column_84 Column_85 Column_86 Column_87 Column_88 Column_89 Column_90 Column_91 Column_92 Column_93 Column_94 Column_95 Column_96 Column_97 Column_98 Column_99 Column_100 Column_101 Column_102 Column_103 Column_104 Column_105 Column_106 Column_107 Column_108 Column_109 Column_110 Column_111 Column_112 Column_113 Column_114 Column_115 Column_116 Column_117 Column_118 Column_119 Column_120 Column_121 Column_122 Column_123 Column_124 Column_125 Column_126 Column_127 Column_128 Column_129 Column_130 Column_131 Column_132 Column_133 Column_134 Column_135 Column_136
feature_infos=[-2.0456109484094873:2.3459330882433136] [-2.7003653092834523:2.1514699763912382] [-2.1677995896286637:2.9543419974482665] [-3.0831045559914716:3.2701770121637788] [-3.1183277356635029:2.7360330390570913] [-2.8489290303989323:2.7016337234854402] [-3.0447537373535658:2.714795251233165] [-2.5083018329489293:2.5528714005615671] [-4.1016619141257511:2.8873873925154663] [-3.4771503855233359:3.0071916045859357] [-2.9198755267935388:2.801721706550464] [-3.2975394968349221:2.986178302160527] [-3.0035096789934004:2.6026382227130287] [-2.7945208948321238:2.9374957866847451] [-3.8618271790043113:2.7297178229748904] [-2.4293137487414711:2.7272056559456939] [-3.2929129359516964:3.2242365411528966] [-3.4656934585218564:2.5169580908833509] [-3.1956362263463141:2.9608166528609301] [-3.0085392955234673:2.8122232504781142] [-3.3392444745609366:2.8543761812314372] [-2.6073483444198953:3.1670022359525647] [-4.3228298380719767:3.7164452714749312] [-2.9508964403560642:3.3654798370170975] [-3.0976472799516315:4.1693521796304118] [-3.501189215667234:2.8971430718223279] [-3.5786866424175425:2.7631158635579163] [-2.0271703254485036:3.0632768957200676] [-2.3939737024367189:2.8240435732965903] [-2.8681538331211165:2.9639848985230857] [-3.1557189951621205:2.9165736173930599] [-2.7896944066862459:2.9525124239375899] [-3.1822193719386158:2.6321043571564164] [-2.8202131497282972:2.862486244989821] [-2.4342869471141122:3.9420114062373832] [-2.7636590044460063:3.7380970698224862] [-2.6291750060128165:2.6012977440052358] [-2.4358220215844599:2.8763097361551377] [-3.3909373411229842:3.449650322561252] [-3.1425851115151948:2.694551973793232] [-2.5556746014782283:3.3040889091441983] [-3.5643432070146699:3.5206143460814356] [-2.8049371226089099:3.4216645080655863] [-2.5679274258751401:4.8457717398442117] [-3.1722702149183069:3.0434126185980506] [-3.3150839196385582:3.1344316221403963] [-3.5514585536428327:2.8000038803366665] [-2.9638724139024046:3.0337823292888464] [-3.2756618269626729:3.2933377099788586] [-2.6170108316439014:3.0081608483541804] [-3.5378652827189558:3.5228074415661776] [-2.9508550063995589:3.8949119302113822] [-2.6443322428663425:3.0323387001539563] [-2.2837211569130624:3.3404746140926629] [-3.5806760543283986:2.6297855855528156] [-3.1439274644462341:2.9533089913774568] [-2.8895341201580198:3.6742938580721458] [-3.4647667606924561:3.7440809744537074] [-2.6940313149405699:3.0061393758810055] [-3.5333851484696184:3.0572848562548698] [-2.558410573095351:2.7291641226717562] [-3.3620383792663575:2.695310370934358] [-3.254035429818618:3.3747976022035573] [-3.2821244444164162:3.5387181183464378] [-3.3265758654346875:3.1919930860133006] [-2.8760402096809532:2.718298827087283] [-2.8918591514144776:3.458726002218715] [-2.9612939496325654:3.6179786232463229] [-2.6020341899008494:3.1333069587031153] [-3.691738915503894:4.1305433870387542] [-3.09827403261112:3.3927658041120052] [-2.8835691805278332:3.4683006459360279] [-3.5813555602034235:3.6382414883004741] [-3.5165210361811106:3.1050918016959326] [-3.0512819958053332:3.8059251117206143] [-3.0340899598131981:3.9240528589095049] [-2.6765440501401723:2.8191648399738725] [-3.1345880624785041:2.8716125445599907] [-3.9654145823320035:2.5574440164103476] [-3.2056213534391302:3.4970006035399344] [-2.502756020324802:2.5907288341242669] [-3.0549344096134274:3.088862134506412] [-3.0533324843353307:2.7147976431367296] [-3.1441104548546961:3.1629757166303913] [-3.4110195954428373:2.529100898201265] [-3.8446878096641495:3.0099483674689065] [-3.2434106934178186:3.888238812768221] [-3.0734980958007529:3.9883219154467588] [-2.6925663499731582:2.9298044892134607] [-3.0097719229089441:2.5246129918132412] [-2.946336325375813:3.7580332218924197] [-2.4462795796986532:3.0520064408789143] [-3.180940285561169:4.0110481004881562] [-2.8966164046688654:2.9319870603640603] [-3.1900476451682453:3.7466933725193763] [-3.4342996356085824:3.6861189497136104] [-3.4486087176946452:3.0721285061381289] [-2.4876712235176957:2.9482488043503108] [-2.9609032762660563:2.3539427585661841] [-3.0860660571938872:2.5782176039975271] [-3.2905322523407747:2.9507511252949521] [-2.9115931049707844:2.623862060615048] [-3.1994712005290031:3.50706645059172] [-3.7486946209732586:3.5128477924297457] [-3.5292504591420366:2.9345821614528722] [-2.7275389485718051:3.0026430079938278] [-3.0625969213555253:2.671359462924507] [-3.0234449726652555:3.570736363984941] [-2.7826764356197402:2.4459872547286943] [-2.8044160249846053:3.7032539896828571] [-2.7445435739775013:3.1234955122565] [-3.0833008021923085:3.2705712181879907] [-3.2903994095032676:3.3872618068572851] [-3.0408598138987841:2.9202524409456361] [-3.1702198751259596:3.577334726902563] [-2.8245008606604203:3.8234231411548154] [-3.2303194104026063:2.8874613875176385] [-3.1436435269285372:3.0074833992272345] [-3.4148238598247249:3.0850860262140127] [-2.4996407951115454:3.0586919746934611] [-2.7916081746475867:2.88024488033393] [-3.0537977114667778:3.0307648303818411] [-2.8877723617250939:2.7812603577075472] [-3.6597721723947787:3.0835390057309486] [-4.1130104627940982:3.3760159862244525] [-2.9295517333095766:3.121316267531316] [-2.7698953173088716:3.1095370213828968] [-3.734673162531494:2.7898610754533917] [-1.3944008063578828:2.4428224652735846] [-0.74219098460377197:1.3473620951268477] [-0.7599909255356605:1.3158051845095018] [-0.32001505988659001:3.1248529377161143] [-0.28781979898261129:3.4743961448615224] [-0.15877683720748945:6.2981478758970812] none [-0.20672455764868014:4.8373546489791153] [-0.1841149235796648:5.4313902456001113]
tree_sizes=2407 1804 2024 2009 2221 1919 1806 2125 1811 2025 2130 1919 2129 2135 2339 1818 1816 2029 2036 1928 1808 1926 1811 1821 2022 1803 2138 2040 2012 2028 2031 2034 1711 1926 1825 2039

Tree=0
num_leaves=22
num_cat=0
split_feature=0 2 3 1 97 124 51 52 65 29 115 75 34 101 126 93 67 91 4 46 18
split_gain=175.507 147.091 120.332 92.0681 70.5402 62.4355 57.3139 52.885 50.8013 48.2707 33.7045 30.1292 55.9961 21.2914 20.8456 14.2352 26.8503 10.9806 6.34201 1.86737 0.903685
threshold=0.15941392017495409 0.11521191442581989 -0.99183368294104468 0.43760583594454466 -0.029109985780828313 0.11854002967835489 -0.14142590942380798 1.8637059506124833 0.18311514001568172 1.226297158231141 1.2701177684601861 -1.5134085333110858 -0.055098535680593898 0.71587703551264237 0.57287724374991378 -0.50811886937414863 0.27053116174642095 0.43323820833031107 -0.24421936765492161 -0.048382137613889396 1.2628653069793196
decision_type=2 2 2 2 2 2 2 2 2 2 2 2 2 2 2 2 2 2 2 2 2
left_child=2 5 4 9 18 15 -5 11 10 20 -7 12 -4 -8 -13 16 -2 -10 -1 -6 -3
right_child=1 3 7 6 19 8 13 -9 17 -11 -12 14 -14 -15 -16 -17 -18 -19 -20 -21 -22
leaf_value=-0.61510787209751072 -0.40040432298757178 -0.6151078735497133 -0.42118208598547613 -0.57037796944714392 -0.43475689184721328 -0.41963150704217367 -0.40040432225863154 -0.42840913507917278 -0.61510787337197259 -0.49105693344139478 -0.57932394697587641 -0.60865062472078102 -0.6151078734878328 -0.50775609948509315 -0.56323319139772687 -0.40040432324027109 -0.54354002406914781 -0.51407090883702233 -0.52922645180558825 -0.40040432344602472 -0.58984863147253619
leaf_weight=5.5891017913818377 7.9178940057754499 33.534610509872437 7.2192563414573669 11.178203403949736 5.8219808936119106 15.602908790111544 15.835788190364839 5.3562223911285392 8.3836526274681074 10.479565739631651 4.1918263435363761 92.918816268444061 7.6850149035453779 6.5206186175346366 34.69900643825531 40.753866046667099 5.5891017317771912 3.9589470624923697 3.4931886196136475 12.342599391937254 3.9589470922946921
leaf_count=5 5 29 6 7 4 12 11 3 7 9 5 94 7 5 32 25 6 4 5 6 6
internal_value=-0.529839 -0.493313 -0.564858 -0.541495 -0.468302 -0.447859 -0.477936 -0.582649 -0.503089 -0.585925 -0.453449 -0.588445 -0.521175 -0.431715 -0.596302 -0.415148 -0.459633 -0.5827 -0.582077 -0.411415 -0.612441
internal_weight=343.031 167.906 175.125 81.5077 27.2469 86.3982 33.5346 147.878 32.1373 47.9731 19.7947 142.522 14.9043 22.3564 127.618 54.2609 13.507 12.3426 9.08229 18.1646 37.4936
internal_count=293 131 162 67 20 64 23 142 28 44 17 139 13 16 126 36 11 11 10 10 35
is_linear=0
shrinkage=1


Tree=1
num_leaves=16
num_cat=0
split_feature=128 16 2 48 109 89 4 30 24 32 85 2 1 18 124
split_gain=482.055 55.8482 61.7155 60.3825 68.2625 42.0795 29.6865 37.104 14.1213 6.30325 2.6344 0.137287 0.00411497 0.00400385 0.000254603
threshold=1.9631695563196514 0.34941652992377342 1.2396142882613044 -0.18452592807609983 1.0647944912914362 -0.68242851462880372 0.97562384340331232 0.53115406908376828 1.4101278067223688 1.5141552460559733 0.26690005080109708 0.46379572481957654 0.82309111487286379 0.83948031193956452 0.4266035548889166
decision_type=2 2 2 2 2 2 2 2 2 2 2 2 2 2 2
left_child=1 2 3 5 -5 -1 8 10 9 -3 -8 12 -2 14 -4
right_child=11 6 13 4 -6 -7 7 -9 -10 -11 -12 -13 -14 -15 -16
leaf_value=0.07057016407216557 0.12462138992833001 -0.07263886470450924 -0.07709522826372317 0.053787680539337523 -0.077794311363284935 -0.046624303139195168 -0.078038243880311262 0.086438692560090916 0.016370266969328993 -0.01854418150908314 -0.024726810351501101 0.13084832825927786 0.12555995800858591 -0.078610226656561519 -0.077525087436866924
leaf_weight=8.9293823242187482 38.438652038574219 77.353979349136353 13.903875291347509 70.071106433868408 11.470114052295683 53.855459868907928 6.2061964273452777 8.0414578318595868 5.1599194407463065 5.788061559200286 3.6981098055839539 11.799021959304808 16.774473190307617 6.9399493336677542 4.5791866183280936
leaf_count=9 16 74 11 64 11 52 7 8 5 6 4 5 7 9 5
internal_value=0.00565954 -0.0235477 -0.00575348 0.00689984 0.0352785 -0.0299567 -0.051977 0.00664948 -0.0638918 -0.068873 -0.0581326 0.125953 0.124907 -0.0775862 -0.0772017
internal_weight=343.009 275.997 169.749 144.326 81.5412 62.7848 106.248 17.9458 88.302 83.142 9.90431 67.0121 55.2131 25.423 18.4831
internal_count=293 265 161 136 75 61 104 19 85 80 11 28 23 25 16
is_linear=0
shrinkage=0.05


Tree=2
num_leaves=18
num_cat=0
split_feature=128 16 2 4 118 86 4 30 47 47 48 89 2 18 1 16 1
split_gain=426.84 51.6723 57.0577 55.7416 68.9614 43.6937 27.6328 33.3035 14.7518 35.7074 4.35804 2.59808 0.0933569 0.00317125 0.00280417 0.000207783 2.84217e-14
threshold=1.9631695563196514 0.34941652992377342 1.2396142882613044 -0.21653559068340422 0.43163191308585402 -1.1330650903529182 0.97562384340331232 0.53115406908376828 0.77793661527171276 1.1711778600585427 1.6831454184230015 -1.0000000180025095e-35 0.46379572481957654 0.83948031193956452 0.82309111487286379 -0.10756245918866093 0.33812323905735536
decision_type=2 2 2 2 2 2 2 2 2 2 2 2 2 2 2 2 2
left_child=1 2 3 5 -5 -1 8 11 10 -10 -3 -8 14 15 16 -4 -2
right_child=12 6 13 4 -6 -7 7 -9 9 -11 -12 -13 -14 -15 -16 -17 -18
leaf_value=0.10139833677960955 0.11587808745827051 -0.075853290373704862 -0.075083394102552187 0.067029771803552754 -0.027053605625497929 -0.04399017708921138 -0.076222680630846251 0.08061139579709807 0.095840136043485874 -0.064437741533217893 -0.027449133262871319 -0.022871257364605893 0.12094840419883585 -0.076448940788942543 0.11664460232908785 -0.075476393260053176 0.11587808745827051
leaf_weight=5.7091461420059195 26.983672142028809 63.996536195278168 13.570521593093876 53.551003485918045 30.610040962696075 54.491154581308365 6.0841940641403198 8.1875916719436628 4.7644639611244228 12.839409887790678 5.0145081877708426 3.6514148712158221 12.117542982101439 6.7833001613616934 17.143276929855347 4.4715439081192025 12.265305519104002
leaf_count=4 11 61 12 47 29 56 8 8 5 13 6 3 5 9 7 4 5
internal_value=0.00535198 -0.0225837 -0.00550735 0.00653376 0.0328109 -0.0302021 -0.0502205 0.00629057 -0.0619144 -0.0210588 -0.0723361 -0.0562128 0.116967 -0.0755273 0.116111 -0.0751808 0.115878
internal_weight=342.235 273.725 169.187 144.361 84.161 60.2003 104.538 17.9232 86.6149 17.6039 69.011 9.73561 68.5098 24.8254 56.3923 18.0421 39.249
internal_count=293 265 161 136 76 60 104 19 85 18 67 11 28 25 23 16 16
is_linear=0
shrinkage=0.05


Tree=3
num_leaves=18
num_cat=0
split_feature=128 16 10 1 117 117 84 20 4 30 125 47 47 118 8 2 1
split_gain=381.04 47.9636 56.0372 62.441 43.9471 40.1641 36.3928 31.7927 25.7816 30.002 22.5666 13.9506 32.3192 4.28591 2.64789 0.0653995 0.0019658
threshold=1.9631695563196514 0.34941652992377342 -0.21858853478686377 0.65083088082266338 0.13343210982491679 -0.89593664747342205 0.26183688700206337 1.2588328989544901 0.97562384340331232 0.53115406908376828 1.1940197986844805 0.77793661527171276 1.1711778600585427 1.969013081012523 -1.0000000180025095e-35 0.46379572481957654 0.82309111487286379
decision_type=2 2 2 2 2 2 2 2 2 2 2 2 2 2 2 2 2
left_child=1 2 5 4 -4 6 -1 -5 11 14 -7 13 -13 -3 -10 16 -2
right_child=15 8 3 7 -6 10 -8 -9 9 -11 -12 12 -14 -15 -16 -17 -18
leaf_value=0.12627781279074288 0.10866995501302619 -0.074061142502398356 -0.036562215497548893 0.10844477703881938 0.04907870694157649 -0.064798668955532157 -0.05464956955735864 -0.01731195233916542 -0.074801788893469126 0.07552107682656227 0.031585237910004053 0.089364836974013262 -0.062558920869193013 -0.026441093968735726 -0.020451306271575109 0.11287939072072083 0.10930755651091346
leaf_weight=6.4469290375709516 39.745391845703125 62.24902480840683 43.310873210430145 22.825536131858829 22.900360524654388 54.874564409255981 4.8856531083583832 6.4448525905609122 5.9738805890083313 8.2993922233581525 6.8286350369453421 4.8517795801162746 12.570608139038084 5.1131349802017203 3.5862558484077471 12.328534126281737 17.372664213180542
leaf_count=5 16 62 43 19 21 56 6 4 6 8 7 5 13 5 5 5 7
internal_value=0.00507668 -0.0216866 -0.00527479 0.0199422 -0.00694174 -0.0382417 0.0482772 0.0807552 -0.0486309 0.0059676 -0.054132 -0.0601319 -0.0202513 -0.0704465 -0.0544135 0.109577 0.108864
internal_weight=340.608 271.161 168.517 95.4816 66.2112 73.0358 11.3326 29.2704 102.644 17.8595 61.7032 84.7845 17.4224 67.3622 9.56014 69.4466 57.1181
internal_count=293 265 161 87 64 74 11 23 104 19 63 85 18 67 11 28 23
is_linear=0
shrinkage=0.05


Tree=4
num_leaves=20
num_cat=0
split_feature=128 0 2 36 59 8 41 111 122 108 74 12 41 21 26 2 2 114 39
split_gain=342.45 73.3484 74.433 52.9263 55.5256 36.6416 48.4117 39.6439 32.5133 31.9059 31.9549 20.9819 37.7424 10.4845 4.48583 0.0469366 0.0434983 0.00153087 1.81874e-05
threshold=1.9631695563196514 0.1466765087612836 -0.27537547480198549 1.0157067061644833 2.0734633053660247 -0.46964694653360595 -0.018166659808778785 0.60733936717871539 1.0000000180025095e-35 -0.31252759323958873 0.13636824083349589 -1.1145973043033319 0.5962653921276605 0.76799608072978942 1.3635605029559352 0.46379572481957654 0.28068704070963924 0.086027023155341151 -0.53539797380767107
decision_type=2 2 2 2 2 2 2 2 2 2 2 2 2 2 2 2 2 2 2
left_child=1 5 9 4 -4 6 16 -8 -5 10 -3 12 -7 -11 -13 17 -1 18 -2
right_child=15 2 3 8 -6 11 7 -9 -10 13 -12 14 -14 -15 -16 -17 -18 -19 -20
leaf_value=-0.077559381298287766 0.10255461592939892 0.078713746689937136 -0.050221541896394696 -0.028443287983005733 0.11703384012365664 -0.059601008175047925 0.061886930137865698 -0.074103475323895579 0.11736518748236649 0.11895243380510778 -0.07674779587330105 -0.074034963565468945 0.12230900793310312 0.037181363257164146 -0.024727195154311418 0.10617892052329936 -0.072543607234150695 0.10314578332750123 0.10262850559821174
leaf_weight=7.988483905792239 12.492239952087401 6.9647874832153303 63.484894007444382 6.1003609895706203 5.3829385042190543 9.3269093036651594 22.88895267248154 6.9976054430007926 10.242610037326811 18.710011303424839 6.2912547588348389 80.518682777881622 4.1069493293762198 4.9589868187904349 4.8929726481437674 12.447697401046751 9.4191734194755536 19.980921268463135 24.983601570129395
leaf_count=10 5 6 61 6 3 10 21 8 8 18 8 83 4 4 5 5 10 8 10
internal_value=0.00482816 -0.0208555 0.00774266 -0.0179521 -0.0371483 -0.0447562 -0.00856135 0.0300463 0.0629391 0.0670376 0.00493244 -0.0620743 -0.00398815 0.10182 -0.0712103 0.103395 -0.0748454 0.102792 0.102604
internal_weight=338.18 268.276 122.136 85.2108 68.8678 146.14 47.2942 29.8866 16.343 36.925 13.256 98.8455 13.4339 23.669 85.4117 69.9045 17.4077 57.4568 37.4758
internal_count=293 265 114 78 64 151 49 29 14 36 14 102 14 22 88 28 20 23 15
is_linear=0
shrinkage=0.05


Tree=5
num_leaves=17
num_cat=0
split_feature=128 0 1 87 46 73 3 129 82 106 7 127 19 28 3 53
split_gain=263.023 77.7681 65.9646 46.8657 46.1479 37.1995 36.3052 34.6222 34.831 24.2267 42.9987 17.4037 3.95135 0.0484796 0.00154911 0.000146495
threshold=1.9631695563196514 0.28556769668266818 -0.22384642060888119 0.41977447401026696 0.094247311308578538 -1.2229165868273155 -1.1549111038097581 1.0000000180025095e-35 0.16248099183671263 -1.2201493607735512 -0.59117188426810452 1.3064752276552878 0.32493182906396767 -0.74244147305851282 -0.4057747613090828 0.26648833359497387
decision_type=2 2 2 2 2 2 2 2 2 2 2 2 2 2 2 2
left_child=1 6 7 5 -5 -4 -1 12 -9 10 -8 -11 -3 -2 15 -15
right_child=13 2 3 4 -6 -7 9 8 -10 11 -12 -13 -14 14 -16 -17
leaf_value=0.040427364264714445 0.1011377115571748 -0.073488742897950862 -0.030302850164216102 0.054192940159335894 -0.076568702144393513 0.088274893379921532 0.097007245765191527 0.11546666575362302 -0.076966428597699685 -0.063603295644012417 -0.05977283771541423 0.0041261399749600997 -0.02588331813003349 0.097492230349286946 0.098061496887431543 0.097268033231623099
leaf_weight=11.803693950176237 12.487038373947142 26.733698368072513 7.9587085843086234 12.875573486089708 14.176225543022154 39.148789077997208 7.3231524229049709 6.0929179191589338 3.8294571042060852 119.79223340749741 10.857182800769804 10.300314068794249 5.2080016136169425 17.488420724868774 12.494773864746096 12.489969253540037
leaf_count=9 5 28 7 12 13 31 6 7 5 130 12 12 5 7 5 5
internal_value=-0.00149118 -0.0213752 0.0097942 0.0381206 -0.0143314 0.0682414 -0.0439668 -0.040384 0.0411987 -0.0506852 0.00337916 -0.0582407 -0.0657268 0.098399 0.0975938 0.0973988
internal_weight=331.06 276.1 116.023 74.1593 27.0518 47.1075 160.077 41.8641 9.92238 148.273 18.1803 130.093 31.9417 54.9602 42.4732 29.9784
internal_count=299 277 108 63 25 38 169 45 12 160 18 142 33 22 17 12
is_linear=0
shrinkage=0.05


Tree=6
num_leaves=16
num_cat=0
split_feature=128 0 1 96 3 3 70 7 106 7 51 51 28 3 101
split_gain=238.91 71.6772 60.8842 53.2228 53.2005 33.4957 33.0417 26.6091 22.584 38.8279 16.4876 13.4384 0.0360371 0.00115086 0.000112497
threshold=1.9631695563196514 0.28556769668266818 0.046613328196336783 -1.3600399537939545 0.89454586723141716 -1.1549111038097581 1.3371650396550474 0.47039005365337433 -1.2201493607735512 -0.59117188426810452 1.4998522420038465 1.1127466186332977 -0.74244147305851282 -0.4057747613090828 -0.32622973637870356
decision_type=2 2 2 2 2 2 2 2 2 2 2 2 2 2 2
left_child=1 5 6 -4 -5 -1 11 -8 9 -7 -10 -3 -2 14 -14
right_child=12 2 3 4 -6 8 7 -9 10 -11 -12 -13 13 -15 -16
leaf_value=0.038164655736578415 0.096227398871296221 -0.072343005272081054 -0.073454127240908093 0.080689191448883812 -0.037558041841776864 0.091034670283176342 -0.044029794404037731 0.11903834630282517 -0.062300357673260767 -0.058096661710676956 0.00010827365923692313 -0.00046595585344699238 0.092885063097935205 0.093572442728567212 0.093082021927482231
leaf_weight=11.876374065876005 12.468233823776243 28.753903567790985 9.0343142151832563 47.183644711971283 11.913824319839476 7.4109423756599453 4.5387219190597516 5.5739726424217224 115.62649071216583 10.618011415004728 11.649184644222258 8.4034138023853284 12.426473140716551 12.440646648406984 17.4033362865448
leaf_count=9 5 31 9 39 9 6 5 6 130 12 12 9 5 5 7
internal_value=-0.00145866 -0.0206011 0.00932187 0.0395725 0.056851 -0.0425705 -0.0342793 0.045851 -0.0491693 0.00320494 -0.0565883 -0.0560875 0.0938652 0.0931685 0.093
internal_weight=327.321 272.583 115.402 68.1318 59.0975 157.181 47.27 10.1127 145.305 18.029 127.276 37.1573 54.7387 42.2705 29.8298
internal_count=299 277 108 57 48 169 51 11 160 18 142 40 22 17 12
is_linear=0
shrinkage=0.05


Tree=7
num_leaves=19
num_cat=0
split_feature=128 0 1 87 93 70 11 4 3 105 11 75 70 48 29 73 49 78
split_gain=217.835 66.136 55.3637 47.2399 34.1174 54.477 33.311 40.9625 48.9726 24.5994 13.6717 10.6368 9.32537 6.02013 0.152364 0.0277485 0.000926954 0.000151211
threshold=1.9631695563196514 0.28556769668266818 0.65083088082266338 0.41977447401026696 -0.021535865812292197 0.23383898566890063 1.0000000180025095e-35 -0.24421936765492161 0.28444628299488633 -0.47693815547892932 0.49190209475918273 -1.5134085333110858 1.5072123540522595 0.75754128091011841 1.6412182109849527 -0.65599833680689457 -0.17490545146271616 0.096923142483660102
decision_type=2 2 2 2 2 2 2 2 2 2 2 2 2 2 2 2 2 2
left_child=1 6 4 13 5 -3 7 12 -9 -5 -6 -8 -1 -4 -13 -2 -17 -18
right_child=15 2 3 9 10 -7 11 8 -10 -11 -12 14 -14 -15 -16 16 17 -19
leaf_value=-0.071304610964961837 0.092015196653108644 -0.042836927501544775 0.10627050795604708 0.063231671284069563 -0.073502700046093758 0.074011161273895162 0.005380644210990819 0.051881952218110733 -0.049697236260081684 -0.073209487467369896 -0.0036231983071148342 -0.070443306372450457 0.0181348179425154 0.04643137084457237 -0.079870297908278987 0.089686001069900656 0.08903611272468881 0.089265518267965249
leaf_weight=29.656102061271667 12.392526626586912 20.297466516494751 21.539501011371616 5.4647561013698569 24.400091409683228 19.613980829715729 4.8761263489723197 28.549698054790497 20.303875744342804 8.3529341220855695 9.8150053024291974 62.982772827148438 3.2320137023925772 5.2221975922584525 4.5992398858070365 12.334293127059935 12.310271024703981 17.246931076049805
leaf_count=37 5 24 17 5 25 16 5 25 21 7 10 73 4 4 4 5 5 7
internal_value=-0.00142601 -0.0198694 0.0088806 0.0558293 -0.0168207 0.0145866 -0.0412559 -0.0193761 0.00966495 -0.0192484 -0.0534569 -0.065939 -0.0625151 0.0945937 -0.0710849 0.0899368 0.0893219 0.08917
internal_weight=323.19 268.906 114.706 40.5794 74.1265 39.9114 154.2 81.7417 48.8536 13.8177 34.2151 72.4581 32.8881 26.7617 67.582 54.284 41.8915 29.5572
internal_count=299 277 108 33 75 40 169 87 46 12 35 82 41 21 77 22 17 12
is_linear=0
shrinkage=0.05


Tree=8
num_leaves=16
num_cat=0
split_feature=128 0 1 96 3 3 70 7 106 7 51 51 28 3 54
split_gain=199.307 61.0492 51.0163 44.3477 44.9689 29.9323 28.5645 22.1202 20.2375 33.3721 15.5278 12.9067 0.0216759 0.000753563 0.000111238
threshold=1.9631695563196514 0.28556769668266818 0.046613328196336783 -1.3600399537939545 0.89454586723141716 -1.1549111038097581 1.3371650396550474 0.47039005365337433 -1.2201493607735512 -0.59117188426810452 1.4998522420038465 1.1127466186332977 -0.74244147305851282 -0.4057747613090828 0.081021686573220217
decision_type=2 2 2 2 2 2 2 2 2 2 2 2 2 2 2
left_child=1 5 6 -4 -5 -1 11 -8 9 -7 -10 -3 -2 14 -14
right_child=12 2 3 4 -6 8 7 -9 10 -11 -12 -13 13 -15 -16
leaf_value=0.036221986459424191 0.088348843057372575 -0.069907853075456647 -0.070439125361946062 0.072941142098170111 -0.036183159014530723 0.083855450467412135 -0.041938796359524362 0.10708118323808397 -0.059516022004938121 -0.055361663354823024 0.0015273029733636602 0.0012806222667018073 0.085900293242650028 0.0862859965520026 0.085702263241797402
leaf_weight=11.868426442146299 12.268552780151365 27.367873430252075 8.5579168796539289 47.617934226989746 11.775428891181944 7.4640694856643703 4.4294348955154401 5.6880525946617126 110.22095364332199 10.169652760028837 11.505192160606383 8.2973798811435682 17.028513431549072 12.183834791183473 12.151917457580565
leaf_count=9 5 31 9 39 9 6 5 6 130 12 12 9 7 5 5
internal_value=-0.00139677 -0.0191892 0.00848591 0.0359732 0.051306 -0.0400028 -0.032311 0.0418403 -0.0464944 0.00356669 -0.0537464 -0.0533461 0.0865032 0.0859557 0.0858178
internal_weight=318.595 264.962 113.734 67.9513 59.3934 151.228 45.7827 10.1175 139.36 17.6337 121.726 35.6653 53.6328 41.3643 29.1804
internal_count=299 277 108 57 48 169 51 11 160 18 142 40 22 17 12
is_linear=0
shrinkage=0.05


Tree=9
num_leaves=18
num_cat=0
split_feature=0 3 96 2 73 4 16 33 124 91 108 59 115 81 48 14 20
split_gain=63.5717 95.7335 56.4487 54.7983 48.0749 39.8921 42.048 33.2002 26.0683 20.2215 18.7958 13.2079 10.0501 5.76603 0.0477229 0.0114357 0.00383482
threshold=0.28556769668266818 -1.2604183475655255 -1.3600399537939545 1.2396142882613044 -1.2229165868273155 0.69145458357752732 -0.26971216208119603 -0.97541851986512873 1.9502601015880976 1.5445946111796014 -0.67921333577304577 0.29915002722982237 0.39995343028776981 -1.040788020347436 0.69328283687264369 -0.76245723054023984 -0.55195338725499765
decision_type=2 2 2 2 2 2 2 2 2 2 2 2 2 2 2 2 2
left_child=1 13 14 4 12 8 11 -6 9 -3 -8 -7 -4 -1 15 -2 -5
right_child=2 5 3 16 7 6 10 -9 -10 -11 -12 -13 -14 -15 -16 -17 -18
leaf_value=0.023066890586456071 -0.066822517609482768 -0.063162453746153924 -0.074408301198335663 -0.068082746399818678 -0.0067413802861150778 0.092502677526270755 0.036121474336219789 0.069194160262044044 0.066866489745360622 0.0098298625179201425 -0.068928574433386833 -0.0016466396767022319 0.021716225392700836 0.089490453504767808 -0.07441044598544018 -0.070346683835753168 -0.066288070588606959
leaf_weight=4.0205667018890408 5.2597482204437247 96.655923783779144 9.1341860294342023 5.2645055055618286 17.343318909406662 12.475725233554842 5.891268432140353 84.653529077768326 4.4984576702117911 10.521408975124357 15.35902166366577 5.310893476009368 3.8718537688255301 17.435714364051819 5.0143336057662955 4.0933709144592276 6.8489190936088544
leaf_count=3 6 115 7 6 19 9 6 61 3 11 19 4 5 9 5 4 7
internal_value=-0.00136535 -0.0217711 0.0234661 0.0340838 0.0447383 -0.035839 0.00767014 0.0562822 -0.0510478 -0.0559969 -0.0398053 0.0643907 -0.0457924 0.0770437 -0.0704748 -0.0683649 -0.067068
internal_weight=313.653 172.169 141.484 127.116 115.003 150.713 39.0369 101.997 111.676 107.177 21.2503 17.7866 13.006 21.4563 14.3675 9.35312 12.1134
internal_count=299 179 120 105 92 167 38 80 129 126 25 13 12 12 15 10 13
is_linear=0
shrinkage=0.05


Tree=10
num_leaves=19
num_cat=0
split_feature=128 0 10 96 3 97 7 82 22 86 32 92 88 69 36 111 50 3
split_gain=167.781 58.9934 47.1927 46.3673 43.5504 35.955 26.2308 39.4994 31.236 25.0992 14.8303 13.4231 24.8421 6.92276 2.20514 0.0230717 0.00424791 0.00285003
threshold=1.9631695563196514 0.15941392017495409 -0.48335929406462391 -0.39799203040920073 0.86734031738526374 -1.089796583853393 -0.86453647562910929 -0.37091590608105657 0.51477576266908043 0.80030303739925002 0.20255399665128546 -0.99192748897350957 -0.1157603130314111 0.95625281547865271 1.1614643582987756 -0.46827402047504973 0.49972746614026559 -0.52830830092235892
decision_type=2 2 2 2 2 2 2 2 2 2 2 2 2 2 2 2 2 2
left_child=1 6 9 5 -5 -4 7 8 -1 14 -11 12 -8 -13 -3 -2 -9 -17
right_child=15 2 3 4 -6 -7 11 16 -10 10 -12 13 -14 -15 -16 17 -18 -19
leaf_value=0.11413518769125811 0.08296441325478579 -0.071723509716388953 0.07667578370358652 0.072307637493618321 -0.018530396590908944 -0.061896358634018558 0.086206455734559539 -0.065560318229242034 -0.030547925509249098 -0.031059126944272198 0.1019781166966912 -0.068463163365994367 -0.067377184523238362 -0.031660387675268332 -0.029145857972716235 0.080337940703644695 -0.067488249265487285 0.081306883596256541
leaf_weight=8.8908421993255633 16.745489358901978 24.31468498706818 6.0177979469299343 46.821630239486694 18.371937274932861 21.074251055717468 4.5408585667610168 8.1396430134773237 6.4271419048309317 4.4029564261436445 3.9960025548934937 71.823573529720306 6.266347408294676 15.543078660964964 3.4756639599800101 21.151311635971069 4.4024916291236869 11.835876941680906
leaf_count=7 7 24 4 41 16 21 5 10 7 6 4 91 9 18 4 9 5 5
internal_value=-0.00254386 -0.0189574 0.00488531 0.023862 0.0467089 -0.0311161 -0.0432618 -0.000442638 0.0534288 -0.0435069 0.0322365 -0.0554132 -0.00284602 -0.0619157 -0.0663984 0.0814529 -0.0662371 0.0806856
internal_weight=304.242 254.509 128.475 92.2856 65.1936 27.092 126.034 27.8601 15.318 36.1893 8.39896 98.1739 10.8072 87.3667 27.7903 49.7327 12.5421 32.9872
internal_count=293 272 120 82 57 25 152 29 14 38 10 123 14 109 28 21 15 14
is_linear=0
shrinkage=0.05


Tree=11
num_leaves=17
num_cat=0
split_feature=128 0 10 96 3 97 86 82 69 79 32 91 92 2 111 3
split_gain=154.633 54.903 43.2686 41.9074 39.1075 32.9917 23.4031 22.803 45.6647 22.3864 22.3787 21.3918 13.9886 0.152739 0.0180596 0.00223484
threshold=1.9631695563196514 0.15941392017495409 -0.48335929406462391 -0.39799203040920073 0.86734031738526374 -1.089796583853393 0.5141194357161154 -0.66240986742017871 0.78144177251394054 -0.81918931720099697 0.20255399665128546 2.056152211550677 -0.99192748897350957 0.19890319400990966 -0.46827402047504973 -0.52830830092235892
decision_type=2 2 2 2 2 2 2 2 2 2 2 2 2 2 2 2
left_child=1 7 6 5 -5 -4 13 8 9 -1 -8 12 -9 -3 -2 -16
right_child=14 2 3 4 -6 -7 10 11 -10 -11 -12 -13 -14 -15 15 -17
leaf_value=0.042686200624232402 0.080343175935242206 -0.075095236439049209 0.073143634266675236 0.068494590442170086 -0.017677737838238197 -0.060127037485876757 -0.043482222551583925 -0.0065844595729456423 0.10445663004180286 -0.066583837007824567 0.10038020642293573 0.069528744619278257 -0.067109569456140536 -0.066794079897364578 0.077996111915527216 0.078863008556258385
leaf_weight=6.3202847242355409 16.435035228729248 8.532829701900484 5.9935472607612637 46.952810436487198 18.297125637531281 20.621236443519592 6.3194786310195905 10.898211121559141 7.2588501572608939 18.141640305519104 4.7238940000534058 3.328702747821807 76.965357482433319 15.805738031864164 20.708239555358887 11.598507404327391
leaf_count=6 7 8 4 41 16 21 8 14 7 24 5 3 98 17 9 5
internal_value=-0.00247939 -0.0183538 0.00466773 0.0227624 0.0443305 -0.030115 -0.0423127 -0.0421871 -0.00567187 -0.0383515 0.0180561 -0.0548888 -0.0596023 -0.0697044 0.0789938 0.0783073
internal_weight=298.901 250.16 127.247 91.8647 65.2499 26.6148 35.3819 122.913 31.7208 24.4619 11.0434 91.1923 87.8636 24.3386 48.7418 32.3067
internal_count=293 272 120 82 57 25 38 152 37 30 13 115 112 25 21 14
is_linear=0
shrinkage=0.05


Tree=12
num_leaves=19
num_cat=0
split_feature=128 0 10 106 96 7 82 22 86 110 52 127 99 26 50 111 50 114
split_gain=142.818 51.0856 39.7557 40.7758 39.7998 23.5673 34.747 25.6096 21.9539 11.9898 10.2787 18.4054 6.36853 1.9866 0.306541 0.0142453 0.00528063 0.00180702
threshold=1.9631695563196514 0.15941392017495409 -0.48335929406462391 -1.0240582525920312 -0.39799203040920073 -0.86453647562910929 -0.37091590608105657 0.51477576266908043 0.80030303739925002 0.691123664773163 1.0125307766086007 1.3064752276552878 1.9138547596096227 0.84461162100997578 -0.67009566019222044 -0.46827402047504973 0.49972746614026559 0.022104291742930045
decision_type=2 2 2 2 2 2 2 2 2 2 2 2 2 2 2 2 2 2
left_child=1 5 8 14 -5 6 7 -1 13 -10 12 -12 -7 -3 -4 -2 -8 -17
right_child=15 2 3 4 -6 10 16 -9 9 -11 11 -13 -14 -15 -16 17 -18 -19
leaf_value=0.10418595885347451 0.078003527671993284 -0.06900270739807067 0.088544507438681933 -0.049418917052110586 0.030066089945720072 -0.062980293382719085 -0.063627797660391491 -0.028072522145581619 -0.028111996934378315 0.092466583487927356 -0.05108815621982965 0.0735192577277783 0.010312580727445633 -0.028540747185825388 0.10298629839642677 0.075892325942793284 -0.065839884379051708 0.076680796495564169
leaf_weight=8.9559550285339373 16.090289831161499 22.757315725088123 6.3507462143898001 22.230097413063049 54.017729967832565 75.740763664245605 7.5680070221424085 6.1897575855255118 4.2883309721946699 3.9704546928405762 9.905150502920149 4.2285726070404044 3.084548443555831 3.5001577138900748 8.7190606594085676 20.228612422943119 4.1923961043357849 11.340346336364744
leaf_count=7 7 23 5 23 48 100 10 7 6 4 15 4 4 5 6 9 5 5
internal_value=-0.00241932 -0.0177844 0.00446739 0.0217459 0.00689219 -0.0411442 6.54186e-05 0.0501345 -0.0412453 0.0298568 -0.053072 -0.0138077 -0.0601122 -0.0636091 0.0969002 0.0767927 -0.0644164 0.0761756
internal_weight=293.358 245.699 125.834 91.3176 76.2478 119.865 26.9061 15.1457 34.5163 8.25879 92.959 14.1337 78.8253 26.2575 15.0698 47.6592 11.7604 31.569
internal_count=293 272 120 82 71 152 29 14 38 10 123 19 104 28 11 21 15 14
is_linear=0
shrinkage=0.05


Tree=13
num_leaves=19
num_cat=0
split_feature=128 0 10 106 96 7 82 86 45 78 52 113 125 50 38 111 50 104
split_gain=132.121 47.6288 36.5087 37.0504 36.2507 22.0684 32.1198 20.8842 22.9738 18.5984 9.76939 18.2333 6.1537 0.228581 0.085961 0.0113139 0.00435056 0.0014486
threshold=1.9631695563196514 0.15941392017495409 -0.48335929406462391 -1.0240582525920312 -0.39799203040920073 -0.86453647562910929 -0.37091590608105657 0.5141194357161154 -0.065085892978622842 0.17217784938784556 1.0125307766086007 0.14151890881990536 1.3935606582223667 -0.67009566019222044 0.22975853685945644 -0.46827402047504973 0.49972746614026559 -0.7464585601160566
decision_type=2 2 2 2 2 2 2 2 2 2 2 2 2 2 2 2 2 2
left_child=1 5 7 13 -5 6 9 14 -9 -1 12 -12 -7 -4 -3 -2 -8 -17
right_child=15 2 3 4 -6 10 16 8 -10 -11 11 -13 -14 -15 -16 17 -18 -19
leaf_value=-0.029973245910128683 0.075904683536339307 -0.064630255154385419 0.085308414774843244 -0.047811931466062552 0.028505198755770452 -0.061877461622817313 -0.062788036173997627 0.096510754912383714 -0.049896845587105519 0.087533508628499457 0.051383885172903557 -0.064015808981586195 0.0095270485766372585 0.097828849394403436 -0.07083082773960063 0.074713862184014324 -0.064832058768057477 0.073999058203670809
leaf_weight=5.081894904375079 15.717860221862791 13.145121186971666 6.2642205357551566 21.838464617729187 54.123966991901398 73.293264657258987 7.2927393317222577 4.9406473636627197 5.8545262813568097 9.9808514118194562 6.1003395318984968 7.7988785207271576 3.146895855665206 8.719571113586424 9.7246932387351972 11.06450128555298 4.048340916633606 19.721126079559326
leaf_count=6 7 16 5 23 48 100 10 5 8 8 7 12 4 6 9 5 5 9
internal_value=-0.00235722 -0.0172262 0.0042726 0.0207385 0.00656476 -0.0401739 3.7078e-05 -0.0402102 0.0171098 0.0478889 -0.0519266 -0.0133671 -0.0589379 0.0925945 -0.0672669 0.0748132 -0.0635177 0.074256
internal_weight=287.858 241.354 124.611 90.9462 75.9624 116.743 26.4038 33.665 10.7952 15.0627 90.3394 13.8992 76.4402 14.9838 22.8698 46.5035 11.3411 30.7856
internal_count=293 272 120 82 71 152 29 38 13 14 123 19 104 11 25 21 15 14
is_linear=0
shrinkage=0.05


Tree=14
num_leaves=21
num_cat=0
split_feature=0 2 12 53 118 68 16 3 82 62 82 53 116 111 2 9 17 2 11 54
split_gain=59.9601 45.6939 31.192 32.0867 40.9516 32.6528 25.7381 29.9301 30.2837 24.7781 15.6331 12.7781 4.65856 3.79969 0.250235 0.105984 0.0148827 0.0106563 0.00595222 0.00248656
threshold=0.15941392017495409 1.2396142882613044 -1.2417396270939409 0.86146291072097581 -0.4228594487571451 -0.45212906380156687 0.34941652992377342 0.40350830705831847 0.076242601527454365 0.73057859030779226 1.6636122197469889 0.90358371369963908 1.2311085330322247 -1.5405099605443813 0.22741680051572935 0.54578950847241348 0.68632243148304883 1.3427162334487872 -1.1615755967995771 2.0081417843295011
decision_type=2 2 2 2 2 2 2 2 2 2 2 2 2 2 2 2 2 2 2 2
left_child=6 2 11 5 -5 -4 7 8 9 -1 -10 14 17 -8 -2 16 -3 -9 -15 -20
right_child=1 15 3 4 -6 -7 13 12 10 -11 -12 -13 -14 18 -16 -17 -18 -19 19 -21
leaf_value=0.052658988494655529 -0.080183467242261219 -0.062507999450370874 0.00048786717725583399 0.078425767957863657 -0.067117042145007508 0.063599994215779401 0.010414280380694488 -0.065653892603752942 -0.065377911502299921 -0.048152505793891347 0.047764194923952549 0.028470254655611073 0.0018068923818024562 -0.064211849027782805 -0.06459395693702577 -0.073914484298840386 -0.066305251323534292 -0.06333920544573389 -0.062352314916764642 -0.063848661165502779
leaf_weight=31.569580912590027 5.0865322351455671 6.2186818122863752 27.991180956363678 7.1666856408119228 14.843317508697508 76.520624190568924 1.8565416932106007 15.019689917564397 15.592514902353289 7.5535953044891349 3.796425759792327 4.53036344051361 2.9638748168945304 5.8044943511486045 5.2113229036331177 3.6944804787635794 4.4104492664337158 7.4331652820110312 31.862440288066864 3.0413679480552664
leaf_count=27 5 9 26 5 14 57 3 20 23 11 3 4 4 8 6 4 5 11 43 5
internal_value=-0.00229914 0.0184775 0.0271007 0.0351416 -0.0197268 0.0466968 -0.0278686 -0.0118068 0.0078723 0.0331951 -0.0432243 -0.0415084 -0.0571103 -0.059539 -0.0722943 -0.0666193 -0.0640836 -0.0648876 -0.0627293 -0.0624827
internal_weight=282.167 155.674 141.35 126.522 22.01 104.512 126.494 83.9288 58.5121 39.1232 19.3889 14.8282 25.4167 42.5648 10.2979 14.3236 10.6291 22.4529 40.7083 34.9038
internal_count=293 135 117 102 19 83 158 99 64 38 26 15 35 59 11 18 14 31 56 48
is_linear=0
shrinkage=0.05


Tree=15
num_leaves=16
num_cat=0
split_feature=128 1 0 79 14 17 11 3 4 19 11 4 111 86 29
split_gain=119.671 36.5372 36.7384 40.309 42.913 33.8996 31.3427 35.5663 21.5894 25.3431 5.62562 0.586742 0.0786785 0.0308016 0.0026315
threshold=1.9631695563196514 -0.026326048151860019 0.28556769668266818 0.52698170306981196 0.36579196369564909 -1.7682252126755365 1.0000000180025095e-35 0.28444628299488633 0.97562384340331232 0.74859514781347569 1.5429557037062875 -0.017152521220581304 1.2227041059915991 0.69814427913763943 -0.13728992506792845
decision_type=2 2 2 2 2 2 2 2 2 2 2 2 2 2 2
left_child=1 5 6 4 -4 -1 7 -3 10 -10 -7 -5 -8 14 -2
right_child=13 2 3 11 -6 8 12 -9 9 -11 -12 -13 -14 -15 -16
leaf_value=0.076235132505016623 0.071946479259737434 0.0441366965290029 0.031291532455699288 0.10354085462422612 -0.067100355819796551 -0.064297736931481081 -0.063383927086943778 -0.06509549341851685 -0.042074496350410384 0.073006531316317985 0.0096314480123491503 0.083613785994608281 -0.071948138125241118 0.074056386902239424 0.070991292169286416
leaf_weight=5.9425560235977164 12.712710857391359 21.681040227413177 39.601364821195602 5.1036868095397976 15.387813389301298 63.526470333337784 26.628489613533024 11.354904085397719 14.325635671615602 7.1826369762420645 2.6818630099296561 13.374274075031279 2.9820989966392508 17.462111949920654 16.659808397293091
leaf_count=6 6 25 35 5 13 85 37 15 20 8 4 10 4 8 8
internal_value=-0.000451249 -0.0152992 0.00123996 0.0252272 0.00375819 -0.0393353 -0.0268905 0.0065921 -0.0471649 -0.00364346 -0.0613031 0.0891177 -0.0642464 0.0723934 0.0714047
internal_weight=276.607 229.773 136.114 73.4671 54.9892 93.6592 62.6465 33.0359 87.7166 21.5083 66.2083 18.478 29.6106 46.8346 29.3725
internal_count=289 267 144 63 48 123 81 40 117 28 89 15 41 22 14
is_linear=0
shrinkage=0.05


Tree=16
num_leaves=16
num_cat=0
split_feature=128 1 0 79 14 17 12 81 4 94 79 59 4 119 123
split_gain=111.162 34.066 33.655 37.0346 39.2823 31.2096 26.7382 25.0469 20.6709 24.6674 20.1807 4.27067 0.456397 0.0251034 0.00260664
threshold=1.9631695563196514 -0.026326048151860019 0.28556769668266818 0.52698170306981196 0.36579196369564909 -1.7682252126755365 -0.70501974744617091 -1.0000000180025095e-35 0.97562384340331232 0.82575864559661838 1.475970943151615 1.615888956558071 -0.017152521220581304 -0.17203867794383829 -0.45653008556242425
decision_type=2 2 2 2 2 2 2 2 2 2 2 2 2 2 2
left_child=1 5 6 4 -4 -1 7 -3 11 -10 -8 -7 -5 14 -2
right_child=13 2 3 12 -6 8 10 -9 9 -11 -12 -13 -14 -15 -16
leaf_value=0.072158124810805371 0.070560525308659708 -0.03279728748483049 0.029663611322316603 0.098570676826048864 -0.06519572221403816 -0.063449853334864983 -0.055896721609388855 0.11239123692366655 0.040038539764012761 -0.069960512989200349 0.032450739270155862 -0.0061045562305278335 0.080937930896560206 0.07235350376727756 0.069565701196368554
leaf_weight=5.9637842178344718 10.319591760635378 5.8250013589859009 39.683697551488876 5.093143284320834 15.053982853889464 60.497754514217377 41.885428696870804 6.061721205711363 12.873630434274675 8.4367561340332013 7.6433082222938529 3.430807650089263 13.131709903478621 16.994600057601929 18.192847967147827
leaf_count=6 5 7 35 5 13 85 61 5 17 11 8 4 10 8 9
internal_value=-0.000453727 -0.0148345 0.00117287 0.0241301 0.00357535 -0.0384197 -0.0261007 0.0412427 -0.0461563 -0.00350995 -0.0422629 -0.0603723 0.0858656 0.0708324 0.0699258
internal_weight=271.088 225.581 134.378 72.9625 54.7377 91.2027 61.4155 11.8867 85.2389 21.3104 49.5287 63.9286 18.2249 45.507 28.5124
internal_count=289 267 144 63 48 123 81 12 117 28 69 89 15 22 14
is_linear=0
shrinkage=0.05


Tree=17
num_leaves=18
num_cat=0
split_feature=128 1 96 22 66 79 2 9 2 109 23 124 70 99 122 27 123
split_gain=103.402 31.7556 32.1725 37.4051 35.6292 27.2151 26.5592 19.2608 25.105 17.3968 14.858 9.08005 1.92986 1.00279 0.0291488 0.0218468 0.00241243
threshold=1.9631695563196514 -0.026326048151860019 -0.45284595219858298 0.64291189766629808 -0.7783096419540223 0.78952324133658525 -0.51380438304712261 -0.066251760559983899 -1.2480991174449643 -1.0000000180025095e-35 -0.80409954075681722 -0.036730048127427181 1.5072123540522595 1.0003980178127596 -0.44871006987349388 -0.82893444513115067 -0.65342879043594848
decision_type=2 2 2 2 2 2 2 2 2 2 2 2 2 2 2 2 2
left_child=1 7 5 4 -4 13 -5 8 11 -7 -10 -1 14 -3 -9 -2 -17
right_child=15 2 3 6 -6 9 -8 12 10 -11 -12 -13 -14 -15 -16 16 -18
leaf_value=0.10904392267056001 0.070847846815213791 -0.06627683385880323 -0.051300312147377375 0.05271360538413751 0.051741597633639315 -0.039162603946307009 -0.061884884801205679 -0.064361655857684372 0.030214839952480411 0.091988012777715733 -0.051191567214648098 0.010176184669735695 -0.024630612342725532 -0.035887426973801907 -0.06167185688154217 0.069169486922833728 0.068197411934625723
leaf_weight=4.63472980260849 16.53327488899231 25.01233929395676 9.8214156627655012 6.7542470693588283 57.527054786682129 4.6343612670898438 20.106947422027588 16.15516996383667 7.1567080318927756 5.5646544694900495 25.853439420461655 4.6545281112194044 3.6121758818626395 3.0450668632984152 26.749223589897156 10.012071967124941 17.606398820877075
leaf_count=4 8 30 13 7 55 6 24 22 8 4 39 6 5 5 39 5 9
internal_value=-0.000454052 -0.0143939 0.00111571 0.0168181 0.036715 -0.0375527 -0.0330691 -0.0375259 -0.0131086 0.0323941 -0.0335424 0.0595047 -0.0597296 -0.0629787 -0.0626847 0.0694103 0.0685498
internal_weight=265.434 221.282 132.466 94.2097 67.3485 38.2564 26.8612 88.816 42.2994 10.199 33.0101 9.28926 46.5166 28.0574 42.9044 44.1517 27.6185
internal_count=289 267 144 99 68 45 31 123 57 10 47 10 66 35 61 22 14
is_linear=0
shrinkage=0.05


Tree=18
num_leaves=18
num_cat=0
split_feature=128 1 14 10 27 120 94 9 2 90 89 59 127 0 61 27 123
split_gain=96.2905 29.5684 30.2665 32.5868 25.2586 24.0549 22.3456 18.4697 22.8671 14.3234 13.6355 8.22196 1.95364 0.233505 0.0320651 0.0177959 0.00196265
threshold=1.9631695563196514 -0.026326048151860019 0.18982912115225545 -0.48335929406462391 -0.16806565786814801 -0.10660811904866256 -0.027706885531121449 -0.066251760559983899 -1.2480991174449643 0.83078553292011459 -0.65919660641006173 -0.12088761309193063 1.4990294361616752 0.22326879726134941 1.415165140584105 -0.82893444513115067 -0.65342879043594848
decision_type=2 2 2 2 2 2 2 2 2 2 2 2 2 2 2 2 2
left_child=1 7 3 10 5 -4 -5 8 11 -10 -3 -1 14 -6 -9 -2 -17
right_child=15 2 4 6 13 -7 -8 12 9 -11 -12 -13 -14 -15 -16 16 -18
leaf_value=0.0073039675890263058 0.069427509763900594 0.023577910162538421 -0.052558750390612231 0.067290455790765494 -0.062229612321409181 0.047641470440028671 0.0073133302359038796 -0.061374776582951131 -0.045099516779408599 0.055474869312558156 -0.065345449562122321 0.10135981734174045 -0.021850748805730139 -0.072236173751829863 -0.066066779454180463 0.067888779055755577 0.066997797780772389
leaf_weight=4.4525263011455536 16.040430068969727 6.3859251141548183 10.311749309301378 31.177650570869446 14.576088428497316 14.290612578392027 30.941817373037338 37.532670468091965 28.319695889949799 4.0457917749881736 13.268007725477217 4.8592638969421369 3.2982019186019889 9.7161058783531171 4.0325138866901389 9.6988420486450213 17.039926528930664
leaf_count=5 8 7 12 28 23 14 35 56 42 5 17 5 5 8 5 5 9
internal_value=-0.000454951 -0.013959 0.00105415 0.0196618 -0.030066 0.00564389 0.0374157 -0.0366273 -0.0126618 -0.0325274 -0.0364526 0.0563861 -0.0588908 -0.0662319 -0.06183 0.0681108 0.067321
internal_weight=259.988 217.209 130.668 81.7734 48.8946 24.6024 62.1195 86.5407 41.6773 32.3655 19.6539 9.31179 44.8634 24.2922 41.5652 42.7792 26.7388
internal_count=289 267 144 87 57 26 63 123 57 47 24 10 66 31 61 22 14
is_linear=0
shrinkage=0.05


Tree=19
num_leaves=17
num_cat=0
split_feature=128 27 9 67 0 12 74 58 59 78 85 123 10 89 27 123
split_gain=89.7458 27.7164 25.3538 29.7448 24.7245 23.8351 20.9945 34.3686 20.3151 19.7005 9.99494 8.98133 8.38968 2.02713 0.0145527 0.00160281
threshold=1.9631695563196514 -0.16806565786814801 -0.38862140194480438 -0.17341689446384076 0.1466765087612836 0.49193015476365648 0.029173317031015864 0.60929335745724911 1.2544375866685018 -1.2930730979814364 1.8712668700069954 -0.83652414752702364 1.1359225718528638 0.92837733045700044 -0.82893444513115067 -0.65342879043594848
decision_type=2 2 2 2 2 2 2 2 2 2 2 2 2 2 2 2
left_child=1 5 3 4 -3 6 7 -1 13 -8 11 -4 -5 -7 -2 -16
right_child=14 2 10 12 -6 8 9 -9 -10 -11 -12 -13 -14 -15 15 -17
leaf_value=-0.033630992863499624 0.068129415810362623 -0.021488712647445282 -0.018210031673437908 -0.064842319858349873 0.079846856912056785 -0.063664434454589414 -0.063847003500846183 0.073219791897731576 0.058827904654744669 0.058767806447065876 0.027929765468829637 -0.06388998320176785 0.018135347898978443 -0.019385082625026612 0.066715011013786379 0.065896320034370251
leaf_weight=29.080308258533478 15.541404247283934 10.679153203964235 13.630913734436033 14.991896629333498 13.794491767883299 17.920130372047431 3.635957956314086 10.153267025947569 4.5940107703208914 33.081130176782608 3.9221518337726584 51.097307622432709 3.8230426907539359 3.0204035341739646 9.3839900493621844 16.472891926765442
leaf_count=34 8 13 20 22 12 27 5 11 4 31 5 72 6 5 5 9
internal_value=-0.00045325 -0.0135218 -0.0306783 -0.000711772 0.0356288 0.00540188 0.0194518 -0.00597905 -0.0363887 0.0466257 -0.0495741 -0.0542704 -0.0479819 -0.0572777 0.0669202 0.0661934
internal_weight=254.822 213.424 111.939 43.2886 24.4736 101.485 75.9507 39.2336 25.5345 36.7171 68.6504 64.7282 18.8149 20.9405 41.3983 25.8569
internal_count=289 267 150 53 25 117 81 45 36 36 97 92 28 32 22 14
is_linear=0
shrinkage=0.05


Tree=20
num_leaves=16
num_cat=0
split_feature=128 0 1 46 2 3 55 14 112 34 52 31 0 9 24
split_gain=67.0488 35.5194 31.3416 29.47 29.4267 21.1665 32.2472 18.3743 15.9114 10.8371 5.18717 3.09313 0.0508304 0.00804119 0.00172439
threshold=1.9631695563196514 0.28556769668266818 0.65083088082266338 0.50761339203049316 0.4355937832826744 0.27194049587465935 -1.2400600891501659 -0.26256293978225825 0.66782254482082093 0.99317247302850753 1.4513608163452407 -1.2486554937853709 0.19152639621182305 -0.32646678570741983 0.28470832049059142
decision_type=2 2 2 2 2 2 2 2 2 2 2 2 2 2 2
left_child=1 5 3 4 -3 6 -1 -8 9 -4 12 -5 -7 -2 -15
right_child=13 2 8 11 -6 10 7 -9 -10 -11 -12 -13 -14 14 -16
leaf_value=0.07115154638789091 0.066917588921860865 0.046157636308799488 0.078014101299336586 -0.015500917202186047 -0.042872986702377554 -0.060948766491243866 0.0066444232634648567 -0.049910654406219362 -0.027046978819881787 -0.0063512686941422369 0.010435283872238807 -0.067380244881207044 -0.067636248844349503 0.064838564408750785 0.065721301440706897
leaf_weight=9.7860750555992109 9.4038871526718122 26.111864000558853 24.01447677612305 3.4451785981655147 14.399186402559279 38.829316377639771 24.286002814769745 35.145392209291458 5.672166407108306 4.5234811305999747 2.6703555285930625 17.302202582359314 3.0657837986946097 14.117976784706117 9.0973206758499128
leaf_count=8 5 28 20 5 21 63 33 54 6 5 4 20 4 8 5
internal_value=-0.000992177 -0.011386 0.0111033 -0.0103056 0.0145127 -0.0302555 -0.0129515 -0.0268 0.0494393 0.0646416 -0.0571315 -0.0587655 -0.0614381 0.0656841 0.0651845
internal_weight=241.871 209.251 95.4686 61.2584 40.5111 113.783 69.2175 59.4314 34.2101 28.538 44.5655 20.7474 41.8951 32.6192 23.2153
internal_count=289 271 105 74 49 166 95 87 31 25 71 25 67 18 13
is_linear=0
shrinkage=0.05


Tree=21
num_leaves=17
num_cat=0
split_feature=128 1 94 78 97 54 8 79 4 44 75 31 52 105 9 130
split_gain=62.6489 27.9087 30.3278 23.1124 23.0383 22.3207 21.2626 20.2849 18.9145 29.2685 17.5818 10.5786 7.54585 1.03593 0.00661797 0.000913995
threshold=1.9631695563196514 0.046613328196336783 -0.34295658679020308 0.2186186084604155 -1.3282398104521349 -0.83098995093461792 -0.19914722758876938 0.52698170306981196 0.97562384340331232 -0.15071953880211753 -1.5134085333110858 -0.056921844187752306 1.0582085345375358 1.5860648628677165 -0.32646678570741983 1.0000000180025095e-35
decision_type=2 2 2 2 2 2 2 2 2 2 2 2 2 2 2 2
left_child=1 8 3 5 -4 -3 -5 -6 10 13 -1 -11 -12 -10 -2 -16
right_child=14 2 4 6 7 -7 -8 -9 9 11 12 -13 -14 -15 15 -17
leaf_value=0.036666047856593185 0.065825885117189384 -0.040630082989243671 0.071892858946329144 0.059034294794407895 -0.045648067516848898 0.073567631947358131 -0.063726801507687267 0.018498002521912024 -0.065214556484870387 0.09745750161787102 -0.058830662012258311 -0.0057199829688177857 -0.0045717933662452236 -0.02843342628355934 0.063877070991958509 0.064518344145942361
leaf_weight=6.0565283000469199 9.0898180007934588 4.9996535778045645 6.5598233044147483 5.6798448562622061 42.037516117095947 29.68211168050766 9.3069741129875165 17.436668485403061 6.8618040680885333 7.6561048626899719 55.356980115175247 3.6775927841663343 7.2465862035751334 2.6550667881965637 10.202737331390381 12.201377272605896
leaf_count=9 5 7 6 6 57 28 13 20 10 8 85 5 12 5 6 7
internal_value=-0.00097343 -0.0110504 0.00516777 0.0346841 -0.0170334 0.0571051 -0.0172017 -0.0268417 -0.0320143 0.00969407 -0.0446802 0.0639782 -0.05255 -0.0549532 0.064688 0.0642263
internal_weight=236.707 205.213 115.703 49.6686 66.034 34.6818 14.9868 59.4742 89.5107 20.8506 68.6601 11.3337 62.6036 9.51687 31.4939 22.4041
internal_count=289 271 137 54 83 35 19 77 134 28 106 13 97 15 18 13
is_linear=0
shrinkage=0.05


Tree=22
num_leaves=16
num_cat=0
split_feature=128 0 1 46 2 3 55 14 71 19 57 38 0 24 93
split_gain=58.594 31.408 27.5705 26.3641 25.3506 19.8409 28.8151 16.9058 15.535 7.23557 4.73305 2.96412 0.0336939 0.00441114 0.000916788
threshold=1.9631695563196514 0.28556769668266818 0.65083088082266338 0.50761339203049316 0.4355937832826744 0.27194049587465935 -1.2400600891501659 -0.26256293978225825 -0.42265565831478052 0.80068893193304824 1.4806800211082092 -0.41215324259301084 0.19152639621182305 0.32845885902071686 -0.29972135757378565
decision_type=2 2 2 2 2 2 2 2 2 2 2 2 2 2 2
left_child=1 5 3 4 -3 6 -1 -8 -4 -10 12 -5 -7 14 -2
right_child=13 2 8 11 -6 10 7 -9 9 -11 -12 -13 -14 -15 -16
leaf_value=0.067686875894000131 0.063728061380955131 0.043197030759532476 -0.012945800652172868 -0.013521936273773738 -0.041103733069697029 -0.059983752531177617 0.0065812191088166329 -0.048479607525388213 0.08017202899524252 0.013479140299440459 0.0070697264230817035 -0.065613567634221423 -0.06559583365020101 0.064600927942108213 0.063041784799692011
leaf_weight=9.6931288838386518 8.444531917572025 25.650805979967117 8.1207532882690412 3.2748860120773342 13.670855611562727 36.207648783922195 23.909640938043594 33.436411052942276 20.00161382555962 5.1047167778015128 2.7846247255802146 16.439085274934769 2.8878157436847678 10.449140548706053 11.485066294670105
leaf_count=8 5 28 8 4 21 63 33 54 18 5 4 21 4 6 7
internal_value=-0.000956443 -0.01073 0.0107351 -0.00977028 0.0138884 -0.0289126 -0.0120457 -0.0255228 0.0471678 0.0666118 -0.0559123 -0.0569601 -0.0603983 0.0637688 0.0633326
internal_weight=231.561 201.182 92.2627 59.0356 39.3217 108.919 67.0392 57.3461 33.2271 25.1063 41.8801 19.714 39.0955 30.3787 19.9296
internal_count=289 271 105 74 49 166 95 87 31 23 71 25 67 18 12
is_linear=0
shrinkage=0.05


Tree=23
num_leaves=16
num_cat=0
split_feature=128 0 96 1 36 3 41 14 38 52 10 126 0 9 3
split_gain=54.8429 29.0521 27.1366 34.0996 21.9828 19.0201 23.3535 26.2913 8.16303 4.91959 3.14458 0.0285519 0.0282016 0.00461217 0.000606706
threshold=1.9631695563196514 0.28556769668266818 -1.2987976325444128 0.65083088082266338 0.35292534692147687 0.27194049587465935 -0.20999961365280054 -0.26256293978225825 1.1726232912807135 1.4513608163452407 0.77729553398096252 -0.82706952719864912 0.19152639621182305 -0.32646678570741983 -0.17914881687514644
decision_type=2 2 2 2 2 2 2 2 2 2 2 2 2 2 2
left_child=1 5 11 4 -4 6 10 -8 -5 12 -1 -3 -7 -2 -15
right_child=13 2 3 8 -6 9 7 -9 -10 -11 -12 -13 -14 14 -16
leaf_value=-0.060960071512174065 0.063902698599018107 -0.065915382271244799 -0.031904429144319894 0.078638328014798448 0.033615749596256454 -0.059382315317077466 0.057481596748180708 -0.021464306032656994 0.0093805201958007296 0.01142701808223269 -0.00037870006303435491 -0.060726398254148842 -0.064607784702640308 0.062265569090503639 0.062806681699586572
leaf_weight=19.235436916351322 8.4707847833633441 4.3521391749382019 29.282445788383484 22.376950979232792 22.746123492717743 34.966177642345428 17.215188592672348 27.223358064889908 5.2533840537071219 2.593081831932067 2.4104503095149985 6.7822621762752515 2.7879125773906699 11.072194218635563 9.734459519386288
leaf_count=33 5 5 40 21 26 63 18 39 4 4 5 9 4 7 6
internal_value=-0.000937794 -0.0104172 0.01036 0.0205797 -0.00325997 -0.0281415 -0.0116257 0.0091188 0.0654703 -0.0551925 -0.0542138 -0.0627546 -0.0597682 0.0629192 0.0625187
internal_weight=226.502 197.225 90.7933 79.6589 52.0286 106.432 66.0844 44.4385 27.6303 40.3472 21.6459 11.1344 37.7541 29.2774 20.8067
internal_count=289 271 105 91 66 166 95 57 25 71 38 14 67 18 13
is_linear=0
shrinkage=0.05


Tree=24
num_leaves=18
num_cat=0
split_feature=128 1 94 74 24 66 4 44 75 15 80 83 52 49 105 9 24
split_gain=51.3674 23.2778 25.8703 21.0714 20.2302 21.5045 17.4056 25.9669 16.0363 14.8814 9.31108 7.54632 7.40471 5.13171 1.04677 0.00382679 0.000803645
threshold=1.9631695563196514 0.046613328196336783 -0.34295658679020308 0.029173317031015864 -0.56066916882334505 -0.15703922501757842 0.97562384340331232 -0.15071953880211753 -1.5134085333110858 0.74395244220091949 0.54277305297897638 1.1544320309176335 1.0582085345375358 0.38593086975539503 1.5860648628677165 -0.32646678570741983 0.28470832049059142
decision_type=2 2 2 2 2 2 2 2 2 2 2 2 2 2 2 2 2
left_child=1 6 4 11 13 -6 8 14 -1 -5 -9 -4 -10 -3 -8 -2 -17
right_child=15 2 3 9 5 -7 7 10 12 -11 -12 -13 -14 -15 -16 16 -18
leaf_value=0.035461990196228442 0.063044441883783636 0.091257118807026 -0.064065051495321254 0.021942955976392321 -0.036623982792349206 0.049162389421944612 -0.063520979816836895 0.094164700781668137 -0.057415814640869013 -0.059848428524580638 -0.0035133724505489738 0.011881030721251289 -0.0023671300193013624 0.031808109882444972 -0.02547552462459611 0.061505505067185252 0.062154080481568133
leaf_weight=5.942686289548873 8.1645567417144793 12.976648807525637 20.736574828624729 31.12095308303833 14.277444899082186 14.959301352500914 6.3852011859416979 7.4073058366775495 50.802280187606812 6.7711821794509879 3.638006180524826 3.8834317326545706 6.9437290430068961 5.0398934483528128 2.5220609307289124 12.165349006652834 7.8634620904922476
leaf_count=9 5 12 29 38 19 17 10 7 85 11 6 5 12 6 5 8 5
internal_value=-0.000918816 -0.0101099 0.00503209 -0.0160722 0.0329513 0.00726955 -0.0299813 0.0107695 -0.0427478 0.00732714 0.0619924 -0.0520857 -0.0507964 0.074627 -0.0527485 0.0621321 0.0617601
internal_weight=221.6 193.407 109.765 62.5121 47.2533 29.2367 83.6413 19.9526 63.6887 37.8921 11.0453 24.62 57.746 18.0165 8.90726 28.1934 20.0288
internal_count=289 271 137 83 54 36 134 28 106 49 13 34 97 18 15 18 13
is_linear=0
shrinkage=0.05


Tree=25
num_leaves=16
num_cat=0
split_feature=128 1 9 78 6 22 6 26 66 8 14 126 128 0 16
split_gain=69.9621 25.3411 24.3869 18.4687 27.5314 24.5911 16.7584 23.2586 13.5862 13.0765 8.88454 3.1443 1.11198 0.117449 0.014132
threshold=1.0038637384117846 -1.3573923570168263 -0.03372336881826233 -0.69845346481954496 -0.88900580306834709 0.81470260391572802 1.8360376681230102 1.4327938782217502 0.78561098006184904 1.0239984225799761 -0.61959021652207324 1.2379836755608644 1.9631695563196514 0.50579266300097581 0.035842512273238321
decision_type=2 2 2 2 2 2 2 2 2 2 2 2 2 2 2
left_child=2 -2 3 8 14 -6 7 10 13 11 -4 12 -3 -1 -5
right_child=1 9 6 4 5 -7 -8 -9 -10 -11 -12 -13 -14 -15 -16
leaf_value=-0.061041854112296373 -0.060029902244121393 0.07842332114942735 -0.019182249201200867 -0.062226178044654391 0.042399460057244882 -0.047884674097459293 0.03706553061021646 0.053782276707108334 0.03543915031364641 -0.008930036918318212 -0.05834944632335403 0.02865264644861892 0.061511797238579205 -0.070680718582989896 -0.058481552719956122
leaf_weight=10.257092475891115 5.3776497244834891 13.998915672302244 19.263157516717911 4.2177067697048169 47.990204036235809 8.948502302169798 7.4288671016693106 5.9718444645404807 4.4695348739624015 7.386501431465148 58.294375002384186 6.1676442027091971 31.801029324531555 4.567788064479827 6.2579120695590973
leaf_count=17 5 8 34 9 61 14 7 7 5 5 90 5 21 6 11
internal_value=-0.000599156 0.043903 -0.0168132 0.00215974 0.0145049 0.0282104 -0.0348998 -0.0413002 -0.040974 0.0533196 -0.0486214 0.0621676 0.0666809 -0.0640117 -0.0599892
internal_weight=242.399 64.7317 177.667 86.7087 67.4143 56.9387 90.9582 83.5294 19.2944 59.3541 77.5575 51.9676 45.7999 14.8249 10.4756
internal_count=305 44 261 123 95 75 138 131 28 39 124 34 29 23 20
is_linear=0
shrinkage=0.05


Tree=26
num_leaves=19
num_cat=0
split_feature=128 9 14 47 44 2 4 92 120 123 68 9 115 64 28 30 19 39
split_gain=65.3591 26.7778 22.3348 21.132 31.0794 17.7324 14.7855 20.2358 17.4618 11.468 7.90711 9.21432 1.61504 0.0464241 0.00530329 0.00179532 0.000328888 4.59107e-05
threshold=1.9631695563196514 -0.03372336881826233 1.0918093818238581 0.24240681845302636 -0.17918354033049252 -0.38639049451129465 -0.095326228808200256 0.59311452356444727 0.27365070466645608 0.68769813470603214 1.6043803159220709 1.4940658575280839 1.0411604397454297 0.8231574640222874 -0.74244147305851282 0.72963928494855401 0.96591906902217739 -0.17338720121270532
decision_type=2 2 2 2 2 2 2 2 2 2 2 2 2 2 2 2 2 2
left_child=1 2 3 4 -1 -5 10 8 -8 -9 11 -3 13 -4 -2 16 17 -16
right_child=14 6 12 5 -6 -7 7 9 -10 -11 -12 -13 -14 -15 15 -17 -18 -19
leaf_value=-0.022203783942808697 0.062052372780623033 -0.062963613487232603 -0.059801565721940078 0.021463967801809442 0.056710017038834895 -0.053950194680401242 -0.060147438257878653 -0.006426373341095303 0.010464311115501257 0.089230913961973538 0.021265980856448506 0.013946255543649406 -0.015947837206546831 -0.066612137287962517 0.060296868846499742 0.061248646145612318 0.060622115545484016 0.060116274238506712
leaf_weight=17.977563410997391 7.7901103496551505 41.025849580764771 7.3324372768402082 14.778354585170748 40.777472138404846 16.494735509157181 20.615476578474045 5.9916147291660291 15.218821585178373 6.567737340927124 3.6059693396091452 4.3028345704078665 2.2815884053707114 3.7983409762382507 7.0794739723205593 7.4710835218429557 7.2229539155960074 6.9978233575820949
leaf_count=25 5 62 15 19 42 26 35 12 20 4 5 7 4 4 5 5 5 5
internal_value=-0.000591864 -0.0117891 0.00592356 0.0148912 0.0325644 -0.0183126 -0.0306141 -0.0110174 -0.0301586 0.0435963 -0.0499941 -0.0556629 -0.0542703 -0.0621257 0.0608951 0.0605817 0.0603478 0.0602071
internal_weight=237.33 200.769 103.44 90.0281 58.755 31.2731 97.3283 48.3937 35.8343 12.5594 48.9347 45.3287 13.4124 11.1308 36.5614 28.7713 21.3003 14.0773
internal_count=305 280 135 112 67 45 145 71 55 16 74 69 23 19 25 20 15 10
is_linear=0
shrinkage=0.05


Tree=27
num_leaves=18
num_cat=0
split_feature=128 9 74 22 26 66 37 123 37 107 55 101 29 42 49 106 47
split_gain=61.3001 24.8748 21.2325 24.0861 21.0592 20.3894 19.8425 15.9001 15.8684 13.2392 12.8988 10.5174 10.1792 0.00917798 0.00428185 0.00100152 0.000360215
threshold=1.9631695563196514 -0.03372336881826233 -0.20300225629426694 0.64291189766629808 1.4327938782217502 -0.60504779892128957 -0.73684647258706815 1.1734904345527044 0.35278857719666384 -0.89685752682754039 -0.82467822722934281 -1.0000000180025095e-35 2.1326103682975512 0.27522453251140805 -0.72603531202400784 1.0000000180025095e-35 0.40104260315490031
decision_type=2 2 2 2 2 2 2 2 2 2 2 2 2 2 2 2 2
left_child=1 2 6 5 7 -4 9 12 -9 -1 -8 -6 -3 -5 -2 16 -16
right_child=14 4 3 13 11 -7 10 8 -10 -11 -12 -13 -14 -15 15 -17 -18
leaf_value=-0.032563687760509434 0.06131377113137218 -0.049816845549754872 -0.025877731988197445 -0.057715614282890827 -0.016525949787874909 0.051415617729116847 0.017258066830975891 -0.057694307187573381 0.074021437515205277 0.070566447718850608 -0.06409302438408758 0.087501535810112205 0.033675290299845236 -0.061239008656426924 0.059558871412314585 0.060366954240375283 0.060020481860340792
leaf_weight=5.2108846306800842 7.4747917652130118 71.652195036411285 10.642045408487318 4.3498152196407309 4.5018452703952789 43.035633504390717 6.281473487615588 3.7461230158805829 5.8692162036895752 7.7256774902343732 21.724668562412262 5.2786322236061078 3.8465753793716422 3.2138580679893494 10.77850484848023 9.9347116947174055 6.9520989656448355
leaf_count=8 5 117 16 9 6 47 9 9 5 7 34 4 4 5 8 7 5
internal_value=-0.000585407 -0.011433 0.00568523 0.0243209 -0.0298662 0.0360916 -0.0221897 -0.0378508 0.0227052 0.0290253 -0.0458469 0.0396188 -0.045563 -0.0592127 0.0602519 0.0599651 0.0597399
internal_weight=232.219 197.079 102.184 61.2414 94.8946 53.6777 40.9427 85.1141 9.61534 12.9366 28.0061 9.78048 75.4988 7.56367 35.1401 27.6653 17.7306
internal_count=305 280 135 77 145 63 58 135 14 15 43 10 121 14 25 20 13
is_linear=0
shrinkage=0.05


Tree=28
num_leaves=18
num_cat=0
split_feature=14 13 4 14 31 108 92 22 23 31 9 41 123 34 54 111 48
split_gain=33.5412 24.5347 19.7645 19.1958 19.0426 18.064 17.4793 16.9962 16.5172 15.8965 9.63196 9.51306 2.03617 1.94544 0.339988 0.178257 0.0114589
threshold=0.308656862291738 0.65956351914414213 0.91080109313308333 -1.4784112593425531 -0.41498857022041219 0.11413617498537931 1.1028703774098196 0.64291189766629808 1.398790740642998 0.37880049797656512 0.4030992679212993 -1.2344518268156912 0.47913024833764967 1.0481273274082497 1.1075402270051471 1.6028119711507454 0.77047005338889962
decision_type=2 2 2 2 2 2 2 2 2 2 2 2 2 2 2 2 2
left_child=1 3 6 16 10 12 11 8 -5 -9 -3 -2 -4 14 -6 -13 -1
right_child=2 4 5 7 13 -7 -8 9 -10 -11 -12 15 -14 -15 -16 -17 -18
leaf_value=-0.057854459002740583 0.0026456759586946333 0.053200904541840503 -0.06106023943957592 0.041865407807848976 -0.059714445132943383 0.063388662188913147 0.028815681762139403 -0.06043855732288439 -0.045987355730556054 0.027585311907758273 -0.059073924507234879 -0.059830405001555322 -0.0019319271040914108 -0.012977303260861012 -0.077874183267469338 -0.070901624760730114 -0.062208040625192224
leaf_weight=4.4131023287773123 6.8183009624481192 7.986876994371416 4.6716890931129482 89.056892573833466 13.865831911563879 9.846387177705763 7.644117832183837 9.6220337152481097 5.6920987069606772 10.984397470951079 2.510755866765976 39.841446667909622 2.1152610778808594 2.1851772964000693 3.1659008264541617 4.0008548796176902 2.2987256944179535
leaf_count=9 8 8 8 94 24 9 9 19 10 12 5 71 4 5 2 4 4
internal_value=-0.000576891 0.0129362 -0.0279468 0.0228545 -0.027808 0.0201288 -0.0416619 0.0276372 0.0365876 -0.0135168 0.0263477 -0.0522962 -0.042632 -0.0573916 -0.06309 -0.0608407 -0.0593455
internal_weight=226.72 151.782 74.9381 122.067 29.7145 16.6333 58.3047 115.355 94.749 20.6064 10.4976 50.6606 6.78695 19.2169 17.0317 43.8423 6.71183
internal_count=305 192 113 148 44 21 92 135 104 31 13 83 12 31 26 75 13
is_linear=0
shrinkage=0.05


Tree=29
num_leaves=18
num_cat=0
split_feature=128 14 3 6 41 55 96 107 127 112 4 108 5 0 72 24 42
split_gain=55.1504 22.1843 24.4784 19.8301 22.9862 21.8208 19.7899 17.9279 16.5482 15.2488 9.86016 16.8759 3.28965 0.0186858 0.00331438 0.000832228 0.00021068
threshold=1.9631695563196514 0.308656862291738 0.0090917763812869666 0.87611947182119465 1.4700013202572542 0.56895589649622957 -1.3600399537939545 0.61790800230448639 -0.95687205339560588 -0.11952556336083157 0.97562384340331232 0.11413617498537931 1.2314950087190535 0.67877140576376649 -0.67788517406642124 0.32845885902071686 0.52295476381170691
decision_type=2 2 2 2 2 2 2 2 2 2 2 2 2 2 2 2 2
left_child=1 2 6 4 -4 -5 13 -8 9 -3 12 -12 -10 -1 -2 16 -16
right_child=14 8 3 5 -6 -7 7 -9 10 -11 11 -13 -14 -15 15 -17 -18
leaf_value=-0.063925845919783064 0.060225735465013974 0.057838389649345061 -0.055206879754741402 -0.04077744199888704 0.073995921792947034 0.07692735279097325 0.043306710808913761 -0.028562504595322332 -0.060514962972084044 -0.058927204710850417 -0.060402398999816434 0.074112835636343188 -0.021389754194174583 -0.058543643293460373 0.058643711016646338 0.059378468476732928 0.059009578368257189
leaf_weight=3.0347471833229056 7.0114362239837638 8.2260261476039869 34.798442512750626 7.1647030711174002 3.8203497529029837 8.7417413592338544 50.20333406329155 10.490476101636885 39.605857580900192 4.235847294330596 5.1066798865795118 4.2907611727714539 6.2156483829021445 3.441229373216629 10.053213834762579 9.2887463569641096 6.4651440382003775
leaf_count=5 5 9 61 13 4 8 56 19 68 8 10 4 10 5 8 7 5
internal_value=-0.000576759 -0.0109467 0.00181555 -0.0230738 -0.0424255 0.0239099 0.0220195 0.0308846 -0.0338941 0.0181492 -0.0456393 0.00101568 -0.0552077 -0.0610658 0.0592617 0.0589998 0.0587869
internal_weight=222.194 189.376 121.695 54.5252 38.6188 15.9064 67.1698 60.6938 67.6808 12.4619 55.2189 9.39744 45.8215 6.47598 32.8185 25.8071 16.5184
internal_count=305 280 171 86 65 21 85 75 109 17 92 14 78 10 25 20 13
is_linear=0
shrinkage=0.05


Tree=30
num_leaves=18
num_cat=0
split_feature=128 1 8 96 10 3 70 97 2 82 103 39 112 38 49 8 94
split_gain=47.4236 22.9551 26.3201 24.1886 18.5938 25.58 11.3703 13.0293 10.8426 14.6758 6.10091 6.00993 1.73935 0.174814 0.00259064 0.00101566 5.364e-05
threshold=1.9631695563196514 0.43760583594454466 -1.2346901768972265 -0.45284595219858298 0.75272619384714001 0.28444628299488633 -0.15028761388708836 -1.0000000180025095e-35 -0.46910397077288091 0.018570884694307638 0.69936419113406945 -1.6379446414553744 -0.53760494343911025 0.71419504906200559 -0.20732976886818114 1.0000000180025095e-35 0.26849893615848885
decision_type=2 2 2 2 2 2 2 2 2 2 2 2 2 2 2 2 2
left_child=1 2 6 10 5 -5 -1 -8 9 -4 13 -10 -6 -3 -2 -16 -17
right_child=14 3 8 4 12 -7 7 -9 11 -11 -12 -13 -14 -15 15 16 -18
leaf_value=0.089088260806056918 0.059586257454996197 -0.059057722760036291 0.020035623127635738 0.032275183370973785 0.040140586614670126 -0.051691046470499394 -0.058073111484478607 0.081403749037025269 0.015912478127785613 -0.041633112617684237 0.016819977290374641 -0.053974516964908043 0.078792398476412728 -0.071625835907198829 0.058972328431605117 0.058342762616530756 0.058132575408710044
leaf_weight=6.2361465394496918 8.0656398534774798 6.9748891890048963 16.819457590579987 30.332616478204727 3.7922105491161373 12.94001457095146 4.2902015745639801 2.7461873292922956 3.2731886506080619 22.624642103910446 2.922145575284957 51.119010105729103 12.520295709371565 4.5859359204769135 7.7128131389617947 6.1265337467193586 6.0160856246948242
leaf_count=6 6 13 25 36 5 20 10 2 6 40 4 93 10 5 6 5 5
internal_value=-0.00182598 -0.0111737 -0.0259737 0.0102283 0.0243154 0.00716637 0.03993 -0.00363758 -0.0352954 -0.0153368 -0.0477279 -0.0497689 0.0698069 -0.0640432 0.0588306 0.0585236 0.0582386
internal_weight=209.098 181.177 107.109 74.0681 59.5851 43.2726 13.2725 7.03639 93.8363 39.4441 14.483 54.3922 16.3125 11.5608 27.9211 19.8554 12.1426
internal_count=297 275 182 93 71 56 18 12 164 65 22 99 15 18 22 16 10
is_linear=0
shrinkage=0.05


Tree=31
num_leaves=18
num_cat=0
split_feature=128 9 8 17 14 119 41 127 0 95 22 29 18 59 0 49 34
split_gain=44.5559 19.8631 23.5892 19.2787 20.9951 15.9236 15.5128 12.6451 8.89578 12.973 7.47542 5.29452 2.05024 0.180972 0.0608036 0.00217203 0.000857325
threshold=1.9631695563196514 -0.03372336881826233 -0.37064374228610447 0.97596739039604186 1.0918093818238581 -0.095146691974514988 -0.77393920524404936 0.17412803120670692 0.91884574970458022 -0.40420501178823037 -0.31733111381421758 1.226297158231141 1.3193320656650021 0.68933902915035505 0.82442549510478325 -0.20732976886818114 -0.094515288590900137
decision_type=2 2 2 2 2 2 2 2 2 2 2 2 2 2 2 2 2
left_child=1 3 5 4 6 7 -1 -3 14 -10 -5 -7 -6 -12 -4 -2 -17
right_child=15 2 8 10 12 11 -8 -9 9 -11 13 -13 -14 -15 -16 16 -18
leaf_value=-0.026363409203338364 0.059032587747622503 -0.020883082035883588 -0.057829987624679384 0.013955453250282874 -0.060057172222996918 -0.058756314949948818 0.036875888777439823 0.074510953193633531 -0.062846341290773128 0.030434023876149654 -0.058761551560073177 0.019593300750814641 0.00033258010181320236 -0.071395762812487523 -0.064361883072190776 0.058409011937898783 0.057734841596678889
leaf_weight=11.770587563514708 7.7424048185348537 5.2121802270412472 38.193751111626625 4.1990916728973415 8.7976454496383649 7.6296113282442075 55.058887094259262 10.416674405336378 7.0534350723028183 7.9043187201023084 8.1941577196121198 3.0056492686271667 1.6726770102977742 4.33323049545288 3.9293338358402243 8.600197315216068 10.440467834472653
leaf_count=18 6 9 76 5 18 16 69 10 11 9 16 4 5 4 5 7 9
internal_value=-0.00178463 -0.0108614 -0.0286334 0.00489174 0.0154234 0.0105815 0.0257376 0.0426973 -0.0466771 -0.013553 -0.0437794 -0.0366138 -0.0504097 -0.0631317 -0.0584393 0.0583265 0.0580393
internal_weight=204.154 177.371 83.345 94.0263 77.2998 26.2641 66.8295 15.6289 57.0808 14.9578 16.7265 10.6353 10.4703 12.5274 42.1231 26.7831 19.0407
internal_count=297 275 140 135 110 39 87 19 101 20 25 20 23 20 81 22 16
is_linear=0
shrinkage=0.05


Tree=32
num_leaves=15
num_cat=0
split_feature=128 1 96 17 14 0 4 42 71 63 38 72 24 80
split_gain=41.8866 20.6614 21.4481 18.9504 18.194 17.3461 16.5387 16.4817 15.4057 5.76874 0.140104 0.00240437 0.000600081 8.27038e-05
threshold=1.9631695563196514 0.43760583594454466 -0.45284595219858298 -2.4381455431474346 0.12550515714861507 1.6473743136217953 0.91080109313308333 1.2151351636375984 1.0000000180025095e-35 -1.2347074814345316 0.71419504906200559 -0.67788517406642124 0.32845885902071686 0.30770313226523827
decision_type=2 2 2 2 2 2 2 2 2 2 2 2 2 2
left_child=1 3 9 -1 7 6 -5 -4 -6 -3 -11 -2 13 -13
right_child=11 2 4 5 8 -7 -8 -9 -10 10 -12 12 -14 -15
leaf_value=0.099113589814393971 0.058704483954696254 0.020012120079430814 0.053295306681979696 -0.045148169157222265 -0.062974335413872359 0.067241402028231298 0.0034134226596817963 -0.062351272151581344 0.026897423355692358 -0.057921079052140681 -0.069749358631843381 0.057248648145862648 0.057946189731834075 0.057508677294432334
leaf_weight=2.9871777892112723 6.2903980016708401 2.6585366129875174 35.230290919542313 71.583655133843422 9.2179529666900653 4.4975892007350913 23.220315650105476 3.3761316835880271 9.878621041774748 7.2299580872058851 3.8295608758926392 6.634884715080263 7.0818693637847892 5.6720031499862671
leaf_count=4 5 4 40 138 12 6 34 5 14 14 4 6 6 5
internal_value=-0.00174935 -0.0105606 0.0100761 -0.0249697 0.0234358 -0.0287023 -0.033254 0.043182 -0.0164838 -0.0461198 -0.0620168 0.0578551 0.0575795 0.0573685
internal_weight=199.389 173.71 71.4211 102.289 57.703 99.3016 94.804 38.6064 19.0966 13.7181 11.0595 25.6792 19.3888 12.3069
internal_count=297 275 93 182 71 178 172 45 26 22 18 22 17 11
is_linear=0
shrinkage=0.05


Tree=33
num_leaves=17
num_cat=0
split_feature=128 1 8 10 3 63 0 70 97 82 69 54 30 49 8 0
split_gain=39.3767 19.0384 23.4979 19.3708 22.0943 19.9296 13.035 9.6443 11.4697 9.2125 8.08911 2.04211 0.870715 0.0015353 0.000614433 3.13822e-05
threshold=1.9631695563196514 0.43760583594454466 -1.2346901768972265 0.75272619384714001 0.28444628299488633 -0.69497349786323903 1.5851449344859745 -0.15028761388708836 -1.0000000180025095e-35 -0.20420112541827584 -0.6517051669378322 0.79674018001589697 -0.59968595929166224 -0.20732976886818114 1.0000000180025095e-35 0.74122171717153962
decision_type=2 2 2 2 2 2 2 2 2 2 2 2 2 2 2 2
left_child=1 2 7 4 5 -3 9 -1 -9 -4 -5 -6 -12 -2 -15 -16
right_child=13 3 6 10 11 -7 -8 8 -10 -11 12 -13 -14 14 15 -17
leaf_value=0.084637011714790933 0.058032502114895246 -0.048735650391392278 -0.020159942957859851 -0.011558138976033168 -0.060732952973433577 0.039027713705061605 0.043529403020479522 -0.057246753420595521 0.078093257754876702 -0.053695594855027895 0.089735934078148796 -0.014339372638117524 0.062402450724993612 0.057533110846421778 0.0568386814171064 0.057010080912057004
leaf_weight=6.1147316098213196 7.1236009597778347 8.653494790196417 37.960213884711266 3.8594512939453152 14.093902453780176 25.619708865880966 5.1785026341676703 3.8917539715766907 2.6189144849777204 44.468854621052742 3.9530947208404568 2.8518973588943473 11.079779267311091 6.8029555082321194 5.2918726205825788 5.3913317918777466
leaf_count=6 6 14 66 3 23 32 7 10 2 91 3 6 12 6 5 5
internal_value=-0.00170615 -0.0102472 -0.0242273 0.00973906 -0.00622257 0.0168687 -0.0334177 0.0395442 -0.00280627 -0.0382518 0.0530126 -0.0529251 0.0695902 0.0574138 0.0571617 0.0569252
internal_weight=194.954 170.344 100.233 70.1113 51.219 34.2732 87.6076 12.6254 6.51067 82.4291 18.8923 16.9458 15.0329 24.6098 17.4862 10.6832
internal_count=297 275 182 93 75 46 164 18 12 157 18 29 15 22 16 10
is_linear=0
shrinkage=0.05


Tree=34
num_leaves=16
num_cat=0
split_feature=128 0 22 8 27 0 43 125 29 101 32 36 94 72 6
split_gain=37.0477 17.5699 18.1372 19.0725 18.0892 17.0824 13.9303 14.8477 3.0633 1.43568 0.0096424 0.00503857 0.00295975 0.00171057 0.00040479
threshold=1.9631695563196514 -1.0777821376901622 0.403086795093826 -0.19914722758876938 0.17704508817637313 0.087615081516672147 -0.056217689202465677 0.58935880195125045 1.2953467223363668 1.0922862925052297 -0.17643315606159785 0.083844163933221097 0.68463905583516749 -0.67788517406642124 -0.46519187093048686
decision_type=2 2 2 2 2 2 2 2 2 2 2 2 2 2 2
left_child=1 8 3 4 -3 -5 7 -4 10 -8 12 -12 -1 -2 -15
right_child=13 2 6 5 -6 -7 9 -9 -10 -11 11 -13 -14 14 -16
leaf_value=-0.059991768058750686 0.057747257267040969 0.058160781226793912 -0.031779489983789093 -0.057580039788047183 -0.0064020467999026109 0.0055475700916970891 -0.05880817649467196 0.055857976557883375 0.0088083724106044741 -0.015136340834299478 -0.055823765760063239 -0.057675606280954354 -0.057484982801139908 0.056526798824261731 0.057004072776386673
leaf_weight=3.5748922824859664 5.7851037979126003 27.107223033905029 13.177897527813913 14.748798921704291 18.088764175772667 39.196205735206604 22.629472702741626 7.6321331262588492 1.9169870018959034 2.0525857806205741 7.8963167667388916 6.8679625988006592 1.755837023258209 9.1903651952743566 8.599521398544308
leaf_count=7 5 31 25 33 27 52 44 8 4 5 20 14 5 9 8
internal_value=-0.00166651 -0.00996602 -0.00363235 0.00836162 0.0323208 -0.0117118 -0.0297708 0.00036178 -0.0515823 -0.0551764 -0.0573433 -0.0566852 -0.0591661 0.0570004 0.0567575
internal_weight=190.22 166.645 144.633 99.141 45.196 53.945 45.4921 20.81 22.012 24.6821 20.095 14.7643 5.33073 23.575 17.7899
internal_count=297 275 225 143 58 85 82 33 50 49 46 34 12 22 17
is_linear=0
shrinkage=0.05


Tree=35
num_leaves=18
num_cat=0
split_feature=128 16 10 3 86 96 30 108 129 89 104 53 126 1 122 105 113
split_gain=41.8675 15.7191 16.8043 23.5592 17.4348 16.3189 13.1191 12.1291 9.03907 12.3468 5.22481 4.72205 4.49012 2.42132 0.0479044 0.000922503 0.000180292
threshold=1.9631695563196514 0.30385315684749442 -0.21858853478686377 0.47501601059891163 0.80030303739925002 -0.30563836647488279 -0.16565437092902427 1.6603725263751012 1.0000000180025095e-35 0.59937638667340731 -1.2239073003065399 -0.25037705313426756 0.57287724374991378 1.5887691409877036 0.66323325721944748 -0.31235950214761349 0.086298866892555628
decision_type=2 2 2 2 2 2 2 2 2 2 2 2 2 2 2 2 2
left_child=1 2 4 5 13 -4 -6 -5 10 12 -3 -11 -10 -1 -12 -2 -17
right_child=15 8 3 7 6 -7 -8 -9 9 11 14 -13 -14 -15 -16 16 -18
leaf_value=-0.059307778133533988 0.056948285143055347 -0.0022576064278309964 -0.015129916448834706 -0.047247435894433983 0.056562044049392496 0.055382222044789854 -0.05703167711464207 0.048860181926896944 -0.057769337828316163 -0.0069545757942682781 -0.056913247631769429 0.082836194133073124 0.025162802249725676 -0.0044684757252535399 -0.061287803975536681 0.056479056402303468 0.056130213730291603
leaf_weight=21.571971356868747 9.5959213972091693 4.8415451645851126 11.370586678385733 17.322738081216816 7.9728827178478241 29.478127002716064 3.7313224971294385 4.050478756427764 7.7459548115730303 2.3283332884311676 21.605904608964924 3.9453321099281302 2.0678233206272125 2.2199776172637931 8.8099807351827604 8.1209871768951398 6.8097342252731314
leaf_count=44 9 8 18 28 10 32 8 4 21 6 42 5 4 4 15 8 7
internal_value=-0.00397004 -0.0139305 -0.00216097 0.0134997 -0.029613 0.0357546 0.0203482 -0.0290339 -0.03633 -0.0052726 -0.050501 0.0495123 -0.040295 -0.0541908 -0.0581803 0.0565658 0.05632
internal_weight=173.59 149.063 97.7181 62.2219 35.4962 40.8487 11.7042 21.3732 51.3449 16.0874 35.2574 6.27367 9.81378 23.7919 30.4159 24.5266 14.9307
internal_count=273 249 148 82 66 50 18 32 101 36 65 11 25 48 57 24 15
is_linear=0
shrinkage=0.05


end of trees

feature_importances:
Column_128=33
Column_0=31
Column_3=25
Column_1=24
Column_2=21
Column_4=17
Column_9=14
Column_14=14
Column_96=13
Column_10=11
Column_8=10
Column_82=9
Column_7=8
Column_16=8
Column_22=8
Column_111=8
Column_123=8
Column_24=7
Column_52=7
Column_70=7
Column_86=7
Column_27=6
Column_29=6
Column_30=6
Column_41=6
Column_47=6
Column_49=6
Column_59=6
Column_79=6
Column_94=6
Column_97=6
Column_106=6
Column_11=5
Column_17=5
Column_38=5
Column_48=5
Column_50=5
Column_51=5
Column_54=5
Column_78=5
Column_89=5
Column_108=5
Column_127=5
Column_6=4
Column_12=4
Column_18=4
Column_19=4
Column_26=4
Column_28=4
Column_31=4
Column_32=4
Column_34=4
Column_36=4
Column_46=4
Column_53=4
Column_55=4
Column_66=4
Column_74=4
Column_75=4
Column_92=4
Column_101=4
Column_105=4
Column_124=4
Column_126=4
Column_39=3
Column_42=3
Column_44=3
Column_69=3
Column_72=3
Column_73=3
Column_91=3
Column_93=3
Column_112=3
Column_115=3
Column_118=3
Column_122=3
Column_125=3
Column_20=2
Column_23=2
Column_37=2
Column_63=2
Column_67=2
Column_68=2
Column_71=2
Column_80=2
Column_81=2
Column_85=2
Column_87=2
Column_99=2
Column_104=2
Column_107=2
Column_109=2
Column_113=2
Column_114=2
Column_117=2
Column_119=2
Column_120=2
Column_129=2
Column_5=1
Column_13=1
Column_15=1
Column_21=1
Column_33=1
Column_43=1
Column_45=1
Column_57=1
Column_58=1
Column_61=1
Column_62=1
Column_64=1
Column_65=1
Column_83=1
Column_84=1
Column_88=1
Column_90=1
Column_95=1
Column_103=1
Column_110=1
Column_116=1
Column_130=1

parameters:
[boosting: gbdt]
[objective: binary]
[metric: auc]
[tree_learner: serial]
[device_type: cpu]
[data_sample_strategy: bagging]
[data: ]
[valid: ]
[num_iterations: 100]
[learning_rate: 0.05]
[num_leaves: 31]
[num_threads: 0]
[seed: 0]
[deterministic: 0]
[force_col_wise: 0]
[force_row_wise: 0]
[histogram_pool_size: -1]
[max_depth: 5]
[min_data_in_leaf: 5]
[min_sum_hessian_in_leaf: 0.001]
[bagging_fraction: 0.8]
[pos_bagging_fraction: 1]
[neg_bagging_fraction: 1]
[bagging_freq: 5]
[bagging_seed: 3]
[bagging_by_query: 0]
[feature_fraction: 0.8]
[feature_fraction_bynode: 1]
[feature_fraction_seed: 2]
[extra_trees: 0]
[extra_seed: 6]
[early_stopping_round: 0]
[early_stopping_min_delta: 0]
[first_metric_only: 0]
[max_delta_step: 0]
[lambda_l1: 0]
[lambda_l2: 0]
[linear_lambda: 0]
[min_gain_to_split: 0]
[drop_rate: 0.1]
[max_drop: 50]
[skip_drop: 0.5]
[xgboost_dart_mode: 0]
[uniform_drop: 0]
[drop_seed: 4]
[top_rate: 0.2]
[other_rate: 0.1]
[min_data_per_group: 100]
[max_cat_threshold: 32]
[cat_l2: 10]
[cat_smooth: 10]
[max_cat_to_onehot: 4]
[top_k: 20]
[monotone_constraints: ]
[monotone_constraints_method: basic]
[monotone_penalty: 0]
[feature_contri: ]
[forcedsplits_filename: ]
[refit_decay_rate: 0.9]
[cegb_tradeoff: 1]
[cegb_penalty_split: 0]
[cegb_penalty_feature_lazy: ]
[cegb_penalty_feature_coupled: ]
[path_smooth: 0]
[interaction_constraints: ]
[verbosity: -1]
[saved_feature_importance_type: 0]
[use_quantized_grad: 0]
[num_grad_quant_bins: 4]
[quant_train_renew_leaf: 0]
[stochastic_rounding: 1]
[linear_tree: 0]
[max_bin: 255]
[max_bin_by_feature: ]
[min_data_in_bin: 3]
[bin_construct_sample_cnt: 200000]
[data_random_seed: 1]
[is_enable_sparse: 1]
[enable_bundle: 1]
[use_missing: 1]
[zero_as_missing: 0]
[feature_pre_filter: 1]
[pre_partition: 0]
[two_round: 0]
[header: 0]
[label_column: ]
[weight_column: ]
[group_column: ]
[ignore_column: ]
[categorical_feature: ]
[forcedbins_filename: ]
[precise_float_parser: 0]
[parser_config_file: ]
[objective_seed: 5]
[num_class: 1]
[is_unbalance: 0]
[scale_pos_weight: 1]
[sigmoid: 1]
[boost_from_average: 1]
[reg_sqrt: 0]
[alpha: 0.9]
[fair_c: 1]
[poisson_max_delta_step: 0.7]
[tweedie_variance_power: 1.5]
[lambdarank_truncation_level: 30]
[lambdarank_norm: 1]
[label_gain: ]
[lambdarank_position_bias_regularization: 0]
[eval_at: ]
[multi_error_top_k: 1]
[auc_mu_weights: ]
[num_machines: 1]
[local_listen_port: 12400]
[time_out: 120]
[machine_list_filename: ]
[machines: ]
[gpu_platform_id: -1]
[gpu_device_id: -1]
[gpu_use_dp: 0]
[num_gpu: 1]

end of parameters

pandas_categorical:null
