tree
version=v4
num_class=1
num_tree_per_iteration=1
label_index=0
max_feature_idx=136
objective=binary sigmoid:1
feature_names=Column_0 Column_1 Column_2 Column_3 Column_4 Column_5 Column_6 Column_7 Column_8 Column_9 Column_10 Column_11 Column_12 Column_13 Column_14 Column_15 Column_16 Column_17 Column_18 Column_19 Column_20 Column_21 Column_22 Column_23 Column_24 Column_25 Column_26 Column_27 Column_28 Column_29 Column_30 Column_31 Column_32 Column_33 Column_34 Column_35 Column_36 Column_37 Column_38 Column_39 Column_40 Column_41 Column_42 Column_43 Column_44 Column_45 Column_46 Column_47 Column_48 Column_49 Column_50 Column_51 Column_52 Column_53 Column_54 Column_55 Column_56 Column_57 Column_58 Column_59 Column_60 Column_61 Column_62 Column_63 Column_64 Column_65 Column_66 Column_67 Column_68 Column_69 Column_70 Column_71 Column_72 Column_73 Column_74 Column_75 Column_76 Column_77 Column_78 Column_79 Column_80 Column_81 Column_82 Column_83 Column_84 Column_85 Column_86 Column_87 Column_88 Column_89 Column_90 Column_91 Column_92 Column_93 Column_94 Column_95 Column_96 Column_97 Column_98 Column_99 Column_100 Column_101 Column_102 Column_103 Column_104 Column_105 Column_106 Column_107 Column_108 Column_109 Column_110 Column_111 Column_112 Column_113 Column_114 Column_115 Column_116 Column_117 Column_118 Column_119 Column_120 Column_121 Column_122 Column_123 Column_124 Column_125 Column_126 Column_127 Column_128 Column_129 Column_130 Column_131 Column_132 Column_133 Column_134 Column_135 Column_136
feature_infos=[-2.0118725423035064:2.3971986938876704] [-2.616298257926482:2.2067087000463057] [-2.0684404397456024:2.8950256164612225] [-2.9544684920560158:3.4919082842696412] [-2.4903828285863652:2.8834952693654023] [-2.6355560316266704:2.428451766462703] [-3.0074265623408669:2.7577376239242617] [-2.5080473100943621:2.7735050427080559] [-2.7485329281961675:3.9549319592355947] [-3.3704276266933459:3.1979844866987412] [-2.3882983583595467:2.6964583300934257] [-3.4740019997767404:2.5001435559633358] [-2.9061878348543155:2.4104793379665432] [-2.9246363594970246:3.3000516464660872] [-4.2289696908989551:3.0211861590596691] [-2.4554341042606618:2.6925367940616804] [-2.9544540960024226:2.7835619359536512] [-2.9447992880537841:2.6061283074848482] [-2.6002467655451502:4.4984530449152258] [-2.5431579959671393:3.1611908948553133] [-2.4554246466139293:2.6803451766408264] [-2.6952080171700983:2.7729306821418787] [-4.3373197014701059:3.2138934935897425] [-3.6894357227091352:2.58602644387142] [-4.3821133082858257:2.9035876760991446] [-3.3157277843698711:2.8512336959796043] [-2.9718409345170862:2.7129626185114351] [-3.3110974800803148:3.1381355321280306] [-3.3018883910130508:2.5793774266077043] [-2.599662599938052:2.5928756558682342] [-2.7379805593233288:3.2182619709521747] [-2.9938504227068625:3.2010502765379503] [-2.5244817573694389:3.0529267444101849] [-4.5535833353670183:2.8782979067532857] [-2.3707130155567246:2.9520123057385712] [-3.2957201921375008:2.8870456142480379] [-2.9514921488149568:2.3516181829322784] [-2.3381458471829739:2.690574774547021] [-2.9486580731162944:3.1674838935346368] [-3.725770867064492:3.0236745471176611] [-2.8796568935352824:2.7053079621919691] [-2.775645691477401:3.0013425518627881] [-2.8422901596760508:2.9308647475124565] [-2.6603567221433519:3.878573106533278] [-2.9562030829473942:3.2537317407399438] [-3.1788539709626678:2.6936821456863886] [-3.3260515583402337:3.0951091799054544] [-2.5412804815719143:2.5483629283122236] [-3.6826946823650237:3.2092805786629319] [-2.9937083170012428:3.1097783010395141] [-4.7923741669289521:2.669446704984606] [-2.3124529975685597:3.7080141868940601] [-2.8123200064859821:2.8582357369085116] [-3.7022823925873665:2.7339333554979208] [-2.7049266169460107:3.6050846830172407] [-4.0417466247831051:3.4501803698343392] [-2.8481433541081964:2.4734081449127823] [-2.8491695827310872:2.9369235887405707] [-2.5606779224349006:3.9455167276470648] [-3.2069345450140103:3.0648144657133329] [-2.6862632470567052:2.6037443638386875] [-3.334074972174621:3.5319859383907883] [-3.2970873217439034:3.0684864264396392] [-2.6240315403313721:3.7444321703094934] [-3.0482973264609226:3.3734516323805495] [-4.7883771596297491:3.3979480934534321] [-2.8727293437513057:3.0205633187876644] [-3.1309934088963742:3.0229618364280997] [-2.8274874482571182:2.9740918692301257] [-2.5939199655377356:3.2759552267569916] [-2.7669044021863525:3.7249714363116673] [-3.5063333910486558:2.7353053132382614] [-3.5594304461272945:2.9738952365718494] [-2.8426643973891297:3.3558108034782062] [-2.9771221609909881:3.2151101215920375] [-4.0686540767819803:3.1555471699729849] [-2.4793399485378895:2.3911932024905633] [-2.8678918292794839:3.4207108880726476] [-3.5181667305590159:4.4234458984539362] [-2.4391917112245092:3.1716495687687085] [-2.9957087210593358:3.3479201134095562] [-2.5147282443237389:2.3944552968604289] [-2.6223909503536253:3.4564403181027346] [-2.9808324141434217:3.8320390836091307] [-3.0593210461077796:2.7210306869290388] [-2.732346714320959:3.1087412138424031] [-2.685745883201017:2.8476478714626605] [-2.6109126380681746:2.9617197663057029] [-3.2353383436727752:3.4353866201510646] [-2.5828274470827477:2.8138531114906105] [-2.8545889459612637:3.1161052461737739] [-2.6250736411514568:4.2715151014350123] [-3.0985372587916449:2.844937798706209] [-3.1360243943175794:3.1954146103703684] [-3.264028719476157:2.9707838057697695] [-2.6843209834233424:3.4309090762582475] [-2.7324748721569385:3.149373256411057] [-4.4190140421018542:3.0327341410035977] [-2.6114769057378875:3.02514516369853] [-3.1151683326526323:3.3764936138543979] [-2.7179022984562025:3.0528488618674192] [-3.4998167111761673:2.4931017196739282] [-3.3360804863853781:2.4447108101614003] [-2.8778905559007324:2.7434004201301967] [-2.5888225019448461:3.5868562201213936] [-3.0248231022843037:3.6106579583641065] [-2.9423356396910321:2.8810768341212731] [-2.9415952403633137:3.759863210787997] [-2.8809449529494868:3.4070653185989026] [-2.8063345256812502:3.312897862432588] [-3.1557791603258432:2.5444787944708867] [-3.2822096890358385:2.7805387271417819] [-2.9559989027832438:2.8567488027733239] [-3.5022263575148922:2.3558832237266527] [-2.7595764576332904:2.4625505050091334] [-2.6909071156334603:2.7329354110318276] [-3.3514718372157013:3.7176227340611403] [-2.7421293096855637:3.2605932241330704] [-3.4608037983596649:4.3107913668461526] [-2.5987819959594791:2.6637713250630437] [-2.689503206546382:2.9173296234355219] [-4.5078671087701627:2.5223626633951857] [-2.7793695624732164:2.8430511854826199] [-2.9823154799393419:3.0306396787522196] [-3.6455065798555544:2.9393090307902807] [-3.0091022067123472:3.5484797340477283] [-4.6503612815901301:3.6348395106036526] [-3.3668451962800643:2.8790023970515555] [-1.4646150144292081:2.9182414917726658] [-0.75167973334703242:1.330353813780859] [-0.74236858171067133:1.3470397652008148] [-0.31222472152211156:3.2028213369042411] [-0.30103986446980813:3.3218191941496067] [-0.16269784336399218:6.1463629715285935] none [-0.21192021999025532:4.7187568984496853] [-0.1804006061470548:5.5432186252458662]
tree_sizes=1990 1597 1896 1582 1376 2320 2336 2115 1797 2120 1801 1706 1710 1815 2020

Tree=0
num_leaves=18
num_cat=0
split_feature=16 3 62 12 0 60 54 61 115 85 9 2 16 30 49 46 29
split_gain=142.523 117.187 74.9408 75.1859 70.8034 60.6343 56.3561 46.8182 37.5857 36.9058 25.6024 54.308 31.5504 23.1996 12.0425 9.77641 1.97809
threshold=1.0000000180025095e-35 -0.043062539409505503 -0.53717274815140703 0.61238403860974133 1.767177743069424 -1.0559685688678613 -0.30451019676518926 -0.84898654554825737 0.98760595043065746 0.44902414142794472 0.22332775531413659 -0.37203005203866019 -0.20653203407735635 0.24691628927022599 -1.1850751858544395 -1.10636768571195 1.5623673716917661
decision_type=2 2 2 2 2 2 2 2 2 2 2 2 2 2 2 2 2
left_child=4 2 6 8 10 -3 -2 -7 -4 -5 15 13 -13 -12 -9 -1 -17
right_child=1 5 3 9 -6 7 -8 14 -10 -11 11 12 -14 -15 -16 16 -18
leaf_value=-0.80776647382503375 -0.66969767341961706 -0.69624936272934068 -0.65259279269886417 -0.8714905332781534 -0.68594105949316753 -0.72462174531448686 -0.87149053384014752 -0.78247914615118952 -0.76245158411904279 -0.70325901255093692 -0.79770477962574038 -0.86261756329549277 -0.74335720781116676 -0.63783564323044972 -0.86892289751129581 -0.87149053375804231 -0.83644230136455855
leaf_weight=7.0616966485977164 4.7077977657318142 8.5596323013305646 40.65825343132019 8.3456414937973005 7.2756874561309806 7.4896782636642447 13.053439259529112 4.4938069581985465 9.6295863389968854 5.3497701883316031 4.0658253431320173 33.810547590255737 6.6337150335311881 5.1357793807983398 38.946326971054077 67.835085988044739 4.2798161506652823
leaf_count=8 4 7 28 10 7 9 13 5 9 6 6 37 7 6 41 69 5
internal_value=-0.801178 -0.765992 -0.727138 -0.701915 -0.837691 -0.81938 -0.818003 -0.840075 -0.67363 -0.805775 -0.846262 -0.818112 -0.843056 -0.708475 -0.85998 -0.863913 -0.869411
internal_weight=277.332 141.234 81.7445 63.9833 136.098 59.4894 17.7612 50.9298 50.2878 13.6954 128.822 49.6459 40.4443 9.2016 43.4401 79.1766 72.1149
internal_count=277 132 70 53 145 62 17 55 37 16 138 56 44 12 46 82 74
is_linear=0
shrinkage=1


Tree=1
num_leaves=14
num_cat=0
split_feature=128 16 3 128 51 61 4 84 1 89 53 69 59
split_gain=267.788 59.2178 74.2006 58.7941 47.2209 34.9885 32.212 51.0514 20.8184 20.0716 18.6823 1.92143 0.0539325
threshold=2.3703844284974322 -0.062469775913449078 -0.043062539409505503 1.2746703019469634 -0.8566813151697924 -0.97546859767417438 1.1867044766119639 0.67936237908162878 1.7556789266429655 2.0704244409171078 1.2227795091879752 0.43241443705780142 -0.65269703671877177
decision_type=2 2 2 2 2 2 2 2 2 2 2 2 2
left_child=1 6 3 4 -3 -4 8 11 9 -1 -7 -8 -2
right_child=12 2 5 -5 -6 10 7 -9 -10 -11 -12 -13 -14
leaf_value=-0.062979126231348881 0.15057700226222692 -0.072708868718355718 0.074775819551722023 0.12503422790897786 0.041063217590517044 -0.058694672413369245 -0.071696209143210857 0.11338976581434078 0.045108747534260675 0.050501155067516901 0.047367961910458375 -0.024474254958876684 0.14602569805510576
leaf_weight=96.465849876403809 11.088197231292726 11.766026079654692 6.3757871985435477 15.988533973693846 40.556830763816833 47.181967496871948 6.7404094934463519 7.9695042967796317 5.1048822402954093 4.0605677366256705 4.5524913668632498 3.1659519672393799 15.761477231979368
leaf_count=105 5 14 7 9 43 51 7 9 4 5 6 5 7
internal_value=-0.00214538 -0.0182652 0.00579078 0.0411207 0.0154789 -0.0357413 -0.0428889 0.0191831 -0.0533932 -0.0583953 -0.0493614 -0.0566047 0.147905
internal_weight=276.778 249.929 126.422 68.3114 52.3229 58.1102 123.507 17.8759 105.631 100.526 51.7345 9.90636 26.8497
internal_count=277 265 130 66 57 64 135 21 114 110 57 12 12
is_linear=0
shrinkage=0.05


Tree=2
num_leaves=17
num_cat=0
split_feature=128 16 14 123 56 109 20 4 84 115 47 5 89 69 40 68
split_gain=232.687 54.7094 63.7345 60.1614 50.0968 52.2423 35.4586 29.9584 45.0302 20.815 34.3044 19.8926 19.7856 12.2315 1.90342 0.036766
threshold=2.3703844284974322 -0.062469775913449078 0.10898390981331235 0.73587550709782701 0.51283071347800213 1.037145358693865 0.24250061815155075 1.1867044766119639 0.67936237908162878 1.2028901555057681 0.51292689539919667 0.39465387905037258 2.0704244409171078 -1.1064584988484911 0.71256924167333147 0.59985878069067544
decision_type=2 2 2 2 2 2 2 2 2 2 2 2 2 2 2 2
left_child=1 7 4 13 5 -3 -5 9 14 12 -11 -6 -1 -4 -9 -2
right_child=15 2 3 6 11 -7 -8 8 -10 10 -12 -13 -14 -15 -16 -17
leaf_value=-0.064826017516834478 0.1329253302798806 0.07902951989547094 0.025726771582798548 -0.017254504581564068 -0.071014367635668527 -0.071817831559093812 0.14413078461514828 -0.070340436321182517 0.10388132515915412 -0.070470133387167552 0.10367741589913185 0.061414863998385444 0.047071656801547485 -0.07082128891347296 -0.022881438336459378 0.13660212710917288
leaf_weight=87.817788541316986 16.426293849945072 47.123088181018829 3.5771074295043936 7.348135828971861 12.236602902412413 6.5357266664504996 6.3403030633926392 6.565148591995241 8.2560321092605573 5.9717355966567975 5.3714162707328796 3.6911118626594535 4.1365365386009207 39.554106533527374 3.1151797771453857 11.600715875625609
leaf_count=96 7 45 4 7 14 6 5 8 9 7 6 4 5 45 4 5
internal_value=-0.00210082 -0.0175548 0.00546055 -0.0338299 0.0375424 0.0606561 0.057497 -0.0415521 0.0180958 -0.0519093 0.0119954 -0.040325 -0.0597923 -0.062814 -0.0550679 0.134447
internal_weight=275.667 247.64 126.406 56.8197 69.5865 53.6588 13.6884 121.234 17.9364 103.297 11.3432 15.9277 91.9543 43.1312 9.68033 28.027
internal_count=277 265 130 61 69 51 12 135 21 114 13 18 101 49 12 12
is_linear=0
shrinkage=0.05


Tree=3
num_leaves=14
num_cat=0
split_feature=128 3 16 63 10 26 115 2 4 6 47 95 88
split_gain=204.707 53.0677 67.0114 52.7151 53.0935 39.2864 32.2977 45.1694 20.105 18.2705 15.3397 7.40483 0.0259001
threshold=2.3703844284974322 0.2912010944662497 -0.062469775913449078 -0.91733696284921173 -0.27198344301450156 -1.8558352856021998 1.1469236729480101 0.11241731859522662 1.1867044766119639 1.9449328927525473 -1.5250240106744151 0.71641333823451181 0.24838694040479498
decision_type=2 2 2 2 2 2 2 2 2 2 2 2 2
left_child=1 2 6 11 -5 -3 8 -8 -1 10 -7 -4 -2
right_child=12 5 3 4 -6 9 7 -9 -10 -11 -12 -13 -14
leaf_value=-0.05755770271172124 0.12560453763363166 0.1083389598579869 0.13645957696482067 -0.040681821041979621 0.05042512143587307 0.0080194644135671671 0.14468773775175472 -0.069080678361259681 0.011808395282747255 0.036419902894555871 -0.069800330017083287 0.059512367643521837 0.12256555682054598
leaf_weight=56.73039573431015 11.978427171707155 3.7855024933814994 11.141289532184599 27.48460191488266 38.239723384380341 6.9780967533588401 5.6472007036209089 4.3938196301460266 12.80353397130966 4.9650647640228263 68.448634207248688 4.3462764024734488 16.906800985336304
leaf_count=64 5 4 10 30 35 9 6 6 14 4 79 4 7
internal_value=-0.00206505 -0.0169096 -7.10103e-05 0.0318809 0.012326 -0.049073 -0.0326803 0.0511455 -0.0447851 -0.0564852 -0.0626008 0.114866 0.123826
internal_weight=273.849 244.964 160.787 81.2119 65.7243 84.1773 79.575 10.041 69.5339 80.3918 75.4267 15.4876 28.8852
internal_count=277 265 169 79 65 96 90 12 78 92 88 14 12
is_linear=0
shrinkage=0.05


Tree=4
num_leaves=12
num_cat=0
split_feature=128 8 0 68 45 26 5 125 66 128 0
split_gain=184.696 76.1239 43.2223 32.8985 34.068 54.9903 27.7982 24.789 11.8518 0.273246 0.0177466
threshold=1.2746703019469634 -0.93048242929422897 1.767177743069424 -2.3098077763542442 0.38255389995437455 -1.0061467088763056 -0.59521946191148756 -1.3966104394124328 0.23311271299747507 2.3703844284974322 0.62867109400150645
decision_type=2 2 2 2 2 2 2 2 2 2 2
left_child=2 -2 3 -1 7 -6 -3 -5 -4 -8 -11
right_child=1 6 8 4 5 -7 9 -9 -10 10 -12
leaf_value=0.10399029933182202 -0.067927572786445664 0.021574947311186924 0.012211562285623463 0.044259096821914735 0.082501232625077497 -0.02568306744103745 0.12403398652409731 -0.051763777314531405 0.13065680175914177 0.11414991788244871 0.11672448062099937
leaf_weight=4.6142491698265067 7.7626782655715934 9.1162431240081769 3.4552199244499189 7.1144093275070182 14.769209206104277 57.387429893016815 13.473577737808226 121.62333476543427 5.4326593279838562 14.769501686096193 12.240952491760252
leaf_count=5 5 5 5 7 14 68 7 145 5 6 5
internal_value=-0.00202035 0.077669 -0.0233417 -0.0280104 -0.0310422 -0.00353962 0.100455 -0.0464573 0.0846105 0.118218 0.115317
internal_weight=271.759 57.363 214.397 205.509 200.894 72.1566 49.6003 128.738 8.88788 40.484 27.0105
internal_count=277 28 249 239 234 82 23 152 10 18 11
is_linear=0
shrinkage=0.05


Tree=5
num_leaves=21
num_cat=0
split_feature=128 0 1 46 87 44 28 62 83 129 78 98 48 95 17 58 34 11 123 78
split_gain=174.269 55.2798 62.155 64.449 54.7846 54.1316 36.2955 47.273 35.0857 22.707 22.7973 13.6709 18.5813 11.6167 11.1853 7.72951 5.60808 4.84363 0.43975 0.11111
threshold=1.2746703019469634 0.30810029417005125 0.026759484724807003 0.80780297188595573 -0.79348923410769567 0.39051278978655501 -0.16376317330961401 -0.18322572364580017 0.15034580218912671 1.0000000180025095e-35 -0.48800687373616386 -1.0819257319917408 -0.13377702438415215 0.81451707563058784 1.0345983857058429 0.14318087874910942 1.6631526446622191 0.90067473242660834 -0.66134659222567083 -0.30868088971692081
decision_type=2 2 2 2 2 2 2 2 2 2 2 2 2 2 2 2 2 2 2 2
left_child=1 6 9 5 -2 -4 7 13 -9 17 -11 12 -8 -1 18 -5 -13 -3 -6 -20
right_child=4 2 3 15 14 -7 11 8 -10 10 -12 16 -14 -15 -16 -17 -18 -19 19 -21
leaf_value=-0.06780024282189212 -0.025623031546539072 -0.070441599555554429 0.023032432836017618 -0.067972873323716779 0.12195922473877766 0.14298582521962108 0.073685708845029493 0.11253557723049934 -0.0039367349651352962 -0.07125978767354825 0.089514588940997647 -0.06874655325126254 -0.071995707715827834 0.024191803719641997 0.056118188332854847 0.019924054356030188 -0.0077623122224171615 -0.012042260018848602 0.11449156750390453 0.10774594256195123
leaf_weight=22.132685124874119 10.258047461509703 21.929685771465305 18.966318488121033 9.8924192786216718 12.542508602142329 18.65684562921524 4.3671183586120605 10.436985969543459 16.993537247180939 3.5174261927604675 5.9088935256004316 69.369486391544342 4.388177812099455 4.0615918040275565 10.568097472190855 3.3475715816020957 3.9864412546157828 4.2364497184753409 10.330753207206723 14.921940326690681
leaf_count=28 6 24 20 9 6 17 5 11 20 5 8 84 5 5 5 5 5 6 5 6
internal_value=0.00264604 -0.0175858 0.0136635 0.0491276 0.0793304 0.0825158 -0.0374897 -0.0054958 0.0403796 -0.0370162 0.0295217 -0.0583841 0.000669794 -0.0535363 0.101591 -0.0457492 -0.0654324 -0.0609864 0.114307 0.110506
internal_weight=280.813 222.192 86.4556 50.8632 58.6213 37.6232 135.736 53.6248 27.4305 35.5925 9.42632 82.1112 8.7553 26.1943 48.3633 13.24 73.3559 26.1661 37.7952 25.2527
internal_count=285 257 94 51 28 37 163 64 31 43 13 99 10 33 22 14 89 30 17 11
is_linear=0
shrinkage=0.05


Tree=6
num_leaves=21
num_cat=0
split_feature=128 0 1 55 20 28 16 45 8 43 129 68 47 67 35 127 34 16 12 74
split_gain=156.711 50.9409 55.8359 42.3517 38.3898 34.2376 45.0976 41.9273 31.0382 28.3438 21.0961 20.9294 14.206 25.9163 10.9676 5.56249 4.18531 2.17943 0.287446 0.0704058
threshold=1.2746703019469634 0.30810029417005125 0.026759484724807003 1.0000000180025095e-35 -0.65472894860615616 -0.16376317330961401 -0.20653203407735635 -0.18858481378629441 0.39076513520206418 -0.10320494443986573 1.0000000180025095e-35 -0.0082954159475116963 1.1431844321837445 0.34615676851590693 0.67461184773391969 -0.99649943785754247 -0.74504241944912786 1.5144150467335926 -0.027789535705173344 0.22962684636666689
decision_type=2 2 2 2 2 2 2 2 2 2 2 2 2 2 2 2 2 2 2 2
left_child=1 5 10 9 -2 6 15 -8 -5 -4 16 -12 17 -14 18 -1 -3 -7 19 -6
right_child=4 2 3 8 14 12 7 -9 -10 -11 11 -13 13 -15 -16 -17 -18 -19 -20 -21
leaf_value=0.0072851237975651824 -0.0043187196728945842 -0.017146170667849764 0.11631652791164222 -0.067183095632019005 0.10273518630975176 -0.06783978210040402 -0.054144706882712425 0.074680888725623243 0.072346731813676887 0.023664130572532489 0.08435469536684434 -0.07015500892024977 -0.066792745068953843 0.086161193741416689 0.047878186319233164 -0.066501447816420201 -0.069229420535787387 -0.027676060405349884 0.11502188688784687 0.10782492206303174
leaf_weight=2.9184871315956142 12.171376705169676 4.7383722662925747 20.151346504688263 11.1960825920105 14.98787999153137 64.755328297615051 9.0806936621665972 20.74355137348175 6.1888471841812125 13.981447398662565 6.0000640749931335 3.4530636668205243 6.9439093470573408 4.6067334413528442 9.6610646247863752 20.462876558303833 20.741409778594971 3.5635250210762015 9.7934906482696551 12.428977251052855
leaf_count=4 7 7 20 12 6 80 11 23 6 13 8 5 10 4 5 26 23 5 5 5
internal_value=0.00248735 -0.0169615 0.0129215 0.0460104 0.0747998 -0.0363747 -0.00530158 0.0354569 -0.017512 0.0783643 -0.0358767 0.027915 -0.0570743 -0.00579025 0.095345 -0.0572913 -0.0595437 -0.0657448 0.107669 0.105043
internal_weight=278.569 219.526 86.4506 51.5177 59.0428 133.075 53.2056 29.8242 17.3849 34.1328 34.9329 9.45313 79.8695 11.5506 46.8714 23.3814 25.4798 68.3189 37.2103 27.4169
internal_count=285 257 94 51 28 163 64 34 18 33 43 13 99 14 21 30 30 85 16 11
is_linear=0
shrinkage=0.05


Tree=7
num_leaves=19
num_cat=0
split_feature=128 0 1 46 87 44 28 62 16 11 118 129 65 15 58 47 10 1
split_gain=141.383 47.0011 50.2903 52.677 46.1823 41.732 32.3462 42.0311 35.9756 22.3174 13.6337 13.0576 10.6307 9.99532 7.05796 6.75343 0.328757 0.0578744
threshold=1.2746703019469634 0.30810029417005125 0.026759484724807003 0.80780297188595573 -0.79348923410769567 0.39051278978655501 -0.16376317330961401 -0.18322572364580017 -0.20653203407735635 1.4958937154197829 -1.2493758126808914 -1.0000000180025095e-35 1.2412986811696738 0.49947001577000782 0.14318087874910942 1.5944398216113782 0.76405695946399443 0.81840867600572342
decision_type=2 2 2 2 2 2 2 2 2 2 2 2 2 2 2 2 2 2
left_child=1 6 9 5 -2 -4 7 12 -9 11 -8 -3 -1 16 -5 -12 17 -6
right_child=4 2 3 14 13 -7 10 8 -10 -11 15 -13 -14 -15 -16 -17 -18 -19
leaf_value=-0.066472822023975989 -0.026064461739103574 -0.067961922864771998 0.019763096023088379 -0.066577597520563234 0.09795493488739937 0.12301631789602128 0.021812409068851457 -0.043151612027480329 0.077839651124446713 0.080686921213654478 -0.064620740176368638 0.0072468690689925551 0.020645337161608879 0.046879646914331941 0.017290969934745642 0.013699130761277829 0.11032587814698649 0.10252289119688403
leaf_weight=20.9352200627327 10.195610761642454 22.790861785411835 19.313736915588379 9.492522716522215 17.489177227020267 19.836989045143127 5.2658953666687003 9.2227870821952838 18.403500080108643 3.7272447347640982 69.465992569923401 7.7281618714332607 4.2051153779029837 10.218963503837584 3.4095689654350272 2.8660177588462821 9.8846309185028058 11.489086389541624
leaf_count=28 6 27 20 9 7 17 5 12 19 5 90 11 5 5 5 4 5 5
internal_value=0.00234319 -0.0163771 0.0122455 0.0432049 0.0707671 0.0720797 -0.0353247 -0.00512186 0.0374478 -0.0348116 -0.0558626 -0.0489172 -0.0519009 0.0908816 -0.0444141 -0.0615175 0.102452 0.099766
internal_weight=275.941 216.664 86.2991 52.0528 59.2775 39.1507 130.365 52.7666 27.6263 34.2463 77.5979 30.519 25.1403 49.0819 12.9021 72.332 38.8629 28.9783
internal_count=285 257 94 51 28 37 163 64 31 43 99 38 33 22 14 94 17 12
is_linear=0
shrinkage=0.05


Tree=8
num_leaves=16
num_cat=0
split_feature=128 0 1 122 46 72 14 34 12 32 26 7 46 74 125
split_gain=128.875 66.3771 47.0288 64.5576 57.6046 47.0311 21.8624 39.9424 32.5392 25.0521 18.2748 16.5375 9.11139 5.76077 0.0815534
threshold=2.3703844284974322 0.12267574403862684 0.026759484724807003 -1.0505115418824726 0.86366225927215601 -1.0967264980777613 -0.67866815448273399 1.3139227264776043 -1.0533314460434029 -0.3980971702002703 1.2516298271504578 1.1818136521239839 1.4145459922762487 1.5811529692529189 0.21996020632706742
decision_type=2 2 2 2 2 2 2 2 2 2 2 2 2 2 2
left_child=1 6 3 -3 5 -4 7 10 9 -8 -1 -5 -6 -10 -2
right_child=14 2 4 11 12 -7 8 -9 13 -11 -12 -13 -14 -15 -16
leaf_value=-0.052325413456979955 0.093851305253339068 0.089279712148006035 -0.041539358067675412 -0.063653841018102494 -0.066461616843989532 0.081425216555393476 0.10586792060711531 0.10309317021036878 -0.063461214582160197 -0.065836564435330425 0.068502847438563441 0.059612690798280368 0.022877065646476097 -0.0070821896791349072 0.099005901374000907
leaf_weight=19.098603457212455 19.907978057861328 9.9780942201614362 9.1976208686828596 34.3689244389534 11.97916805744171 50.316204160451889 5.56516432762146 7.1218119859695426 74.118240028619766 3.435844421386717 3.7426035404205313 2.9548827707767478 3.7465232610702506 4.8259267807006827 12.486305952072142
leaf_count=23 8 9 9 41 12 43 6 7 96 5 4 5 5 7 5
internal_value=0.0022166 -0.0103964 0.0153726 -0.023693 0.0399325 0.0624215 -0.037178 -0.000292132 -0.0497451 0.0403253 -0.0325273 -0.053895 -0.0451774 -0.0600147 0.0958381
internal_weight=272.844 240.45 122.541 47.3019 75.2395 59.5138 117.908 29.963 87.9452 9.00101 22.8412 37.3238 15.7257 78.9442 32.3943
internal_count=285 272 124 55 69 52 148 34 114 11 27 46 17 103 13
is_linear=0
shrinkage=0.05


Tree=9
num_leaves=19
num_cat=0
split_feature=2 0 10 16 14 3 3 103 28 6 12 102 49 123 15 38 65 37
split_gain=71.6357 78.9868 46.6957 45.8869 46.7333 41.0715 39.85 32.497 31.703 27.0106 26.2989 22.1736 0.0430741 0.0279814 0.0213491 0.015174 0.00746601 0.00397018
threshold=0.97279445301272116 0.094578469720009842 -0.59514061573429744 1.7779080495766504 -0.5813544559032312 0.10868590685960468 0.7453718208737502 0.10222660404945204 -0.5015112944828527 1.7797456707532053 -1.0533314460434029 0.10223537086801893 0.85682667498252807 0.43798572464343583 0.12794944967878399 0.064775252284158841 0.76967847066291772 1.0946117870033107
decision_type=2 2 2 2 2 2 2 2 2 2 2 2 2 2 2 2 2 2
left_child=1 3 7 4 5 -1 11 8 -3 -8 -6 -4 13 16 -9 -15 17 -2
right_child=12 2 6 -5 10 -7 9 14 -10 -11 -12 -13 -14 15 -16 -17 -18 -19
leaf_value=0.050819442568052778 -0.063271385535093913 0.09484024269762982 0.046676759703870599 0.10051508086223469 0.037099180760856124 -0.065410110337845745 -0.065017490345694762 -0.064196234060279869 -0.044048921496646826 0.077180923238505159 -0.062563409062138892 0.10070839090995667 -0.070312577952341512 -0.069568391404556049 -0.068079514986435039 -0.06553546302159112 -0.06605013618737085 -0.065225083531808795
leaf_weight=26.864625126123428 11.085740238428121 9.5379218161106127 39.800299227237701 7.5762736797332755 7.4340436458587638 10.599408030509947 9.8720158636569959 5.8156752288341513 7.2180503010749844 5.0467534065246573 60.399246424436569 36.311848610639572 5.2556317448616019 4.8426428437232953 9.0424672961235029 4.4994529485702515 4.557059794664382 3.3972591757774344
leaf_count=23 15 8 34 5 9 13 12 7 8 4 82 25 7 7 11 4 7 4
internal_value=0.00209982 0.0118482 0.0396265 -0.0183348 -0.0268862 0.0179355 0.057808 -0.012726 0.0350103 -0.0169143 -0.0516411 0.0724544 -0.0661547 -0.0653847 -0.0665595 -0.067626 -0.064285 -0.0637297
internal_weight=269.156 235.519 122.645 112.874 105.297 37.464 91.0309 31.6141 16.756 14.9188 67.8333 76.1121 33.6378 28.3822 14.8581 9.3421 19.0401 14.483
internal_count=285 241 109 132 127 36 75 34 16 16 91 59 44 37 18 11 26 19
is_linear=0
shrinkage=0.05


Tree=10
num_leaves=16
num_cat=0
split_feature=128 0 47 72 10 2 54 91 7 16 8 47 108 46 9
split_gain=86.7043 57.1626 54.0505 49.1373 53.1091 35.5313 33.2716 25.8543 18.6462 15.54 19.9745 8.98392 0.0888384 0.0450035 0.037857
threshold=2.3703844284974322 0.43541030708699746 1.064788046213015 -0.84521281712594121 -0.66523899752610449 1.0078955647716319 1.0390413072260389 -0.31705906325368344 0.88529981643252509 -0.20653203407735635 0.17845500022040919 0.38646783937741686 1.463926258215708 -0.1525340354444702 -0.48398149536743462
decision_type=2 2 2 2 2 2 2 2 2 2 2 2 2 2 2
left_child=1 2 9 11 8 7 -6 -4 -5 12 -11 13 -1 -3 -2
right_child=14 3 5 4 6 -7 -8 -9 -10 10 -12 -13 -14 -15 -16
leaf_value=-0.063758684886421155 0.08584676167583831 -0.071053272422093694 -0.023512543010582872 -0.065983868080410901 0.077555397143915156 -0.066217631433088106 -0.040326419201824032 0.10495205272595343 0.03823493058494716 -0.053957465759786744 0.0032112998285997903 0.013341816352367473 -0.07154915095837755 -0.065479386956924929 0.089610303938977579
leaf_weight=44.985812783241272 14.589005470275881 6.2206372618675241 5.3913253843784394 13.029883414506914 51.38524466753006 6.346201926469802 6.7749640345573416 14.318023681640623 6.3997256159782401 31.935204684734344 29.295038551092148 4.42409324645996 3.9834765791892996 8.6666181087493896 12.328072071075438
leaf_count=60 6 7 8 15 46 8 8 12 9 41 37 5 4 9 5
internal_value=0.00260312 -0.00720606 -0.0280841 0.0221511 0.0399141 0.0366798 0.0638236 0.0698117 -0.0316563 -0.0433969 -0.0266056 -0.0492175 -0.0643924 -0.0678084 0.0875705
internal_weight=260.073 233.156 136.255 96.9012 77.5898 26.0556 58.1602 19.7093 19.4296 110.2 61.2302 19.3113 48.9693 14.8873 26.9171
internal_count=280 269 170 99 78 28 54 20 24 142 78 21 64 16 11
is_linear=0
shrinkage=0.05


Tree=11
num_leaves=15
num_cat=0
split_feature=128 0 72 10 2 19 104 12 74 59 89 66 34 125
split_gain=79.4851 52.398 44.6843 47.5073 31.2704 27.299 37.7633 29.5846 50.3744 19.2171 13.6228 10.8609 0.050021 0.0271742
threshold=2.3703844284974322 0.43541030708699746 -0.84521281712594121 -0.66523899752610449 1.1759765227216283 1.4421121766596026 -0.28373842814545197 -1.2267691731934225 0.085620519955347724 1.2227049191194099 1.0000000180025095e-35 1.0574973814357354 -0.65389996325871225 -0.11996667564507742
decision_type=2 2 2 2 2 2 2 2 2 2 2 2 2 2
left_child=1 5 11 10 -5 7 -7 8 -1 -9 -4 12 -3 -2
right_child=13 2 3 4 -6 6 -8 9 -10 -11 -12 -13 -14 -15
leaf_value=0.1137073027095972 0.082948278962093433 -0.070472126333298885 0.02026190275760115 0.07071962852567934 -0.066451271176339519 0.12067817942467361 -0.063132518777325161 -0.051142091924060412 -0.070583270143855598 0.014870327616394691 -0.06577614154025016 0.027410475776581872 -0.064626689217676989 0.086159395480203863
leaf_weight=8.3150039315223676 14.362020254135134 6.3017557859420785 7.7659528255462673 54.076263040304184 4.5005908012390128 6.8857125043869019 4.7026209235191327 94.497368931770325 6.6925294101238242 12.481100171804426 11.287895381450651 3.8126813769340506 8.7296408414840698 12.172555923461912
leaf_count=8 6 7 11 48 6 6 7 126 9 14 13 5 9 5
internal_value=0.00248011 -0.00697124 0.0211071 0.0378724 0.0601805 -0.027251 0.0460866 -0.0342179 0.0315239 -0.0434405 -0.0307088 -0.0479598 -0.0670773 0.0844214
internal_weight=256.584 230.049 96.4748 77.6307 58.5769 133.574 11.5883 121.986 15.0075 106.978 19.0538 18.8441 15.0314 26.5346
internal_count=280 269 99 78 54 170 13 157 17 140 24 21 16 11
is_linear=0
shrinkage=0.05


Tree=12
num_leaves=15
num_cat=0
split_feature=128 107 0 47 72 1 63 4 70 24 55 51 0 9
split_gain=73.0866 56.0449 43.5808 47.3525 38.8359 36.0396 22.8824 21.4253 6.59017 6.14058 0.103221 0.0350801 0.026233 0.0230826
threshold=2.3703844284974322 0.84227138180697048 0.53402101445755512 1.064788046213015 -0.74873094788860461 0.026759484724807003 0.36639322391049162 1.5588482015776817 0.89978115213186816 0.28139383334972207 -0.74940575232791362 1.2761454261122351 0.74497894402971288 -0.48398149536743462
decision_type=2 2 2 2 2 2 2 2 2 2 2 2 2 2
left_child=1 2 3 7 9 -6 -5 -1 10 -4 11 -3 -12 -2
right_child=13 8 4 6 5 -7 -8 -9 -10 -11 12 -13 -14 -15
leaf_value=-0.042675556034845144 0.080263633969389833 -0.067893386542330722 -0.066303059073952605 0.076522286137316292 -0.0050528173121959161 0.073603154856465208 -0.031527575544230697 0.0443867662846755 0.0023475188145620635 0.010382737151699259 -0.063503393602758251 -0.07447105544503041 -0.066959439036695892 0.083248370703646837
leaf_weight=73.578798085451126 14.089635848999025 4.7664301395416242 9.626361668109892 17.129309475421909 21.459506064653397 45.31678095459938 6.863258332014083 7.8173195719718924 3.9222804605960837 3.5817793011665335 21.890203386545185 3.5268998742103577 7.3290840387344351 11.989731788635252
leaf_count=102 6 6 10 16 27 36 8 8 7 5 30 4 10 5
internal_value=0.00236637 -0.00674838 0.00500245 -0.0161178 0.0328309 0.0483259 0.0456138 -0.0343141 -0.0593197 -0.0455074 -0.0657676 -0.0706907 -0.0643703 0.0816358
internal_weight=252.887 226.808 185.373 105.389 79.9844 66.7763 23.9926 81.3961 41.4349 13.2081 37.5126 8.29333 29.2193 26.0794
internal_count=280 269 212 134 78 63 24 110 57 15 50 10 40 11
is_linear=0
shrinkage=0.05


Tree=13
num_leaves=16
num_cat=0
split_feature=128 107 3 0 40 106 49 95 76 50 10 52 85 9 0
split_gain=67.3672 52.2974 39.8753 41.4275 36.3478 29.4149 28.0483 26.0777 16.8314 2.88391 5.12078 0.0625688 0.035376 0.0180237 0.0122636
threshold=2.3703844284974322 0.84227138180697048 0.3322700884901883 -0.95723927009997323 -0.11242334603060397 -0.77717350852726541 1.1723628046099761 0.67912089492523686 -0.81219138970384941 -1.3284451139464377 0.39721349715621523 0.58929391250554886 -0.22513282502130449 -0.48398149536743462 0.58784970749296361
decision_type=2 2 2 2 2 2 2 2 2 2 2 2 2 2 2
left_child=1 2 3 8 -5 7 -7 -4 -1 10 -3 14 -13 -2 -11
right_child=13 9 5 4 -6 6 -8 -9 -10 11 -12 12 -14 -15 -16
leaf_value=0.048253956729930915 0.077930140034654913 -0.065813864909672989 0.1001909660253217 0.066319662523300779 0.0051042653235809044 -0.059813097318752943 0.072467394026866569 -0.063020921500715699 -0.049424574142057219 -0.062038971479892936 0.019153574061107983 -0.07082257106314209 -0.065288304109884801 0.08059373363532546 -0.064759800325815728
leaf_weight=5.4012562930583981 13.793426036834719 4.1704177856445304 7.1373654603958112 49.30907991528511 47.713854551315308 41.96474814414978 4.4303981959819785 3.7245558500289917 24.036564588546753 14.642492711544039 3.0849887728691101 4.5409417152404785 7.9304136335849744 11.770922183990477 5.7748039662837973
leaf_count=8 6 5 6 48 48 57 6 5 34 23 5 5 11 5 8
internal_value=0.00226196 -0.00651917 0.00477762 0.0204517 0.0362152 -0.029841 -0.0471813 0.0442256 -0.0315025 -0.0582185 -0.0296858 -0.064513 -0.0673034 0.0791566 -0.0628085
internal_weight=249.426 223.862 183.718 126.461 97.0229 57.2571 46.3951 10.8619 29.4378 40.1441 7.25541 32.8887 12.4714 25.5643 20.4173
internal_count=280 269 212 138 96 74 63 11 42 57 10 47 16 11 31
is_linear=0
shrinkage=0.05


Tree=14
num_leaves=18
num_cat=0
split_feature=2 0 47 3 72 5 109 90 35 43 87 36 125 59 101 49 91
split_gain=52.2027 45.956 47.9132 40.9155 37.8627 29.764 28.4854 27.4675 18.1451 15.9501 20.7377 15.4129 7.65299 1.50629 0.049467 0.0268431 0.00354491
threshold=0.97279445301272116 0.53402101445755512 1.064788046213015 -0.93368735744439768 -0.84521281712594121 -1.0889122234562125 -0.39355435934552369 1.3846188054584161 -0.25554848320580492 -0.011761587918065369 -0.23264146159200411 -0.71774427037760224 1.5551567341448427 0.35756160039717944 1.3383670689741909 1.246601050570437 -0.82703798164871112
decision_type=2 2 2 2 2 2 2 2 2 2 2 2 2 2 2 2 2
left_child=1 2 3 6 13 8 -1 -7 -6 10 -4 -5 14 -3 15 16 -2
right_child=12 4 9 11 5 7 -8 -9 -10 -11 -12 -13 -14 -15 -16 -17 -18
leaf_value=-0.04907964101121056 -0.062682691499375151 -0.066436470025672309 0.075162408795483499 -0.0027283221206053782 0.056114842390518054 0.072722118455228524 0.062072115182181281 -0.029939256914726577 -0.067052867118933684 0.10008093586117371 -0.063955221710015261 -0.057123793932454647 0.023296289637677339 -0.025685732910321869 -0.067834945963850882 -0.066618627633533267 -0.061286789785845258
leaf_weight=8.2958010733127612 6.2681853473186555 6.8387618064880353 6.1758619248867035 17.172911882400513 4.772380828857421 62.197592258453369 18.887318223714828 7.2778392732143393 8.0075757503509504 11.035597681999205 4.7307396233081835 53.88433176279068 2.7956868708133689 3.3926101326942444 4.7063283324241629 3.1136526465415946 16.574621826410297
leaf_count=11 9 8 6 23 4 50 16 9 8 9 7 75 4 4 7 5 25
internal_value=0.0021564 0.0112899 -0.00909965 -0.0240198 0.0377852 0.0490681 0.0281506 0.0619679 -0.0210587 0.0577011 0.0148201 -0.0439777 -0.0558981 -0.052924 -0.0631186 -0.0622635 -0.0616698
internal_weight=246.128 212.669 120.183 98.2404 92.4868 82.2554 27.1831 69.4754 12.78 21.9422 10.9066 71.0572 33.4585 10.2314 30.6628 25.9565 22.8428
internal_count=280 230 147 125 83 71 27 59 12 22 13 98 50 12 46 39 34
is_linear=0
shrinkage=0.05


end of trees

feature_importances:
Column_0=15
Column_128=14
Column_16=10
Column_47=8
Column_1=7
Column_3=7
Column_2=6
Column_10=6
Column_46=6
Column_12=5
Column_72=5
Column_4=4
Column_9=4
Column_28=4
Column_34=4
Column_49=4
Column_125=4
Column_5=3
Column_8=3
Column_14=3
Column_26=3
Column_59=3
Column_62=3
Column_68=3
Column_74=3
Column_87=3
Column_89=3
Column_95=3
Column_115=3
Column_123=3
Column_129=3
Column_6=2
Column_7=2
Column_11=2
Column_15=2
Column_20=2
Column_35=2
Column_40=2
Column_43=2
Column_44=2
Column_45=2
Column_51=2
Column_54=2
Column_55=2
Column_58=2
Column_61=2
Column_63=2
Column_65=2
Column_66=2
Column_69=2
Column_78=2
Column_84=2
Column_85=2
Column_91=2
Column_107=2
Column_109=2
Column_17=1
Column_19=1
Column_24=1
Column_29=1
Column_30=1
Column_32=1
Column_36=1
Column_37=1
Column_38=1
Column_48=1
Column_50=1
Column_52=1
Column_53=1
Column_56=1
Column_60=1
Column_67=1
Column_70=1
Column_76=1
Column_83=1
Column_88=1
Column_90=1
Column_98=1
Column_101=1
Column_102=1
Column_103=1
Column_104=1
Column_106=1
Column_108=1
Column_118=1
Column_122=1
Column_127=1

parameters:
[boosting: gbdt]
[objective: binary]
[metric: auc]
[tree_learner: serial]
[device_type: cpu]
[data_sample_strategy: bagging]
[data: ]
[valid: ]
[num_iterations: 100]
[learning_rate: 0.05]
[num_leaves: 31]
[num_threads: 0]
[seed: 0]
[deterministic: 0]
[force_col_wise: 0]
[force_row_wise: 0]
[histogram_pool_size: -1]
[max_depth: 5]
[min_data_in_leaf: 5]
[min_sum_hessian_in_leaf: 0.001]
[bagging_fraction: 0.8]
[pos_bagging_fraction: 1]
[neg_bagging_fraction: 1]
[bagging_freq: 5]
[bagging_seed: 3]
[bagging_by_query: 0]
[feature_fraction: 0.8]
[feature_fraction_bynode: 1]
[feature_fraction_seed: 2]
[extra_trees: 0]
[extra_seed: 6]
[early_stopping_round: 0]
[early_stopping_min_delta: 0]
[first_metric_only: 0]
[max_delta_step: 0]
[lambda_l1: 0]
[lambda_l2: 0]
[linear_lambda: 0]
[min_gain_to_split: 0]
[drop_rate: 0.1]
[max_drop: 50]
[skip_drop: 0.5]
[xgboost_dart_mode: 0]
[uniform_drop: 0]
[drop_seed: 4]
[top_rate: 0.2]
[other_rate: 0.1]
[min_data_per_group: 100]
[max_cat_threshold: 32]
[cat_l2: 10]
[cat_smooth: 10]
[max_cat_to_onehot: 4]
[top_k: 20]
[monotone_constraints: ]
[monotone_constraints_method: basic]
[monotone_penalty: 0]
[feature_contri: ]
[forcedsplits_filename: ]
[refit_decay_rate: 0.9]
[cegb_tradeoff: 1]
[cegb_penalty_split: 0]
[cegb_penalty_feature_lazy: ]
[cegb_penalty_feature_coupled: ]
[path_smooth: 0]
[interaction_constraints: ]
[verbosity: -1]
[saved_feature_importance_type: 0]
[use_quantized_grad: 0]
[num_grad_quant_bins: 4]
[quant_train_renew_leaf: 0]
[stochastic_rounding: 1]
[linear_tree: 0]
[max_bin: 255]
[max_bin_by_feature: ]
[min_data_in_bin: 3]
[bin_construct_sample_cnt: 200000]
[data_random_seed: 1]
[is_enable_sparse: 1]
[enable_bundle: 1]
[use_missing: 1]
[zero_as_missing: 0]
[feature_pre_filter: 1]
[pre_partition: 0]
[two_round: 0]
[header: 0]
[label_column: ]
[weight_column: ]
[group_column: ]
[ignore_column: ]
[categorical_feature: ]
[forcedbins_filename: ]
[precise_float_parser: 0]
[parser_config_file: ]
[objective_seed: 5]
[num_class: 1]
[is_unbalance: 0]
[scale_pos_weight: 1]
[sigmoid: 1]
[boost_from_average: 1]
[reg_sqrt: 0]
[alpha: 0.9]
[fair_c: 1]
[poisson_max_delta_step: 0.7]
[tweedie_variance_power: 1.5]
[lambdarank_truncation_level: 30]
[lambdarank_norm: 1]
[label_gain: ]
[lambdarank_position_bias_regularization: 0]
[eval_at: ]
[multi_error_top_k: 1]
[auc_mu_weights: ]
[num_machines: 1]
[local_listen_port: 12400]
[time_out: 120]
[machine_list_filename: ]
[machines: ]
[gpu_platform_id: -1]
[gpu_device_id: -1]
[gpu_use_dp: 0]
[num_gpu: 1]

end of parameters

pandas_categorical:null
