tree
version=v4
num_class=1
num_tree_per_iteration=1
label_index=0
max_feature_idx=136
objective=binary sigmoid:1
feature_names=Column_0 Column_1 Column_2 Column_3 Column_4 Column_5 Column_6 Column_7 Column_8 Column_9 Column_10 Column_11 Column_12 Column_13 Column_14 Column_15 Column_16 Column_17 Column_18 Column_19 Column_20 Column_21 Column_22 Column_23 Column_24 Column_25 Column_26 Column_27 Column_28 Column_29 Column_30 Column_31 Column_32 Column_33 Column_34 Column_35 Column_36 Column_37 Column_38 Column_39 Column_40 Column_41 Column_42 Column_43 Column_44 Column_45 Column_46 Column_47 Column_48 Column_49 Column_50 Column_51 Column_52 Column_53 Column_54 Column_55 Column_56 Column_57 Column_58 Column_59 Column_60 Column_61 Column_62 Column_63 Column_64 Column_65 Column_66 Column_67 Column_68 Column_69 Column_70 Column_71 Column_72 Column_73 Column_74 Column_75 Column_76 Column_77 Column_78 Column_79 Column_80 Column_81 Column_82 Column_83 Column_84 Column_85 Column_86 Column_87 Column_88 Column_89 Column_90 Column_91 Column_92 Column_93 Column_94 Column_95 Column_96 Column_97 Column_98 Column_99 Column_100 Column_101 Column_102 Column_103 Column_104 Column_105 Column_106 Column_107 Column_108 Column_109 Column_110 Column_111 Column_112 Column_113 Column_114 Column_115 Column_116 Column_117 Column_118 Column_119 Column_120 Column_121 Column_122 Column_123 Column_124 Column_125 Column_126 Column_127 Column_128 Column_129 Column_130 Column_131 Column_132 Column_133 Column_134 Column_135 Column_136
feature_infos=[-1.9937241348737682:2.4618244600623327] [-2.2094092986249079:2.2724459041834213] [-2.1030867095017092:2.8900031935842208] [-2.6002333508002389:3.3248037432429824] [-2.3278055323906686:2.801112193054581] [-2.6358968149964421:2.3646951949750941] [-2.6359831795264665:2.9697162444728367] [-3.4186680795127424:2.5295726772754814] [-2.5977361406488439:3.7750415525067833] [-2.9588436959098505:2.981206650687263] [-2.7021488993229572:3.0196535492494956] [-3.0745192443247067:2.914616646564701] [-2.7313785666147092:3.2993305654101963] [-3.3231940601018564:2.8670294341819482] [-3.1201104678017133:3.6095500399658276] [-3.0021412935919112:2.9310225692606044] [-2.7273509791215509:3.2128967085526607] [-3.1005200913512185:2.7392346783480916] [-2.7916165475721377:2.8817570022222965] [-2.5772791834276418:3.3272203593079586] [-2.4479407240809987:2.8947678440673985] [-3.3002387998287306:2.4589918994136357] [-3.3632539564050838:4.3414134899250278] [-2.9503537138884539:3.645189426494726] [-3.0207142407568215:4.4532212326544096] [-3.0610701203003479:3.5247419517892702] [-2.6986366953336463:2.7305954896077163] [-3.5493582249070887:3.9377632595279137] [-3.2563849043741904:2.4335269540241469] [-2.4053039026557315:2.8603705921607179] [-2.712779258718613:3.2360573092369913] [-2.3129370435555239:2.8030871629895557] [-2.6601968080033109:3.1328277397066118] [-2.6610666420390792:2.6793685377460283] [-2.7172354724182837:2.7061241527772184] [-2.4184262899932576:3.3010980173237412] [-2.9390073498876039:3.1033292476862462] [-3.1712710407497311:3.1030522025443985] [-3.0300620612768054:2.9408365293321319] [-3.0206463059149211:3.3864873911286213] [-2.7075233061345707:2.9909580315712661] [-2.6544779262292546:3.7152265872827832] [-2.6431295541419901:3.188628447405264] [-3.1673356946453497:3.2010417187824838] [-2.9954716945271591:3.1332262236800044] [-2.8110241908096634:3.2055200044744887] [-3.0748589216934183:2.7381597032083391] [-2.3815134862700869:3.4647748501388298] [-3.5349220164301078:2.9501053860602346] [-2.5304142923342758:4.1477733264252468] [-3.2363540603224412:4.2063012415855443] [-2.9361459464270143:2.7512360851398854] [-2.6783971535848465:4.5778983551660533] [-2.5955958003077031:3.3823541347368451] [-2.6759308684122587:4.0852060573842941] [-2.9059485866621375:3.572439377299756] [-2.8561428004457383:3.4460521022054422] [-2.7800094593406359:3.1121222212163135] [-2.4853083073053481:3.5824605323036605] [-2.7839413595918798:2.8163791255505353] [-2.9357750561095859:3.013486190457026] [-2.5207013168412611:3.1482731310509684] [-2.3258637845566041:2.8472073000138054] [-3.6880644831104119:3.5694707564457953] [-2.7762440848204113:3.0003093168291826] [-2.6733794626753107:4.1988088843778133] [-2.554300493362891:2.8546225762745476] [-2.4476429459285542:4.2027579539459543] [-2.7650522477005279:3.1297221080314879] [-3.2486212736706146:3.5063104269479908] [-2.8114519003211975:3.1536567399077113] [-2.8210116816465254:3.4093716761356552] [-2.7503636507963796:2.6978519490538675] [-2.6614491260741531:4.3463960430954671] [-2.9615566067974459:3.3410747951019184] [-2.7527313416217507:5.1345777689959036] [-3.2407308301096287:3.5480439233586334] [-2.3815949105824563:3.3640004158531078] [-2.9891090570721413:2.4828666471850749] [-2.9850468281848865:4.2529552641727344] [-2.4965352768311484:3.6074322795797569] [-2.4490507045907606:3.5278025708046856] [-2.9524604542760136:4.0587635322951874] [-3.4051185585671049:3.4815066335606724] [-3.0515040953184385:4.0965089066652105] [-2.8382789312413461:3.116806638811898] [-2.7444528483390509:2.9929908451195129] [-2.6263824286992916:2.5603230862700839] [-2.3855776071881682:3.1154065235150616] [-2.6539518562469291:2.6924079118660975] [-2.868511514936126:3.0403527798463079] [-2.9861825380640425:3.0941593080890204] [-3.033435230527576:2.7303782634517195] [-2.8287679079324546:3.2638675767573111] [-2.6877671605093778:3.5977007374400221] [-3.0998738674225184:3.2195663314763827] [-2.7347528723953181:2.9720373015311514] [-2.50304986769684:3.1687291383801615] [-2.7827868110794509:3.5960369310250599] [-2.6888807484024886:2.5928163234520354] [-2.7129599757720348:3.0429077964224676] [-2.9912876152445653:3.3950523228701397] [-3.0689070792367352:3.9036587721691696] [-2.8373107671269784:3.8150406327500641] [-2.51996389879052:3.1474098519338765] [-2.6033170770865079:3.3987143672860811] [-3.0960319226649915:3.3734940902425925] [-2.3188513399774644:3.108555476020626] [-2.990813114073581:3.4519427806453162] [-3.328785938187099:3.44830904524007] [-3.2675302079685551:3.8130640002092808] [-2.7933121070192981:3.2310670709801554] [-3.0484026577132122:3.1779161382420131] [-3.4103615138563503:4.0292534578886245] [-2.8002399715266768:3.6601575731545428] [-3.1938679127045075:5.135195887834386] [-2.5496529352023698:3.3636678825320563] [-2.6753755266050816:2.9583854065986293] [-2.9692242157992945:3.3121582532070013] [-3.1319179691254022:3.5636122030026383] [-2.8403166788706624:2.907960030284646] [-3.5111421164512384:3.1913083623869767] [-3.1058417652244947:2.6998614353386881] [-3.0714433786839157:3.1442232358298856] [-2.5427603317277443:3.2644301778920526] [-3.0839900672976088:3.6202293868832238] [-2.8378539492643653:2.8524147204601449] [-2.7833378792546841:3.2566151506588774] [-0.9822226415419697:2.4969245120840147] [-0.75955452531274892:1.3165611772087649] [-0.72987004348297091:1.3701069237311911] [-0.30550504633038988:3.2732683535398914] [-0.30550504633038988:3.2732683535398914] [-0.1773317255329768:5.6391488719486622] none [-0.21115394209236593:4.7358812726430637] [-0.17733172553297716:5.6391488719486729]
tree_sizes=1451 1806 2223 2101 1602 2017 1904 1912 1899 2119 2039 2032 2042 2124 2039 2229 2018

Tree=0
num_leaves=13
num_cat=0
split_feature=1 46 51 33 75 2 52 101 85 27 23 1
split_gain=140.565 95.2146 99.0412 53.0114 45.309 40.4378 59.9667 64.777 32.5046 31.8491 17.9469 2.84217e-14
threshold=0.99522589226424774 0.27193943878139748 -0.07934589691863253 0.32196846028818699 -1.8381254241338134 -0.58831147457552169 -0.28489453969600642 0.44598214650648443 1.8326529429415177 -1.056744730195742 -2.1755731402316454 1.2224598545441256
decision_type=2 2 2 2 2 2 2 2 2 2 2 2
left_child=4 3 -3 11 -1 6 7 -6 10 -8 -7 -2
right_child=1 2 -4 -5 5 8 9 -9 -10 -11 -12 -13
leaf_value=-1.1479817657135993 -1.0262973215202915 -1.0758402729816501 -1.315297879320307 -1.1923189195762263 -1.2332842087135572 -1.2022107061031375 -1.1757803683714756 -1.0262973212027655 -1.1954683794321721 -1.3152978791516998 -1.3105859136418976 -1.0262973188133839
leaf_weight=6.5743819475173941 4.8442814350128192 6.0553517937660244 15.051874458789824 8.1314724087715131 12.802743792533876 3.9792311787605277 5.0172914862632778 5.3633115887641898 7.0934121012687674 22.145286560058594 95.501548290252686 6.9204020500183105
leaf_count=9 5 7 16 9 16 6 7 8 9 32 130 8
internal_value=-1.25514 -1.17263 -1.2466 -1.09415 -1.27649 -1.28205 -1.2425 -1.17217 -1.29888 -1.28953 -1.30625 -1.0263
internal_weight=199.481 41.0034 21.1072 19.8962 158.477 151.903 45.3286 18.1661 106.574 27.1626 99.4808 11.7647
internal_count=262 45 23 22 217 208 63 24 145 39 136 13
is_linear=0
shrinkage=1


Tree=1
num_leaves=16
num_cat=0
split_feature=1 46 51 52 92 2 96 33 61 54 27 28 85 66 17
split_gain=123.147 75.4339 84.0858 43.0855 55.8713 55.4177 52.7551 37.7502 35.2903 11.9491 7.59311 19.1276 0.00199157 8.52651e-14 1.06581e-14
threshold=0.99522589226424774 0.27193943878139748 -0.07934589691863253 0.15284840788528284 1.1352807397616254 -0.78325921485475691 0.18945212159219219 0.32196846028818699 -1.4609334790222575 1.8789431301805801 -1.2559598342634695 -0.18504609343471837 1.8326529429415177 -0.22152044262107914 -0.7506814904021516
decision_type=2 2 2 2 2 2 2 2 2 2 2 2 2 2 2
left_child=3 7 -3 4 5 6 -1 13 -7 10 11 -5 -12 -2 -4
right_child=1 2 14 9 -6 8 -8 -9 -10 -11 12 -13 -14 -15 -16
leaf_value=0.1668154841246145 0.18953567834836565 0.15142165796169682 -0.063419719712430933 0.077892617238584483 0.13229596525901671 0.10754243972309661 -0.019357288573496445 0.053935428853768896 -0.045304895633076124 0.02931563991940386 -0.06347919464957022 -0.06464305250518787 -0.064767786987563594 0.18953567182951717 -0.063419717659135302
leaf_weight=7.5124282836914045 9.3221168518066388 6.6369996666908291 5.0047920942306527 3.5060539841651917 7.3366608619689933 4.0597046017646781 7.7107740044593811 8.3955118060111982 54.118069469928741 4.2812087535858145 57.36329597234726 7.161302447319029 3.1638872623443595 3.8842155933380154 9.5091051459312403
leaf_count=11 9 7 5 6 9 5 10 9 79 5 79 9 4 4 11
internal_value=-0.00407556 0.071116 0.00399596 -0.0246541 0.000734693 -0.0124153 0.0725163 0.136835 -0.0346391 -0.0518129 -0.0566915 -0.0177957 -0.0635466 0.189536 -0.0634197
internal_weight=198.966 42.7527 21.1509 156.213 80.7376 73.401 15.2232 21.6018 58.1778 75.4757 71.1945 10.6674 60.5272 13.2063 14.5139
internal_count=262 45 23 217 114 105 21 22 84 103 98 15 83 13 16
is_linear=0
shrinkage=0.05


Tree=2
num_leaves=20
num_cat=0
split_feature=1 127 105 52 33 50 106 104 47 84 115 27 34 20 69 60 91 32 20
split_gain=109.013 52.4221 64.9153 40.564 51.7214 66.9548 56.8618 35.0121 26.2415 38.026 14.8486 12.3138 9.00349 7.74562 4.70194 3.80767 0.319189 0.0105526 0.00165917
threshold=0.99522589226424774 0.024320597847536058 -0.72730180649145415 0.15284840788528284 0.15380480942543537 -0.45056530136019007 -0.51830194197536994 -0.32791469003213769 -1.2209880383038001 0.96688064721679534 1.3081453317440235 -1.6053516857885965 -0.51665841451420269 -1.3955214063271406 1.7774234819771519 -0.37167688031656465 0.054374980068173852 0.32596316214372723 0.087471048906632279
decision_type=2 2 2 2 2 2 2 2 2 2 2 2 2 2 2 2 2 2 2
left_child=3 2 -2 4 8 18 -7 -3 9 -1 -10 -5 -4 -13 -15 -9 -17 -14 -6
right_child=1 7 12 11 5 6 -8 15 10 -11 -12 13 17 14 -16 16 -18 -19 -20
leaf_value=-0.035032968428469362 0.17040644614158609 0.022224085907740845 0.01689078606970602 0.025086299312444812 -0.064272672083374269 -0.040534328986152307 0.12992003355888049 0.11828934037181374 -0.063401240156886224 0.19086681351199306 0.054642835665347868 0.024554774741753289 -0.065655061600794637 -0.062857178171494277 -0.00037710158528973136 0.18223340013375255 0.16544389467605503 -0.062595066288139795 -0.062907695279897383
leaf_weight=5.2230630218982679 4.7676454782485989 6.8137941956520107 4.9374179244041487 4.9836579561233512 3.2618533074855787 6.5220241546630886 19.584224671125412 4.5268208980560365 33.239616960287094 2.895696759223938 2.8961321115493766 2.8369806408882132 5.3539955615997279 62.249605625867844 3.1642251610755912 4.7719405293464607 6.9591056704521179 5.946919322013855 7.0124261975288391
leaf_count=9 5 8 5 8 6 9 26 5 47 3 5 5 5 85 5 5 6 6 9
internal_value=-0.00398922 0.0653375 0.00819146 -0.0238486 0.000617183 0.0447831 0.0873361 0.117367 -0.0356905 0.0455381 -0.0539405 -0.0507868 -0.0394356 -0.056327 -0.0598349 0.157242 0.172274 -0.0640448 -0.063341
internal_weight=197.947 44.0776 21.006 153.87 80.635 36.3805 26.1062 23.0717 44.2545 8.11876 36.1357 73.2345 16.2383 68.2508 65.4138 16.2579 11.731 11.3009 10.2743
internal_count=262 45 21 217 114 50 35 24 64 12 52 103 16 95 90 16 11 11 15
is_linear=0
shrinkage=0.05


Tree=3
num_leaves=19
num_cat=0
split_feature=1 46 27 45 15 81 6 113 19 115 2 9 83 44 71 72 119 45
split_gain=97.1518 53.2509 42.7115 38.4328 47.2585 43.709 39.0059 32.2971 47.3044 27.4908 16.1843 11.2204 10.4117 4.40723 4.3227 1.12338 0.00659241 0.00174118
threshold=0.99522589226424774 0.27193943878139748 -0.9816711363553402 0.9262849405568333 -0.011306624116015948 0.13250357065617147 2.1690292082984262 1.2069065353517783 -0.46780124215116664 -0.62484727654622507 -0.60301544539837559 0.77855797355652956 0.50204740909107926 -0.22749418676273422 -0.51439196444242297 0.17271453808425599 0.12073392426470918 1.224718722578493
decision_type=2 2 2 2 2 2 2 2 2 2 2 2 2 2 2 2 2 2
left_child=3 9 -3 6 12 13 7 10 -9 -2 -1 16 17 -6 -11 -16 -4 -5
right_child=1 2 11 4 5 -7 -8 8 -10 14 -12 -13 -14 -15 15 -17 -18 -19
leaf_value=-0.020402717764134798 0.026526360545744684 0.12423981211067517 -0.062181561399493705 -0.063296034092812925 0.1196247931335899 -0.02526512997156893 0.11923766846618121 -0.061985271359129401 0.12710541302468645 0.10010793427679343 -0.062486563367248962 0.034291938503593321 0.049365553982372669 0.18724666931568529 0.14846136818849842 0.17911496370050817 -0.064654836141242622 -0.061950016591272486
leaf_weight=33.222814708948135 6.8043161034584072 5.3926773667335537 7.7109004855155927 3.798270136117937 4.7491387426853171 5.2592988908290854 3.9643807411193839 6.5503981709480286 6.680921256542204 4.0419989824295106 73.140562176704407 3.9464806318283072 2.6072369217872611 4.8910416364669791 8.4874469041824288 4.6135133504867545 4.1412556171417236 6.538584291934967
leaf_count=47 7 5 8 6 5 9 4 9 8 3 110 5 5 5 7 5 5 9
internal_value=-0.0039094 0.0604721 0.0027412 -0.0231039 0.0299637 0.0906789 -0.0350624 -0.0401772 0.0334927 0.111559 -0.0493416 -0.0387309 -0.0399235 0.153933 0.14531 0.159256 -0.0630457 -0.0624446
internal_weight=196.541 45.1386 21.1913 151.403 27.8436 14.8995 123.559 119.595 13.2313 23.9473 106.363 15.7986 12.9441 9.64018 17.143 13.101 11.8522 10.3369
internal_count=262 45 23 217 39 19 178 174 17 22 157 18 20 10 15 12 13 15
is_linear=0
shrinkage=0.05


Tree=4
num_leaves=14
num_cat=0
split_feature=2 26 49 10 69 101 67 72 2 73 93 126 128
split_gain=54.8459 58.4996 50.2901 41.1642 48.9461 31.1791 48.8872 30.0288 23.9738 10.6928 0.0188187 0.00335326 0.00114128
threshold=0.82559044263699788 0.78283944761706237 1.3082876478512435 0.96246863976733799 -0.781954194154593 -1.4388951506412895 0.42653535549700472 0.77793423303488229 -0.78325921485475691 1.6580965070016749 1.961879838708027 1.5986169370022461 -0.63430792617937115
decision_type=2 2 2 2 2 2 2 2 2 2 2 2 2
left_child=1 2 5 4 -3 6 -1 -6 -7 10 11 12 -2
right_child=9 3 -4 -5 7 8 -8 -9 -10 -11 -12 -13 -14
leaf_value=0.13650576633258862 -0.062042460887144671 -0.033598268992206741 0.11286074289032043 -0.062306322662865114 0.14264852713982021 0.015553419622518784 -0.062136196211117524 -0.019532726057126235 -0.04081809298427385 0.039341521799710594 -0.065479729110195659 -0.063174310580632095 -0.061370940582117388
leaf_weight=7.730212450027464 8.8771444559097272 6.5401874780654934 8.1188465058803541 5.3642859756946555 20.934976577758793 25.680813938379288 5.1681771874427795 3.3046948611736289 71.01859176158905 2.787423610687255 3.7102152407169333 3.6097286641597739 22.027127683162693
leaf_count=9 19 8 9 7 19 38 6 6 100 4 5 6 26
internal_value=-0.00382361 0.00987122 -0.00721251 0.0655106 0.0877865 -0.0161074 0.0569131 0.120538 -0.0258473 -0.0552016 -0.062096 -0.0617323 -0.0615638
internal_weight=194.872 153.861 117.717 36.1441 30.7799 109.598 12.8984 24.2397 96.6994 41.0116 38.2242 34.514 30.9043
internal_count=262 202 162 40 33 153 15 25 138 60 56 51 45
is_linear=0
shrinkage=0.05


Tree=5
num_leaves=18
num_cat=0
split_feature=3 27 52 13 92 112 26 6 38 105 112 123 118 22 17 93 77
split_gain=63.5376 84.0553 74.3986 56.3323 67.6599 52.3283 38.0392 29.6436 29.3275 23.9294 14.5823 14.2697 3.59415 2.36143 0.032489 0.0192075 0.00751103
threshold=0.30610343546639002 -0.5526255099852927 -0.079207115129179398 -0.46144944993394149 -0.852241998991078 -0.76972271905944234 1.5000162463734832 1.908821841478594 0.35492132294121631 -1.0827974579665753 1.6052518060959502 0.20792022962807899 1.1639278533953246 0.053887013541940178 1.2396252831974548 1.5389717665539842 0.62405547843670972
decision_type=2 2 2 2 2 2 2 2 2 2 2 2 2 2 2 2 2
left_child=1 5 3 12 -5 13 7 15 11 -10 14 -7 -3 -1 -4 16 -2
right_child=6 2 10 4 -6 8 -8 -9 9 -11 -12 -13 -14 -15 -16 -17 -18
leaf_value=-0.063858790080864855 -0.061753636350084497 -0.061630607043136824 -0.061265292805515882 -0.06185754074107741 0.098498174269295483 0.22353702558561483 0.10641938625831718 0.049403740913211633 0.14271337158338721 0.00044117069169386723 0.053932599654604223 0.12269509262065362 0.00076582706319602162 -0.0010812475955687558 -0.066123102242585718 -0.06501023538339476 -0.063218483736573752
leaf_weight=3.9625786542892447 38.822645276784897 11.819705724716185 36.025233298540115 8.3091198205947858 31.576488047838211 6.4203667044639605 4.1047320365905753 6.6231521964073172 5.2259305119514456 6.8028184771537772 2.9252536296844474 7.73391193151474 2.8678759932517996 2.4084547162055969 3.8054562807083121 6.3134444653987876 11.297490715980528
leaf_count=5 58 18 52 12 37 7 4 6 5 10 5 7 4 5 6 8 16
internal_value=-0.00158221 0.0188345 -0.004428 0.0342656 0.0650923 0.0883842 -0.0410661 -0.0506668 0.119654 0.0622518 -0.0538161 0.168437 -0.0494472 -0.0401269 -0.0617294 -0.0624112 -0.0620838
internal_weight=197.045 129.883 97.3291 54.5732 39.8856 32.5541 67.1615 63.0567 26.183 12.0287 42.7559 14.1543 14.6876 6.37103 39.8307 56.4336 50.1201
internal_count=265 173 134 71 49 39 92 88 29 15 63 14 22 10 58 82 74
is_linear=0
shrinkage=0.05


Tree=6
num_leaves=17
num_cat=0
split_feature=3 27 52 2 1 112 26 6 0 112 102 118 22 17 93 77
split_gain=58.3938 72.7286 68.4401 47.4732 45.6917 44.0851 34.5283 27.8525 26.6193 13.7013 10.7789 5.87853 2.26911 0.0273531 0.0159161 0.00623487
threshold=0.30610343546639002 -0.5526255099852927 -0.079207115129179398 -0.72876352209164807 1.3449784995830489 -0.76972271905944234 1.5000162463734832 1.908821841478594 -0.84747704896694964 1.6052518060959502 -0.49466530139855597 0.55659512672417544 0.053887013541940178 1.2396252831974548 1.5389717665539842 0.62405547843670972
decision_type=2 2 2 2 2 2 2 2 2 2 2 2 2 2 2 2
left_child=1 5 3 11 -5 12 7 14 -7 13 -10 -3 -1 -4 15 -2
right_child=6 2 9 4 -6 8 -8 -9 10 -11 -12 -13 -14 -15 -16 -17
leaf_value=-0.063015343645993468 -0.06105265298096943 0.14811699580712187 -0.060597073572427565 -0.011712235002574817 0.14366116206641061 0.013084108967796085 0.097831164223309772 0.045968868036482514 0.070131828460535311 0.049741273746062138 0.15338158235172633 0.075937631232800146 -0.0010278442067209964 -0.065134697621530721 -0.064072019939586805 -0.062412738466846931
leaf_weight=3.8184873461723319 37.342460989952087 7.3566892743110639 34.636534810066223 37.752176135778427 5.4098310470581046 5.7863348722457912 4.2381176948547354 6.7584915161132804 5.0823149681091335 3.0108349323272696 16.548373162746429 4.575185090303421 2.4069370925426483 3.6733913719654074 6.0912306904792777 10.881707936525343
leaf_count=5 58 9 52 53 4 8 4 6 6 5 15 5 5 6 8 16
internal_value=-0.00160213 0.017769 -0.00431755 0.0321651 0.00776192 0.081066 -0.0401762 -0.049753 0.10834 -0.0529607 0.133821 0.12044 -0.0390491 -0.0610322 -0.0616637 -0.0613596
internal_weight=195.369 130.057 96.4146 55.0939 43.162 33.6424 65.312 61.0739 27.417 41.3208 21.6307 11.9319 6.22542 38.3099 54.3154 48.2242
internal_count=265 173 134 71 57 39 92 88 29 63 21 14 10 58 82 74
is_linear=0
shrinkage=0.05


Tree=7
num_leaves=17
num_cat=0
split_feature=3 27 52 13 92 112 26 6 116 16 112 87 48 17 93 41
split_gain=53.827 63.7678 63.1268 47.4101 55.0849 37.8834 31.4929 26.2251 22.94 16.119 12.9081 3.42823 2.23283 0.0230687 0.0132199 0.00532489
threshold=0.30610343546639002 -0.5526255099852927 -0.079207115129179398 -0.46144944993394149 -0.852241998991078 -0.76972271905944234 1.5000162463734832 1.908821841478594 0.66591696405074818 -0.070236385488829753 1.6052518060959502 1.1636062691815077 0.2998216141444458 1.2396252831974548 1.5389717665539842 -0.27095632002618447
decision_type=2 2 2 2 2 2 2 2 2 2 2 2 2 2 2 2
left_child=1 5 3 11 -5 12 7 14 9 -7 13 -3 -1 -4 15 -2
right_child=6 2 10 4 -6 8 -8 -9 -10 -11 -12 -13 -14 -15 -16 -17
leaf_value=-0.062345953093931955 -0.061475830666056976 -0.060901344748903491 -0.059975099782075075 -0.061019163101439601 0.0855631180730963 0.03590128022732729 0.090575670232692557 0.042871416751978898 -0.021298309646775426 0.13644322387112737 0.046019972332419057 0.00046666497897213902 -0.00029963353156055457 -0.06421909936555846 -0.06320451922983561 -0.060322665557721381
leaf_weight=3.6963263750076285 14.621355086565012 11.330321431159971 33.28028529882431 7.9337116479873648 33.356345742940903 4.9859883189201417 4.3457532525062552 6.8811485767364493 3.4498800039291373 19.884666591882706 3.0894579887390128 2.8477435410022727 2.3859281241893768 3.5427868366241446 5.8716571033000937 31.746853232383732
leaf_count=5 23 18 52 12 37 6 4 6 6 17 5 4 5 6 8 51
internal_value=-0.00159887 0.0168544 -0.0041944 0.0303104 0.0573979 0.0752116 -0.0393341 -0.0488832 0.0995269 0.116287 -0.0521472 -0.0485752 -0.0380066 -0.0603834 -0.0609693 -0.0606863
internal_weight=193.25 129.783 95.3807 55.4681 41.2901 34.4028 63.4668 59.121 28.3205 24.8707 39.9125 14.1781 6.08225 36.8231 52.2399 46.3682
internal_count=265 173 134 71 49 39 92 88 29 23 63 22 10 58 82 74
is_linear=0
shrinkage=0.05


Tree=8
num_leaves=17
num_cat=0
split_feature=1 3 27 37 1 52 59 9 8 62 5 104 54 124 27 108
split_gain=50.0238 53.3584 37.4803 59.5364 34.7544 34.7474 29.1538 24.8116 19.8161 17.4592 14.7023 8.80523 2.83605 0.020886 0.0192194 0.0119937
threshold=-0.76651640530806731 0.34929595216669451 -0.5526255099852927 0.84405102982877722 1.0992592623228041 -0.93667796644137613 0.33916742275850487 0.28137766968188721 2.1567196388306948 0.16039492872533481 0.19963432886658608 1.533051798449039 1.73562977583376 1.4913089438046139 -1.1208983631357581 -0.78769725325816597
decision_type=2 2 2 2 2 2 2 2 2 2 2 2 2 2 2 2
left_child=8 2 6 4 -4 -3 10 -5 12 -8 -2 14 13 15 -7 -1
right_child=1 5 3 7 -6 11 9 -9 -10 -11 -12 -13 -14 -15 -16 -17
leaf_value=-0.062607490496352503 0.038500385810041032 0.06847896331049258 -0.031223003377842569 0.14171000614936644 0.081388462705397666 -0.063594459885034191 -0.063084849967793663 0.01900539945574364 0.068174714773053632 0.087084998697318686 0.12756149442111883 0.031360299939027642 -0.0073970958542200239 -0.064433375869581574 -0.060429422397005821 -0.060003342821264349
leaf_weight=5.1833316087722734 6.2591745257377651 6.919673115015029 45.447342455387115 10.322552502155306 8.0677540898323041 5.8092257082462302 4.9973824620246869 6.8560474812984458 3.4038439691066733 3.1590640842914581 17.846367597579956 2.7983869314193717 2.6616058051586142 3.5044989287853232 27.512981653213501 30.079131811857227
leaf_count=9 7 9 71 9 7 7 8 9 4 4 16 4 4 6 44 47
internal_value=-0.00159909 0.012587 0.032131 0.0117511 -0.0142461 -0.0341638 0.0767881 0.0927381 -0.0477958 -0.00492274 0.104436 -0.0538272 -0.0573242 -0.060752 -0.0609812 -0.0603861
internal_weight=190.828 145.996 102.956 70.6937 53.5151 43.0403 32.262 17.1786 44.8324 8.15645 24.1055 36.1206 41.4286 38.767 33.3222 35.2625
internal_count=265 195 131 96 78 64 35 18 70 12 23 55 66 62 51 56
is_linear=0
shrinkage=0.05


Tree=9
num_leaves=19
num_cat=0
split_feature=3 2 0 62 14 43 95 37 81 6 42 59 43 97 97 101 52 93
split_gain=46.0036 46.5862 51.9591 46.2444 35.7547 37.6318 25.5143 24.2483 22.5459 20.1567 25.6143 17.1854 16.9515 2.53793 0.0350975 0.0183139 0.00751837 0.00544154
threshold=0.30610343546639002 -0.37344350674987725 -0.19774655834967195 -0.12536795898570607 -0.24576685041586474 1.1420197143132993 1.3628395100108632 1.1218735177236154 1.2748919006866875 1.1608151138941092 0.36393792157856869 0.89881777876636559 1.4625172444024781 0.49665798896433139 -1.4085803786344049 1.6237410186075187 0.16913541958570874 1.755385037618022
decision_type=2 2 2 2 2 2 2 2 2 2 2 2 2 2 2 2 2 2
left_child=1 2 6 14 7 -6 13 -5 11 12 -11 -4 15 -1 -3 17 -16 -2
right_child=9 3 8 4 5 -7 -8 -9 -10 10 -12 -13 -14 -15 16 -17 -18 -19
leaf_value=-0.0610139814564599 -0.05955162104670747 -0.064935981355796688 0.11693485193887534 -0.060394840039878321 0.081044562015874497 -0.061060611782209853 0.094458617679715279 0.085878556502529721 -0.02651912700399538 -0.061712233848751921 0.092421363637851112 0.0042127994686494575 0.049196997196276217 -0.0065976050457086256 -0.061003276237122088 -0.063421683546535657 -0.059210864628315443 -0.061745605875553916
leaf_weight=10.927916735410692 38.527877360582352 4.3943016529083279 26.370975226163868 15.573903799057009 24.291753172874454 5.764334261417388 3.9191399812698355 3.4633600711822501 3.814131647348403 4.8631389737129194 6.0470511913299561 3.8785886764526358 3.8566983938217154 2.6652918457984915 11.197030097246172 3.6175085902214041 12.252196937799452 3.0498632192611685
leaf_count=18 66 7 26 23 27 9 4 3 6 7 5 5 5 5 20 5 20 4
internal_value=-0.00158742 0.015286 0.0520539 -0.00936198 0.0198313 0.0537908 -0.0179384 -0.033784 0.0880374 -0.0377512 0.0237174 0.102482 -0.0514231 -0.0503443 -0.0608352 -0.0600094 -0.0600667 -0.0597126
internal_weight=188.475 128.513 51.576 76.9369 49.0934 30.0561 17.5123 19.0373 34.0637 59.9621 10.9102 30.2496 49.0519 13.5932 27.8435 45.1952 23.4492 41.5777
internal_count=265 173 64 109 62 36 27 26 37 92 12 31 80 23 47 75 40 70
is_linear=0
shrinkage=0.05


Tree=10
num_leaves=18
num_cat=0
split_feature=2 26 1 21 34 10 0 106 82 21 114 117 128 8 24 42 110
split_gain=43.1129 41.1393 48.9665 51.3201 51.3792 45.8668 43.0985 31.0447 6.51557 4.73482 2.55025 0.0269727 0.0100171 0.00634476 0.00187431 0.00083397 0.000417232
threshold=1.0823776929456785 0.78283944761706237 -0.69136557050805503 -0.79458384586220177 1.0755204105054854 0.7851607223742606 -0.40420637352277239 -0.99286407128114262 -0.37336514696016526 1.5094381488329651 0.7846595023098798 0.74865208731352773 1.0000000180025095e-35 -0.73206852505820841 0.10112429852451572 -0.12483426504767565 0.65520599477996033
decision_type=2 2 2 2 2 2 2 2 2 2 2 2 2 2 2 2 2
left_child=1 2 9 5 -5 -4 10 -8 -9 11 -3 -1 13 -2 -15 -16 -14
right_child=12 6 3 4 -6 -7 7 8 -10 -11 -12 -13 16 14 15 -17 -18
leaf_value=-0.059586608225411578 -0.062368800001948388 -0.062619815467693185 0.1094401408468566 -0.021555131903546673 0.093100921067571743 -0.06020529179071013 -0.061765289212073887 0.054965334093892516 0.11626411810093147 0.021947253287674884 -0.0010219349590596194 -0.063366892632557945 -0.058609358689361603 -0.060568795904827534 -0.059598448649280135 -0.058144302495128322 -0.058021303279203185
leaf_weight=21.322508782148368 2.9612594246864319 5.4641430079936972 21.561002522706989 61.149399876594543 11.629035532474516 4.8874903321266165 3.1348230242729214 5.3878508210182217 22.183815836906433 1.8633415102958668 2.4265154600143433 6.0596123933792105 5.5100619792938232 2.8719292283058167 2.0233641862869267 1.9231554269790647 6.664849579334259
leaf_count=35 6 9 21 89 13 8 4 7 18 5 5 11 8 6 5 5 9
internal_value=0.00662732 0.0152836 0.00168408 0.0184423 -0.0032346 0.0780909 0.0605501 0.0873334 0.104286 -0.055175 -0.0436774 -0.0604232 -0.0592447 -0.0604363 -0.059597 -0.0588898 -0.0582874
internal_weight=189.024 167.07 128.472 99.2269 72.7784 26.4485 38.5971 30.7065 27.5717 29.2455 7.89066 27.3821 21.9546 9.77971 6.81845 3.94652 12.1749
internal_count=264 225 182 131 102 29 43 29 25 51 14 46 39 22 16 10 17
is_linear=0
shrinkage=0.05


Tree=11
num_leaves=18
num_cat=0
split_feature=2 43 33 33 3 65 57 89 83 124 59 126 128 8 24 115 110
split_gain=40.1672 37.5556 40.8256 34.7472 40.3547 29.52 26.0976 17.7727 17.3038 15.0381 3.08256 0.0171158 0.00839641 0.00530815 0.00156707 0.000698607 0.00035007
threshold=1.0823776929456785 -0.47460263331487179 1.1163603176517134 -1.0177187343303429 0.57223219596170172 1.0821170378615708 -0.96667810051678082 0.73970813890302622 1.0979764838839465 0.99563673051737078 1.4568358949495386 1.0494514251471523 1.0000000180025095e-35 -0.73206852505820841 0.10112429852451572 -0.23685854516606039 0.65520599477996033
decision_type=2 2 2 2 2 2 2 2 2 2 2 2 2 2 2 2 2
left_child=1 6 3 5 -5 -3 7 -1 10 11 -8 -4 13 -2 -15 -16 -14
right_child=12 2 9 4 -6 -7 8 -9 -10 -11 -12 -13 16 14 15 -17 -18
leaf_value=0.094455104978631035 -0.061627563886000228 -0.04029547654822159 -0.059644765329470995 0.075540215260777144 -0.011366491937751598 0.091496991145435719 -0.061208507751432079 -0.064032719313876094 0.064228564147371159 0.056500504141916597 -0.0028106930424927341 -0.063480124041159644 -0.058119387410126171 -0.0599484271682795 -0.057684564525980843 -0.059043442571411031 -0.057569286221398598
leaf_weight=6.447294741868971 2.8498546481132507 19.136964678764347 11.322637081146242 62.503736793994904 16.988083064556122 5.461467742919921 28.730555593967441 2.4377025663852692 3.2732711732387534 3.3411472141742697 2.4526469707489005 3.9145527482032767 5.2843981385231018 2.7594152390956879 1.8435718119144442 1.942315876483917 6.3883163928985596
leaf_count=8 6 31 19 70 24 5 46 5 4 4 4 5 8 6 5 5 9
internal_value=0.00632181 0.0145753 0.0287113 0.0408974 0.0569675 -0.0110342 -0.0254335 0.0509721 -0.0451355 -0.0395652 -0.0566154 -0.0606301 -0.0587138 -0.0598264 -0.0590422 -0.0583817 -0.0578183
internal_weight=187.078 166.01 122.669 104.09 79.4918 24.5984 43.3415 8.885 34.4565 18.5783 31.1832 15.2372 21.0679 9.39516 6.5453 3.78589 11.6727
internal_count=264 225 158 130 94 36 67 13 54 28 50 24 39 22 16 10 17
is_linear=0
shrinkage=0.05


Tree=12
num_leaves=18
num_cat=0
split_feature=2 26 1 21 34 10 0 106 82 21 114 117 128 8 24 42 110
split_gain=37.4291 35.0122 42.6389 42.2269 43.4041 38.8277 36.1884 25.6596 5.59088 4.53117 2.4677 0.0203723 0.00704899 0.00444869 0.0013124 0.000586126 0.000294147
threshold=1.0823776929456785 0.78283944761706237 -0.69136557050805503 -0.79458384586220177 1.0755204105054854 0.7851607223742606 -0.40420637352277239 -0.99286407128114262 -0.37336514696016526 1.5094381488329651 0.7846595023098798 0.77207988117226123 1.0000000180025095e-35 -0.73206852505820841 0.10112429852451572 -0.12483426504767565 0.65520599477996033
decision_type=2 2 2 2 2 2 2 2 2 2 2 2 2 2 2 2 2
left_child=1 2 9 5 -5 -4 10 -8 -9 11 -3 -1 13 -2 -15 -16 -14
right_child=12 6 3 4 -6 -7 7 8 -10 -11 -12 -13 16 14 15 -17 -18
leaf_value=-0.05872525473193916 -0.060938541543452511 -0.061642527521999925 0.097296887539581212 -0.020856640777570844 0.08327470524069823 -0.059903169101055233 -0.06073262491182544 0.04908705728740493 0.10546863866202844 0.020895312001742546 -0.00027804852761804315 -0.062247124688961791 -0.057661048326249686 -0.059370244744729732 -0.058525243993070963 -0.057254099866576091 -0.057145961511153032
leaf_weight=20.461756914854057 2.7407371401786804 5.1851623058319083 22.340976297855381 60.162438124418259 12.003733754158018 4.7660189867019644 2.9445068240165737 5.4653250277042416 22.491339683532715 1.8848602771759022 2.3950722217559814 5.1369992196559897 5.0656175017356855 2.6497495770454425 1.863531678915024 1.7665101885795591 6.1206279993057251
leaf_count=36 6 9 21 89 13 8 4 7 18 5 5 10 8 6 5 5 9
internal_value=0.00601753 0.0138728 0.00119148 0.0164499 -0.00353599 0.0696576 0.0556447 0.0796598 0.0944464 -0.0539231 -0.0422536 -0.059432 -0.0582178 -0.0592578 -0.0585242 -0.0579067 -0.0573792
internal_weight=185.445 165.238 126.757 99.2732 72.1662 27.107 38.4814 30.9012 27.9567 27.4836 7.58023 25.5988 20.2068 9.02053 6.27979 3.63004 11.1862
internal_count=264 225 182 131 102 29 43 29 25 51 14 46 39 22 16 10 17
is_linear=0
shrinkage=0.05


Tree=13
num_leaves=19
num_cat=0
split_feature=43 33 104 1 63 64 55 57 54 124 21 83 54 50 1 3 122 69
split_gain=32.5876 33.0272 32.1191 45.4977 33.3305 29.3752 26.681 24.9031 14.1248 13.9504 11.943 5.63255 5.59323 3.97301 0.0820475 0.0171855 0.0166323 0.00262016
threshold=-0.47460263331487179 1.1163603176517134 -0.37877529808306437 -0.69136557050805503 -0.60122530972400567 0.24020751304976282 -0.19432502648837688 -0.96667810051678082 1.7084778629626116 1.0973733814018447 -0.62377851249369298 1.319263710935348 1.4216007457132365 0.45180804007104775 1.4139448761486104 0.13384059680268792 -0.51927720512775355 0.69070703629286223
decision_type=2 2 2 2 2 2 2 2 2 2 2 2 2 2 2 2 2 2
left_child=7 2 5 13 -5 12 -7 10 11 15 -1 14 -2 -4 -9 16 -3 -17
right_child=1 9 3 4 -6 6 -8 8 -10 -11 -12 -13 -14 -15 -16 17 -18 -19
leaf_value=0.11129785726908595 -0.060478108401032155 -0.06378274944669278 -0.058689834408087109 -0.012907222475763211 0.079971617238335971 0.1002921672993376 -0.021586896885011427 -0.059023361455826651 0.056539943146672357 0.051672664156505135 -0.0053545211812056764 0.024514212889542031 0.023349503918936615 0.020458845559375743 -0.06635157150404157 -0.057108222314922623 -0.059362055276715335 -0.058962833770100191
leaf_weight=3.9290012717247009 17.565353453159336 3.5348528921604192 9.3949336707591993 11.774030327796934 53.780975192785263 8.6861562132835406 9.2960940897464734 29.986016452312469 3.0716454386711112 3.3886502981185904 4.9691495597362501 2.0937085747718802 2.2441116273403159 1.9074281454086293 4.377061426639556 4.4455029070377341 5.3449705541133898 3.3316811323165894
leaf_count=4 29 6 19 15 55 8 15 57 4 4 9 4 4 5 4 8 8 6
internal_value=0.00575894 0.0184061 0.0287589 0.0473165 0.0632901 -0.00898189 0.0372856 -0.0294182 -0.04643 -0.0408054 0.0461536 -0.0551056 -0.0509817 -0.0453324 -0.0599568 -0.0596188 -0.0611218 -0.0579027
internal_weight=183.121 134.695 114.649 76.8574 65.555 37.7917 17.9823 48.4266 39.5284 20.0457 8.89815 36.4568 19.8095 11.3024 34.3631 16.657 8.87982 7.77718
internal_count=264 182 150 94 70 56 23 82 69 32 13 65 33 24 61 28 14 14
is_linear=0
shrinkage=0.05


Tree=14
num_leaves=18
num_cat=0
split_feature=2 17 10 33 3 125 37 94 51 61 95 9 18 7 7 117 81
split_gain=33.7748 31.9488 34.7961 32.361 25.6988 20.3675 22.7489 11.4563 2.15262 0.0781972 0.0231977 0.00612215 0.0039406 0.00477557 0.000888375 0.000883751 0.00039373
threshold=1.0823776929456785 1.1033464254976713 0.7851607223742606 1.1163603176517134 0.30610343546639002 -0.72724040624144448 0.51579794242593979 0.87169351590115851 -0.33534917372901596 -0.60635933479344362 0.19770135009316883 0.48066732531559048 1.0379701734207523 -0.34019348087046442 0.25146521826600216 0.43212546523203516 -0.10762211842116952
decision_type=2 2 2 2 2 2 2 2 2 2 2 2 2 2 2 2 2
left_child=1 2 3 4 -1 6 -4 9 -5 -3 -7 -11 14 -14 15 -2 -16
right_child=12 7 5 8 -6 10 -8 -9 -10 11 -12 -13 13 -15 16 -17 -18
leaf_value=0.055248929159097959 -0.05800849408493091 -0.065692128167324199 -0.058334140974750509 -0.0068243326695575819 -0.0043584659225465077 -0.057900257318576481 0.11212482780863307 0.044789142886539832 -0.059012110807819984 -0.059612567501377056 -0.061468921068242116 -0.057297321700085495 -0.060532641822590605 -0.057630136384864319 -0.056179279362867457 -0.056879614835304106 -0.057015417665913982
leaf_weight=80.692077159881592 3.4386918842792529 5.8545911610126558 3.5279894173145321 2.5529104471206656 23.304523080587387 8.7275933027267474 4.3964523673057556 2.9996562600135794 8.7425322532653791 6.565323203802107 9.5221702456474286 5.0527450740337372 2.1092160046100616 4.319156974554061 2.8384881317615509 3.4966063797473907 2.7936117053031921
leaf_count=94 9 7 7 4 35 17 4 4 15 13 16 9 5 9 5 6 5
internal_value=0.00549878 0.0128975 0.021346 0.0331614 0.0418916 -0.0306981 0.0362359 -0.0454825 -0.047217 -0.0609801 -0.0597623 -0.0586057 -0.0575756 -0.0585825 -0.0570605 -0.0574393 -0.056594
internal_weight=180.934 161.939 141.466 115.292 103.997 26.1742 7.92444 20.4723 11.2954 17.4727 18.2498 11.6181 18.9958 6.42837 12.5674 6.9353 5.6321
internal_count=264 225 192 148 129 44 11 33 19 29 33 22 39 14 25 15 10
is_linear=0
shrinkage=0.05


Tree=15
num_leaves=20
num_cat=0
split_feature=2 3 59 17 19 29 61 46 65 1 9 20 34 15 92 106 14 94 14
split_gain=34.1635 35.6642 31.4643 22.5238 28.1474 23.8481 26.0512 17.7156 22.312 16.4648 22.0429 14.0978 13.6136 6.74587 6.405 4.19887 0.0812657 0.0144114 0.000834084
threshold=-0.80630289627950857 0.72300590726381264 0.83564271009665902 -0.3147131431047544 -0.51001289738393574 -0.73031493613562348 -0.076069732419269551 0.28911180759636818 0.5965154663192419 1.5825993320351555 -0.17788642363518717 -1.3507664594661752 1.6521345291355629 0.84868230631989838 0.9848293509324958 -0.51830194197536994 0.054287494645719879 0.63745331436748665 1.0000000180025095e-35
decision_type=2 2 2 2 2 2 2 2 2 2 2 2 2 2 2 2 2 2 2
left_child=1 2 7 4 14 15 -7 13 -9 11 -11 -5 -13 -1 16 -6 -2 18 -3
right_child=3 17 -4 9 5 6 -8 8 -10 10 -12 12 -14 -15 -16 -17 -18 -19 -20
leaf_value=0.10853167083093998 -0.057878182313401728 -0.058191415010033901 -0.061241553811443611 0.042754742941428003 0.13090000955564549 0.054680122592379643 -0.047723638967576337 -0.059749810383028984 0.099975150526105838 0.083849864692040241 -0.064015479670005565 -0.054695307098484885 0.054353432415708614 0.042193538350711456 0.021389871069525942 0.06852816777922506 -0.065845572717665016 -0.062391589912876355 -0.05702546899685617
leaf_weight=19.314750075340275 5.9777318239212018 2.5361830294132215 5.0173591375350943 4.4871491193771353 3.7182552218437186 12.350811183452604 12.492542505264284 4.829359441995619 3.995154857635498 6.3150335550308228 4.1945468187332136 56.368479460477829 3.0150957703590384 4.7807788848876944 2.7928554415702811 9.8370584547519666 6.8886882662773132 1.9529426097869871 3.8812939822673798
leaf_count=20 11 5 9 6 3 17 21 8 3 6 4 103 5 6 4 10 8 4 7
internal_value=-0.0020338 0.0347848 0.0553958 -0.0153086 0.00925227 0.0322925 0.00318614 0.0731725 0.0125631 -0.0331588 0.0248344 -0.0427013 -0.0491586 0.0953696 -0.0472455 0.0856369 -0.0621439 -0.0586307 -0.0574863
internal_weight=174.746 46.3078 37.9374 128.438 54.0579 38.3987 24.8434 32.92 8.82451 74.3803 10.5096 63.8707 59.3836 24.0955 15.6593 13.5553 12.8664 8.37042 6.41748
internal_count=260 62 46 198 74 51 38 37 11 124 10 114 108 26 23 13 19 16 12
is_linear=0
shrinkage=0.05


Tree=16
num_leaves=18
num_cat=0
split_feature=2 3 59 80 29 100 6 24 113 46 65 29 87 15 94 113 14
split_gain=31.367 32.7266 28.5846 24.9795 30.353 23.3659 21.6463 20.5792 23.1981 15.5219 20.4395 13.0048 11.1538 6.14288 0.012284 0.00996935 0.000701502
threshold=-0.80630289627950857 0.72300590726381264 0.83564271009665902 -0.73846083521820083 -0.19508690716411456 1.7782773542362997 1.1113998221492036 -1.5172904666627944 -0.14630854283999148 0.28911180759636818 0.5965154663192419 1.6098772506148833 0.036178043849197171 0.84868230631989838 0.63745331436748665 -0.10934567055500162 1.0000000180025095e-35
decision_type=2 2 2 2 2 2 2 2 2 2 2 2 2 2 2 2 2
left_child=1 2 9 4 12 7 15 8 -5 13 -11 -9 -2 -1 16 -6 -3
right_child=3 14 -4 5 6 -7 -8 11 -10 10 -12 -13 -14 -15 -16 -17 -18
leaf_value=0.10290741152082379 0.021741300093607484 -0.057728562277433532 -0.060592369189394236 0.11332607099397583 -0.061221388456089647 0.057695084425673594 0.071961040299577464 -0.04592843460536622 -0.058311397891005735 -0.059187733261220024 0.09523159023749693 0.041628500861852089 0.1209336878455432 0.039794081305541879 -0.06168824263891657 -0.057838200922222111 -0.056636241559506431
leaf_weight=19.350456237792972 4.4110909104347247 2.4313437938690168 4.8224939703941336 4.755126416683197 3.0437794327735892 7.5746414959430686 4.4951809644699088 78.140192329883575 3.3594925105571729 4.6363459527492505 3.9846380949020386 4.4843421876430503 7.9269709885120392 4.814684569835662 1.8783388137817381 7.6507016718387595 3.7167307734489441
leaf_count=20 7 5 9 4 6 8 4 133 6 8 3 5 8 6 4 17 7
internal_value=-0.00200607 0.0335052 0.0530661 -0.0148838 0.0272152 -0.0266715 -0.0201038 -0.0337142 0.0422673 0.0697841 0.0121852 -0.0411764 0.0854705 0.0903327 -0.0581494 -0.0588011 -0.0570682
internal_weight=171.477 45.635 37.6086 125.842 27.5277 98.3138 15.1897 90.7392 8.11462 32.7861 8.62098 82.6245 12.3381 24.1651 8.02641 10.6945 6.14807
internal_count=260 62 46 198 42 156 27 148 10 37 11 138 15 26 16 23 12
is_linear=0
shrinkage=0.05


end of trees

feature_importances:
Column_1=13
Column_2=13
Column_3=10
Column_27=9
Column_52=8
Column_33=7
Column_6=6
Column_17=6
Column_26=6
Column_112=6
Column_21=5
Column_46=5
Column_59=5
Column_93=5
Column_0=4
Column_8=4
Column_9=4
Column_10=4
Column_14=4
Column_24=4
Column_34=4
Column_43=4
Column_54=4
Column_92=4
Column_106=4
Column_128=4
Column_15=3
Column_20=3
Column_29=3
Column_37=3
Column_42=3
Column_51=3
Column_61=3
Column_65=3
Column_69=3
Column_81=3
Column_83=3
Column_94=3
Column_101=3
Column_104=3
Column_110=3
Column_113=3
Column_115=3
Column_117=3
Column_124=3
Column_7=2
Column_13=2
Column_19=2
Column_22=2
Column_45=2
Column_50=2
Column_57=2
Column_62=2
Column_72=2
Column_77=2
Column_82=2
Column_85=2
Column_87=2
Column_95=2
Column_97=2
Column_105=2
Column_114=2
Column_118=2
Column_126=2
Column_5=1
Column_16=1
Column_18=1
Column_23=1
Column_28=1
Column_32=1
Column_38=1
Column_41=1
Column_44=1
Column_47=1
Column_48=1
Column_49=1
Column_55=1
Column_60=1
Column_63=1
Column_64=1
Column_66=1
Column_67=1
Column_71=1
Column_73=1
Column_75=1
Column_80=1
Column_84=1
Column_89=1
Column_91=1
Column_96=1
Column_100=1
Column_102=1
Column_108=1
Column_116=1
Column_119=1
Column_122=1
Column_123=1
Column_125=1
Column_127=1

parameters:
[boosting: gbdt]
[objective: binary]
[metric: auc]
[tree_learner: serial]
[device_type: cpu]
[data_sample_strategy: bagging]
[data: ]
[valid: ]
[num_iterations: 100]
[learning_rate: 0.05]
[num_leaves: 31]
[num_threads: 0]
[seed: 0]
[deterministic: 0]
[force_col_wise: 0]
[force_row_wise: 0]
[histogram_pool_size: -1]
[max_depth: 5]
[min_data_in_leaf: 5]
[min_sum_hessian_in_leaf: 0.001]
[bagging_fraction: 0.8]
[pos_bagging_fraction: 1]
[neg_bagging_fraction: 1]
[bagging_freq: 5]
[bagging_seed: 3]
[bagging_by_query: 0]
[feature_fraction: 0.8]
[feature_fraction_bynode: 1]
[feature_fraction_seed: 2]
[extra_trees: 0]
[extra_seed: 6]
[early_stopping_round: 0]
[early_stopping_min_delta: 0]
[first_metric_only: 0]
[max_delta_step: 0]
[lambda_l1: 0]
[lambda_l2: 0]
[linear_lambda: 0]
[min_gain_to_split: 0]
[drop_rate: 0.1]
[max_drop: 50]
[skip_drop: 0.5]
[xgboost_dart_mode: 0]
[uniform_drop: 0]
[drop_seed: 4]
[top_rate: 0.2]
[other_rate: 0.1]
[min_data_per_group: 100]
[max_cat_threshold: 32]
[cat_l2: 10]
[cat_smooth: 10]
[max_cat_to_onehot: 4]
[top_k: 20]
[monotone_constraints: ]
[monotone_constraints_method: basic]
[monotone_penalty: 0]
[feature_contri: ]
[forcedsplits_filename: ]
[refit_decay_rate: 0.9]
[cegb_tradeoff: 1]
[cegb_penalty_split: 0]
[cegb_penalty_feature_lazy: ]
[cegb_penalty_feature_coupled: ]
[path_smooth: 0]
[interaction_constraints: ]
[verbosity: -1]
[saved_feature_importance_type: 0]
[use_quantized_grad: 0]
[num_grad_quant_bins: 4]
[quant_train_renew_leaf: 0]
[stochastic_rounding: 1]
[linear_tree: 0]
[max_bin: 255]
[max_bin_by_feature: ]
[min_data_in_bin: 3]
[bin_construct_sample_cnt: 200000]
[data_random_seed: 1]
[is_enable_sparse: 1]
[enable_bundle: 1]
[use_missing: 1]
[zero_as_missing: 0]
[feature_pre_filter: 1]
[pre_partition: 0]
[two_round: 0]
[header: 0]
[label_column: ]
[weight_column: ]
[group_column: ]
[ignore_column: ]
[categorical_feature: ]
[forcedbins_filename: ]
[precise_float_parser: 0]
[parser_config_file: ]
[objective_seed: 5]
[num_class: 1]
[is_unbalance: 0]
[scale_pos_weight: 1]
[sigmoid: 1]
[boost_from_average: 1]
[reg_sqrt: 0]
[alpha: 0.9]
[fair_c: 1]
[poisson_max_delta_step: 0.7]
[tweedie_variance_power: 1.5]
[lambdarank_truncation_level: 30]
[lambdarank_norm: 1]
[label_gain: ]
[lambdarank_position_bias_regularization: 0]
[eval_at: ]
[multi_error_top_k: 1]
[auc_mu_weights: ]
[num_machines: 1]
[local_listen_port: 12400]
[time_out: 120]
[machine_list_filename: ]
[machines: ]
[gpu_platform_id: -1]
[gpu_device_id: -1]
[gpu_use_dp: 0]
[num_gpu: 1]

end of parameters

pandas_categorical:null
