tree
version=v4
num_class=1
num_tree_per_iteration=1
label_index=0
max_feature_idx=136
objective=binary sigmoid:1
feature_names=Column_0 Column_1 Column_2 Column_3 Column_4 Column_5 Column_6 Column_7 Column_8 Column_9 Column_10 Column_11 Column_12 Column_13 Column_14 Column_15 Column_16 Column_17 Column_18 Column_19 Column_20 Column_21 Column_22 Column_23 Column_24 Column_25 Column_26 Column_27 Column_28 Column_29 Column_30 Column_31 Column_32 Column_33 Column_34 Column_35 Column_36 Column_37 Column_38 Column_39 Column_40 Column_41 Column_42 Column_43 Column_44 Column_45 Column_46 Column_47 Column_48 Column_49 Column_50 Column_51 Column_52 Column_53 Column_54 Column_55 Column_56 Column_57 Column_58 Column_59 Column_60 Column_61 Column_62 Column_63 Column_64 Column_65 Column_66 Column_67 Column_68 Column_69 Column_70 Column_71 Column_72 Column_73 Column_74 Column_75 Column_76 Column_77 Column_78 Column_79 Column_80 Column_81 Column_82 Column_83 Column_84 Column_85 Column_86 Column_87 Column_88 Column_89 Column_90 Column_91 Column_92 Column_93 Column_94 Column_95 Column_96 Column_97 Column_98 Column_99 Column_100 Column_101 Column_102 Column_103 Column_104 Column_105 Column_106 Column_107 Column_108 Column_109 Column_110 Column_111 Column_112 Column_113 Column_114 Column_115 Column_116 Column_117 Column_118 Column_119 Column_120 Column_121 Column_122 Column_123 Column_124 Column_125 Column_126 Column_127 Column_128 Column_129 Column_130 Column_131 Column_132 Column_133 Column_134 Column_135 Column_136
feature_infos=[-1.248744557706905:2.8573106041748164] [-2.1719851262655836:2.8857499022066651] [-2.3189172722606108:3.8458069494658997] [-2.3969524181675292:3.3549526214967731] [-3.3887219418656525:3.3943497961580178] [-3.2706988968846868:3.6125940241490957] [-3.0712746450838164:3.4219275008213637] [-3.1154081228774859:3.8563540670189793] [-2.8267548178717132:3.3038232297097228] [-2.9367561562835873:4.7450964128814626] [-2.6019828238350033:4.8218058642045474] [-3.7459101872100122:4.0559837083584718] [-3.3610060897824376:3.8023109235959085] [-3.0466450099755384:4.3173354379831634] [-3.0478062470722378:3.2664954043803216] [-2.8034137138169091:3.6520801094808255] [-3.35254371905146:4.3577872109128171] [-3.1247887413900051:4.0430937771577993] [-3.1861616146300986:4.2818562122709816] [-3.2965779464425458:4.0273043573648355] [-3.4953420517792826:3.9474988380486367] [-3.8527183751937932:2.6137648611508366] [-3.1576676325422945:2.970756196761565] [-3.0779883909655004:3.8434938103731993] [-3.2620831954971048:3.5525057444781827] [-3.1364672713535802:3.7486927740412859] [-3.3734377044078538:3.2650144633274549] [-3.7112411456715386:3.5073455261944035] [-3.1581313302638541:3.1080684242794652] [-3.6753041696498889:3.4099449825275134] [-3.0018162094641965:3.4400853178092463] [-3.1299322271421848:3.1762472524024621] [-2.8585176394716876:4.7920214129096319] [-2.9412661680289194:3.3066663873372018] [-3.6087699128501245:5.5064468083245188] [-4.0126479854160877:5.6360877408750163] [-3.6660186051103199:5.3560005626428522] [-3.4018718206780933:3.6222115913822832] [-6.4242723198278178:6.4913509505460967] [-3.7483146378597207:3.954443862780332] [-3.1154447876263722:5.856909138429284] [-3.8211855187463875:4.6441284347536236] [-2.7878400094548321:3.8325578730017593] [-3.1904125611045102:4.9190570643003975] [-3.6834017584226042:4.3500891222817364] [-3.3233605607997712:2.5963774139107842] [-2.7986883906949265:3.3625657495912398] [-3.4004185337589075:2.9522904947054016] [-3.9578481206430651:3.7985255084619092] [-3.9985674998576379:4.7264962389251055] [-3.59014429337287:3.7354549461792677] [-2.9897739386269158:3.4579769419569879] [-3.3537121592227179:5.5539805020361479] [-2.5368566301568554:3.3634354836620601] [-2.8750156748609221:4.0359019385072168] [-3.0500507170067905:3.3874929132476357] [-3.1228774804737633:3.7922880343963423] [-3.0497637107070217:3.8353108742731501] [-4.2956946395114946:5.3073868446605408] [-3.3178981168016306:3.7380841022457822] [-2.8173505515764927:3.8578296205054521] [-3.0585895115722304:3.7223219270305092] [-3.0883288210113209:3.4174988813968112] [-3.0610382496178143:3.2491054145778162] [-3.0243485619326007:3.8178786404037819] [-3.4806021458934033:4.3553403696221284] [-3.2058025418360696:4.0481905545422441] [-4.377849665508271:4.2672388622314603] [-3.7131836789598296:2.6953945201684681] [-4.1534284464445337:5.6585661497071396] [-2.8747316029652237:3.7741515343139231] [-2.7205177447727227:3.4160600530212011] [-3.9790072076382925:4.0351593439930458] [-4.1254315372413437:3.5037819582709022] [-3.8280445090819466:3.7375318012807774] [-3.5847921672284251:4.1978395201164318] [-4.4744978519694847:4.803662422856565] [-3.3976192855963521:3.1469769641843088] [-3.6172077571328147:3.1085663274948776] [-3.1825322456048282:4.3476693924147947] [-3.4443134667517361:4.4537484784813879] [-3.2510089160385283:3.4036879786452769] [-2.4405250869729112:3.4050746983461262] [-3.2386476942152504:3.5555742500705869] [-3.8288843226865081:2.6332688803599038] [-2.8063819577152573:3.4369032111294642] [-3.1127651162013463:3.0840489759250143] [-3.8255885575539494:4.425253853527753] [-2.9271118659641897:4.1752325149665674] [-3.2404612469581959:4.9215880848222184] [-3.8445809342984347:4.046025099100623] [-3.3587948175126168:3.4627502732089406] [-3.7059767758415934:3.4732563097995812] [-3.6724060348663357:3.2769753146299312] [-3.259498063376514:3.7801386631195846] [-3.2508090303996182:4.3509126969169563] [-2.9530111290211121:4.4460700643787332] [-3.4953529237766565:3.6092736377944323] [-2.4715601522097739:3.8112141722456339] [-2.9141432029116738:3.2540734253408563] [-2.6833289436716758:3.5957424150987776] [-4.5214323726221002:3.0327529430587234] [-3.2249756717014262:3.9220714263614198] [-3.0107695201064213:3.7057071746733299] [-3.0478247929383073:4.0978886644495907] [-3.5229964264081453:3.9585513749047925] [-3.5265050176080539:4.9436266595420486] [-3.8005691250193476:4.5118145348696679] [-3.238887536307216:3.265687690450255] [-2.7872248482628375:3.4677753246681773] [-2.7290917363006386:4.4482661444266336] [-3.9268765750052905:3.0995031219433251] [-3.5763016464900059:4.7131968571934788] [-3.2485616946005718:3.6959158650678328] [-2.7137325877614131:2.9285921610824532] [-3.1605517920459101:3.726398901090461] [-2.7618203059439548:3.6195742454000079] [-3.3523520853843771:3.9031601343522837] [-2.72379178664458:3.5024730127483985] [-3.1178182776455419:3.12624190285384] [-3.2703020183075404:3.0074568209679349] [-2.7289337982484136:4.2491921590484587] [-2.5257371380594562:3.3592674419368791] [-3.4061421158337435:4.1320566867142228] [-2.9937548270245826:4.3481571062770579] [-2.8822908499016622:3.4408838382628897] [-3.2631102868383262:3.4121539307950806] [-3.0560744544017879:3.932716555810591] [-0.9822226415419697:2.4969245120840147] [-0.75955452531274892:1.3165611772087649] [-0.72987004348297091:1.3701069237311911] [-0.30550504633038988:3.2732683535398914] [-0.30550504633038988:3.2732683535398914] [-0.1773317255329768:5.6391488719486622] none [-0.21115394209236593:4.7358812726430637] [-0.17733172553297716:5.6391488719486729]
tree_sizes=1462 1818

Tree=0
num_leaves=13
num_cat=0
split_feature=18 6 27 73 21 30 88 96 93 79 0 61
split_gain=60.9521 71.3658 65.2429 58.8026 43.4346 79.8603 43.0258 40.1604 23.491 3.48349 7.10543e-15 3.55271e-15
threshold=-0.69285135767307005 -1.7946405203711453 -1.3402454154513535 0.72810094761068622 0.91314769475144042 -0.16788690261053349 0.15427354198862234 0.070112116700818641 0.81540695393047313 -2.0978891224993013 0.88995064171644833 -1.0000000180025095e-35
decision_type=2 2 2 2 2 2 2 2 2 2 2 2
left_child=9 6 3 8 7 -6 -2 -4 -3 -1 -11 -12
right_child=1 2 4 -5 5 -7 -8 -9 -10 10 11 -13
leaf_value=-1.2533691873065012 -1.0262973209412736 -1.0262973194480176 -1.2436723808595587 -1.3152978790940242 -1.3152978791487091 -1.1082527033718976 -1.2256080500329261 -1.3022011773939874 -1.1962976496495945 -1.3152978794455708 -1.3152978787659142 -1.3152978799142994
leaf_weight=2.4221407175064078 5.8823417425155622 6.5743819475173932 60.034487783908844 3.6332110762596121 7.785452306270602 11.591673433780668 5.0172914862632751 57.26632696390152 2.941170871257782 25.432477533817291 5.1903015375137329 5.7093316912651044
leaf_count=4 5 8 82 5 11 16 6 70 5 36 6 8
internal_value=-1.25514 -1.24157 -1.25056 -1.14418 -1.26079 -1.19144 -1.11804 -1.27225 -1.07884 -1.31143 -1.3153 -1.3153
internal_weight=199.481 160.726 149.827 13.1488 136.678 19.3771 10.8996 117.301 9.51555 38.7543 36.3321 10.8996
internal_count=262 208 197 18 179 27 11 152 13 54 50 14
is_linear=0
shrinkage=1


Tree=1
num_leaves=16
num_cat=0
split_feature=18 80 66 44 81 117 7 17 45 4 120 21 79 1 18
split_gain=56.6969 58.2017 58.1571 79.3492 44.1956 53.8218 59.6802 41.8084 13.5345 10.1057 3.5679 0.00204315 0.000412064 1.42109e-14 7.10543e-15
threshold=-0.69285135767307005 -0.83341856871031006 0.72233563581584292 0.81998897911036783 -0.54647141635470375 -0.69548196817965879 0.55454159672212333 0.85589183068713781 1.1375626568550885 0.74854356386251086 -1.8042230694178623 1.0408632446695811 -1.8117884383398759 -0.81342711952564695 -1.1488431510830253
decision_type=2 2 2 2 2 2 2 2 2 2 2 2 2 2 2
left_child=10 2 3 7 8 9 -7 -2 11 -6 -1 -3 -12 -14 -15
right_child=1 4 -4 -5 5 6 -8 -9 -10 -11 12 -13 13 14 -16
leaf_value=0.00012809721063245853 -0.063993632971823852 -0.064047744518286806 0.20274346367465457 0.21207325478661643 -0.063805912021400166 0.0041320345161740997 0.10259991904591477 0.11512259332963422 0.04271030099637884 0.022003871406490183 -0.064098354783398245 -0.065170336238768417 -0.063419717846273066 -0.063419720172177618 -0.063419718145542758
leaf_weight=2.3534343242645255 12.464420974254617 26.18263399600983 6.6841079592704764 4.8620249629020682 21.693074285984043 51.063226044178009 22.02528977394104 4.4107162952423087 3.2716729640960684 4.0757228732109061 2.401073455810546 4.7955714464187613 4.8379657864570609 11.511021733283995 16.348987817764286
leaf_count=3 15 35 7 5 26 68 28 5 5 6 4 8 8 16 23
internal_value=-0.00404218 0.00880949 0.0737615 0.0340999 -0.00505916 0.0118992 0.0338054 -0.0171774 -0.054007 -0.0502338 -0.05947 -0.0642215 -0.0634661 -0.0634197 -0.0634197
internal_weight=198.981 161.528 28.4213 21.7372 133.107 98.8573 73.0885 16.8751 34.2499 25.7688 37.4525 30.9782 35.099 32.698 27.86
internal_count=262 208 32 25 176 128 96 20 48 32 54 43 51 47 39
is_linear=0
shrinkage=0.05


end of trees

feature_importances:
Column_18=3
Column_21=2
Column_79=2
Column_0=1
Column_1=1
Column_4=1
Column_6=1
Column_7=1
Column_17=1
Column_27=1
Column_30=1
Column_44=1
Column_45=1
Column_61=1
Column_66=1
Column_73=1
Column_80=1
Column_81=1
Column_88=1
Column_93=1
Column_96=1
Column_117=1
Column_120=1

parameters:
[boosting: gbdt]
[objective: binary]
[metric: auc]
[tree_learner: serial]
[device_type: cpu]
[data_sample_strategy: bagging]
[data: ]
[valid: ]
[num_iterations: 100]
[learning_rate: 0.05]
[num_leaves: 31]
[num_threads: 0]
[seed: 0]
[deterministic: 0]
[force_col_wise: 0]
[force_row_wise: 0]
[histogram_pool_size: -1]
[max_depth: 5]
[min_data_in_leaf: 5]
[min_sum_hessian_in_leaf: 0.001]
[bagging_fraction: 0.8]
[pos_bagging_fraction: 1]
[neg_bagging_fraction: 1]
[bagging_freq: 5]
[bagging_seed: 3]
[bagging_by_query: 0]
[feature_fraction: 0.8]
[feature_fraction_bynode: 1]
[feature_fraction_seed: 2]
[extra_trees: 0]
[extra_seed: 6]
[early_stopping_round: 0]
[early_stopping_min_delta: 0]
[first_metric_only: 0]
[max_delta_step: 0]
[lambda_l1: 0]
[lambda_l2: 0]
[linear_lambda: 0]
[min_gain_to_split: 0]
[drop_rate: 0.1]
[max_drop: 50]
[skip_drop: 0.5]
[xgboost_dart_mode: 0]
[uniform_drop: 0]
[drop_seed: 4]
[top_rate: 0.2]
[other_rate: 0.1]
[min_data_per_group: 100]
[max_cat_threshold: 32]
[cat_l2: 10]
[cat_smooth: 10]
[max_cat_to_onehot: 4]
[top_k: 20]
[monotone_constraints: ]
[monotone_constraints_method: basic]
[monotone_penalty: 0]
[feature_contri: ]
[forcedsplits_filename: ]
[refit_decay_rate: 0.9]
[cegb_tradeoff: 1]
[cegb_penalty_split: 0]
[cegb_penalty_feature_lazy: ]
[cegb_penalty_feature_coupled: ]
[path_smooth: 0]
[interaction_constraints: ]
[verbosity: -1]
[saved_feature_importance_type: 0]
[use_quantized_grad: 0]
[num_grad_quant_bins: 4]
[quant_train_renew_leaf: 0]
[stochastic_rounding: 1]
[linear_tree: 0]
[max_bin: 255]
[max_bin_by_feature: ]
[min_data_in_bin: 3]
[bin_construct_sample_cnt: 200000]
[data_random_seed: 1]
[is_enable_sparse: 1]
[enable_bundle: 1]
[use_missing: 1]
[zero_as_missing: 0]
[feature_pre_filter: 1]
[pre_partition: 0]
[two_round: 0]
[header: 0]
[label_column: ]
[weight_column: ]
[group_column: ]
[ignore_column: ]
[categorical_feature: ]
[forcedbins_filename: ]
[precise_float_parser: 0]
[parser_config_file: ]
[objective_seed: 5]
[num_class: 1]
[is_unbalance: 0]
[scale_pos_weight: 1]
[sigmoid: 1]
[boost_from_average: 1]
[reg_sqrt: 0]
[alpha: 0.9]
[fair_c: 1]
[poisson_max_delta_step: 0.7]
[tweedie_variance_power: 1.5]
[lambdarank_truncation_level: 30]
[lambdarank_norm: 1]
[label_gain: ]
[lambdarank_position_bias_regularization: 0]
[eval_at: ]
[multi_error_top_k: 1]
[auc_mu_weights: ]
[num_machines: 1]
[local_listen_port: 12400]
[time_out: 120]
[machine_list_filename: ]
[machines: ]
[gpu_platform_id: -1]
[gpu_device_id: -1]
[gpu_use_dp: 0]
[num_gpu: 1]

end of parameters

pandas_categorical:null
